~o
<STREAMINFO> 1 52
<VECSIZE> 52<NULLD><USER><DIAGC>
~h "in"
<BEGINHMM>
<NUMSTATES> 20
<STATE> 2
<NUMMIXES> 3
<MIXTURE> 1 2.500000e-01
<MEAN> 52
 5.741946e+01 2.287367e+02 1.558850e+02 1.159369e+03 8.060039e+01 9.810801e+02 7.392333e+01 1.046881e+03 6.985303e+01 8.651399e+02 6.096711e+01 8.631354e+02 -5.069464e+01 2.620778e+02 -8.683892e+01 1.348568e+03 -2.014581e+01 1.445213e+03 -9.912922e+00 1.626255e+03 -7.388008e+00 1.389036e+03 -7.376415e+00 1.341150e+03 1.994855e+02 3.452214e+01 2.118931e-02 6.119792e-02 1.053763e-01 6.440142e-01 2.243057e-01 6.384297e-01 3.342085e-01 7.362361e-01 3.496928e-01 6.714023e-01 2.725913e-01 6.045612e-01 2.428904e-02 6.108594e-02 1.219146e-01 6.205820e-01 3.068921e-01 4.555532e-01 6.013144e-01 6.011124e-01 4.885734e-01 8.246039e-01 3.380541e-01 6.863039e-01 7.296215e-01 1.965788e+00
<VARIANCE> 52
 1.300905e+02 6.955806e+03 1.582432e+03 2.044091e+05 2.564967e+03 3.764092e+05 3.737219e+03 5.348398e+05 3.645516e+03 4.141020e+05 2.586273e+03 3.682405e+05 2.374780e+02 5.869127e+03 1.568692e+03 1.062495e+05 1.818608e+03 4.614612e+05 2.241539e+03 7.548616e+05 1.700903e+03 6.741908e+05 1.265553e+03 5.645449e+05 3.267778e+04 4.005056e+05 2.098930e-03 3.057204e-02 5.492723e-02 1.659989e+00 2.178313e-01 3.718874e+00 6.394987e-01 7.742059e+00 6.246706e-01 8.310033e+00 3.866007e-01 5.913947e+00 3.763218e-03 2.417360e-02 1.155902e-01 1.124783e+00 4.237131e-01 2.476430e+00 1.518070e+00 5.375576e+00 1.017426e+00 9.411592e+00 5.066914e-01 6.589052e+00 4.936546e+00 2.098940e+01
<GCONST> 3.429334e+02
<MIXTURE> 2 5.000000e-01
<MEAN> 52
 5.057603e+01 1.786958e+02 1.320171e+02 8.880990e+02 5.021308e+01 6.129669e+02 3.724365e+01 6.080846e+02 3.362616e+01 4.790353e+02 3.045387e+01 4.990385e+02 -5.994083e+01 2.161116e+02 -1.106029e+02 1.152992e+03 -4.573289e+01 1.037627e+03 -3.831986e+01 1.104958e+03 -3.213321e+01 8.963807e+02 -2.872118e+01 8.903326e+02 9.102351e+01 -3.451909e+02 -6.299136e-03 -4.371125e-02 -3.524305e-02 -1.290291e-01 -5.572864e-02 -5.186332e-01 -1.456034e-01 -9.332373e-01 -1.245238e-01 -1.058225e+00 -1.004721e-01 -8.545554e-01 -1.251800e-02 -3.220123e-02 -8.207674e-02 -1.575278e-02 -8.366742e-02 -4.886474e-01 -1.379455e-01 -7.900050e-01 -1.166318e-01 -1.016095e+00 -8.903944e-02 -8.538451e-01 -6.034789e-01 -7.830632e-01
<VARIANCE> 52
 1.300905e+02 6.955806e+03 1.582432e+03 2.044091e+05 2.564967e+03 3.764092e+05 3.737219e+03 5.348398e+05 3.645516e+03 4.141020e+05 2.586273e+03 3.682405e+05 2.374780e+02 5.869127e+03 1.568692e+03 1.062495e+05 1.818608e+03 4.614612e+05 2.241539e+03 7.548616e+05 1.700903e+03 6.741908e+05 1.265553e+03 5.645449e+05 3.267778e+04 4.005056e+05 2.098930e-03 3.057204e-02 5.492723e-02 1.659989e+00 2.178313e-01 3.718874e+00 6.394987e-01 7.742059e+00 6.246706e-01 8.310033e+00 3.866007e-01 5.913947e+00 3.763218e-03 2.417360e-02 1.155902e-01 1.124783e+00 4.237131e-01 2.476430e+00 1.518070e+00 5.375576e+00 1.017426e+00 9.411592e+00 5.066914e-01 6.589052e+00 4.936546e+00 2.098940e+01
<GCONST> 3.429334e+02
<MIXTURE> 3 2.500000e-01
<MEAN> 52
 5.285717e+01 1.953761e+02 1.399731e+02 9.785223e+02 6.034218e+01 7.356713e+02 4.947021e+01 7.543501e+02 4.570178e+01 6.077368e+02 4.062495e+01 6.204041e+02 -5.685877e+01 2.314337e+02 -1.026816e+02 1.218184e+03 -3.720387e+01 1.173489e+03 -2.885088e+01 1.278724e+03 -2.388481e+01 1.060599e+03 -2.160626e+01 1.040605e+03 1.271775e+02 -2.186199e+02 2.863680e-03 -8.741528e-03 1.163007e-02 1.286520e-01 3.761616e-02 -1.329456e-01 1.433387e-02 -3.767462e-01 3.354838e-02 -4.816828e-01 2.388237e-02 -3.681832e-01 -2.489900e-04 -1.105508e-03 -1.407962e-02 1.963588e-01 4.651907e-02 -1.739139e-01 1.084745e-01 -3.262992e-01 8.510324e-02 -4.025288e-01 5.332507e-02 -3.404621e-01 -1.591121e-01 1.332207e-01
<VARIANCE> 52
 1.300905e+02 6.955806e+03 1.582432e+03 2.044091e+05 2.564967e+03 3.764092e+05 3.737219e+03 5.348398e+05 3.645516e+03 4.141020e+05 2.586273e+03 3.682405e+05 2.374780e+02 5.869127e+03 1.568692e+03 1.062495e+05 1.818608e+03 4.614612e+05 2.241539e+03 7.548616e+05 1.700903e+03 6.741908e+05 1.265553e+03 5.645449e+05 3.267778e+04 4.005056e+05 2.098930e-03 3.057204e-02 5.492723e-02 1.659989e+00 2.178313e-01 3.718874e+00 6.394987e-01 7.742059e+00 6.246706e-01 8.310033e+00 3.866007e-01 5.913947e+00 3.763218e-03 2.417360e-02 1.155902e-01 1.124783e+00 4.237131e-01 2.476430e+00 1.518070e+00 5.375576e+00 1.017426e+00 9.411592e+00 5.066914e-01 6.589052e+00 4.936546e+00 2.098940e+01
<GCONST> 3.429334e+02
<STATE> 3
<NUMMIXES> 3
<MIXTURE> 1 2.500000e-01
<MEAN> 52
 5.800271e+01 2.323565e+02 1.553860e+02 1.178400e+03 8.719884e+01 9.701141e+02 8.304428e+01 1.013211e+03 8.039429e+01 8.241113e+02 6.997050e+01 8.297262e+02 -5.131184e+01 2.647632e+02 -8.692612e+01 1.358807e+03 -2.078341e+01 1.429249e+03 -1.053141e+01 1.598326e+03 -8.360726e+00 1.354259e+03 -8.156742e+00 1.311012e+03 2.238754e+02 3.063541e+01 4.113016e-02 5.638883e-02 1.638409e-01 7.102450e-01 2.981463e-01 1.272157e+00 5.569841e-01 1.905124e+00 7.268804e-01 1.727731e+00 6.556778e-01 1.448239e+00 2.234660e-02 5.891885e-02 1.234477e-01 5.298636e-01 4.308256e-01 7.841882e-01 7.503793e-01 1.260207e+00 6.159683e-01 1.474112e+00 4.742905e-01 1.213776e+00 1.193310e+00 5.062489e+00
<VARIANCE> 52
 1.374421e+02 6.953230e+03 1.453925e+03 2.041539e+05 3.145186e+03 3.404052e+05 4.817605e+03 4.612680e+05 4.873730e+03 3.456535e+05 3.479156e+03 3.113032e+05 2.198654e+02 5.715798e+03 1.409906e+03 1.003307e+05 1.862641e+03 4.240950e+05 2.282717e+03 6.866270e+05 1.855226e+03 5.956785e+05 1.372237e+03 4.995568e+05 4.094422e+04 3.167959e+05 7.814066e-03 1.220559e-02 1.336590e-01 2.267101e+00 5.597994e-01 1.405541e+01 1.901478e+00 4.135115e+01 2.696460e+00 4.771571e+01 2.006949e+00 3.048043e+01 3.385284e-03 1.446799e-02 5.907972e-02 9.296030e-01 7.052132e-01 1.025692e+01 2.164199e+00 2.857439e+01 1.682877e+00 3.458092e+01 9.731608e-01 2.358992e+01 1.089992e+01 1.312636e+02
<GCONST> 3.648237e+02
<MIXTURE> 2 5.000000e-01
<MEAN> 52
 5.096856e+01 1.823249e+02 1.325078e+02 9.072996e+02 5.354966e+01 6.200487e+02 4.139891e+01 6.057109e+02 3.850703e+01 4.713575e+02 3.457988e+01 4.949589e+02 -6.020855e+01 2.194014e+02 -1.094553e+02 1.168757e+03 -4.667841e+01 1.038514e+03 -3.919809e+01 1.101148e+03 -3.420413e+01 8.911776e+02 -3.038297e+01 8.869364e+02 1.024673e+02 -3.070724e+02 -1.190816e-02 -9.898513e-03 -5.551548e-02 -1.931688e-01 -1.507721e-01 -9.772756e-01 -2.703804e-01 -1.953168e+00 -2.583738e-01 -2.416862e+00 -1.943232e-01 -1.864306e+00 -1.256332e-02 -1.325092e-02 -2.239018e-02 -4.863195e-02 -7.303628e-02 -1.137398e+00 -1.322937e-01 -1.947094e+00 -1.623862e-01 -2.054220e+00 -1.176030e-01 -1.700392e+00 -7.875921e-01 -1.811731e+00
<VARIANCE> 52
 1.374421e+02 6.953230e+03 1.453925e+03 2.041539e+05 3.145186e+03 3.404052e+05 4.817605e+03 4.612680e+05 4.873730e+03 3.456535e+05 3.479156e+03 3.113032e+05 2.198654e+02 5.715798e+03 1.409906e+03 1.003307e+05 1.862641e+03 4.240950e+05 2.282717e+03 6.866270e+05 1.855226e+03 5.956785e+05 1.372237e+03 4.995568e+05 4.094422e+04 3.167959e+05 7.814066e-03 1.220559e-02 1.336590e-01 2.267101e+00 5.597994e-01 1.405541e+01 1.901478e+00 4.135115e+01 2.696460e+00 4.771571e+01 2.006949e+00 3.048043e+01 3.385284e-03 1.446799e-02 5.907972e-02 9.296030e-01 7.052132e-01 1.025692e+01 2.164199e+00 2.857439e+01 1.682877e+00 3.458092e+01 9.731608e-01 2.358992e+01 1.089992e+01 1.312636e+02
<GCONST> 3.648237e+02
<MIXTURE> 3 2.500000e-01
<MEAN> 52
 5.331328e+01 1.990021e+02 1.401339e+02 9.976663e+02 6.476605e+01 7.367372e+02 5.528070e+01 7.415443e+02 5.246945e+01 5.889421e+02 4.637675e+01 6.065480e+02 -5.724298e+01 2.345220e+02 -1.019456e+02 1.232107e+03 -3.804674e+01 1.168759e+03 -2.964253e+01 1.266874e+03 -2.558966e+01 1.045538e+03 -2.297423e+01 1.028295e+03 1.429367e+02 -1.945031e+02 5.771277e-03 1.219727e-02 1.760333e-02 1.079691e-01 -1.132652e-03 -2.274646e-01 5.407751e-03 -6.670707e-01 7.004428e-02 -1.035331e+00 8.901048e-02 -7.601244e-01 -9.266818e-04 1.080567e-02 2.622246e-02 1.441999e-01 9.491767e-02 -4.968689e-01 1.619306e-01 -8.779937e-01 9.706527e-02 -8.781094e-01 7.969485e-02 -7.290024e-01 -1.272915e-01 4.796758e-01
<VARIANCE> 52
 1.374421e+02 6.953230e+03 1.453925e+03 2.041539e+05 3.145186e+03 3.404052e+05 4.817605e+03 4.612680e+05 4.873730e+03 3.456535e+05 3.479156e+03 3.113032e+05 2.198654e+02 5.715798e+03 1.409906e+03 1.003307e+05 1.862641e+03 4.240950e+05 2.282717e+03 6.866270e+05 1.855226e+03 5.956785e+05 1.372237e+03 4.995568e+05 4.094422e+04 3.167959e+05 7.814066e-03 1.220559e-02 1.336590e-01 2.267101e+00 5.597994e-01 1.405541e+01 1.901478e+00 4.135115e+01 2.696460e+00 4.771571e+01 2.006949e+00 3.048043e+01 3.385284e-03 1.446799e-02 5.907972e-02 9.296030e-01 7.052132e-01 1.025692e+01 2.164199e+00 2.857439e+01 1.682877e+00 3.458092e+01 9.731608e-01 2.358992e+01 1.089992e+01 1.312636e+02
<GCONST> 3.648237e+02
<STATE> 4
<NUMMIXES> 3
<MIXTURE> 1 2.500000e-01
<MEAN> 52
 5.799540e+01 2.351849e+02 1.561616e+02 1.203926e+03 8.650183e+01 9.477520e+02 8.156435e+01 9.698246e+02 7.873418e+01 7.708249e+02 6.895240e+01 7.839047e+02 -5.174009e+01 2.676763e+02 -8.703028e+01 1.373700e+03 -1.950955e+01 1.459685e+03 -9.189455e+00 1.642546e+03 -7.007877e+00 1.391486e+03 -6.904992e+00 1.343998e+03 2.087801e+02 1.717358e+01 2.209949e-02 8.515697e-02 1.235933e-01 9.724830e-01 2.597304e-01 1.579144e+00 3.907530e-01 2.845373e+00 4.714062e-01 2.821998e+00 4.276020e-01 2.082932e+00 1.496600e-02 5.023421e-02 1.440855e-01 4.245112e-01 3.709320e-01 3.886837e-01 5.207034e-01 6.618965e-01 5.092561e-01 8.647855e-01 3.956110e-01 7.493814e-01 7.164911e-01 6.078652e+00
<VARIANCE> 52
 1.385100e+02 7.182188e+03 1.476788e+03 2.152243e+05 3.097831e+03 3.020498e+05 4.655355e+03 3.905699e+05 4.657167e+03 2.744867e+05 3.357479e+03 2.508379e+05 2.348187e+02 5.914159e+03 1.436623e+03 1.040777e+05 1.592929e+03 4.638686e+05 1.990089e+03 7.585085e+05 1.527679e+03 6.462995e+05 1.138362e+03 5.394300e+05 3.528291e+04 2.717161e+05 3.222469e-03 3.726288e-02 7.118773e-02 2.397021e+00 5.282990e-01 2.423030e+01 1.506877e+00 8.206955e+01 1.912506e+00 1.042828e+02 1.407976e+00 6.228627e+01 2.049039e-03 8.923956e-03 1.064736e-01 4.648501e-01 4.757788e-01 4.206195e+00 8.458553e-01 1.310956e+01 8.653629e-01 1.872055e+01 5.504363e-01 1.270827e+01 8.471485e+00 1.841361e+02
<GCONST> 3.585156e+02
<MIXTURE> 2 5.000000e-01
<MEAN> 52
 5.093398e+01 1.843362e+02 1.331042e+02 9.255724e+02 5.310694e+01 6.179977e+02 4.062626e+01 5.948510e+02 3.778812e+01 4.564760e+02 3.418615e+01 4.834024e+02 -6.093437e+01 2.215342e+02 -1.097720e+02 1.180134e+03 -4.345646e+01 1.051037e+03 -3.595570e+01 1.119991e+03 -3.045920e+01 9.091295e+02 -2.714877e+01 9.033222e+02 9.607761e+01 -2.955848e+02 -1.196059e-02 -3.066460e-02 -3.649290e-02 4.354408e-02 -1.763747e-01 -1.374313e+00 -3.457765e-01 -2.590161e+00 -3.583541e-01 -3.305139e+00 -2.843470e-01 -2.652367e+00 -1.219378e-02 -6.445808e-03 -5.169628e-02 1.543166e-02 -4.292828e-02 -8.418569e-01 -3.111888e-02 -1.510531e+00 -4.889327e-02 -1.731250e+00 -4.953738e-02 -1.389538e+00 -1.029858e+00 -2.063154e+00
<VARIANCE> 52
 1.385100e+02 7.182188e+03 1.476788e+03 2.152243e+05 3.097831e+03 3.020498e+05 4.655355e+03 3.905699e+05 4.657167e+03 2.744867e+05 3.357479e+03 2.508379e+05 2.348187e+02 5.914159e+03 1.436623e+03 1.040777e+05 1.592929e+03 4.638686e+05 1.990089e+03 7.585085e+05 1.527679e+03 6.462995e+05 1.138362e+03 5.394300e+05 3.528291e+04 2.717161e+05 3.222469e-03 3.726288e-02 7.118773e-02 2.397021e+00 5.282990e-01 2.423030e+01 1.506877e+00 8.206955e+01 1.912506e+00 1.042828e+02 1.407976e+00 6.228627e+01 2.049039e-03 8.923956e-03 1.064736e-01 4.648501e-01 4.757788e-01 4.206195e+00 8.458553e-01 1.310956e+01 8.653629e-01 1.872055e+01 5.504363e-01 1.270827e+01 8.471485e+00 1.841361e+02
<GCONST> 3.585156e+02
<MIXTURE> 3 2.500000e-01
<MEAN> 52
 5.328779e+01 2.012858e+02 1.407900e+02 1.018357e+03 6.423857e+01 7.279158e+02 5.427229e+01 7.198422e+02 5.143681e+01 5.612590e+02 4.577490e+01 5.835699e+02 -5.786961e+01 2.369149e+02 -1.021914e+02 1.244656e+03 -3.547416e+01 1.187253e+03 -2.703362e+01 1.294176e+03 -2.264209e+01 1.069915e+03 -2.040084e+01 1.050214e+03 1.336451e+02 -1.913320e+02 -6.072279e-04 7.942587e-03 1.686916e-02 3.531904e-01 -3.100634e-02 -3.898268e-01 -1.002667e-01 -7.783165e-01 -8.176732e-02 -1.262760e+00 -4.703069e-02 -1.073934e+00 -3.140520e-03 1.244753e-02 1.356431e-02 1.517915e-01 9.502517e-02 -4.316767e-01 1.528219e-01 -7.863886e-01 1.371565e-01 -8.659046e-01 9.884542e-02 -6.765651e-01 -4.477415e-01 6.507816e-01
<VARIANCE> 52
 1.385100e+02 7.182188e+03 1.476788e+03 2.152243e+05 3.097831e+03 3.020498e+05 4.655355e+03 3.905699e+05 4.657167e+03 2.744867e+05 3.357479e+03 2.508379e+05 2.348187e+02 5.914159e+03 1.436623e+03 1.040777e+05 1.592929e+03 4.638686e+05 1.990089e+03 7.585085e+05 1.527679e+03 6.462995e+05 1.138362e+03 5.394300e+05 3.528291e+04 2.717161e+05 3.222469e-03 3.726288e-02 7.118773e-02 2.397021e+00 5.282990e-01 2.423030e+01 1.506877e+00 8.206955e+01 1.912506e+00 1.042828e+02 1.407976e+00 6.228627e+01 2.049039e-03 8.923956e-03 1.064736e-01 4.648501e-01 4.757788e-01 4.206195e+00 8.458553e-01 1.310956e+01 8.653629e-01 1.872055e+01 5.504363e-01 1.270827e+01 8.471485e+00 1.841361e+02
<GCONST> 3.585156e+02
<STATE> 5
<NUMMIXES> 3
<MIXTURE> 1 2.500000e-01
<MEAN> 52
 5.789595e+01 2.327628e+02 1.597211e+02 1.211685e+03 8.186413e+01 8.853384e+02 7.521647e+01 8.891907e+02 7.327569e+01 6.899743e+02 6.440943e+01 7.088826e+02 -5.217885e+01 2.665374e+02 -8.718455e+01 1.379156e+03 -1.952830e+01 1.414779e+03 -8.659848e+00 1.578199e+03 -6.426775e+00 1.325700e+03 -6.707728e+00 1.284807e+03 2.093014e+02 9.049606e+00 2.637640e-02 7.800228e-02 2.001776e-01 1.583896e+00 3.500874e-01 2.386097e+00 5.156583e-01 3.359272e+00 5.834811e-01 2.869978e+00 8.486851e-01 2.520904e+00 1.918926e-02 5.037421e-02 8.570395e-02 7.586012e-01 8.139200e-01 1.232923e+00 1.531437e+00 1.504915e+00 1.460778e+00 1.660380e+00 1.132487e+00 1.529422e+00 1.020404e+00 9.109154e+00
<VARIANCE> 52
 1.405911e+02 6.772408e+03 1.666196e+03 2.334014e+05 2.685927e+03 2.435150e+05 3.991464e+03 3.057370e+05 4.085398e+03 2.020559e+05 2.958846e+03 1.846098e+05 2.211909e+02 5.625832e+03 1.541004e+03 1.058140e+05 1.593154e+03 3.956074e+05 2.103764e+03 6.412991e+05 1.854761e+03 5.331096e+05 1.340373e+03 4.457318e+05 3.872156e+04 3.281829e+05 6.500470e-03 2.142360e-02 2.230504e-01 7.873201e+00 8.933935e-01 6.323763e+01 2.173456e+00 1.703136e+02 2.393164e+00 1.749512e+02 4.232210e+00 1.209849e+02 4.120735e-03 9.434197e-03 8.417347e-02 1.657624e+00 2.209214e+00 2.151397e+01 7.336617e+00 4.378589e+01 7.041714e+00 5.093066e+01 4.135314e+00 3.970202e+01 1.664127e+01 5.092949e+02
<GCONST> 3.808445e+02
<MIXTURE> 2 5.000000e-01
<MEAN> 52
 5.078169e+01 1.833861e+02 1.352297e+02 9.218147e+02 5.076857e+01 5.892551e+02 3.730965e+01 5.574298e+02 3.492542e+01 4.202706e+02 3.177227e+01 4.510851e+02 -6.110235e+01 2.215341e+02 -1.107379e+02 1.183982e+03 -4.347690e+01 1.037395e+03 -3.617993e+01 1.097712e+03 -3.226694e+01 8.876143e+02 -2.867439e+01 8.842277e+02 9.123460e+01 -3.346739e+02 -2.199889e-02 -9.818537e-03 -8.319166e-02 -9.965742e-02 -2.170296e-01 -2.385228e+00 -3.689005e-01 -4.470983e+00 -3.447102e-01 -5.066170e+00 -3.856551e-01 -4.078685e+00 -1.932652e-02 -7.903668e-03 -8.837204e-02 -1.389119e-02 -7.788551e-02 -1.550066e+00 -9.373447e-02 -2.465339e+00 -1.313961e-01 -2.621563e+00 -8.764142e-02 -2.251150e+00 -1.427219e+00 -4.431385e+00
<VARIANCE> 52
 1.405911e+02 6.772408e+03 1.666196e+03 2.334014e+05 2.685927e+03 2.435150e+05 3.991464e+03 3.057370e+05 4.085398e+03 2.020559e+05 2.958846e+03 1.846098e+05 2.211909e+02 5.625832e+03 1.541004e+03 1.058140e+05 1.593154e+03 3.956074e+05 2.103764e+03 6.412991e+05 1.854761e+03 5.331096e+05 1.340373e+03 4.457318e+05 3.872156e+04 3.281829e+05 6.500470e-03 2.142360e-02 2.230504e-01 7.873201e+00 8.933935e-01 6.323763e+01 2.173456e+00 1.703136e+02 2.393164e+00 1.749512e+02 4.232210e+00 1.209849e+02 4.120735e-03 9.434197e-03 8.417347e-02 1.657624e+00 2.209214e+00 2.151397e+01 7.336617e+00 4.378589e+01 7.041714e+00 5.093066e+01 4.135314e+00 3.970202e+01 1.664127e+01 5.092949e+02
<GCONST> 3.808445e+02
<MIXTURE> 3 2.500000e-01
<MEAN> 52
 5.315311e+01 1.998450e+02 1.433935e+02 1.018438e+03 6.113375e+01 6.879495e+02 4.994526e+01 6.680168e+02 4.770884e+01 5.101718e+02 4.265132e+01 5.370176e+02 -5.812785e+01 2.365352e+02 -1.028868e+02 1.249040e+03 -3.549403e+01 1.163190e+03 -2.700657e+01 1.257874e+03 -2.365355e+01 1.033643e+03 -2.135217e+01 1.017754e+03 1.305902e+02 -2.200994e+02 -5.873794e-03 1.945507e-02 1.126477e-02 4.615271e-01 -2.799058e-02 -7.947865e-01 -7.404757e-02 -1.860898e+00 -3.531313e-02 -2.420787e+00 2.579165e-02 -1.878822e+00 -6.487927e-03 1.152229e-02 -3.034671e-02 2.436063e-01 2.193830e-01 -6.224031e-01 4.479893e-01 -1.141921e+00 3.993285e-01 -1.194249e+00 3.190680e-01 -9.909596e-01 -6.113448e-01 8.212805e-02
<VARIANCE> 52
 1.405911e+02 6.772408e+03 1.666196e+03 2.334014e+05 2.685927e+03 2.435150e+05 3.991464e+03 3.057370e+05 4.085398e+03 2.020559e+05 2.958846e+03 1.846098e+05 2.211909e+02 5.625832e+03 1.541004e+03 1.058140e+05 1.593154e+03 3.956074e+05 2.103764e+03 6.412991e+05 1.854761e+03 5.331096e+05 1.340373e+03 4.457318e+05 3.872156e+04 3.281829e+05 6.500470e-03 2.142360e-02 2.230504e-01 7.873201e+00 8.933935e-01 6.323763e+01 2.173456e+00 1.703136e+02 2.393164e+00 1.749512e+02 4.232210e+00 1.209849e+02 4.120735e-03 9.434197e-03 8.417347e-02 1.657624e+00 2.209214e+00 2.151397e+01 7.336617e+00 4.378589e+01 7.041714e+00 5.093066e+01 4.135314e+00 3.970202e+01 1.664127e+01 5.092949e+02
<GCONST> 3.808445e+02
<STATE> 6
<NUMMIXES> 3
<MIXTURE> 1 2.500000e-01
<MEAN> 52
 5.692202e+01 2.302044e+02 1.587086e+02 1.203130e+03 7.119243e+01 8.329384e+02 6.105902e+01 8.262827e+02 5.935545e+01 6.331176e+02 5.251277e+01 6.544477e+02 -5.125510e+01 2.638096e+02 -8.734118e+01 1.378543e+03 -1.715579e+01 1.348051e+03 -7.079374e+00 1.490994e+03 -5.466480e+00 1.238630e+03 -5.651462e+00 1.204013e+03 1.567284e+02 -4.172545e+01 2.989604e-02 6.347272e-02 1.142820e-01 1.465595e+00 1.037435e-01 1.859515e+00 1.279601e-01 2.577081e+00 1.486877e-01 2.154026e+00 1.313086e-01 1.822971e+00 1.742831e-02 7.672921e-02 5.313290e-02 4.339836e-01 4.348449e-01 4.105263e-01 6.609982e-01 7.167180e-01 5.653014e-01 6.823702e-01 4.491472e-01 5.317445e-01 3.392978e-01 4.974351e+00
<VARIANCE> 52
 1.308201e+02 7.006828e+03 1.420261e+03 2.256843e+05 1.887999e+03 2.029376e+05 2.619496e+03 2.526995e+05 2.694223e+03 1.619002e+05 1.946908e+03 1.478643e+05 2.430746e+02 5.882971e+03 1.450642e+03 1.122778e+05 9.897722e+02 3.820219e+05 1.082480e+03 6.126368e+05 8.946079e+02 4.970438e+05 6.618037e+02 4.151502e+05 2.076985e+04 9.381700e+04 1.035768e-02 1.609699e-02 7.401165e-02 6.247312e+00 4.653098e-01 2.950846e+01 1.203969e+00 8.639500e+01 1.229857e+00 7.767415e+01 8.741972e-01 5.562265e+01 3.441114e-03 2.415031e-02 3.008765e-02 5.329362e-01 4.970237e-01 3.400984e+00 1.058318e+00 1.177158e+01 8.200274e-01 1.241872e+01 5.313011e-01 7.901134e+00 8.210117e+00 1.514345e+02
<GCONST> 3.488463e+02
<MIXTURE> 2 5.000000e-01
<MEAN> 52
 5.005943e+01 1.799803e+02 1.360967e+02 9.180925e+02 4.512176e+01 5.626469e+02 3.035042e+01 5.246674e+02 2.821191e+01 3.916967e+02 2.603850e+01 4.237289e+02 -6.060961e+01 2.177893e+02 -1.101936e+02 1.177496e+03 -3.603218e+01 9.772031e+02 -2.682001e+01 1.021367e+03 -2.341248e+01 8.156221e+02 -2.108679e+01 8.174198e+02 7.025787e+01 -2.255028e+02 -3.116757e-02 -1.265163e-02 -4.894854e-02 -3.408208e-02 -3.055382e-01 -1.399786e+00 -5.303930e-01 -2.999853e+00 -5.167058e-01 -3.133951e+00 -4.296825e-01 -2.651865e+00 -1.776830e-02 -1.651301e-02 -5.094185e-02 -4.031256e-03 1.184547e-02 -6.959791e-01 4.375073e-02 -1.341866e+00 2.196915e-02 -1.432042e+00 1.180480e-02 -1.154793e+00 -1.379900e+00 -2.409173e+00
<VARIANCE> 52
 1.308201e+02 7.006828e+03 1.420261e+03 2.256843e+05 1.887999e+03 2.029376e+05 2.619496e+03 2.526995e+05 2.694223e+03 1.619002e+05 1.946908e+03 1.478643e+05 2.430746e+02 5.882971e+03 1.450642e+03 1.122778e+05 9.897722e+02 3.820219e+05 1.082480e+03 6.126368e+05 8.946079e+02 4.970438e+05 6.618037e+02 4.151502e+05 2.076985e+04 9.381700e+04 1.035768e-02 1.609699e-02 7.401165e-02 6.247312e+00 4.653098e-01 2.950846e+01 1.203969e+00 8.639500e+01 1.229857e+00 7.767415e+01 8.741972e-01 5.562265e+01 3.441114e-03 2.415031e-02 3.008765e-02 5.329362e-01 4.970237e-01 3.400984e+00 1.058318e+00 1.177158e+01 8.200274e-01 1.241872e+01 5.313011e-01 7.901134e+00 8.210117e+00 1.514345e+02
<GCONST> 3.488463e+02
<MIXTURE> 3 2.500000e-01
<MEAN> 52
 5.234696e+01 1.967217e+02 1.436340e+02 1.013105e+03 5.381198e+01 6.527441e+02 4.058662e+01 6.252058e+02 3.859309e+01 4.721703e+02 3.486326e+01 5.006352e+02 -5.749144e+01 2.331294e+02 -1.025761e+02 1.244512e+03 -2.974005e+01 1.100819e+03 -2.023980e+01 1.177909e+03 -1.743048e+01 9.566248e+02 -1.594168e+01 9.462841e+02 9.908136e+01 -1.642437e+02 -1.081303e-02 1.272315e-02 5.461626e-03 4.658104e-01 -1.691110e-01 -3.133523e-01 -3.109420e-01 -1.140875e+00 -2.949080e-01 -1.371292e+00 -2.426855e-01 -1.160253e+00 -6.036093e-03 1.456773e-02 -1.625027e-02 1.419737e-01 1.528453e-01 -3.271440e-01 2.494999e-01 -6.556714e-01 2.030799e-01 -7.272380e-01 1.575856e-01 -5.926138e-01 -8.068343e-01 5.200171e-02
<VARIANCE> 52
 1.308201e+02 7.006828e+03 1.420261e+03 2.256843e+05 1.887999e+03 2.029376e+05 2.619496e+03 2.526995e+05 2.694223e+03 1.619002e+05 1.946908e+03 1.478643e+05 2.430746e+02 5.882971e+03 1.450642e+03 1.122778e+05 9.897722e+02 3.820219e+05 1.082480e+03 6.126368e+05 8.946079e+02 4.970438e+05 6.618037e+02 4.151502e+05 2.076985e+04 9.381700e+04 1.035768e-02 1.609699e-02 7.401165e-02 6.247312e+00 4.653098e-01 2.950846e+01 1.203969e+00 8.639500e+01 1.229857e+00 7.767415e+01 8.741972e-01 5.562265e+01 3.441114e-03 2.415031e-02 3.008765e-02 5.329362e-01 4.970237e-01 3.400984e+00 1.058318e+00 1.177158e+01 8.200274e-01 1.241872e+01 5.313011e-01 7.901134e+00 8.210117e+00 1.514345e+02
<GCONST> 3.488463e+02
<STATE> 7
<NUMMIXES> 3
<MIXTURE> 1 2.500000e-01
<MEAN> 52
 5.784539e+01 2.382289e+02 1.562601e+02 1.239701e+03 7.494250e+01 9.131703e+02 6.565303e+01 9.215029e+02 6.404530e+01 7.260833e+02 5.620575e+01 7.413761e+02 -5.186025e+01 2.696759e+02 -8.724739e+01 1.402297e+03 -2.045052e+01 1.380052e+03 -1.042272e+01 1.520395e+03 -8.590542e+00 1.261620e+03 -8.488758e+00 1.228088e+03 1.751279e+02 -4.019662e+01 3.342900e-02 9.409869e-02 1.306945e-01 1.070386e+00 1.040283e-01 1.514692e+00 1.412379e-01 2.311579e+00 2.216181e-01 2.687350e+00 1.609398e-01 2.259620e+00 3.411810e-02 5.236064e-02 9.727681e-02 5.565571e-01 4.466848e-01 9.637560e-01 7.795557e-01 1.572832e+00 8.551396e-01 1.501537e+00 6.599244e-01 1.198673e+00 4.638811e-01 4.046045e+00
<VARIANCE> 52
 1.268112e+02 7.241623e+03 1.401180e+03 2.300497e+05 1.869984e+03 2.536496e+05 2.678753e+03 3.269002e+05 2.788982e+03 2.320960e+05 1.944810e+03 2.091669e+05 2.254106e+02 6.159648e+03 1.503676e+03 1.241614e+05 9.750718e+02 3.752946e+05 1.031487e+03 5.843350e+05 9.708940e+02 4.699762e+05 6.931479e+02 3.944157e+05 2.248489e+04 9.148927e+04 6.721948e-03 4.041916e-02 8.621501e-02 5.355772e+00 5.552728e-01 2.485603e+01 1.664256e+00 7.600831e+01 2.021315e+00 8.964523e+01 1.178930e+00 6.075344e+01 4.971140e-03 1.270061e-02 1.054590e-01 1.053598e+00 5.611464e-01 8.172300e+00 1.536828e+00 2.519866e+01 2.127040e+00 2.521192e+01 1.273368e+00 1.591714e+01 1.701210e+01 1.244974e+02
<GCONST> 3.594182e+02
<MIXTURE> 2 5.000000e-01
<MEAN> 52
 5.108876e+01 1.871703e+02 1.338007e+02 9.519200e+02 4.899652e+01 6.109884e+02 3.459903e+01 5.784518e+02 3.235882e+01 4.370252e+02 2.974575e+01 4.669675e+02 -6.086845e+01 2.225858e+02 -1.105138e+02 1.190878e+03 -3.918620e+01 1.012484e+03 -2.969279e+01 1.061744e+03 -2.728605e+01 8.502912e+02 -2.428538e+01 8.512731e+02 8.515808e+01 -2.216798e+02 -1.576349e-02 -2.652842e-02 -4.547985e-02 -3.181669e-01 -3.430715e-01 -1.476657e+00 -6.327984e-01 -2.919386e+00 -6.314197e-01 -2.993520e+00 -4.905315e-01 -2.417049e+00 -8.185685e-03 -1.525756e-02 -9.756989e-02 -5.931246e-02 -2.773404e-03 -7.514783e-01 3.574246e-02 -1.439064e+00 -1.992288e-02 -1.511152e+00 -1.713721e-02 -1.195105e+00 -2.010863e+00 -2.648659e+00
<VARIANCE> 52
 1.268112e+02 7.241623e+03 1.401180e+03 2.300497e+05 1.869984e+03 2.536496e+05 2.678753e+03 3.269002e+05 2.788982e+03 2.320960e+05 1.944810e+03 2.091669e+05 2.254106e+02 6.159648e+03 1.503676e+03 1.241614e+05 9.750718e+02 3.752946e+05 1.031487e+03 5.843350e+05 9.708940e+02 4.699762e+05 6.931479e+02 3.944157e+05 2.248489e+04 9.148927e+04 6.721948e-03 4.041916e-02 8.621501e-02 5.355772e+00 5.552728e-01 2.485603e+01 1.664256e+00 7.600831e+01 2.021315e+00 8.964523e+01 1.178930e+00 6.075344e+01 4.971140e-03 1.270061e-02 1.054590e-01 1.053598e+00 5.611464e-01 8.172300e+00 1.536828e+00 2.519866e+01 2.127040e+00 2.521192e+01 1.273368e+00 1.591714e+01 1.701210e+01 1.244974e+02
<GCONST> 3.594182e+02
<MIXTURE> 3 2.500000e-01
<MEAN> 52
 5.334097e+01 2.041898e+02 1.412872e+02 1.047847e+03 5.764518e+01 7.117157e+02 4.495036e+01 6.928022e+02 4.292097e+01 5.333779e+02 3.856575e+01 5.584370e+02 -5.786572e+01 2.382825e+02 -1.027583e+02 1.261351e+03 -3.294097e+01 1.135007e+03 -2.326943e+01 1.214628e+03 -2.105421e+01 9.874009e+02 -1.901984e+01 9.768781e+02 1.151480e+02 -1.611854e+02 6.340109e-04 1.368062e-02 1.324494e-02 1.446840e-01 -1.940382e-01 -4.795405e-01 -3.747863e-01 -1.175731e+00 -3.470738e-01 -1.099897e+00 -2.733744e-01 -8.581593e-01 5.915578e-03 7.281840e-03 -3.262099e-02 1.459774e-01 1.470460e-01 -1.797335e-01 2.836802e-01 -4.350988e-01 2.717646e-01 -5.069221e-01 2.085500e-01 -3.971790e-01 -1.185948e+00 -4.170914e-01
<VARIANCE> 52
 1.268112e+02 7.241623e+03 1.401180e+03 2.300497e+05 1.869984e+03 2.536496e+05 2.678753e+03 3.269002e+05 2.788982e+03 2.320960e+05 1.944810e+03 2.091669e+05 2.254106e+02 6.159648e+03 1.503676e+03 1.241614e+05 9.750718e+02 3.752946e+05 1.031487e+03 5.843350e+05 9.708940e+02 4.699762e+05 6.931479e+02 3.944157e+05 2.248489e+04 9.148927e+04 6.721948e-03 4.041916e-02 8.621501e-02 5.355772e+00 5.552728e-01 2.485603e+01 1.664256e+00 7.600831e+01 2.021315e+00 8.964523e+01 1.178930e+00 6.075344e+01 4.971140e-03 1.270061e-02 1.054590e-01 1.053598e+00 5.611464e-01 8.172300e+00 1.536828e+00 2.519866e+01 2.127040e+00 2.521192e+01 1.273368e+00 1.591714e+01 1.701210e+01 1.244974e+02
<GCONST> 3.594182e+02
<STATE> 8
<NUMMIXES> 3
<MIXTURE> 1 2.500000e-01
<MEAN> 52
 5.650787e+01 2.305718e+02 1.592805e+02 1.212747e+03 5.948183e+01 8.031059e+02 4.583337e+01 7.883927e+02 4.510928e+01 5.962534e+02 4.013457e+01 6.196362e+02 -5.157680e+01 2.658793e+02 -8.945169e+01 1.393295e+03 -1.611584e+01 1.346176e+03 -5.990522e+00 1.483881e+03 -4.570498e+00 1.224814e+03 -5.017868e+00 1.190585e+03 1.107863e+02 -4.957243e+01 2.782080e-02 4.701732e-02 2.297412e-01 1.150531e+00 1.229387e-01 1.921009e+00 1.276986e-01 3.402295e+00 1.814262e-01 3.829250e+00 1.406228e-01 2.692338e+00 2.659160e-02 6.809931e-02 1.143223e-01 4.847236e-01 5.223228e-01 1.159554e+00 8.279092e-01 2.215204e+00 8.288792e-01 2.315449e+00 6.751677e-01 1.948707e+00 4.663500e-01 5.436726e+00
<VARIANCE> 52
 1.114028e+02 6.695938e+03 1.344331e+03 2.143716e+05 1.042020e+03 1.907011e+05 1.351817e+03 2.372376e+05 1.464056e+03 1.476491e+05 1.035912e+03 1.347690e+05 2.513535e+02 5.828525e+03 1.467677e+03 1.095720e+05 5.736909e+02 3.729236e+05 4.795026e+02 5.955798e+05 3.836997e+02 4.790736e+05 2.906148e+02 3.978826e+05 9.208886e+03 1.154288e+05 7.663061e-03 2.630165e-02 2.517049e-01 6.061459e+00 1.152428e+00 5.779663e+01 2.672384e+00 1.784791e+02 2.855258e+00 2.195490e+02 2.032858e+00 1.150632e+02 4.414512e-03 3.665368e-02 1.140265e-01 1.015433e+00 8.328272e-01 6.861130e+00 1.989511e+00 2.447978e+01 1.933206e+00 2.635626e+01 1.298860e+00 1.850516e+01 2.135930e+01 3.569810e+02
<GCONST> 3.603027e+02
<MIXTURE> 2 5.000000e-01
<MEAN> 52
 5.017502e+01 1.814746e+02 1.372815e+02 9.349454e+02 4.011363e+01 5.410898e+02 2.377313e+01 4.961505e+02 2.215149e+01 3.657025e+02 2.082322e+01 3.993708e+02 -6.108928e+01 2.200724e+02 -1.124379e+02 1.194685e+03 -3.048695e+01 9.797711e+02 -1.912905e+01 1.020838e+03 -1.632345e+01 8.095233e+02 -1.524633e+01 8.121178e+02 5.320852e+01 -2.534213e+02 -2.470255e-02 -5.028938e-02 -7.128000e-02 -3.266706e-01 -5.211685e-01 -2.640437e+00 -8.531470e-01 -4.613470e+00 -8.324243e-01 -5.061062e+00 -7.148472e-01 -3.743713e+00 -1.327348e-02 -4.677161e-02 -8.828457e-02 -1.198886e-01 -2.523343e-02 -4.120712e-01 -1.839095e-02 -7.534188e-01 -5.359471e-03 -7.648518e-01 -8.637473e-03 -6.323500e-01 -2.306617e+00 -5.899638e+00
<VARIANCE> 52
 1.114028e+02 6.695938e+03 1.344331e+03 2.143716e+05 1.042020e+03 1.907011e+05 1.351817e+03 2.372376e+05 1.464056e+03 1.476491e+05 1.035912e+03 1.347690e+05 2.513535e+02 5.828525e+03 1.467677e+03 1.095720e+05 5.736909e+02 3.729236e+05 4.795026e+02 5.955798e+05 3.836997e+02 4.790736e+05 2.906148e+02 3.978826e+05 9.208886e+03 1.154288e+05 7.663061e-03 2.630165e-02 2.517049e-01 6.061459e+00 1.152428e+00 5.779663e+01 2.672384e+00 1.784791e+02 2.855258e+00 2.195490e+02 2.032858e+00 1.150632e+02 4.414512e-03 3.665368e-02 1.140265e-01 1.015433e+00 8.328272e-01 6.861130e+00 1.989511e+00 2.447978e+01 1.933206e+00 2.635626e+01 1.298860e+00 1.850516e+01 2.135930e+01 3.569810e+02
<GCONST> 3.603027e+02
<MIXTURE> 3 2.500000e-01
<MEAN> 52
 5.228597e+01 1.978403e+02 1.446145e+02 1.027546e+03 4.656970e+01 6.284285e+02 3.112654e+01 5.935646e+02 2.980409e+01 4.425528e+02 2.726034e+01 4.727926e+02 -5.791845e+01 2.353414e+02 -1.047758e+02 1.260888e+03 -2.569658e+01 1.101906e+03 -1.474954e+01 1.175186e+03 -1.240580e+01 9.479536e+02 -1.183684e+01 9.382737e+02 7.240111e+01 -1.854717e+02 -7.194765e-03 -1.785381e-02 2.906042e-02 1.657300e-01 -3.064661e-01 -1.119955e+00 -5.261985e-01 -1.941548e+00 -4.944741e-01 -2.097625e+00 -4.296905e-01 -1.598363e+00 1.487788e-05 -8.481305e-03 -2.074895e-02 8.164881e-02 1.572853e-01 1.118040e-01 2.637091e-01 2.361221e-01 2.727201e-01 2.619152e-01 2.192976e-01 2.280025e-01 -1.382295e+00 -2.120850e+00
<VARIANCE> 52
 1.114028e+02 6.695938e+03 1.344331e+03 2.143716e+05 1.042020e+03 1.907011e+05 1.351817e+03 2.372376e+05 1.464056e+03 1.476491e+05 1.035912e+03 1.347690e+05 2.513535e+02 5.828525e+03 1.467677e+03 1.095720e+05 5.736909e+02 3.729236e+05 4.795026e+02 5.955798e+05 3.836997e+02 4.790736e+05 2.906148e+02 3.978826e+05 9.208886e+03 1.154288e+05 7.663061e-03 2.630165e-02 2.517049e-01 6.061459e+00 1.152428e+00 5.779663e+01 2.672384e+00 1.784791e+02 2.855258e+00 2.195490e+02 2.032858e+00 1.150632e+02 4.414512e-03 3.665368e-02 1.140265e-01 1.015433e+00 8.328272e-01 6.861130e+00 1.989511e+00 2.447978e+01 1.933206e+00 2.635626e+01 1.298860e+00 1.850516e+01 2.135930e+01 3.569810e+02
<GCONST> 3.603027e+02
<STATE> 9
<NUMMIXES> 3
<MIXTURE> 1 2.500000e-01
<MEAN> 52
 5.692704e+01 2.339655e+02 1.572215e+02 1.237415e+03 5.392839e+01 8.280784e+02 3.928625e+01 8.204662e+02 3.874567e+01 6.223339e+02 3.485366e+01 6.435458e+02 -5.211819e+01 2.703156e+02 -8.906496e+01 1.417533e+03 -1.572990e+01 1.370510e+03 -5.342530e+00 1.512731e+03 -4.117034e+00 1.247621e+03 -4.655319e+00 1.211712e+03 9.437309e+01 -4.157249e+01 2.675024e-02 8.250108e-02 1.574657e-01 1.464043e+00 3.820378e-01 1.973058e+00 7.299190e-01 3.272341e+00 9.294157e-01 3.540640e+00 7.190967e-01 2.765913e+00 3.386312e-02 6.496915e-02 8.714174e-02 5.058771e-01 5.050221e-01 1.247633e+00 7.946715e-01 2.245511e+00 7.497655e-01 2.150326e+00 5.777559e-01 1.716223e+00 1.909217e+00 5.868279e+00
<VARIANCE> 52
 1.072901e+02 6.706590e+03 1.272613e+03 2.144362e+05 7.785702e+02 2.012660e+05 9.587048e+02 2.541161e+05 1.056940e+03 1.573258e+05 7.578040e+02 1.429714e+05 2.464674e+02 6.056280e+03 1.526670e+03 1.153412e+05 4.477951e+02 3.664807e+05 3.607037e+02 5.841032e+05 2.738856e+02 4.697261e+05 2.088018e+02 3.900968e+05 6.367167e+03 1.397214e+05 4.370231e-03 4.501502e-02 2.236882e-01 8.504361e+00 2.575346e+00 3.041040e+01 7.262044e+00 9.106339e+01 9.724242e+00 1.062067e+02 5.809911e+00 6.522223e+01 5.652362e-03 3.388611e-02 8.196913e-02 1.017859e+00 1.377158e+00 6.742580e+00 3.120878e+00 2.111688e+01 2.770533e+00 1.960973e+01 1.728657e+00 1.249687e+01 4.490636e+01 2.813615e+02
<GCONST> 3.605970e+02
<MIXTURE> 2 5.000000e-01
<MEAN> 52
 5.071219e+01 1.848292e+02 1.358173e+02 9.595715e+02 3.718666e+01 5.589023e+02 2.070848e+01 5.180066e+02 1.923930e+01 3.843480e+02 1.833672e+01 4.166765e+02 -6.153775e+01 2.236223e+02 -1.125085e+02 1.213761e+03 -2.842661e+01 1.007284e+03 -1.673785e+01 1.054171e+03 -1.404673e+01 8.364019e+02 -1.332531e+01 8.369653e+02 4.649638e+01 -2.658484e+02 -1.291440e-02 -4.479937e-02 -1.263084e-01 -2.856915e-01 -5.808353e-01 -1.335680e+00 -8.869720e-01 -2.453288e+00 -9.416074e-01 -2.642758e+00 -7.271287e-01 -2.079704e+00 -1.124620e-02 -4.547992e-02 -8.463976e-02 -9.945689e-02 -1.990922e-01 -3.103551e-01 -2.652890e-01 -5.116754e-01 -2.489296e-01 -5.066461e-01 -2.111145e-01 -4.048318e-01 -2.111516e+00 -4.196022e+00
<VARIANCE> 52
 1.072901e+02 6.706590e+03 1.272613e+03 2.144362e+05 7.785702e+02 2.012660e+05 9.587048e+02 2.541161e+05 1.056940e+03 1.573258e+05 7.578040e+02 1.429714e+05 2.464674e+02 6.056280e+03 1.526670e+03 1.153412e+05 4.477951e+02 3.664807e+05 3.607037e+02 5.841032e+05 2.738856e+02 4.697261e+05 2.088018e+02 3.900968e+05 6.367167e+03 1.397214e+05 4.370231e-03 4.501502e-02 2.236882e-01 8.504361e+00 2.575346e+00 3.041040e+01 7.262044e+00 9.106339e+01 9.724242e+00 1.062067e+02 5.809911e+00 6.522223e+01 5.652362e-03 3.388611e-02 8.196913e-02 1.017859e+00 1.377158e+00 6.742580e+00 3.120878e+00 2.111688e+01 2.770533e+00 1.960973e+01 1.728657e+00 1.249687e+01 4.490636e+01 2.813615e+02
<GCONST> 3.605970e+02
<MIXTURE> 3 2.500000e-01
<MEAN> 52
 5.278381e+01 2.012080e+02 1.429520e+02 1.052186e+03 4.276724e+01 6.486277e+02 2.690107e+01 6.188265e+02 2.574142e+01 4.636766e+02 2.384237e+01 4.922996e+02 -5.839790e+01 2.391867e+02 -1.046940e+02 1.281685e+03 -2.419437e+01 1.128359e+03 -1.293941e+01 1.207024e+03 -1.073683e+01 9.734750e+02 -1.043531e+01 9.618808e+02 6.245528e+01 -1.910898e+02 3.071493e-04 -2.365883e-03 -3.171705e-02 2.975532e-01 -2.598776e-01 -2.327676e-01 -3.480083e-01 -5.447446e-01 -3.179330e-01 -5.816252e-01 -2.450536e-01 -4.644984e-01 3.790244e-03 -8.663563e-03 -2.737926e-02 1.023211e-01 3.561258e-02 2.089744e-01 8.803117e-02 4.073868e-01 8.396876e-02 3.790115e-01 5.184227e-02 3.021865e-01 -7.712717e-01 -8.412547e-01
<VARIANCE> 52
 1.072901e+02 6.706590e+03 1.272613e+03 2.144362e+05 7.785702e+02 2.012660e+05 9.587048e+02 2.541161e+05 1.056940e+03 1.573258e+05 7.578040e+02 1.429714e+05 2.464674e+02 6.056280e+03 1.526670e+03 1.153412e+05 4.477951e+02 3.664807e+05 3.607037e+02 5.841032e+05 2.738856e+02 4.697261e+05 2.088018e+02 3.900968e+05 6.367167e+03 1.397214e+05 4.370231e-03 4.501502e-02 2.236882e-01 8.504361e+00 2.575346e+00 3.041040e+01 7.262044e+00 9.106339e+01 9.724242e+00 1.062067e+02 5.809911e+00 6.522223e+01 5.652362e-03 3.388611e-02 8.196913e-02 1.017859e+00 1.377158e+00 6.742580e+00 3.120878e+00 2.111688e+01 2.770533e+00 1.960973e+01 1.728657e+00 1.249687e+01 4.490636e+01 2.813615e+02
<GCONST> 3.605970e+02
<STATE> 10
<NUMMIXES> 3
<MIXTURE> 1 2.500000e-01
<MEAN> 52
 5.758274e+01 2.346615e+02 1.581225e+02 1.238040e+03 5.351916e+01 8.513470e+02 3.782254e+01 8.530995e+02 3.691938e+01 6.468615e+02 3.365405e+01 6.658047e+02 -5.201578e+01 2.715088e+02 -8.898441e+01 1.426033e+03 -1.517260e+01 1.370532e+03 -4.735687e+00 1.514888e+03 -3.634283e+00 1.249025e+03 -4.242025e+00 1.214256e+03 8.668849e+01 -3.427776e+01 4.066402e-02 9.745498e-02 2.923612e-01 1.087293e+00 6.828433e-01 1.992937e+00 1.119635e+00 3.115458e+00 1.086551e+00 3.232844e+00 8.694663e-01 2.626673e+00 2.581528e-02 5.885576e-02 6.476373e-02 3.525511e-01 5.429696e-01 1.304640e+00 8.540939e-01 2.367596e+00 7.529420e-01 2.459281e+00 5.967972e-01 2.061048e+00 1.451677e+00 5.349843e+00
<VARIANCE> 52
 1.108596e+02 6.651563e+03 1.081304e+03 2.067949e+05 7.086485e+02 2.181283e+05 8.348529e+02 2.818149e+05 9.084425e+02 1.727985e+05 6.676315e+02 1.567350e+05 2.365623e+02 6.046248e+03 1.637334e+03 1.175598e+05 3.778268e+02 3.521520e+05 3.065767e+02 5.644663e+05 2.152408e+02 4.576172e+05 1.636750e+02 3.813617e+05 5.109346e+03 1.741903e+05 7.690521e-03 3.263981e-02 2.984313e-01 4.896841e+00 2.698089e+00 2.334225e+01 7.672712e+00 6.425423e+01 7.646123e+00 6.834486e+01 4.773159e+00 4.431460e+01 3.486128e-03 1.542111e-02 5.731606e-02 5.329533e-01 1.290838e+00 7.003519e+00 2.962175e+00 2.115230e+01 2.206676e+00 2.218502e+01 1.431477e+00 1.549509e+01 2.382450e+01 2.414297e+02
<GCONST> 3.543751e+02
<MIXTURE> 2 5.000000e-01
<MEAN> 52
 5.126535e+01 1.857273e+02 1.383925e+02 9.651916e+02 3.754689e+01 5.711218e+02 2.048625e+01 5.345821e+02 1.883515e+01 3.974472e+02 1.815091e+01 4.282661e+02 -6.124413e+01 2.248542e+02 -1.132628e+02 1.220311e+03 -2.683526e+01 1.014477e+03 -1.524129e+01 1.064102e+03 -1.243694e+01 8.431404e+02 -1.191816e+01 8.437287e+02 4.380068e+01 -2.846944e+02 -1.195335e-02 -1.094397e-02 -3.541198e-02 -2.404351e-01 -3.027083e-01 -9.058925e-01 -5.423452e-01 -1.694066e+00 -5.725467e-01 -1.727413e+00 -4.413874e-01 -1.367479e+00 -9.610787e-03 -1.565329e-02 -7.888091e-02 -8.547081e-02 -1.387207e-01 -2.832097e-01 -1.785643e-01 -3.919022e-01 -1.383511e-01 -3.667779e-01 -1.210689e-01 -3.007801e-01 -1.476944e+00 -3.972962e+00
<VARIANCE> 52
 1.108596e+02 6.651563e+03 1.081304e+03 2.067949e+05 7.086485e+02 2.181283e+05 8.348529e+02 2.818149e+05 9.084425e+02 1.727985e+05 6.676315e+02 1.567350e+05 2.365623e+02 6.046248e+03 1.637334e+03 1.175598e+05 3.778268e+02 3.521520e+05 3.065767e+02 5.644663e+05 2.152408e+02 4.576172e+05 1.636750e+02 3.813617e+05 5.109346e+03 1.741903e+05 7.690521e-03 3.263981e-02 2.984313e-01 4.896841e+00 2.698089e+00 2.334225e+01 7.672712e+00 6.425423e+01 7.646123e+00 6.834486e+01 4.773159e+00 4.431460e+01 3.486128e-03 1.542111e-02 5.731606e-02 5.329533e-01 1.290838e+00 7.003519e+00 2.962175e+00 2.115230e+01 2.206676e+00 2.218502e+01 1.431477e+00 1.549509e+01 2.382450e+01 2.414297e+02
<GCONST> 3.543751e+02
<MIXTURE> 3 2.500000e-01
<MEAN> 52
 5.337115e+01 2.020387e+02 1.449692e+02 1.056141e+03 4.287098e+01 6.645302e+02 2.626501e+01 6.407546e+02 2.486323e+01 4.805853e+02 2.331862e+01 5.074456e+02 -5.816801e+01 2.404057e+02 -1.051700e+02 1.288885e+03 -2.294771e+01 1.133162e+03 -1.173942e+01 1.214364e+03 -9.502718e+00 9.784352e+02 -9.359447e+00 9.672377e+02 5.809662e+01 -2.012222e+02 5.585777e-03 2.518901e-02 7.384575e-02 2.021410e-01 2.580893e-02 6.038392e-02 1.164806e-02 -9.089136e-02 -1.951420e-02 -7.399380e-02 -4.436135e-03 -3.609514e-02 2.197902e-03 9.183059e-03 -3.099936e-02 6.053649e-02 8.850944e-02 2.460736e-01 1.656551e-01 5.279304e-01 1.587466e-01 5.752417e-01 1.182198e-01 4.864960e-01 -5.007373e-01 -8.653603e-01
<VARIANCE> 52
 1.108596e+02 6.651563e+03 1.081304e+03 2.067949e+05 7.086485e+02 2.181283e+05 8.348529e+02 2.818149e+05 9.084425e+02 1.727985e+05 6.676315e+02 1.567350e+05 2.365623e+02 6.046248e+03 1.637334e+03 1.175598e+05 3.778268e+02 3.521520e+05 3.065767e+02 5.644663e+05 2.152408e+02 4.576172e+05 1.636750e+02 3.813617e+05 5.109346e+03 1.741903e+05 7.690521e-03 3.263981e-02 2.984313e-01 4.896841e+00 2.698089e+00 2.334225e+01 7.672712e+00 6.425423e+01 7.646123e+00 6.834486e+01 4.773159e+00 4.431460e+01 3.486128e-03 1.542111e-02 5.731606e-02 5.329533e-01 1.290838e+00 7.003519e+00 2.962175e+00 2.115230e+01 2.206676e+00 2.218502e+01 1.431477e+00 1.549509e+01 2.382450e+01 2.414297e+02
<GCONST> 3.543751e+02
<STATE> 11
<NUMMIXES> 3
<MIXTURE> 1 2.500000e-01
<MEAN> 52
 5.657533e+01 2.206312e+02 1.611758e+02 1.156641e+03 5.156293e+01 7.706671e+02 3.552825e+01 7.679740e+02 3.413073e+01 5.845893e+02 3.128452e+01 6.046310e+02 -4.880575e+01 2.581076e+02 -8.616112e+01 1.364672e+03 -1.438204e+01 1.282965e+03 -4.211979e+00 1.411385e+03 -3.282068e+00 1.162740e+03 -3.813673e+00 1.133078e+03 7.835332e+01 -2.558417e+01 3.465497e-02 6.763468e-02 1.962156e-01 7.341140e-01 4.043315e-01 1.614602e+00 7.631583e-01 2.538518e+00 7.622925e-01 2.667679e+00 6.058962e-01 2.130368e+00 2.051504e-02 6.443098e-02 6.407359e-02 3.240795e-01 1.908104e-01 9.132959e-01 3.054860e-01 1.644053e+00 2.890411e-01 1.824962e+00 2.181955e-01 1.515693e+00 1.232813e+00 4.138845e+00
<VARIANCE> 52
 9.492650e+01 7.185319e+03 9.739742e+02 2.001311e+05 6.915825e+02 2.096759e+05 7.955302e+02 2.691787e+05 8.384840e+02 1.683073e+05 6.129547e+02 1.532482e+05 2.759845e+02 6.296789e+03 1.874909e+03 1.116806e+05 3.614389e+02 3.545446e+05 2.918555e+02 5.701828e+05 1.896796e+02 4.673538e+05 1.483453e+02 3.907855e+05 4.218830e+03 1.950095e+05 4.954737e-03 1.919223e-02 1.713218e-01 2.622505e+00 1.006541e+00 1.816631e+01 4.003460e+00 4.850996e+01 4.150693e+00 4.561044e+01 2.703742e+00 2.967554e+01 3.361362e-03 1.705430e-02 7.000078e-02 5.100399e-01 2.679712e-01 2.959961e+00 6.224405e-01 1.062943e+01 4.825245e-01 1.202231e+01 2.936996e-01 7.811045e+00 1.444395e+01 1.597037e+02
<GCONST> 3.376518e+02
<MIXTURE> 2 5.000000e-01
<MEAN> 52
 5.072952e+01 1.697715e+02 1.424507e+02 8.882253e+02 3.578416e+01 4.959249e+02 1.860516e+01 4.566794e+02 1.675677e+01 3.384377e+02 1.642977e+01 3.697495e+02 -5.877341e+01 2.104962e+02 -1.121412e+02 1.164160e+03 -2.578897e+01 9.257028e+02 -1.446225e+01 9.583221e+02 -1.154552e+01 7.525601e+02 -1.112150e+01 7.580014e+02 3.938181e+01 -2.905435e+02 -7.578965e-03 -1.548694e-02 -5.213062e-02 -2.375350e-01 -1.976276e-01 -9.427152e-01 -4.373606e-01 -1.640428e+00 -4.601024e-01 -1.384451e+00 -3.806874e-01 -1.138147e+00 -1.427132e-02 -1.392428e-02 -9.467238e-02 -1.044230e-01 -1.197852e-01 -1.189764e-01 -1.678834e-01 -3.121152e-01 -1.277428e-01 -2.554301e-01 -1.069688e-01 -1.612021e-01 -1.047499e+00 -3.443591e+00
<VARIANCE> 52
 9.492650e+01 7.185319e+03 9.739742e+02 2.001311e+05 6.915825e+02 2.096759e+05 7.955302e+02 2.691787e+05 8.384840e+02 1.683073e+05 6.129547e+02 1.532482e+05 2.759845e+02 6.296789e+03 1.874909e+03 1.116806e+05 3.614389e+02 3.545446e+05 2.918555e+02 5.701828e+05 1.896796e+02 4.673538e+05 1.483453e+02 3.907855e+05 4.218830e+03 1.950095e+05 4.954737e-03 1.919223e-02 1.713218e-01 2.622505e+00 1.006541e+00 1.816631e+01 4.003460e+00 4.850996e+01 4.150693e+00 4.561044e+01 2.703742e+00 2.967554e+01 3.361362e-03 1.705430e-02 7.000078e-02 5.100399e-01 2.679712e-01 2.959961e+00 6.224405e-01 1.062943e+01 4.825245e-01 1.202231e+01 2.936996e-01 7.811045e+00 1.444395e+01 1.597037e+02
<GCONST> 3.376518e+02
<MIXTURE> 3 2.500000e-01
<MEAN> 52
 5.267812e+01 1.867247e+02 1.486924e+02 9.776974e+02 4.104375e+01 5.875056e+02 2.424619e+01 5.604442e+02 2.254809e+01 4.204882e+02 2.138135e+01 4.480433e+02 -5.545086e+01 2.263667e+02 -1.034812e+02 1.230997e+03 -2.198666e+01 1.044790e+03 -1.104549e+01 1.109343e+03 -8.791037e+00 8.892866e+02 -8.685556e+00 8.830271e+02 5.237232e+01 -2.022237e+02 6.499014e-03 1.222027e-02 3.065145e-02 8.634800e-02 3.025457e-03 -9.027606e-02 -3.718767e-02 -2.474458e-01 -5.263746e-02 -3.374064e-02 -5.182624e-02 -4.864216e-02 -2.675866e-03 1.219414e-02 -4.175706e-02 3.841117e-02 -1.625337e-02 2.251144e-01 -1.009363e-02 3.399410e-01 1.118518e-02 4.380340e-01 1.419298e-03 3.977629e-01 -2.873950e-01 -9.161124e-01
<VARIANCE> 52
 9.492650e+01 7.185319e+03 9.739742e+02 2.001311e+05 6.915825e+02 2.096759e+05 7.955302e+02 2.691787e+05 8.384840e+02 1.683073e+05 6.129547e+02 1.532482e+05 2.759845e+02 6.296789e+03 1.874909e+03 1.116806e+05 3.614389e+02 3.545446e+05 2.918555e+02 5.701828e+05 1.896796e+02 4.673538e+05 1.483453e+02 3.907855e+05 4.218830e+03 1.950095e+05 4.954737e-03 1.919223e-02 1.713218e-01 2.622505e+00 1.006541e+00 1.816631e+01 4.003460e+00 4.850996e+01 4.150693e+00 4.561044e+01 2.703742e+00 2.967554e+01 3.361362e-03 1.705430e-02 7.000078e-02 5.100399e-01 2.679712e-01 2.959961e+00 6.224405e-01 1.062943e+01 4.825245e-01 1.202231e+01 2.936996e-01 7.811045e+00 1.444395e+01 1.597037e+02
<GCONST> 3.376518e+02
<STATE> 12
<NUMMIXES> 3
<MIXTURE> 1 2.500000e-01
<MEAN> 52
 5.665723e+01 2.313980e+02 1.588534e+02 1.195078e+03 6.143732e+01 8.222345e+02 4.879570e+01 8.342080e+02 4.727211e+01 6.401321e+02 4.239712e+01 6.551465e+02 -5.057939e+01 2.667625e+02 -9.044968e+01 1.388883e+03 -1.846991e+01 1.433348e+03 -8.010973e+00 1.623494e+03 -5.976262e+00 1.372496e+03 -6.185726e+00 1.322829e+03 1.059681e+02 -8.380267e+01 3.439328e-02 1.722205e-01 1.397965e-01 6.407051e-01 7.108876e-01 4.770638e+00 1.175213e+00 9.352180e+00 1.267407e+00 9.308309e+00 1.015701e+00 7.083169e+00 3.329375e-02 8.656511e-02 1.233870e-01 2.963998e-01 2.090320e-01 3.215824e+00 2.854011e-01 6.161507e+00 3.274670e-01 6.642492e+00 2.379194e-01 5.393061e+00 2.301647e+00 5.228960e+00
<VARIANCE> 52
 9.117323e+01 6.811703e+03 1.049620e+03 1.893741e+05 1.221183e+03 2.360359e+05 1.765671e+03 3.158765e+05 1.841569e+03 2.013867e+05 1.338133e+03 1.821947e+05 2.772621e+02 6.379371e+03 1.844430e+03 1.185642e+05 5.365280e+02 3.976728e+05 5.098458e+02 6.683621e+05 3.487657e+02 5.775856e+05 2.572924e+02 4.782728e+05 7.184531e+03 3.775572e+05 9.748477e-03 1.236686e-01 1.213407e-01 2.805248e+00 2.607114e+00 9.892819e+01 6.120640e+00 3.479413e+02 7.233275e+00 3.310193e+02 4.842376e+00 1.941669e+02 6.344898e-03 4.129591e-02 1.070556e-01 1.028199e+00 9.120985e-01 2.023060e+01 2.443960e+00 7.451883e+01 2.514074e+00 8.179102e+01 1.290347e+00 5.325692e+01 1.976998e+01 4.328665e+02
<GCONST> 3.748846e+02
<MIXTURE> 2 5.000000e-01
<MEAN> 52
 5.092815e+01 1.818782e+02 1.394147e+02 9.339747e+02 4.047006e+01 5.307333e+02 2.358377e+01 4.969907e+02 2.152401e+01 3.708753e+02 2.044882e+01 3.990408e+02 -6.057011e+01 2.188399e+02 -1.162178e+02 1.182284e+03 -3.236776e+01 1.054980e+03 -2.155883e+01 1.132973e+03 -1.718142e+01 9.165019e+02 -1.580993e+01 9.078854e+02 5.511110e+01 -4.524767e+02 -2.484735e-02 -3.877881e-02 -6.920746e-02 -3.642274e-01 -2.579061e-01 -1.197120e+00 -3.091822e-01 -1.839731e+00 -3.462776e-01 -1.608053e+00 -3.046231e-01 -1.277459e+00 -1.449917e-02 -3.536327e-02 -7.292911e-02 -3.120011e-01 -3.639911e-01 5.171173e-01 -6.525891e-01 9.820491e-01 -6.238829e-01 1.216188e+00 -4.436413e-01 1.014420e+00 -3.661599e-01 -7.254307e+00
<VARIANCE> 52
 9.117323e+01 6.811703e+03 1.049620e+03 1.893741e+05 1.221183e+03 2.360359e+05 1.765671e+03 3.158765e+05 1.841569e+03 2.013867e+05 1.338133e+03 1.821947e+05 2.772621e+02 6.379371e+03 1.844430e+03 1.185642e+05 5.365280e+02 3.976728e+05 5.098458e+02 6.683621e+05 3.487657e+02 5.775856e+05 2.572924e+02 4.782728e+05 7.184531e+03 3.775572e+05 9.748477e-03 1.236686e-01 1.213407e-01 2.805248e+00 2.607114e+00 9.892819e+01 6.120640e+00 3.479413e+02 7.233275e+00 3.310193e+02 4.842376e+00 1.941669e+02 6.344898e-03 4.129591e-02 1.070556e-01 1.028199e+00 9.120985e-01 2.023060e+01 2.443960e+00 7.451883e+01 2.514074e+00 8.179102e+01 1.290347e+00 5.325692e+01 1.976998e+01 4.328665e+02
<GCONST> 3.748846e+02
<MIXTURE> 3 2.500000e-01
<MEAN> 52
 5.283784e+01 1.983848e+02 1.458943e+02 1.021009e+03 4.745915e+01 6.279004e+02 3.198775e+01 6.093965e+02 3.010671e+01 4.606276e+02 2.776492e+01 4.844094e+02 -5.723987e+01 2.348141e+02 -1.076284e+02 1.251150e+03 -2.773514e+01 1.181103e+03 -1.704288e+01 1.296480e+03 -1.344637e+01 1.068500e+03 -1.260186e+01 1.046200e+03 7.206342e+01 -3.295854e+02 -5.100471e-03 3.155428e-02 4.605278e-04 -2.924988e-02 6.502512e-02 7.921326e-01 1.856163e-01 1.890906e+00 1.916174e-01 2.030734e+00 1.354849e-01 1.509417e+00 1.431804e-03 5.279522e-03 -7.490415e-03 -1.092008e-01 -1.729834e-01 1.416686e+00 -3.399257e-01 2.708535e+00 -3.067663e-01 3.024956e+00 -2.164544e-01 2.473967e+00 5.231090e-01 -3.093218e+00
<VARIANCE> 52
 9.117323e+01 6.811703e+03 1.049620e+03 1.893741e+05 1.221183e+03 2.360359e+05 1.765671e+03 3.158765e+05 1.841569e+03 2.013867e+05 1.338133e+03 1.821947e+05 2.772621e+02 6.379371e+03 1.844430e+03 1.185642e+05 5.365280e+02 3.976728e+05 5.098458e+02 6.683621e+05 3.487657e+02 5.775856e+05 2.572924e+02 4.782728e+05 7.184531e+03 3.775572e+05 9.748477e-03 1.236686e-01 1.213407e-01 2.805248e+00 2.607114e+00 9.892819e+01 6.120640e+00 3.479413e+02 7.233275e+00 3.310193e+02 4.842376e+00 1.941669e+02 6.344898e-03 4.129591e-02 1.070556e-01 1.028199e+00 9.120985e-01 2.023060e+01 2.443960e+00 7.451883e+01 2.514074e+00 8.179102e+01 1.290347e+00 5.325692e+01 1.976998e+01 4.328665e+02
<GCONST> 3.748846e+02
<STATE> 13
<NUMMIXES> 3
<MIXTURE> 1 2.500000e-01
<MEAN> 52
 5.846513e+01 2.377001e+02 1.660673e+02 1.214786e+03 7.020467e+01 8.436536e+02 5.682703e+01 8.600875e+02 5.481507e+01 6.657146e+02 4.927712e+01 6.791302e+02 -5.139339e+01 2.728764e+02 -9.104427e+01 1.410536e+03 -1.900647e+01 1.513688e+03 -8.776146e+00 1.727553e+03 -6.346431e+00 1.479720e+03 -6.426144e+00 1.420860e+03 1.218224e+02 -9.433490e+01 3.844823e-02 4.831725e-02 1.697617e-01 5.720892e-01 3.664285e-01 1.030533e+00 6.193908e-01 1.892921e+00 6.970143e-01 1.791699e+00 4.865133e-01 1.414082e+00 2.082158e-02 3.661342e-02 1.051343e-01 1.660695e-01 1.633000e-01 6.445364e-01 2.255471e-01 1.094451e+00 2.244887e-01 1.338618e+00 1.699435e-01 1.118098e+00 1.229088e+00 2.364141e+00
<VARIANCE> 52
 1.078738e+02 6.603640e+03 1.297558e+03 1.821994e+05 1.856396e+03 2.550445e+05 2.343547e+03 3.529720e+05 2.399480e+03 2.302647e+05 1.788139e+03 2.061788e+05 2.495498e+02 6.195711e+03 2.161233e+03 1.188394e+05 5.792748e+02 4.754501e+05 5.397192e+02 8.126206e+05 3.501735e+02 7.225768e+05 2.642556e+02 5.947908e+05 9.991653e+03 5.436795e+05 5.610666e-03 1.849028e-02 1.086934e-01 2.281086e+00 5.131159e-01 7.260516e+00 1.651304e+00 2.821755e+01 2.592756e+00 2.096730e+01 1.099288e+00 1.286849e+01 2.096620e-03 9.658837e-03 1.129186e-01 2.927880e-01 2.487745e-01 1.220235e+00 7.053263e-01 3.763246e+00 5.012724e-01 4.747257e+00 2.643755e-01 3.170572e+00 7.251989e+00 6.556918e+01
<GCONST> 3.359330e+02
<MIXTURE> 2 5.000000e-01
<MEAN> 52
 5.223338e+01 1.889424e+02 1.444543e+02 9.586774e+02 4.435313e+01 5.406420e+02 2.778092e+01 5.036189e+02 2.542438e+01 3.777992e+02 2.390528e+01 4.066888e+02 -6.087168e+01 2.256487e+02 -1.189377e+02 1.203698e+03 -3.344735e+01 1.099971e+03 -2.271526e+01 1.186680e+03 -1.757418e+01 9.696930e+02 -1.617971e+01 9.581237e+02 6.184743e+01 -5.367427e+02 -6.494394e-03 -3.327013e-02 -2.805039e-02 -3.341067e-01 -6.336415e-02 -5.861880e-01 -1.516275e-01 -1.294291e+00 -2.691078e-01 -9.557048e-01 -1.425683e-01 -7.382787e-01 -6.651737e-03 -2.235421e-02 -9.648591e-02 -1.585898e-01 -1.359638e-01 -1.824911e-02 -2.783551e-01 -6.949437e-02 -2.003148e-01 3.132567e-02 -1.385612e-01 4.973197e-02 -3.866829e-01 -2.494347e+00
<VARIANCE> 52
 1.078738e+02 6.603640e+03 1.297558e+03 1.821994e+05 1.856396e+03 2.550445e+05 2.343547e+03 3.529720e+05 2.399480e+03 2.302647e+05 1.788139e+03 2.061788e+05 2.495498e+02 6.195711e+03 2.161233e+03 1.188394e+05 5.792748e+02 4.754501e+05 5.397192e+02 8.126206e+05 3.501735e+02 7.225768e+05 2.642556e+02 5.947908e+05 9.991653e+03 5.436795e+05 5.610666e-03 1.849028e-02 1.086934e-01 2.281086e+00 5.131159e-01 7.260516e+00 1.651304e+00 2.821755e+01 2.592756e+00 2.096730e+01 1.099288e+00 1.286849e+01 2.096620e-03 9.658837e-03 1.129186e-01 2.927880e-01 2.487745e-01 1.220235e+00 7.053263e-01 3.763246e+00 5.012724e-01 4.747257e+00 2.643755e-01 3.170572e+00 7.251989e+00 6.556918e+01
<GCONST> 3.359330e+02
<MIXTURE> 3 2.500000e-01
<MEAN> 52
 5.431063e+01 2.051950e+02 1.516586e+02 1.044047e+03 5.297031e+01 6.416459e+02 3.746296e+01 6.224418e+02 3.522128e+01 4.737710e+02 3.236256e+01 4.975026e+02 -5.771225e+01 2.413913e+02 -1.096399e+02 1.272644e+03 -2.863372e+01 1.237877e+03 -1.806889e+01 1.366971e+03 -1.383160e+01 1.139702e+03 -1.292852e+01 1.112369e+03 8.183909e+01 -3.892734e+02 8.486482e-03 -6.074339e-03 3.788697e-02 -3.204140e-02 7.990007e-02 -4.728109e-02 1.053786e-01 -2.318872e-01 5.293289e-02 -3.990352e-02 6.712559e-02 -2.082509e-02 2.506035e-03 -2.698330e-03 -2.927919e-02 -5.037003e-02 -3.620920e-02 2.026794e-01 -1.103877e-01 3.184874e-01 -5.871364e-02 4.670897e-01 -3.572633e-02 4.058540e-01 1.519075e-01 -8.748510e-01
<VARIANCE> 52
 1.078738e+02 6.603640e+03 1.297558e+03 1.821994e+05 1.856396e+03 2.550445e+05 2.343547e+03 3.529720e+05 2.399480e+03 2.302647e+05 1.788139e+03 2.061788e+05 2.495498e+02 6.195711e+03 2.161233e+03 1.188394e+05 5.792748e+02 4.754501e+05 5.397192e+02 8.126206e+05 3.501735e+02 7.225768e+05 2.642556e+02 5.947908e+05 9.991653e+03 5.436795e+05 5.610666e-03 1.849028e-02 1.086934e-01 2.281086e+00 5.131159e-01 7.260516e+00 1.651304e+00 2.821755e+01 2.592756e+00 2.096730e+01 1.099288e+00 1.286849e+01 2.096620e-03 9.658837e-03 1.129186e-01 2.927880e-01 2.487745e-01 1.220235e+00 7.053263e-01 3.763246e+00 5.012724e-01 4.747257e+00 2.643755e-01 3.170572e+00 7.251989e+00 6.556918e+01
<GCONST> 3.359330e+02
<STATE> 14
<NUMMIXES> 3
<MIXTURE> 1 2.500000e-01
<MEAN> 52
 5.720813e+01 2.298673e+02 1.640335e+02 1.173788e+03 6.116656e+01 8.653908e+02 4.617714e+01 9.010950e+02 4.337096e+01 7.002366e+02 3.946802e+01 7.089708e+02 -5.014207e+01 2.661369e+02 -9.018273e+01 1.385372e+03 -1.961119e+01 1.413490e+03 -9.008001e+00 1.593553e+03 -6.822867e+00 1.344779e+03 -6.898984e+00 1.298375e+03 1.037352e+02 -4.345641e+01 2.367557e-02 6.253028e-02 6.736588e-02 4.221483e-01 3.185647e-01 1.416966e+00 4.990255e-01 2.920070e+00 5.411383e-01 2.665940e+00 4.425282e-01 2.189461e+00 1.961701e-02 5.150049e-02 4.490132e-02 1.853299e-01 8.538403e-02 1.950269e+00 1.584008e-01 3.521036e+00 2.011073e-01 3.456411e+00 1.491902e-01 2.783238e+00 1.220414e+00 3.466248e+00
<VARIANCE> 52
 9.002011e+01 6.560041e+03 1.199439e+03 1.778502e+05 1.147072e+03 2.620100e+05 1.430673e+03 3.669151e+05 1.437905e+03 2.399407e+05 1.063324e+03 2.131238e+05 2.720522e+02 6.251313e+03 2.446951e+03 1.215696e+05 5.647590e+02 4.005261e+05 5.209531e+02 6.716731e+05 3.673568e+02 5.823166e+05 2.752477e+02 4.807186e+05 6.478517e+03 4.093235e+05 3.092110e-03 1.748385e-02 2.215903e-02 8.599838e-01 6.113629e-01 1.059089e+01 1.834323e+00 3.986639e+01 2.357965e+00 3.334706e+01 1.556125e+00 2.296990e+01 3.140582e-03 1.240281e-02 4.785220e-02 2.097349e-01 3.986594e-01 1.128878e+01 9.541317e-01 3.555758e+01 1.103603e+00 3.268052e+01 6.786426e-01 2.152489e+01 6.625934e+00 1.699552e+02
<GCONST> 3.427649e+02
<MIXTURE> 2 5.000000e-01
<MEAN> 52
 5.151539e+01 1.812709e+02 1.432537e+02 9.207544e+02 4.084549e+01 5.582693e+02 2.348260e+01 5.376539e+02 2.061913e+01 4.063342e+02 1.990283e+01 4.319787e+02 -6.003847e+01 2.186978e+02 -1.198627e+02 1.176171e+03 -3.386998e+01 1.033768e+03 -2.270264e+01 1.101819e+03 -1.832280e+01 8.869207e+02 -1.685334e+01 8.823722e+02 5.544167e+01 -4.273268e+02 -9.688478e-03 -1.680563e-02 -2.194957e-02 -1.342636e-01 -1.505735e-01 -5.356532e-01 -3.135977e-01 -8.683199e-01 -3.802018e-01 -7.988749e-01 -3.059403e-01 -6.861542e-01 -1.400752e-02 -1.532025e-02 -8.634956e-02 -8.945108e-02 -2.934529e-01 -6.565779e-02 -4.276772e-01 -5.677462e-02 -4.292078e-01 2.639842e-02 -3.450884e-01 -4.575253e-04 -3.240399e-01 -4.355764e+00
<VARIANCE> 52
 9.002011e+01 6.560041e+03 1.199439e+03 1.778502e+05 1.147072e+03 2.620100e+05 1.430673e+03 3.669151e+05 1.437905e+03 2.399407e+05 1.063324e+03 2.131238e+05 2.720522e+02 6.251313e+03 2.446951e+03 1.215696e+05 5.647590e+02 4.005261e+05 5.209531e+02 6.716731e+05 3.673568e+02 5.823166e+05 2.752477e+02 4.807186e+05 6.478517e+03 4.093235e+05 3.092110e-03 1.748385e-02 2.215903e-02 8.599838e-01 6.113629e-01 1.059089e+01 1.834323e+00 3.986639e+01 2.357965e+00 3.334706e+01 1.556125e+00 2.296990e+01 3.140582e-03 1.240281e-02 4.785220e-02 2.097349e-01 3.986594e-01 1.128878e+01 9.541317e-01 3.555758e+01 1.103603e+00 3.268052e+01 6.786426e-01 2.152489e+01 6.625934e+00 1.699552e+02
<GCONST> 3.427649e+02
<MIXTURE> 3 2.500000e-01
<MEAN> 52
 5.341297e+01 1.974697e+02 1.501803e+02 1.005099e+03 4.761918e+01 6.606431e+02 3.104745e+01 6.588009e+02 2.820308e+01 5.043017e+02 2.642456e+01 5.243094e+02 -5.673967e+01 2.345108e+02 -1.099694e+02 1.245905e+03 -2.911705e+01 1.160342e+03 -1.813776e+01 1.265730e+03 -1.448949e+01 1.039540e+03 -1.353522e+01 1.021040e+03 7.153951e+01 -2.993700e+02 1.432871e-03 9.639675e-03 7.822245e-03 5.120704e-02 5.805910e-03 1.152197e-01 -4.272330e-02 3.944769e-01 -7.308839e-02 3.560635e-01 -5.645077e-02 2.723842e-01 -2.799344e-03 6.953329e-03 -4.259927e-02 2.142563e-03 -1.671739e-01 6.063178e-01 -2.323179e-01 1.135829e+00 -2.191028e-01 1.169736e+00 -1.803289e-01 9.274410e-01 1.907779e-01 -1.748427e+00
<VARIANCE> 52
 9.002011e+01 6.560041e+03 1.199439e+03 1.778502e+05 1.147072e+03 2.620100e+05 1.430673e+03 3.669151e+05 1.437905e+03 2.399407e+05 1.063324e+03 2.131238e+05 2.720522e+02 6.251313e+03 2.446951e+03 1.215696e+05 5.647590e+02 4.005261e+05 5.209531e+02 6.716731e+05 3.673568e+02 5.823166e+05 2.752477e+02 4.807186e+05 6.478517e+03 4.093235e+05 3.092110e-03 1.748385e-02 2.215903e-02 8.599838e-01 6.113629e-01 1.059089e+01 1.834323e+00 3.986639e+01 2.357965e+00 3.334706e+01 1.556125e+00 2.296990e+01 3.140582e-03 1.240281e-02 4.785220e-02 2.097349e-01 3.986594e-01 1.128878e+01 9.541317e-01 3.555758e+01 1.103603e+00 3.268052e+01 6.786426e-01 2.152489e+01 6.625934e+00 1.699552e+02
<GCONST> 3.427649e+02
<STATE> 15
<NUMMIXES> 3
<MIXTURE> 1 2.500000e-01
<MEAN> 52
 5.826715e+01 2.433922e+02 1.626178e+02 1.229142e+03 6.562999e+01 9.371021e+02 5.113213e+01 9.785678e+02 4.802935e+01 7.637849e+02 4.369690e+01 7.692888e+02 -5.233893e+01 2.787857e+02 -9.398369e+01 1.430948e+03 -2.224130e+01 1.529511e+03 -1.100886e+01 1.740493e+03 -8.269922e+00 1.475387e+03 -8.348446e+00 1.417480e+03 1.178937e+02 -7.661679e+01 2.745027e-02 6.892855e-02 1.176647e-01 4.907502e-01 3.042364e-01 1.482241e+00 5.566077e-01 2.936183e+00 6.348668e-01 2.570417e+00 5.009513e-01 2.114614e+00 1.510651e-02 5.924079e-02 7.473891e-02 1.583977e-01 5.403417e-02 2.140703e+00 1.005765e-01 3.876805e+00 1.368880e-01 3.948658e+00 9.737994e-02 3.246764e+00 1.614403e+00 2.753092e+00
<VARIANCE> 52
 9.243908e+01 6.703861e+03 1.346424e+03 1.829381e+05 1.276699e+03 3.119687e+05 1.608585e+03 4.361247e+05 1.577820e+03 2.877948e+05 1.180320e+03 2.562176e+05 2.713400e+02 6.425502e+03 2.649267e+03 1.277680e+05 6.016340e+02 4.345005e+05 5.439223e+02 7.289691e+05 3.916696e+02 6.270284e+05 2.940954e+02 5.168601e+05 7.805912e+03 4.560929e+05 4.095109e-03 1.989602e-02 1.147751e-01 2.196903e+00 5.528606e-01 1.922617e+01 2.086016e+00 7.409467e+01 2.826204e+00 5.823282e+01 1.655261e+00 3.861858e+01 1.839281e-03 1.789051e-02 1.478094e-01 3.192293e-01 4.134415e-01 1.328483e+01 1.107081e+00 4.259850e+01 1.280256e+00 4.135511e+01 7.220276e-01 2.888925e+01 1.000401e+01 2.913138e+02
<GCONST> 3.542425e+02
<MIXTURE> 2 5.000000e-01
<MEAN> 52
 5.249844e+01 1.942659e+02 1.406016e+02 9.725145e+02 4.419144e+01 6.019772e+02 2.706783e+01 5.823294e+02 2.419628e+01 4.419058e+02 2.308342e+01 4.655811e+02 -6.222237e+01 2.306902e+02 -1.248663e+02 1.216481e+03 -3.695824e+01 1.134012e+03 -2.500215e+01 1.228215e+03 -2.014431e+01 1.000277e+03 -1.863797e+01 9.861220e+02 6.488307e+01 -4.818247e+02 -1.094556e-02 -1.570340e-02 -8.560613e-02 -3.985671e-01 -1.418912e-01 -1.148619e+00 -3.099752e-01 -2.228513e+00 -3.738123e-01 -2.008209e+00 -2.709904e-01 -1.614017e+00 -1.062559e-02 -2.101246e-02 -1.559370e-01 -1.806046e-01 -3.317623e-01 -4.619873e-02 -5.307311e-01 -3.924656e-02 -5.420024e-01 9.018123e-02 -4.124533e-01 2.184057e-02 -2.833441e-01 -7.487659e+00
<VARIANCE> 52
 9.243908e+01 6.703861e+03 1.346424e+03 1.829381e+05 1.276699e+03 3.119687e+05 1.608585e+03 4.361247e+05 1.577820e+03 2.877948e+05 1.180320e+03 2.562176e+05 2.713400e+02 6.425502e+03 2.649267e+03 1.277680e+05 6.016340e+02 4.345005e+05 5.439223e+02 7.289691e+05 3.916696e+02 6.270284e+05 2.940954e+02 5.168601e+05 7.805912e+03 4.560929e+05 4.095109e-03 1.989602e-02 1.147751e-01 2.196903e+00 5.528606e-01 1.922617e+01 2.086016e+00 7.409467e+01 2.826204e+00 5.823282e+01 1.655261e+00 3.861858e+01 1.839281e-03 1.789051e-02 1.478094e-01 3.192293e-01 4.134415e-01 1.328483e+01 1.107081e+00 4.259850e+01 1.280256e+00 4.135511e+01 7.220276e-01 2.888925e+01 1.000401e+01 2.913138e+02
<GCONST> 3.542425e+02
<MIXTURE> 3 2.500000e-01
<MEAN> 52
 5.442134e+01 2.106413e+02 1.479403e+02 1.058057e+03 5.133762e+01 7.136855e+02 3.508926e+01 7.144089e+02 3.214064e+01 5.491988e+02 2.995458e+01 5.668170e+02 -5.892789e+01 2.467220e+02 -1.145721e+02 1.287970e+03 -3.205259e+01 1.265845e+03 -2.033772e+01 1.398974e+03 -1.618618e+01 1.158647e+03 -1.520813e+01 1.129908e+03 8.255328e+01 -3.467554e+02 1.853050e-03 1.250725e-02 -1.784918e-02 -1.021280e-01 6.817997e-03 -2.716656e-01 -2.111423e-02 -5.069475e-01 -3.758597e-02 -4.819999e-01 -1.367646e-02 -3.711405e-01 -2.048226e-03 5.738623e-03 -7.904505e-02 -6.760387e-02 -2.031635e-01 6.827685e-01 -3.202952e-01 1.266104e+00 -3.157056e-01 1.376340e+00 -2.425089e-01 1.096815e+00 3.492383e-01 -4.074075e+00
<VARIANCE> 52
 9.243908e+01 6.703861e+03 1.346424e+03 1.829381e+05 1.276699e+03 3.119687e+05 1.608585e+03 4.361247e+05 1.577820e+03 2.877948e+05 1.180320e+03 2.562176e+05 2.713400e+02 6.425502e+03 2.649267e+03 1.277680e+05 6.016340e+02 4.345005e+05 5.439223e+02 7.289691e+05 3.916696e+02 6.270284e+05 2.940954e+02 5.168601e+05 7.805912e+03 4.560929e+05 4.095109e-03 1.989602e-02 1.147751e-01 2.196903e+00 5.528606e-01 1.922617e+01 2.086016e+00 7.409467e+01 2.826204e+00 5.823282e+01 1.655261e+00 3.861858e+01 1.839281e-03 1.789051e-02 1.478094e-01 3.192293e-01 4.134415e-01 1.328483e+01 1.107081e+00 4.259850e+01 1.280256e+00 4.135511e+01 7.220276e-01 2.888925e+01 1.000401e+01 2.913138e+02
<GCONST> 3.542425e+02
<STATE> 16
<NUMMIXES> 3
<MIXTURE> 1 2.500000e-01
<MEAN> 52
 5.839117e+01 2.403491e+02 1.631741e+02 1.207254e+03 6.422296e+01 9.196382e+02 5.003237e+01 9.700790e+02 4.704074e+01 7.698845e+02 4.230468e+01 7.725258e+02 -5.150281e+01 2.735393e+02 -9.444415e+01 1.399514e+03 -2.394181e+01 1.546210e+03 -1.282065e+01 1.779023e+03 -9.509542e+00 1.525304e+03 -9.355717e+00 1.461635e+03 1.197870e+02 -1.165457e+02 5.969825e-02 9.611708e-02 2.944432e-01 6.908450e-01 5.523497e+00 1.522224e+00 1.020816e+01 3.081842e+00 1.292032e+01 3.327263e+00 1.025380e+01 2.791626e+00 3.187446e-02 6.772923e-02 6.904269e-02 2.682465e-01 5.801514e-02 3.782773e+00 1.221354e-01 6.702723e+00 2.044736e-01 7.738284e+00 1.647367e-01 6.466911e+00 1.391838e+01 2.937265e+00
<VARIANCE> 52
 9.171322e+01 6.637073e+03 1.483368e+03 1.824895e+05 1.282663e+03 3.464346e+05 1.547059e+03 4.956194e+05 1.533783e+03 3.421934e+05 1.116491e+03 3.042444e+05 2.617454e+02 6.248664e+03 2.788278e+03 1.234851e+05 6.879219e+02 4.832842e+05 6.587554e+02 8.239315e+05 4.875615e+02 7.189446e+05 3.567238e+02 5.937255e+05 7.617031e+03 5.557688e+05 1.208774e-02 2.007737e-02 8.591478e-01 1.890215e+00 1.466846e+02 2.967242e+01 4.697413e+02 9.452960e+01 7.330302e+02 8.567285e+01 4.681787e+02 5.908435e+01 4.357124e-03 2.307814e-02 6.127012e-02 9.209180e-01 7.044238e-01 4.828296e+01 2.261958e+00 1.435557e+02 2.505953e+00 1.664565e+02 1.533943e+00 1.156700e+02 7.755989e+02 4.546424e+02
<GCONST> 3.968398e+02
<MIXTURE> 2 5.000000e-01
<MEAN> 52
 5.264515e+01 1.914681e+02 1.400654e+02 9.509415e+02 4.273439e+01 5.664860e+02 2.643277e+01 5.476776e+02 2.354261e+01 4.189007e+02 2.225632e+01 4.415757e+02 -6.120994e+01 2.261102e+02 -1.261266e+02 1.188671e+03 -3.967877e+01 1.129098e+03 -2.822038e+01 1.234399e+03 -2.275802e+01 1.016561e+03 -2.068800e+01 9.993138e+02 6.742159e+01 -5.638451e+02 -6.268302e-03 1.110029e-02 -2.616981e-01 -1.340655e-01 -1.743308e+00 -1.746119e+00 -2.795947e+00 -2.751738e+00 -3.324402e+00 -2.226315e+00 -2.728666e+00 -1.820354e+00 -7.730651e-03 -2.341971e-02 -7.947413e-02 -3.075404e-01 -4.455646e-01 -3.863838e-01 -7.802531e-01 -4.861606e-01 -7.453386e-01 -2.797365e-03 -5.783780e-01 1.391220e-02 -2.791365e+00 -9.856142e+00
<VARIANCE> 52
 9.171322e+01 6.637073e+03 1.483368e+03 1.824895e+05 1.282663e+03 3.464346e+05 1.547059e+03 4.956194e+05 1.533783e+03 3.421934e+05 1.116491e+03 3.042444e+05 2.617454e+02 6.248664e+03 2.788278e+03 1.234851e+05 6.879219e+02 4.832842e+05 6.587554e+02 8.239315e+05 4.875615e+02 7.189446e+05 3.567238e+02 5.937255e+05 7.617031e+03 5.557688e+05 1.208774e-02 2.007737e-02 8.591478e-01 1.890215e+00 1.466846e+02 2.967242e+01 4.697413e+02 9.452960e+01 7.330302e+02 8.567285e+01 4.681787e+02 5.908435e+01 4.357124e-03 2.307814e-02 6.127012e-02 9.209180e-01 7.044238e-01 4.828296e+01 2.261958e+00 1.435557e+02 2.505953e+00 1.664565e+02 1.533943e+00 1.156700e+02 7.755989e+02 4.546424e+02
<GCONST> 3.968398e+02
<MIXTURE> 3 2.500000e-01
<MEAN> 52
 5.456049e+01 2.077618e+02 1.477683e+02 1.036379e+03 4.989725e+01 6.842034e+02 3.429930e+01 6.884780e+02 3.137532e+01 5.358953e+02 2.893911e+01 5.518924e+02 -5.797423e+01 2.419199e+02 -1.155658e+02 1.258952e+03 -3.443312e+01 1.268135e+03 -2.308714e+01 1.415940e+03 -1.834186e+01 1.186142e+03 -1.691057e+01 1.153421e+03 8.487671e+01 -4.147453e+02 1.572055e-02 3.943922e-02 -7.631768e-02 1.409047e-01 6.789603e-01 -6.566715e-01 1.538757e+00 -8.072109e-01 2.090504e+00 -3.751221e-01 1.598821e+00 -2.830275e-01 5.471052e-03 6.963270e-03 -2.996852e-02 -1.156114e-01 -2.777047e-01 1.003335e+00 -4.794569e-01 1.910134e+00 -4.287345e-01 2.577563e+00 -3.306731e-01 2.164912e+00 2.778550e+00 -5.591673e+00
<VARIANCE> 52
 9.171322e+01 6.637073e+03 1.483368e+03 1.824895e+05 1.282663e+03 3.464346e+05 1.547059e+03 4.956194e+05 1.533783e+03 3.421934e+05 1.116491e+03 3.042444e+05 2.617454e+02 6.248664e+03 2.788278e+03 1.234851e+05 6.879219e+02 4.832842e+05 6.587554e+02 8.239315e+05 4.875615e+02 7.189446e+05 3.567238e+02 5.937255e+05 7.617031e+03 5.557688e+05 1.208774e-02 2.007737e-02 8.591478e-01 1.890215e+00 1.466846e+02 2.967242e+01 4.697413e+02 9.452960e+01 7.330302e+02 8.567285e+01 4.681787e+02 5.908435e+01 4.357124e-03 2.307814e-02 6.127012e-02 9.209180e-01 7.044238e-01 4.828296e+01 2.261958e+00 1.435557e+02 2.505953e+00 1.664565e+02 1.533943e+00 1.156700e+02 7.755989e+02 4.546424e+02
<GCONST> 3.968398e+02
<STATE> 17
<NUMMIXES> 3
<MIXTURE> 1 2.500000e-01
<MEAN> 52
 5.890887e+01 2.438570e+02 1.633660e+02 1.224450e+03 7.025332e+01 9.711984e+02 5.829979e+01 1.028730e+03 5.572128e+01 8.274594e+02 4.952633e+01 8.263105e+02 -5.161182e+01 2.755582e+02 -9.461327e+01 1.402948e+03 -2.685592e+01 1.599300e+03 -1.549616e+01 1.847466e+03 -1.154341e+01 1.592975e+03 -1.116773e+01 1.523217e+03 1.443638e+02 -1.294261e+02 2.435033e-02 7.407548e-02 1.831049e-01 4.834813e-01 5.192103e-01 1.844518e+00 1.252567e+00 2.989254e+00 1.864927e+00 3.130553e+00 1.469756e+00 2.565002e+00 1.978215e-02 7.243022e-02 7.565574e-02 2.235365e-01 4.319330e-02 2.517292e+00 1.198900e-01 4.318991e+00 1.505015e-01 4.970218e+00 1.076567e-01 4.116655e+00 2.658282e+00 2.540178e+00
<VARIANCE> 52
 9.593729e+01 6.881912e+03 1.594911e+03 1.858556e+05 1.539115e+03 3.976888e+05 2.097762e+03 5.603772e+05 2.113367e+03 4.026183e+05 1.503895e+03 3.590374e+05 2.671209e+02 6.453752e+03 2.938463e+03 1.260818e+05 8.016050e+02 5.251930e+05 8.220420e+02 8.865927e+05 6.875879e+02 7.745689e+05 4.901567e+02 6.415877e+05 1.087681e+04 6.024078e+05 3.587214e-03 4.184984e-02 2.029737e-01 2.341476e+00 1.569662e+00 3.193762e+01 9.035963e+00 7.910374e+01 1.922477e+01 7.807407e+01 1.174913e+01 5.565303e+01 2.241011e-03 5.216729e-02 8.203649e-02 6.588167e-01 4.416390e-01 1.985366e+01 1.577789e+00 5.662954e+01 1.583350e+00 6.377837e+01 9.262418e-01 4.358944e+01 2.590004e+01 2.654166e+02
<GCONST> 3.734575e+02
<MIXTURE> 2 5.000000e-01
<MEAN> 52
 5.303202e+01 1.940826e+02 1.394042e+02 9.657841e+02 4.671439e+01 5.928230e+02 3.081898e+01 5.795801e+02 2.813845e+01 4.467461e+02 2.625828e+01 4.667921e+02 -6.141813e+01 2.273571e+02 -1.271378e+02 1.189900e+03 -4.384349e+01 1.164479e+03 -3.269893e+01 1.282512e+03 -2.727655e+01 1.064918e+03 -2.445142e+01 1.042622e+03 8.178861e+01 -5.951157e+02 -1.158568e-02 -4.866793e-02 -8.721070e-02 -4.346315e-01 -2.325066e-01 -1.546285e+00 -5.510257e-01 -2.347163e+00 -7.658364e-01 -2.171019e+00 -5.868641e-01 -1.911056e+00 -8.621439e-03 -6.461073e-02 -9.619635e-02 -2.634687e-01 -3.555422e-01 -1.561548e-01 -6.337705e-01 -1.961651e-01 -6.044859e-01 1.785368e-01 -4.697920e-01 1.553169e-01 -3.952434e-01 -7.234789e+00
<VARIANCE> 52
 9.593729e+01 6.881912e+03 1.594911e+03 1.858556e+05 1.539115e+03 3.976888e+05 2.097762e+03 5.603772e+05 2.113367e+03 4.026183e+05 1.503895e+03 3.590374e+05 2.671209e+02 6.453752e+03 2.938463e+03 1.260818e+05 8.016050e+02 5.251930e+05 8.220420e+02 8.865927e+05 6.875879e+02 7.745689e+05 4.901567e+02 6.415877e+05 1.087681e+04 6.024078e+05 3.587214e-03 4.184984e-02 2.029737e-01 2.341476e+00 1.569662e+00 3.193762e+01 9.035963e+00 7.910374e+01 1.922477e+01 7.807407e+01 1.174913e+01 5.565303e+01 2.241011e-03 5.216729e-02 8.203649e-02 6.588167e-01 4.416390e-01 1.985366e+01 1.577789e+00 5.662954e+01 1.583350e+00 6.377837e+01 9.262418e-01 4.358944e+01 2.590004e+01 2.654166e+02
<GCONST> 3.734575e+02
<MIXTURE> 3 2.500000e-01
<MEAN> 52
 5.499097e+01 2.106741e+02 1.473915e+02 1.052006e+03 5.456070e+01 7.189481e+02 3.997925e+01 7.292968e+02 3.733273e+01 5.736505e+02 3.401430e+01 5.866316e+02 -5.814936e+01 2.434241e+02 -1.162963e+02 1.260916e+03 -3.818097e+01 1.309419e+03 -2.696467e+01 1.470830e+03 -2.203217e+01 1.240937e+03 -2.002352e+01 1.202820e+03 1.026470e+02 -4.398858e+02 3.929865e-04 -7.753462e-03 2.894506e-03 -1.285939e-01 1.806569e-02 -4.160173e-01 5.017185e-02 -5.683570e-01 1.110849e-01 -4.038281e-01 9.867597e-02 -4.190364e-01 8.464241e-04 -1.893042e-02 -3.891232e-02 -1.011336e-01 -2.226304e-01 7.349941e-01 -3.825503e-01 1.308887e+00 -3.528234e-01 1.775764e+00 -2.773091e-01 1.475763e+00 6.225983e-01 -3.976467e+00
<VARIANCE> 52
 9.593729e+01 6.881912e+03 1.594911e+03 1.858556e+05 1.539115e+03 3.976888e+05 2.097762e+03 5.603772e+05 2.113367e+03 4.026183e+05 1.503895e+03 3.590374e+05 2.671209e+02 6.453752e+03 2.938463e+03 1.260818e+05 8.016050e+02 5.251930e+05 8.220420e+02 8.865927e+05 6.875879e+02 7.745689e+05 4.901567e+02 6.415877e+05 1.087681e+04 6.024078e+05 3.587214e-03 4.184984e-02 2.029737e-01 2.341476e+00 1.569662e+00 3.193762e+01 9.035963e+00 7.910374e+01 1.922477e+01 7.807407e+01 1.174913e+01 5.565303e+01 2.241011e-03 5.216729e-02 8.203649e-02 6.588167e-01 4.416390e-01 1.985366e+01 1.577789e+00 5.662954e+01 1.583350e+00 6.377837e+01 9.262418e-01 4.358944e+01 2.590004e+01 2.654166e+02
<GCONST> 3.734575e+02
<STATE> 18
<NUMMIXES> 3
<MIXTURE> 1 2.500000e-01
<MEAN> 52
 5.913619e+01 2.409021e+02 1.651687e+02 1.205821e+03 7.096539e+01 9.194572e+02 5.844498e+01 9.661262e+02 5.621596e+01 7.626505e+02 4.997200e+01 7.649589e+02 -5.117603e+01 2.728013e+02 -9.533588e+01 1.391211e+03 -2.769541e+01 1.599461e+03 -1.634896e+01 1.852324e+03 -1.181636e+01 1.603623e+03 -1.148525e+01 1.531408e+03 1.419220e+02 -1.563341e+02 5.101638e-02 9.569284e-02 8.713353e-02 3.823314e-01 4.006981e-01 9.778792e-01 6.313714e-01 1.462953e+00 7.252738e-01 1.577595e+00 5.500958e-01 1.349568e+00 2.923876e-02 6.436014e-02 8.157214e-02 1.662559e-01 6.687996e-02 2.448797e+00 1.637697e-01 3.548068e+00 2.868559e-01 4.399494e+00 1.645280e-01 3.725338e+00 1.684321e+00 1.909558e+00
<VARIANCE> 52
 9.871481e+01 6.822619e+03 1.673545e+03 1.801739e+05 1.682168e+03 3.610565e+05 2.213914e+03 5.037918e+05 2.273281e+03 3.393010e+05 1.628930e+03 3.043398e+05 2.623040e+02 6.526058e+03 3.200427e+03 1.286704e+05 8.435664e+02 5.520328e+05 8.188379e+02 9.341965e+05 7.092373e+02 8.193832e+05 5.244531e+02 6.784645e+05 9.890938e+03 6.871618e+05 8.602593e-03 7.328872e-02 9.034666e-02 8.598356e-01 4.553243e-01 9.242072e+00 1.075020e+00 2.476357e+01 1.439796e+00 2.433040e+01 8.551482e-01 1.806428e+01 4.042925e-03 5.480961e-02 7.689272e-02 4.768330e-01 3.646223e-01 2.241906e+01 1.303426e+00 4.681850e+01 1.572250e+00 6.170332e+01 7.701085e-01 4.505478e+01 6.047332e+00 1.328509e+02
<GCONST> 3.575604e+02
<MIXTURE> 2 5.000000e-01
<MEAN> 52
 5.317487e+01 1.913426e+02 1.406233e+02 9.511392e+02 4.635684e+01 5.589293e+02 3.021363e+01 5.402564e+02 2.760859e+01 4.131532e+02 2.575600e+01 4.339569e+02 -6.089351e+01 2.243309e+02 -1.292793e+02 1.175987e+03 -4.512193e+01 1.153667e+03 -3.351817e+01 1.272401e+03 -2.779526e+01 1.060504e+03 -2.522582e+01 1.037194e+03 8.225006e+01 -6.537054e+02 -4.633713e-03 -6.673850e-02 -9.321280e-02 -1.740325e-01 -4.168257e-03 -8.461674e-01 9.272352e-03 -1.522827e+00 5.324796e-03 -1.381956e+00 -4.749551e-03 -1.200558e+00 -8.911639e-03 -7.610857e-02 -8.480509e-02 -2.480627e-01 -2.954238e-01 -3.921291e-01 -5.212365e-01 -5.573752e-01 -4.654805e-01 -3.135931e-01 -3.620070e-01 -3.020332e-01 2.088415e-01 -5.006101e+00
<VARIANCE> 52
 9.871481e+01 6.822619e+03 1.673545e+03 1.801739e+05 1.682168e+03 3.610565e+05 2.213914e+03 5.037918e+05 2.273281e+03 3.393010e+05 1.628930e+03 3.043398e+05 2.623040e+02 6.526058e+03 3.200427e+03 1.286704e+05 8.435664e+02 5.520328e+05 8.188379e+02 9.341965e+05 7.092373e+02 8.193832e+05 5.244531e+02 6.784645e+05 9.890938e+03 6.871618e+05 8.602593e-03 7.328872e-02 9.034666e-02 8.598356e-01 4.553243e-01 9.242072e+00 1.075020e+00 2.476357e+01 1.439796e+00 2.433040e+01 8.551482e-01 1.806428e+01 4.042925e-03 5.480961e-02 7.689272e-02 4.768330e-01 3.646223e-01 2.241906e+01 1.303426e+00 4.681850e+01 1.572250e+00 6.170332e+01 7.701085e-01 4.505478e+01 6.047332e+00 1.328509e+02
<GCONST> 3.575604e+02
<MIXTURE> 3 2.500000e-01
<MEAN> 52
 5.516198e+01 2.078624e+02 1.488051e+02 1.036033e+03 5.455968e+01 6.791053e+02 3.962408e+01 6.822130e+02 3.714438e+01 5.296523e+02 3.382800e+01 5.442909e+02 -5.765435e+01 2.404877e+02 -1.179648e+02 1.247728e+03 -3.931309e+01 1.302265e+03 -2.779510e+01 1.465709e+03 -2.246896e+01 1.241544e+03 -2.064563e+01 1.201932e+03 1.021407e+02 -4.879150e+02 1.391632e-02 -1.259472e-02 -3.309736e-02 1.142213e-02 1.307872e-01 -2.381519e-01 2.166387e-01 -5.275669e-01 2.453078e-01 -3.954390e-01 1.801989e-01 -3.505160e-01 3.805161e-03 -2.928567e-02 -2.934601e-02 -1.099565e-01 -1.746559e-01 5.548463e-01 -2.929011e-01 8.111057e-01 -2.147017e-01 1.257436e+00 -1.864953e-01 1.040424e+00 7.006679e-01 -2.700881e+00
<VARIANCE> 52
 9.871481e+01 6.822619e+03 1.673545e+03 1.801739e+05 1.682168e+03 3.610565e+05 2.213914e+03 5.037918e+05 2.273281e+03 3.393010e+05 1.628930e+03 3.043398e+05 2.623040e+02 6.526058e+03 3.200427e+03 1.286704e+05 8.435664e+02 5.520328e+05 8.188379e+02 9.341965e+05 7.092373e+02 8.193832e+05 5.244531e+02 6.784645e+05 9.890938e+03 6.871618e+05 8.602593e-03 7.328872e-02 9.034666e-02 8.598356e-01 4.553243e-01 9.242072e+00 1.075020e+00 2.476357e+01 1.439796e+00 2.433040e+01 8.551482e-01 1.806428e+01 4.042925e-03 5.480961e-02 7.689272e-02 4.768330e-01 3.646223e-01 2.241906e+01 1.303426e+00 4.681850e+01 1.572250e+00 6.170332e+01 7.701085e-01 4.505478e+01 6.047332e+00 1.328509e+02
<GCONST> 3.575604e+02
<STATE> 19
<NUMMIXES> 3
<MIXTURE> 1 2.500000e-01
<MEAN> 52
 5.942341e+01 2.415120e+02 1.652918e+02 1.208274e+03 7.337805e+01 9.174911e+02 6.160392e+01 9.627841e+02 5.931385e+01 7.594071e+02 5.277626e+01 7.625320e+02 -5.111076e+01 2.724089e+02 -9.639471e+01 1.386145e+03 -2.990932e+01 1.622450e+03 -1.865872e+01 1.887843e+03 -1.361271e+01 1.644042e+03 -1.291655e+01 1.566343e+03 1.518432e+02 -1.684781e+02 4.437355e-02 5.694424e-02 1.821870e-01 4.472635e-01 1.998772e-01 2.280025e-01 4.177283e-01 3.357872e-01 4.333896e-01 2.745373e-01 3.456535e-01 2.426012e-01 3.135836e-02 3.694701e-02 7.857603e-02 1.683484e-01 3.224479e-02 7.197068e-01 8.779725e-02 1.323866e+00 1.320476e-01 1.686725e+00 1.019274e-01 1.337040e+00 1.184585e+00 7.013125e-01
<VARIANCE> 52
 1.021075e+02 6.916320e+03 1.724466e+03 1.805535e+05 1.849422e+03 3.607028e+05 2.510633e+03 5.005768e+05 2.561500e+03 3.379775e+05 1.850969e+03 3.039645e+05 2.653665e+02 6.614741e+03 3.255669e+03 1.299038e+05 8.660921e+02 5.761995e+05 8.167737e+02 9.802479e+05 6.828862e+02 8.732838e+05 5.213860e+02 7.215343e+05 1.128988e+04 7.364844e+05 1.021322e-02 2.298564e-02 2.933089e-01 1.164809e+00 1.540835e-01 7.587543e-01 6.361227e-01 1.647381e+00 7.078846e-01 1.640096e+00 4.295499e-01 1.173114e+00 4.989577e-03 1.575039e-02 7.787000e-02 4.555267e-01 2.792974e-01 1.627688e+00 9.598408e-01 5.335474e+00 8.659631e-01 8.147898e+00 4.578303e-01 5.100154e+00 2.835919e+00 2.024776e+01
<GCONST> 3.309950e+02
<MIXTURE> 2 5.000000e-01
<MEAN> 52
 5.336052e+01 1.916133e+02 1.403758e+02 9.533248e+02 4.757511e+01 5.571400e+02 3.154019e+01 5.382753e+02 2.894709e+01 4.105921e+02 2.696253e+01 4.317342e+02 -6.088480e+01 2.236103e+02 -1.306298e+02 1.169892e+03 -4.756699e+01 1.167003e+03 -3.580627e+01 1.293798e+03 -2.929197e+01 1.083344e+03 -2.661688e+01 1.056684e+03 8.809093e+01 -6.833901e+02 -1.626274e-02 -3.402186e-02 -1.427610e-01 -2.002943e-01 -3.564361e-02 -2.946365e-01 -6.081548e-02 -4.343149e-01 -7.142570e-02 -4.938601e-01 -4.758690e-02 -4.072611e-01 -1.102380e-02 -3.835332e-02 -8.885515e-02 -2.366079e-01 -2.848468e-01 -4.577847e-02 -5.000315e-01 -6.205228e-02 -4.262953e-01 -2.594596e-02 -3.040516e-01 -1.797131e-02 1.741738e-01 -1.998538e+00
<VARIANCE> 52
 1.021075e+02 6.916320e+03 1.724466e+03 1.805535e+05 1.849422e+03 3.607028e+05 2.510633e+03 5.005768e+05 2.561500e+03 3.379775e+05 1.850969e+03 3.039645e+05 2.653665e+02 6.614741e+03 3.255669e+03 1.299038e+05 8.660921e+02 5.761995e+05 8.167737e+02 9.802479e+05 6.828862e+02 8.732838e+05 5.213860e+02 7.215343e+05 1.128988e+04 7.364844e+05 1.021322e-02 2.298564e-02 2.933089e-01 1.164809e+00 1.540835e-01 7.587543e-01 6.361227e-01 1.647381e+00 7.078846e-01 1.640096e+00 4.295499e-01 1.173114e+00 4.989577e-03 1.575039e-02 7.787000e-02 4.555267e-01 2.792974e-01 1.627688e+00 9.598408e-01 5.335474e+00 8.659631e-01 8.147898e+00 4.578303e-01 5.100154e+00 2.835919e+00 2.024776e+01
<GCONST> 3.309950e+02
<MIXTURE> 3 2.500000e-01
<MEAN> 52
 5.538148e+01 2.082462e+02 1.486811e+02 1.038308e+03 5.617609e+01 6.772570e+02 4.156143e+01 6.797782e+02 3.906934e+01 5.268638e+02 3.556711e+01 5.420002e+02 -5.762679e+01 2.398765e+02 -1.192181e+02 1.241976e+03 -4.168110e+01 1.318819e+03 -3.009042e+01 1.491813e+03 -2.406555e+01 1.270243e+03 -2.205010e+01 1.226570e+03 1.093417e+02 -5.117528e+02 3.949359e-03 -3.699830e-03 -3.444499e-02 1.555829e-02 4.286334e-02 -1.204235e-01 9.869912e-02 -1.776142e-01 9.684606e-02 -2.377276e-01 8.349322e-02 -1.906403e-01 3.103585e-03 -1.325321e-02 -3.304475e-02 -1.016225e-01 -1.791496e-01 2.093833e-01 -3.040886e-01 3.999206e-01 -2.401810e-01 5.449445e-01 -1.687253e-01 4.336991e-01 5.109775e-01 -1.098588e+00
<VARIANCE> 52
 1.021075e+02 6.916320e+03 1.724466e+03 1.805535e+05 1.849422e+03 3.607028e+05 2.510633e+03 5.005768e+05 2.561500e+03 3.379775e+05 1.850969e+03 3.039645e+05 2.653665e+02 6.614741e+03 3.255669e+03 1.299038e+05 8.660921e+02 5.761995e+05 8.167737e+02 9.802479e+05 6.828862e+02 8.732838e+05 5.213860e+02 7.215343e+05 1.128988e+04 7.364844e+05 1.021322e-02 2.298564e-02 2.933089e-01 1.164809e+00 1.540835e-01 7.587543e-01 6.361227e-01 1.647381e+00 7.078846e-01 1.640096e+00 4.295499e-01 1.173114e+00 4.989577e-03 1.575039e-02 7.787000e-02 4.555267e-01 2.792974e-01 1.627688e+00 9.598408e-01 5.335474e+00 8.659631e-01 8.147898e+00 4.578303e-01 5.100154e+00 2.835919e+00 2.024776e+01
<GCONST> 3.309950e+02
<TRANSP> 20
 0.000000e+00 1.000000e+00 0.000000e+00 0.000000e+00 0.000000e+00 0.000000e+00 0.000000e+00 0.000000e+00 0.000000e+00 0.000000e+00 0.000000e+00 0.000000e+00 0.000000e+00 0.000000e+00 0.000000e+00 0.000000e+00 0.000000e+00 0.000000e+00 0.000000e+00 0.000000e+00
 0.000000e+00 2.126070e-02 9.787393e-01 0.000000e+00 0.000000e+00 0.000000e+00 0.000000e+00 0.000000e+00 0.000000e+00 0.000000e+00 0.000000e+00 0.000000e+00 0.000000e+00 0.000000e+00 0.000000e+00 0.000000e+00 0.000000e+00 0.000000e+00 0.000000e+00 0.000000e+00
 0.000000e+00 0.000000e+00 8.072513e-02 9.192749e-01 0.000000e+00 0.000000e+00 0.000000e+00 0.000000e+00 0.000000e+00 0.000000e+00 0.000000e+00 0.000000e+00 0.000000e+00 0.000000e+00 0.000000e+00 0.000000e+00 0.000000e+00 0.000000e+00 0.000000e+00 0.000000e+00
 0.000000e+00 0.000000e+00 0.000000e+00 5.664787e-02 9.433521e-01 0.000000e+00 0.000000e+00 0.000000e+00 0.000000e+00 0.000000e+00 0.000000e+00 0.000000e+00 0.000000e+00 0.000000e+00 0.000000e+00 0.000000e+00 0.000000e+00 0.000000e+00 0.000000e+00 0.000000e+00
 0.000000e+00 0.000000e+00 0.000000e+00 0.000000e+00 1.073257e-01 8.926743e-01 0.000000e+00 0.000000e+00 0.000000e+00 0.000000e+00 0.000000e+00 0.000000e+00 0.000000e+00 0.000000e+00 0.000000e+00 0.000000e+00 0.000000e+00 0.000000e+00 0.000000e+00 0.000000e+00
 0.000000e+00 0.000000e+00 0.000000e+00 0.000000e+00 0.000000e+00 9.138416e-03 9.908616e-01 0.000000e+00 0.000000e+00 0.000000e+00 0.000000e+00 0.000000e+00 0.000000e+00 0.000000e+00 0.000000e+00 0.000000e+00 0.000000e+00 0.000000e+00 0.000000e+00 0.000000e+00
 0.000000e+00 0.000000e+00 0.000000e+00 0.000000e+00 0.000000e+00 0.000000e+00 1.021657e-01 8.978343e-01 0.000000e+00 0.000000e+00 0.000000e+00 0.000000e+00 0.000000e+00 0.000000e+00 0.000000e+00 0.000000e+00 0.000000e+00 0.000000e+00 0.000000e+00 0.000000e+00
 0.000000e+00 0.000000e+00 0.000000e+00 0.000000e+00 0.000000e+00 0.000000e+00 0.000000e+00 8.715869e-03 9.912841e-01 0.000000e+00 0.000000e+00 0.000000e+00 0.000000e+00 0.000000e+00 0.000000e+00 0.000000e+00 0.000000e+00 0.000000e+00 0.000000e+00 0.000000e+00
 0.000000e+00 0.000000e+00 0.000000e+00 0.000000e+00 0.000000e+00 0.000000e+00 0.000000e+00 0.000000e+00 4.149289e-02 9.585071e-01 0.000000e+00 0.000000e+00 0.000000e+00 0.000000e+00 0.000000e+00 0.000000e+00 0.000000e+00 0.000000e+00 0.000000e+00 0.000000e+00
 0.000000e+00 0.000000e+00 0.000000e+00 0.000000e+00 0.000000e+00 0.000000e+00 0.000000e+00 0.000000e+00 0.000000e+00 4.951236e-02 9.504876e-01 0.000000e+00 0.000000e+00 0.000000e+00 0.000000e+00 0.000000e+00 0.000000e+00 0.000000e+00 0.000000e+00 0.000000e+00
 0.000000e+00 0.000000e+00 0.000000e+00 0.000000e+00 0.000000e+00 0.000000e+00 0.000000e+00 0.000000e+00 0.000000e+00 0.000000e+00 1.396590e-01 8.603410e-01 0.000000e+00 0.000000e+00 0.000000e+00 0.000000e+00 0.000000e+00 0.000000e+00 0.000000e+00 0.000000e+00
 0.000000e+00 0.000000e+00 0.000000e+00 0.000000e+00 0.000000e+00 0.000000e+00 0.000000e+00 0.000000e+00 0.000000e+00 0.000000e+00 0.000000e+00 1.459976e-01 8.540024e-01 0.000000e+00 0.000000e+00 0.000000e+00 0.000000e+00 0.000000e+00 0.000000e+00 0.000000e+00
 0.000000e+00 0.000000e+00 0.000000e+00 0.000000e+00 0.000000e+00 0.000000e+00 0.000000e+00 0.000000e+00 0.000000e+00 0.000000e+00 0.000000e+00 0.000000e+00 5.792113e-02 9.420789e-01 0.000000e+00 0.000000e+00 0.000000e+00 0.000000e+00 0.000000e+00 0.000000e+00
 0.000000e+00 0.000000e+00 0.000000e+00 0.000000e+00 0.000000e+00 0.000000e+00 0.000000e+00 0.000000e+00 0.000000e+00 0.000000e+00 0.000000e+00 0.000000e+00 0.000000e+00 7.924142e-02 9.207586e-01 0.000000e+00 0.000000e+00 0.000000e+00 0.000000e+00 0.000000e+00
 0.000000e+00 0.000000e+00 0.000000e+00 0.000000e+00 0.000000e+00 0.000000e+00 0.000000e+00 0.000000e+00 0.000000e+00 0.000000e+00 0.000000e+00 0.000000e+00 0.000000e+00 0.000000e+00 9.223730e-02 9.077627e-01 0.000000e+00 0.000000e+00 0.000000e+00 0.000000e+00
 0.000000e+00 0.000000e+00 0.000000e+00 0.000000e+00 0.000000e+00 0.000000e+00 0.000000e+00 0.000000e+00 0.000000e+00 0.000000e+00 0.000000e+00 0.000000e+00 0.000000e+00 0.000000e+00 0.000000e+00 2.963877e-02 9.703612e-01 0.000000e+00 0.000000e+00 0.000000e+00
 0.000000e+00 0.000000e+00 0.000000e+00 0.000000e+00 0.000000e+00 0.000000e+00 0.000000e+00 0.000000e+00 0.000000e+00 0.000000e+00 0.000000e+00 0.000000e+00 0.000000e+00 0.000000e+00 0.000000e+00 0.000000e+00 4.139509e-02 9.586049e-01 0.000000e+00 0.000000e+00
 0.000000e+00 0.000000e+00 0.000000e+00 0.000000e+00 0.000000e+00 0.000000e+00 0.000000e+00 0.000000e+00 0.000000e+00 0.000000e+00 0.000000e+00 0.000000e+00 0.000000e+00 0.000000e+00 0.000000e+00 0.000000e+00 0.000000e+00 9.507637e-09 1.000000e+00 0.000000e+00
 0.000000e+00 0.000000e+00 0.000000e+00 0.000000e+00 0.000000e+00 0.000000e+00 0.000000e+00 0.000000e+00 0.000000e+00 0.000000e+00 0.000000e+00 0.000000e+00 0.000000e+00 0.000000e+00 0.000000e+00 0.000000e+00 0.000000e+00 0.000000e+00 1.168064e-06 9.999988e-01
 0.000000e+00 0.000000e+00 0.000000e+00 0.000000e+00 0.000000e+00 0.000000e+00 0.000000e+00 0.000000e+00 0.000000e+00 0.000000e+00 0.000000e+00 0.000000e+00 0.000000e+00 0.000000e+00 0.000000e+00 0.000000e+00 0.000000e+00 0.000000e+00 0.000000e+00 0.000000e+00
<ENDHMM>
~h "orange"
<BEGINHMM>
<NUMSTATES> 20
<STATE> 2
<NUMMIXES> 3
<MIXTURE> 1 2.500000e-01
<MEAN> 52
 5.563980e+01 2.070865e+02 1.197295e+02 9.676251e+02 3.008689e+01 4.787362e+02 2.147980e+01 4.674506e+02 1.821924e+01 3.788643e+02 1.686383e+01 3.943874e+02 -4.957522e+01 2.354719e+02 -1.028435e+02 1.243026e+03 -3.259164e+01 2.078456e+03 -2.520476e+01 2.554224e+03 -1.367386e+01 2.403419e+03 -1.241067e+01 2.246736e+03 9.152979e+01 -9.605895e+02 7.474290e-02 8.917548e-02 1.610766e-01 6.543312e-01 4.091513e-01 4.467424e-01 6.644449e-01 6.773843e-01 6.378346e-01 6.235580e-01 5.698265e-01 4.944725e-01 5.735359e-02 5.580593e-02 1.098452e-01 6.516532e-01 1.086242e-01 1.060123e+00 1.640754e-01 1.359629e+00 1.559414e-01 1.264446e+00 1.263496e-01 1.086320e+00 7.653321e-01 7.038265e-01
<VARIANCE> 52
 8.258989e+01 4.386657e+03 1.215500e+03 8.985053e+04 7.994219e+02 1.683200e+05 8.519531e+02 2.356155e+05 5.035078e+02 1.669620e+05 4.108672e+02 1.551855e+05 3.332320e+02 4.586290e+03 2.583574e+03 1.236280e+05 1.841004e+03 7.559636e+05 2.942054e+03 1.253718e+06 1.929451e+03 1.276273e+06 1.309061e+03 1.055965e+06 6.591531e+03 1.335766e+06 2.025282e-02 3.830391e-02 2.814955e-01 1.645487e+00 8.144957e-01 1.245609e+00 2.221880e+00 3.458714e+00 1.860959e+00 3.218951e+00 1.449641e+00 1.846126e+00 1.191630e-02 1.786863e-02 3.850447e-02 1.474509e+00 8.802699e-02 2.581755e+00 2.535742e-01 4.204656e+00 1.739845e-01 3.620801e+00 1.057352e-01 2.700754e+00 2.634174e+00 1.968565e+01
<GCONST> 3.297946e+02
<MIXTURE> 2 5.000000e-01
<MEAN> 52
 5.018706e+01 1.673474e+02 9.881110e+01 7.877747e+02 1.312246e+01 2.325753e+02 3.966857e+00 1.762091e+02 4.755857e+00 1.336984e+02 4.701918e+00 1.580258e+02 -6.052801e+01 1.948386e+02 -1.333408e+02 1.032062e+03 -5.833579e+01 1.556779e+03 -5.774918e+01 1.882407e+03 -4.002917e+01 1.725586e+03 -3.411924e+01 1.630175e+03 4.281685e+01 -1.654042e+03 -1.064454e-02 -2.825284e-02 -1.572603e-01 -1.153281e-01 -1.323453e-01 -2.228988e-01 -2.299134e-01 -4.384728e-01 -1.806672e-01 -4.529282e-01 -1.525798e-01 -3.207608e-01 -8.143492e-03 -2.439822e-02 -7.890154e-03 -7.692292e-02 -6.939182e-02 9.605241e-02 -1.380616e-01 1.293134e-01 -9.432728e-02 1.227423e-01 -6.875213e-02 1.002813e-01 -2.084763e-01 -1.958284e+00
<VARIANCE> 52
 8.258989e+01 4.386657e+03 1.215500e+03 8.985053e+04 7.994219e+02 1.683200e+05 8.519531e+02 2.356155e+05 5.035078e+02 1.669620e+05 4.108672e+02 1.551855e+05 3.332320e+02 4.586290e+03 2.583574e+03 1.236280e+05 1.841004e+03 7.559636e+05 2.942054e+03 1.253718e+06 1.929451e+03 1.276273e+06 1.309061e+03 1.055965e+06 6.591531e+03 1.335766e+06 2.025282e-02 3.830391e-02 2.814955e-01 1.645487e+00 8.144957e-01 1.245609e+00 2.221880e+00 3.458714e+00 1.860959e+00 3.218951e+00 1.449641e+00 1.846126e+00 1.191630e-02 1.786863e-02 3.850447e-02 1.474509e+00 8.802699e-02 2.581755e+00 2.535742e-01 4.204656e+00 1.739845e-01 3.620801e+00 1.057352e-01 2.700754e+00 2.634174e+00 1.968565e+01
<GCONST> 3.297946e+02
<MIXTURE> 3 2.500000e-01
<MEAN> 52
 5.200464e+01 1.805938e+02 1.057839e+02 8.477248e+02 1.877727e+01 3.146289e+02 9.804504e+00 2.732896e+02 9.243652e+00 2.154204e+02 8.755890e+00 2.368130e+02 -5.687708e+01 2.083830e+02 -1.231750e+02 1.102383e+03 -4.975441e+01 1.730671e+03 -4.690104e+01 2.106346e+03 -3.124407e+01 1.951530e+03 -2.688305e+01 1.835695e+03 5.905450e+01 -1.422891e+03 1.781794e-02 1.088993e-02 -5.114803e-02 1.412250e-01 4.815358e-02 3.149658e-04 6.820604e-02 -6.652048e-02 9.216672e-02 -9.409946e-02 8.822232e-02 -4.901639e-02 1.368887e-02 2.336495e-03 3.135496e-02 1.659358e-01 -1.005313e-02 4.174092e-01 -3.734925e-02 5.394186e-01 -1.090438e-02 5.033103e-01 -3.718238e-03 4.289607e-01 1.161265e-01 -1.070914e+00
<VARIANCE> 52
 8.258989e+01 4.386657e+03 1.215500e+03 8.985053e+04 7.994219e+02 1.683200e+05 8.519531e+02 2.356155e+05 5.035078e+02 1.669620e+05 4.108672e+02 1.551855e+05 3.332320e+02 4.586290e+03 2.583574e+03 1.236280e+05 1.841004e+03 7.559636e+05 2.942054e+03 1.253718e+06 1.929451e+03 1.276273e+06 1.309061e+03 1.055965e+06 6.591531e+03 1.335766e+06 2.025282e-02 3.830391e-02 2.814955e-01 1.645487e+00 8.144957e-01 1.245609e+00 2.221880e+00 3.458714e+00 1.860959e+00 3.218951e+00 1.449641e+00 1.846126e+00 1.191630e-02 1.786863e-02 3.850447e-02 1.474509e+00 8.802699e-02 2.581755e+00 2.535742e-01 4.204656e+00 1.739845e-01 3.620801e+00 1.057352e-01 2.700754e+00 2.634174e+00 1.968565e+01
<GCONST> 3.297946e+02
<STATE> 3
<NUMMIXES> 3
<MIXTURE> 1 2.500000e-01
<MEAN> 52
 5.521698e+01 2.093280e+02 1.207937e+02 9.838041e+02 2.996633e+01 4.686898e+02 2.077659e+01 4.396277e+02 1.799329e+01 3.505357e+02 1.665011e+01 3.703875e+02 -5.021881e+01 2.376714e+02 -1.039867e+02 1.253855e+03 -3.293958e+01 2.085286e+03 -2.559204e+01 2.559116e+03 -1.404307e+01 2.403973e+03 -1.270865e+01 2.248710e+03 9.028932e+01 -9.662320e+02 3.117473e-02 8.944084e-02 1.652750e-01 6.087843e-01 3.744521e-01 1.667510e+00 5.683337e-01 2.526384e+00 5.201228e-01 1.898746e+00 4.403203e-01 1.511722e+00 2.947308e-02 9.320021e-02 1.542659e-01 3.232747e-01 1.015701e-01 1.396360e+00 1.281442e-01 2.369458e+00 1.532034e-01 2.405887e+00 1.371156e-01 2.011535e+00 7.067176e-01 2.604807e+00
<VARIANCE> 52
 8.001218e+01 4.551545e+03 1.320717e+03 9.813280e+04 7.190820e+02 1.531842e+05 7.235469e+02 1.990950e+05 4.424297e+02 1.370360e+05 3.599531e+02 1.296850e+05 3.303796e+02 4.748721e+03 2.479958e+03 1.243241e+05 1.922646e+03 7.341359e+05 3.022742e+03 1.215000e+06 1.982123e+03 1.230405e+06 1.357061e+03 1.019756e+06 5.733438e+03 1.252486e+06 1.096908e-02 5.596535e-02 2.468026e-01 1.287155e+00 9.494114e-01 1.496659e+01 2.027104e+00 4.917144e+01 1.554513e+00 3.797157e+01 1.174529e+00 2.372262e+01 9.041668e-03 4.629670e-02 1.690449e-01 3.565643e-01 9.899776e-02 5.561435e+00 1.690856e-01 1.636936e+01 1.897763e-01 1.841557e+01 1.447688e-01 1.305159e+01 2.834593e+00 1.523844e+02
<GCONST> 3.461079e+02
<MIXTURE> 2 5.000000e-01
<MEAN> 52
 4.985001e+01 1.688489e+02 9.898867e+01 7.958472e+02 1.387691e+01 2.338573e+02 4.637295e+00 1.719074e+02 5.372879e+00 1.284254e+02 5.266656e+00 1.543167e+02 -6.112462e+01 1.963248e+02 -1.338662e+02 1.042297e+03 -5.924837e+01 1.571196e+03 -5.857971e+01 1.897754e+03 -4.075570e+01 1.738432e+03 -3.481164e+01 1.642812e+03 4.485764e+01 -1.637719e+03 -3.166530e-02 -5.250114e-02 -1.328004e-01 -7.193282e-02 -2.101744e-01 -6.536909e-01 -2.859247e-01 -1.680957e+00 -2.279578e-01 -1.798518e+00 -2.099338e-01 -1.410630e+00 -2.757953e-02 -3.589980e-02 -9.242457e-02 -3.500332e-02 -8.721337e-02 -1.860160e-02 -1.185759e-01 -5.808586e-02 -1.081765e-01 -1.689145e-01 -9.117544e-02 -1.560842e-01 -3.034574e-01 -4.801838e+00
<VARIANCE> 52
 8.001218e+01 4.551545e+03 1.320717e+03 9.813280e+04 7.190820e+02 1.531842e+05 7.235469e+02 1.990950e+05 4.424297e+02 1.370360e+05 3.599531e+02 1.296850e+05 3.303796e+02 4.748721e+03 2.479958e+03 1.243241e+05 1.922646e+03 7.341359e+05 3.022742e+03 1.215000e+06 1.982123e+03 1.230405e+06 1.357061e+03 1.019756e+06 5.733438e+03 1.252486e+06 1.096908e-02 5.596535e-02 2.468026e-01 1.287155e+00 9.494114e-01 1.496659e+01 2.027104e+00 4.917144e+01 1.554513e+00 3.797157e+01 1.174529e+00 2.372262e+01 9.041668e-03 4.629670e-02 1.690449e-01 3.565643e-01 9.899776e-02 5.561435e+00 1.690856e-01 1.636936e+01 1.897763e-01 1.841557e+01 1.447688e-01 1.305159e+01 2.834593e+00 1.523844e+02
<GCONST> 3.461079e+02
<MIXTURE> 3 2.500000e-01
<MEAN> 52
 5.163900e+01 1.823419e+02 1.062570e+02 8.584995e+02 1.924005e+01 3.121348e+02 1.001706e+01 2.611475e+02 9.579681e+00 2.024622e+02 9.061142e+00 2.263403e+02 -5.748935e+01 2.101070e+02 -1.239064e+02 1.112816e+03 -5.047878e+01 1.742559e+03 -4.758382e+01 2.118208e+03 -3.185149e+01 1.960279e+03 -2.744398e+01 1.844778e+03 6.000153e+01 -1.413890e+03 -1.071862e-02 -5.187146e-03 -3.344190e-02 1.549729e-01 -1.529893e-02 1.200426e-01 -1.171887e-03 -2.785100e-01 2.140240e-02 -5.660965e-01 6.817535e-03 -4.365125e-01 -8.561993e-03 7.133532e-03 -1.019443e-02 8.442269e-02 -2.428555e-02 4.530523e-01 -3.633587e-02 7.510954e-01 -2.104985e-02 6.893528e-01 -1.507844e-02 5.664555e-01 3.326759e-02 -2.332956e+00
<VARIANCE> 52
 8.001218e+01 4.551545e+03 1.320717e+03 9.813280e+04 7.190820e+02 1.531842e+05 7.235469e+02 1.990950e+05 4.424297e+02 1.370360e+05 3.599531e+02 1.296850e+05 3.303796e+02 4.748721e+03 2.479958e+03 1.243241e+05 1.922646e+03 7.341359e+05 3.022742e+03 1.215000e+06 1.982123e+03 1.230405e+06 1.357061e+03 1.019756e+06 5.733438e+03 1.252486e+06 1.096908e-02 5.596535e-02 2.468026e-01 1.287155e+00 9.494114e-01 1.496659e+01 2.027104e+00 4.917144e+01 1.554513e+00 3.797157e+01 1.174529e+00 2.372262e+01 9.041668e-03 4.629670e-02 1.690449e-01 3.565643e-01 9.899776e-02 5.561435e+00 1.690856e-01 1.636936e+01 1.897763e-01 1.841557e+01 1.447688e-01 1.305159e+01 2.834593e+00 1.523844e+02
<GCONST> 3.461079e+02
<STATE> 4
<NUMMIXES> 3
<MIXTURE> 1 2.500000e-01
<MEAN> 52
 5.505972e+01 2.110857e+02 1.179229e+02 9.922213e+02 2.924995e+01 4.379003e+02 1.998340e+01 3.980451e+02 1.785748e+01 3.134038e+02 1.639470e+01 3.362925e+02 -5.027338e+01 2.389475e+02 -1.036173e+02 1.257773e+03 -3.398221e+01 2.108728e+03 -2.649509e+01 2.594010e+03 -1.457248e+01 2.435170e+03 -1.314127e+01 2.276376e+03 9.120616e+01 -1.009887e+03 4.104794e-02 5.722446e-02 1.349250e-01 1.082876e+00 4.179887e-01 1.646302e+00 6.691445e-01 2.681419e+00 5.686854e-01 2.324156e+00 4.758314e-01 1.906846e+00 4.302830e-02 5.418064e-02 1.337326e-01 3.887970e-01 6.234451e-02 1.397980e+00 9.067067e-02 2.185857e+00 7.724524e-02 2.045832e+00 6.624848e-02 1.685087e+00 6.763771e-01 2.573875e+00
<VARIANCE> 52
 7.681711e+01 4.759582e+03 1.209921e+03 1.041587e+05 6.411670e+02 1.287421e+05 6.511543e+02 1.596592e+05 4.072676e+02 1.081099e+05 3.250811e+02 1.045363e+05 3.265146e+02 4.789379e+03 2.387755e+03 1.216315e+05 1.737343e+03 7.260417e+05 2.740239e+03 1.203503e+06 1.775373e+03 1.217785e+06 1.212614e+03 1.007868e+06 5.472430e+03 1.229066e+06 2.082655e-02 1.731873e-02 1.727996e-01 9.196199e+00 7.089870e-01 3.404051e+01 1.712219e+00 9.618967e+01 1.057437e+00 7.513742e+01 7.544329e-01 5.023315e+01 1.247216e-02 1.107450e-02 8.182379e-02 4.253302e-01 5.850727e-02 4.359662e+00 1.538036e-01 1.026119e+01 8.178562e-02 9.178411e+00 5.321430e-02 6.241032e+00 1.428127e+00 2.192481e+02
<GCONST> 3.403655e+02
<MIXTURE> 2 5.000000e-01
<MEAN> 52
 4.980100e+01 1.696919e+02 9.705251e+01 7.985795e+02 1.405719e+01 2.226164e+02 4.672761e+00 1.583008e+02 5.748959e+00 1.161234e+02 5.576700e+00 1.423000e+02 -6.111521e+01 1.974243e+02 -1.329361e+02 1.048519e+03 -5.899108e+01 1.597480e+03 -5.790347e+01 1.935785e+03 -3.985358e+01 1.773050e+03 -3.403483e+01 1.674021e+03 4.682063e+01 -1.675066e+03 -4.554050e-02 -2.173593e-02 -1.144901e-01 -7.366383e-01 -8.721948e-02 -1.854352e+00 -1.159662e-01 -3.203161e+00 -4.830511e-02 -2.876755e+00 -4.531720e-02 -2.345675e+00 -2.397899e-02 -8.960631e-03 -3.789658e-02 -2.507091e-03 -8.278515e-02 1.451919e-01 -1.446362e-01 2.638712e-01 -9.434389e-02 2.280785e-01 -7.216087e-02 1.861633e-01 -4.064855e-02 -6.310342e+00
<VARIANCE> 52
 7.681711e+01 4.759582e+03 1.209921e+03 1.041587e+05 6.411670e+02 1.287421e+05 6.511543e+02 1.596592e+05 4.072676e+02 1.081099e+05 3.250811e+02 1.045363e+05 3.265146e+02 4.789379e+03 2.387755e+03 1.216315e+05 1.737343e+03 7.260417e+05 2.740239e+03 1.203503e+06 1.775373e+03 1.217785e+06 1.212614e+03 1.007868e+06 5.472430e+03 1.229066e+06 2.082655e-02 1.731873e-02 1.727996e-01 9.196199e+00 7.089870e-01 3.404051e+01 1.712219e+00 9.618967e+01 1.057437e+00 7.513742e+01 7.544329e-01 5.023315e+01 1.247216e-02 1.107450e-02 8.182379e-02 4.253302e-01 5.850727e-02 4.359662e+00 1.538036e-01 1.026119e+01 8.178562e-02 9.178411e+00 5.321430e-02 6.241032e+00 1.428127e+00 2.192481e+02
<GCONST> 3.403655e+02
<MIXTURE> 3 2.500000e-01
<MEAN> 52
 5.155391e+01 1.834898e+02 1.040093e+02 8.631268e+02 1.912144e+01 2.943777e+02 9.776306e+00 2.382156e+02 9.785133e+00 1.818835e+02 9.182701e+00 2.069642e+02 -5.750127e+01 2.112654e+02 -1.231632e+02 1.118270e+03 -5.065479e+01 1.767896e+03 -4.743401e+01 2.155193e+03 -3.142655e+01 1.993757e+03 -2.707031e+01 1.874806e+03 6.161581e+01 -1.453340e+03 -1.667769e-02 4.584201e-03 -3.135172e-02 -1.301336e-01 8.118325e-02 -6.874676e-01 1.457374e-01 -1.241634e+00 1.573584e-01 -1.143118e+00 1.283990e-01 -9.281683e-01 -1.643227e-03 1.208646e-02 1.931313e-02 1.279276e-01 -3.440860e-02 5.627880e-01 -6.620055e-02 9.045331e-01 -3.714751e-02 8.339964e-01 -2.602442e-02 6.858045e-01 1.983600e-01 -3.348936e+00
<VARIANCE> 52
 7.681711e+01 4.759582e+03 1.209921e+03 1.041587e+05 6.411670e+02 1.287421e+05 6.511543e+02 1.596592e+05 4.072676e+02 1.081099e+05 3.250811e+02 1.045363e+05 3.265146e+02 4.789379e+03 2.387755e+03 1.216315e+05 1.737343e+03 7.260417e+05 2.740239e+03 1.203503e+06 1.775373e+03 1.217785e+06 1.212614e+03 1.007868e+06 5.472430e+03 1.229066e+06 2.082655e-02 1.731873e-02 1.727996e-01 9.196199e+00 7.089870e-01 3.404051e+01 1.712219e+00 9.618967e+01 1.057437e+00 7.513742e+01 7.544329e-01 5.023315e+01 1.247216e-02 1.107450e-02 8.182379e-02 4.253302e-01 5.850727e-02 4.359662e+00 1.538036e-01 1.026119e+01 8.178562e-02 9.178411e+00 5.321430e-02 6.241032e+00 1.428127e+00 2.192481e+02
<GCONST> 3.403655e+02
<STATE> 5
<NUMMIXES> 3
<MIXTURE> 1 2.500000e-01
<MEAN> 52
 5.449127e+01 2.158813e+02 1.214063e+02 1.012277e+03 2.963398e+01 4.062946e+02 1.979028e+01 3.547989e+02 1.814905e+01 2.740473e+02 1.650864e+01 3.012974e+02 -5.123027e+01 2.421655e+02 -1.056415e+02 1.269630e+03 -3.186565e+01 2.113779e+03 -2.364477e+01 2.603413e+03 -1.283225e+01 2.426703e+03 -1.182308e+01 2.269323e+03 8.969058e+01 -1.027607e+03 6.534536e-02 8.440117e-02 1.442961e-01 5.102630e-01 4.924213e-01 4.646757e-01 7.215347e-01 8.780932e-01 6.137466e-01 8.301895e-01 5.195901e-01 6.413590e-01 5.331293e-02 7.681961e-02 2.114973e-01 1.015277e+00 1.189847e-01 7.126737e+00 1.812465e-01 1.271296e+01 1.567450e-01 1.229099e+01 1.348193e-01 9.810289e+00 1.032786e+00 1.749147e+00
<VARIANCE> 52
 7.552910e+01 4.785903e+03 1.281411e+03 1.118204e+05 5.754854e+02 1.013986e+05 5.762412e+02 1.211244e+05 3.880098e+02 8.043675e+04 3.004658e+02 7.959006e+04 3.111267e+02 4.619388e+03 2.211091e+03 1.119981e+05 1.623208e+03 6.397144e+05 2.518484e+03 1.065429e+06 1.571533e+03 1.073613e+06 1.074057e+03 8.875604e+05 5.648336e+03 1.099535e+06 2.823775e-02 3.940067e-02 1.777273e-01 2.345918e+00 1.664472e+00 2.885835e+01 3.221113e+00 6.647472e+01 2.188223e+00 5.583453e+01 1.724602e+00 3.940035e+01 1.919642e-02 4.092619e-02 1.449072e-01 5.329140e+00 3.686857e-01 1.059941e+02 1.164623e+00 3.418474e+02 7.170941e-01 3.106831e+02 4.262820e-01 1.979205e+02 3.908920e+00 1.321591e+03
<GCONST> 3.690084e+02
<MIXTURE> 2 5.000000e-01
<MEAN> 52
 4.927682e+01 1.743732e+02 9.992824e+01 8.116398e+02 1.524042e+01 2.152357e+02 5.387265e+00 1.459813e+02 6.330267e+00 1.038791e+02 6.108268e+00 1.320271e+02 -6.181354e+01 2.013859e+02 -1.338548e+02 1.068833e+03 -5.603908e+01 1.633886e+03 -5.375547e+01 1.984096e+03 -3.661779e+01 1.805011e+03 -3.148676e+01 1.704060e+03 4.459734e+01 -1.656759e+03 -3.547919e-02 -3.469644e-02 -1.086502e-01 -4.087204e-01 -2.816652e-01 -2.758523e+00 -3.553128e-01 -4.013829e+00 -2.738120e-01 -3.653161e+00 -2.683545e-01 -3.124823e+00 -2.981776e-02 -4.456172e-02 -1.690279e-02 -3.698185e-01 -2.453323e-01 9.495304e-01 -4.662597e-01 1.619486e+00 -3.513435e-01 1.715263e+00 -2.569224e-01 1.369236e+00 -1.534736e-01 -2.006307e+01
<VARIANCE> 52
 7.552910e+01 4.785903e+03 1.281411e+03 1.118204e+05 5.754854e+02 1.013986e+05 5.762412e+02 1.211244e+05 3.880098e+02 8.043675e+04 3.004658e+02 7.959006e+04 3.111267e+02 4.619388e+03 2.211091e+03 1.119981e+05 1.623208e+03 6.397144e+05 2.518484e+03 1.065429e+06 1.571533e+03 1.073613e+06 1.074057e+03 8.875604e+05 5.648336e+03 1.099535e+06 2.823775e-02 3.940067e-02 1.777273e-01 2.345918e+00 1.664472e+00 2.885835e+01 3.221113e+00 6.647472e+01 2.188223e+00 5.583453e+01 1.724602e+00 3.940035e+01 1.919642e-02 4.092619e-02 1.449072e-01 5.329140e+00 3.686857e-01 1.059941e+02 1.164623e+00 3.418474e+02 7.170941e-01 3.106831e+02 4.262820e-01 1.979205e+02 3.908920e+00 1.321591e+03
<GCONST> 3.690084e+02
<MIXTURE> 3 2.500000e-01
<MEAN> 52
