~o
<STREAMINFO> 1 52
<VECSIZE> 52<NULLD><USER><DIAGC>
~h "in"
<BEGINHMM>
<NUMSTATES> 20
<STATE> 2
<MEAN> 52
 5.082050e+01 2.128451e+02 1.255998e+02 1.023830e+03 1.077551e+02 1.090351e+03 1.219403e+02 1.186813e+03 1.201418e+02 1.089644e+03 1.025477e+02 1.082140e+03 -6.026239e+01 2.285377e+02 -1.217895e+02 1.160377e+03 -6.415003e+01 1.658630e+03 -6.243519e+01 1.944911e+03 -4.791754e+01 1.773864e+03 -4.139444e+01 1.694647e+03 2.926103e+02 -5.763684e+02 -1.011264e-03 -4.593357e-03 8.869134e-03 -1.065874e-01 6.102839e-02 -7.236436e-02 1.235358e-01 4.586877e-02 1.156408e-01 1.104064e-01 9.506873e-02 7.341742e-02 5.469657e-04 -5.416303e-04 -3.752373e-03 -2.219097e-02 1.008139e-02 -8.453649e-02 1.650099e-02 -1.122893e-01 1.225521e-02 -1.249258e-01 6.960095e-03 -1.099129e-01 1.455032e-01 3.017163e-01
<VARIANCE> 52
 1.526711e+02 7.039504e+03 2.770946e+03 1.936320e+05 1.054687e+04 8.623662e+05 2.033019e+04 1.230637e+06 2.119659e+04 1.217704e+06 1.481353e+04 1.116575e+06 3.289424e+02 6.093449e+03 2.836529e+03 1.507391e+05 3.312063e+03 8.379450e+05 5.341862e+03 1.348046e+06 4.017469e+03 1.354794e+06 2.791854e+03 1.149045e+06 1.022037e+05 1.356285e+06 2.000000e+00 2.000000e+00 2.000000e+00 1.622613e+01 1.135251e+01 1.050862e+02 3.407596e+01 2.681450e+02 3.396222e+01 3.368185e+02 2.174707e+01 2.481931e+02 2.000000e+00 2.000000e+00 2.000000e+00 2.000000e+00 2.000000e+00 2.600483e+01 4.885155e+00 7.113185e+01 4.034201e+00 8.729746e+01 2.409881e+00 6.206012e+01 7.751556e+01 5.280684e+02
<GCONST> 4.457975e+02
<STATE> 3
<MEAN> 52
 5.082050e+01 2.128451e+02 1.255998e+02 1.023830e+03 1.077551e+02 1.090351e+03 1.219403e+02 1.186813e+03 1.201418e+02 1.089644e+03 1.025477e+02 1.082140e+03 -6.026239e+01 2.285377e+02 -1.217895e+02 1.160377e+03 -6.415003e+01 1.658630e+03 -6.243519e+01 1.944911e+03 -4.791754e+01 1.773864e+03 -4.139444e+01 1.694647e+03 2.926103e+02 -5.763684e+02 -1.011264e-03 -4.593357e-03 8.869134e-03 -1.065874e-01 6.102839e-02 -7.236436e-02 1.235358e-01 4.586877e-02 1.156408e-01 1.104064e-01 9.506873e-02 7.341742e-02 5.469657e-04 -5.416303e-04 -3.752373e-03 -2.219097e-02 1.008139e-02 -8.453649e-02 1.650099e-02 -1.122893e-01 1.225521e-02 -1.249258e-01 6.960095e-03 -1.099129e-01 1.455032e-01 3.017163e-01
<VARIANCE> 52
 1.526711e+02 7.039504e+03 2.770946e+03 1.936320e+05 1.054687e+04 8.623662e+05 2.033019e+04 1.230637e+06 2.119659e+04 1.217704e+06 1.481353e+04 1.116575e+06 3.289424e+02 6.093449e+03 2.836529e+03 1.507391e+05 3.312063e+03 8.379450e+05 5.341862e+03 1.348046e+06 4.017469e+03 1.354794e+06 2.791854e+03 1.149045e+06 1.022037e+05 1.356285e+06 2.000000e+00 2.000000e+00 2.000000e+00 1.622613e+01 1.135251e+01 1.050862e+02 3.407596e+01 2.681450e+02 3.396222e+01 3.368185e+02 2.174707e+01 2.481931e+02 2.000000e+00 2.000000e+00 2.000000e+00 2.000000e+00 2.000000e+00 2.600483e+01 4.885155e+00 7.113185e+01 4.034201e+00 8.729746e+01 2.409881e+00 6.206012e+01 7.751556e+01 5.280684e+02
<GCONST> 4.457975e+02
<STATE> 4
<MEAN> 52
 5.082050e+01 2.128451e+02 1.255998e+02 1.023830e+03 1.077551e+02 1.090351e+03 1.219403e+02 1.186813e+03 1.201418e+02 1.089644e+03 1.025477e+02 1.082140e+03 -6.026239e+01 2.285377e+02 -1.217895e+02 1.160377e+03 -6.415003e+01 1.658630e+03 -6.243519e+01 1.944911e+03 -4.791754e+01 1.773864e+03 -4.139444e+01 1.694647e+03 2.926103e+02 -5.763684e+02 -1.011264e-03 -4.593357e-03 8.869134e-03 -1.065874e-01 6.102839e-02 -7.236436e-02 1.235358e-01 4.586877e-02 1.156408e-01 1.104064e-01 9.506873e-02 7.341742e-02 5.469657e-04 -5.416303e-04 -3.752373e-03 -2.219097e-02 1.008139e-02 -8.453649e-02 1.650099e-02 -1.122893e-01 1.225521e-02 -1.249258e-01 6.960095e-03 -1.099129e-01 1.455032e-01 3.017163e-01
<VARIANCE> 52
 1.526711e+02 7.039504e+03 2.770946e+03 1.936320e+05 1.054687e+04 8.623662e+05 2.033019e+04 1.230637e+06 2.119659e+04 1.217704e+06 1.481353e+04 1.116575e+06 3.289424e+02 6.093449e+03 2.836529e+03 1.507391e+05 3.312063e+03 8.379450e+05 5.341862e+03 1.348046e+06 4.017469e+03 1.354794e+06 2.791854e+03 1.149045e+06 1.022037e+05 1.356285e+06 2.000000e+00 2.000000e+00 2.000000e+00 1.622613e+01 1.135251e+01 1.050862e+02 3.407596e+01 2.681450e+02 3.396222e+01 3.368185e+02 2.174707e+01 2.481931e+02 2.000000e+00 2.000000e+00 2.000000e+00 2.000000e+00 2.000000e+00 2.600483e+01 4.885155e+00 7.113185e+01 4.034201e+00 8.729746e+01 2.409881e+00 6.206012e+01 7.751556e+01 5.280684e+02
<GCONST> 4.457975e+02
<STATE> 5
<MEAN> 52
 5.082050e+01 2.128451e+02 1.255998e+02 1.023830e+03 1.077551e+02 1.090351e+03 1.219403e+02 1.186813e+03 1.201418e+02 1.089644e+03 1.025477e+02 1.082140e+03 -6.026239e+01 2.285377e+02 -1.217895e+02 1.160377e+03 -6.415003e+01 1.658630e+03 -6.243519e+01 1.944911e+03 -4.791754e+01 1.773864e+03 -4.139444e+01 1.694647e+03 2.926103e+02 -5.763684e+02 -1.011264e-03 -4.593357e-03 8.869134e-03 -1.065874e-01 6.102839e-02 -7.236436e-02 1.235358e-01 4.586877e-02 1.156408e-01 1.104064e-01 9.506873e-02 7.341742e-02 5.469657e-04 -5.416303e-04 -3.752373e-03 -2.219097e-02 1.008139e-02 -8.453649e-02 1.650099e-02 -1.122893e-01 1.225521e-02 -1.249258e-01 6.960095e-03 -1.099129e-01 1.455032e-01 3.017163e-01
<VARIANCE> 52
 1.526711e+02 7.039504e+03 2.770946e+03 1.936320e+05 1.054687e+04 8.623662e+05 2.033019e+04 1.230637e+06 2.119659e+04 1.217704e+06 1.481353e+04 1.116575e+06 3.289424e+02 6.093449e+03 2.836529e+03 1.507391e+05 3.312063e+03 8.379450e+05 5.341862e+03 1.348046e+06 4.017469e+03 1.354794e+06 2.791854e+03 1.149045e+06 1.022037e+05 1.356285e+06 2.000000e+00 2.000000e+00 2.000000e+00 1.622613e+01 1.135251e+01 1.050862e+02 3.407596e+01 2.681450e+02 3.396222e+01 3.368185e+02 2.174707e+01 2.481931e+02 2.000000e+00 2.000000e+00 2.000000e+00 2.000000e+00 2.000000e+00 2.600483e+01 4.885155e+00 7.113185e+01 4.034201e+00 8.729746e+01 2.409881e+00 6.206012e+01 7.751556e+01 5.280684e+02
<GCONST> 4.457975e+02
<STATE> 6
<MEAN> 52
 5.082050e+01 2.128451e+02 1.255998e+02 1.023830e+03 1.077551e+02 1.090351e+03 1.219403e+02 1.186813e+03 1.201418e+02 1.089644e+03 1.025477e+02 1.082140e+03 -6.026239e+01 2.285377e+02 -1.217895e+02 1.160377e+03 -6.415003e+01 1.658630e+03 -6.243519e+01 1.944911e+03 -4.791754e+01 1.773864e+03 -4.139444e+01 1.694647e+03 2.926103e+02 -5.763684e+02 -1.011264e-03 -4.593357e-03 8.869134e-03 -1.065874e-01 6.102839e-02 -7.236436e-02 1.235358e-01 4.586877e-02 1.156408e-01 1.104064e-01 9.506873e-02 7.341742e-02 5.469657e-04 -5.416303e-04 -3.752373e-03 -2.219097e-02 1.008139e-02 -8.453649e-02 1.650099e-02 -1.122893e-01 1.225521e-02 -1.249258e-01 6.960095e-03 -1.099129e-01 1.455032e-01 3.017163e-01
<VARIANCE> 52
 1.526711e+02 7.039504e+03 2.770946e+03 1.936320e+05 1.054687e+04 8.623662e+05 2.033019e+04 1.230637e+06 2.119659e+04 1.217704e+06 1.481353e+04 1.116575e+06 3.289424e+02 6.093449e+03 2.836529e+03 1.507391e+05 3.312063e+03 8.379450e+05 5.341862e+03 1.348046e+06 4.017469e+03 1.354794e+06 2.791854e+03 1.149045e+06 1.022037e+05 1.356285e+06 2.000000e+00 2.000000e+00 2.000000e+00 1.622613e+01 1.135251e+01 1.050862e+02 3.407596e+01 2.681450e+02 3.396222e+01 3.368185e+02 2.174707e+01 2.481931e+02 2.000000e+00 2.000000e+00 2.000000e+00 2.000000e+00 2.000000e+00 2.600483e+01 4.885155e+00 7.113185e+01 4.034201e+00 8.729746e+01 2.409881e+00 6.206012e+01 7.751556e+01 5.280684e+02
<GCONST> 4.457975e+02
<STATE> 7
<MEAN> 52
 5.082050e+01 2.128451e+02 1.255998e+02 1.023830e+03 1.077551e+02 1.090351e+03 1.219403e+02 1.186813e+03 1.201418e+02 1.089644e+03 1.025477e+02 1.082140e+03 -6.026239e+01 2.285377e+02 -1.217895e+02 1.160377e+03 -6.415003e+01 1.658630e+03 -6.243519e+01 1.944911e+03 -4.791754e+01 1.773864e+03 -4.139444e+01 1.694647e+03 2.926103e+02 -5.763684e+02 -1.011264e-03 -4.593357e-03 8.869134e-03 -1.065874e-01 6.102839e-02 -7.236436e-02 1.235358e-01 4.586877e-02 1.156408e-01 1.104064e-01 9.506873e-02 7.341742e-02 5.469657e-04 -5.416303e-04 -3.752373e-03 -2.219097e-02 1.008139e-02 -8.453649e-02 1.650099e-02 -1.122893e-01 1.225521e-02 -1.249258e-01 6.960095e-03 -1.099129e-01 1.455032e-01 3.017163e-01
<VARIANCE> 52
 1.526711e+02 7.039504e+03 2.770946e+03 1.936320e+05 1.054687e+04 8.623662e+05 2.033019e+04 1.230637e+06 2.119659e+04 1.217704e+06 1.481353e+04 1.116575e+06 3.289424e+02 6.093449e+03 2.836529e+03 1.507391e+05 3.312063e+03 8.379450e+05 5.341862e+03 1.348046e+06 4.017469e+03 1.354794e+06 2.791854e+03 1.149045e+06 1.022037e+05 1.356285e+06 2.000000e+00 2.000000e+00 2.000000e+00 1.622613e+01 1.135251e+01 1.050862e+02 3.407596e+01 2.681450e+02 3.396222e+01 3.368185e+02 2.174707e+01 2.481931e+02 2.000000e+00 2.000000e+00 2.000000e+00 2.000000e+00 2.000000e+00 2.600483e+01 4.885155e+00 7.113185e+01 4.034201e+00 8.729746e+01 2.409881e+00 6.206012e+01 7.751556e+01 5.280684e+02
<GCONST> 4.457975e+02
<STATE> 8
<MEAN> 52
 5.082050e+01 2.128451e+02 1.255998e+02 1.023830e+03 1.077551e+02 1.090351e+03 1.219403e+02 1.186813e+03 1.201418e+02 1.089644e+03 1.025477e+02 1.082140e+03 -6.026239e+01 2.285377e+02 -1.217895e+02 1.160377e+03 -6.415003e+01 1.658630e+03 -6.243519e+01 1.944911e+03 -4.791754e+01 1.773864e+03 -4.139444e+01 1.694647e+03 2.926103e+02 -5.763684e+02 -1.011264e-03 -4.593357e-03 8.869134e-03 -1.065874e-01 6.102839e-02 -7.236436e-02 1.235358e-01 4.586877e-02 1.156408e-01 1.104064e-01 9.506873e-02 7.341742e-02 5.469657e-04 -5.416303e-04 -3.752373e-03 -2.219097e-02 1.008139e-02 -8.453649e-02 1.650099e-02 -1.122893e-01 1.225521e-02 -1.249258e-01 6.960095e-03 -1.099129e-01 1.455032e-01 3.017163e-01
<VARIANCE> 52
 1.526711e+02 7.039504e+03 2.770946e+03 1.936320e+05 1.054687e+04 8.623662e+05 2.033019e+04 1.230637e+06 2.119659e+04 1.217704e+06 1.481353e+04 1.116575e+06 3.289424e+02 6.093449e+03 2.836529e+03 1.507391e+05 3.312063e+03 8.379450e+05 5.341862e+03 1.348046e+06 4.017469e+03 1.354794e+06 2.791854e+03 1.149045e+06 1.022037e+05 1.356285e+06 2.000000e+00 2.000000e+00 2.000000e+00 1.622613e+01 1.135251e+01 1.050862e+02 3.407596e+01 2.681450e+02 3.396222e+01 3.368185e+02 2.174707e+01 2.481931e+02 2.000000e+00 2.000000e+00 2.000000e+00 2.000000e+00 2.000000e+00 2.600483e+01 4.885155e+00 7.113185e+01 4.034201e+00 8.729746e+01 2.409881e+00 6.206012e+01 7.751556e+01 5.280684e+02
<GCONST> 4.457975e+02
<STATE> 9
<MEAN> 52
 5.082050e+01 2.128451e+02 1.255998e+02 1.023830e+03 1.077551e+02 1.090351e+03 1.219403e+02 1.186813e+03 1.201418e+02 1.089644e+03 1.025477e+02 1.082140e+03 -6.026239e+01 2.285377e+02 -1.217895e+02 1.160377e+03 -6.415003e+01 1.658630e+03 -6.243519e+01 1.944911e+03 -4.791754e+01 1.773864e+03 -4.139444e+01 1.694647e+03 2.926103e+02 -5.763684e+02 -1.011264e-03 -4.593357e-03 8.869134e-03 -1.065874e-01 6.102839e-02 -7.236436e-02 1.235358e-01 4.586877e-02 1.156408e-01 1.104064e-01 9.506873e-02 7.341742e-02 5.469657e-04 -5.416303e-04 -3.752373e-03 -2.219097e-02 1.008139e-02 -8.453649e-02 1.650099e-02 -1.122893e-01 1.225521e-02 -1.249258e-01 6.960095e-03 -1.099129e-01 1.455032e-01 3.017163e-01
<VARIANCE> 52
 1.526711e+02 7.039504e+03 2.770946e+03 1.936320e+05 1.054687e+04 8.623662e+05 2.033019e+04 1.230637e+06 2.119659e+04 1.217704e+06 1.481353e+04 1.116575e+06 3.289424e+02 6.093449e+03 2.836529e+03 1.507391e+05 3.312063e+03 8.379450e+05 5.341862e+03 1.348046e+06 4.017469e+03 1.354794e+06 2.791854e+03 1.149045e+06 1.022037e+05 1.356285e+06 2.000000e+00 2.000000e+00 2.000000e+00 1.622613e+01 1.135251e+01 1.050862e+02 3.407596e+01 2.681450e+02 3.396222e+01 3.368185e+02 2.174707e+01 2.481931e+02 2.000000e+00 2.000000e+00 2.000000e+00 2.000000e+00 2.000000e+00 2.600483e+01 4.885155e+00 7.113185e+01 4.034201e+00 8.729746e+01 2.409881e+00 6.206012e+01 7.751556e+01 5.280684e+02
<GCONST> 4.457975e+02
<STATE> 10
<MEAN> 52
 5.082050e+01 2.128451e+02 1.255998e+02 1.023830e+03 1.077551e+02 1.090351e+03 1.219403e+02 1.186813e+03 1.201418e+02 1.089644e+03 1.025477e+02 1.082140e+03 -6.026239e+01 2.285377e+02 -1.217895e+02 1.160377e+03 -6.415003e+01 1.658630e+03 -6.243519e+01 1.944911e+03 -4.791754e+01 1.773864e+03 -4.139444e+01 1.694647e+03 2.926103e+02 -5.763684e+02 -1.011264e-03 -4.593357e-03 8.869134e-03 -1.065874e-01 6.102839e-02 -7.236436e-02 1.235358e-01 4.586877e-02 1.156408e-01 1.104064e-01 9.506873e-02 7.341742e-02 5.469657e-04 -5.416303e-04 -3.752373e-03 -2.219097e-02 1.008139e-02 -8.453649e-02 1.650099e-02 -1.122893e-01 1.225521e-02 -1.249258e-01 6.960095e-03 -1.099129e-01 1.455032e-01 3.017163e-01
<VARIANCE> 52
 1.526711e+02 7.039504e+03 2.770946e+03 1.936320e+05 1.054687e+04 8.623662e+05 2.033019e+04 1.230637e+06 2.119659e+04 1.217704e+06 1.481353e+04 1.116575e+06 3.289424e+02 6.093449e+03 2.836529e+03 1.507391e+05 3.312063e+03 8.379450e+05 5.341862e+03 1.348046e+06 4.017469e+03 1.354794e+06 2.791854e+03 1.149045e+06 1.022037e+05 1.356285e+06 2.000000e+00 2.000000e+00 2.000000e+00 1.622613e+01 1.135251e+01 1.050862e+02 3.407596e+01 2.681450e+02 3.396222e+01 3.368185e+02 2.174707e+01 2.481931e+02 2.000000e+00 2.000000e+00 2.000000e+00 2.000000e+00 2.000000e+00 2.600483e+01 4.885155e+00 7.113185e+01 4.034201e+00 8.729746e+01 2.409881e+00 6.206012e+01 7.751556e+01 5.280684e+02
<GCONST> 4.457975e+02
<STATE> 11
<MEAN> 52
 5.082050e+01 2.128451e+02 1.255998e+02 1.023830e+03 1.077551e+02 1.090351e+03 1.219403e+02 1.186813e+03 1.201418e+02 1.089644e+03 1.025477e+02 1.082140e+03 -6.026239e+01 2.285377e+02 -1.217895e+02 1.160377e+03 -6.415003e+01 1.658630e+03 -6.243519e+01 1.944911e+03 -4.791754e+01 1.773864e+03 -4.139444e+01 1.694647e+03 2.926103e+02 -5.763684e+02 -1.011264e-03 -4.593357e-03 8.869134e-03 -1.065874e-01 6.102839e-02 -7.236436e-02 1.235358e-01 4.586877e-02 1.156408e-01 1.104064e-01 9.506873e-02 7.341742e-02 5.469657e-04 -5.416303e-04 -3.752373e-03 -2.219097e-02 1.008139e-02 -8.453649e-02 1.650099e-02 -1.122893e-01 1.225521e-02 -1.249258e-01 6.960095e-03 -1.099129e-01 1.455032e-01 3.017163e-01
<VARIANCE> 52
 1.526711e+02 7.039504e+03 2.770946e+03 1.936320e+05 1.054687e+04 8.623662e+05 2.033019e+04 1.230637e+06 2.119659e+04 1.217704e+06 1.481353e+04 1.116575e+06 3.289424e+02 6.093449e+03 2.836529e+03 1.507391e+05 3.312063e+03 8.379450e+05 5.341862e+03 1.348046e+06 4.017469e+03 1.354794e+06 2.791854e+03 1.149045e+06 1.022037e+05 1.356285e+06 2.000000e+00 2.000000e+00 2.000000e+00 1.622613e+01 1.135251e+01 1.050862e+02 3.407596e+01 2.681450e+02 3.396222e+01 3.368185e+02 2.174707e+01 2.481931e+02 2.000000e+00 2.000000e+00 2.000000e+00 2.000000e+00 2.000000e+00 2.600483e+01 4.885155e+00 7.113185e+01 4.034201e+00 8.729746e+01 2.409881e+00 6.206012e+01 7.751556e+01 5.280684e+02
<GCONST> 4.457975e+02
<STATE> 12
<MEAN> 52
 5.082050e+01 2.128451e+02 1.255998e+02 1.023830e+03 1.077551e+02 1.090351e+03 1.219403e+02 1.186813e+03 1.201418e+02 1.089644e+03 1.025477e+02 1.082140e+03 -6.026239e+01 2.285377e+02 -1.217895e+02 1.160377e+03 -6.415003e+01 1.658630e+03 -6.243519e+01 1.944911e+03 -4.791754e+01 1.773864e+03 -4.139444e+01 1.694647e+03 2.926103e+02 -5.763684e+02 -1.011264e-03 -4.593357e-03 8.869134e-03 -1.065874e-01 6.102839e-02 -7.236436e-02 1.235358e-01 4.586877e-02 1.156408e-01 1.104064e-01 9.506873e-02 7.341742e-02 5.469657e-04 -5.416303e-04 -3.752373e-03 -2.219097e-02 1.008139e-02 -8.453649e-02 1.650099e-02 -1.122893e-01 1.225521e-02 -1.249258e-01 6.960095e-03 -1.099129e-01 1.455032e-01 3.017163e-01
<VARIANCE> 52
 1.526711e+02 7.039504e+03 2.770946e+03 1.936320e+05 1.054687e+04 8.623662e+05 2.033019e+04 1.230637e+06 2.119659e+04 1.217704e+06 1.481353e+04 1.116575e+06 3.289424e+02 6.093449e+03 2.836529e+03 1.507391e+05 3.312063e+03 8.379450e+05 5.341862e+03 1.348046e+06 4.017469e+03 1.354794e+06 2.791854e+03 1.149045e+06 1.022037e+05 1.356285e+06 2.000000e+00 2.000000e+00 2.000000e+00 1.622613e+01 1.135251e+01 1.050862e+02 3.407596e+01 2.681450e+02 3.396222e+01 3.368185e+02 2.174707e+01 2.481931e+02 2.000000e+00 2.000000e+00 2.000000e+00 2.000000e+00 2.000000e+00 2.600483e+01 4.885155e+00 7.113185e+01 4.034201e+00 8.729746e+01 2.409881e+00 6.206012e+01 7.751556e+01 5.280684e+02
<GCONST> 4.457975e+02
<STATE> 13
<MEAN> 52
 5.082050e+01 2.128451e+02 1.255998e+02 1.023830e+03 1.077551e+02 1.090351e+03 1.219403e+02 1.186813e+03 1.201418e+02 1.089644e+03 1.025477e+02 1.082140e+03 -6.026239e+01 2.285377e+02 -1.217895e+02 1.160377e+03 -6.415003e+01 1.658630e+03 -6.243519e+01 1.944911e+03 -4.791754e+01 1.773864e+03 -4.139444e+01 1.694647e+03 2.926103e+02 -5.763684e+02 -1.011264e-03 -4.593357e-03 8.869134e-03 -1.065874e-01 6.102839e-02 -7.236436e-02 1.235358e-01 4.586877e-02 1.156408e-01 1.104064e-01 9.506873e-02 7.341742e-02 5.469657e-04 -5.416303e-04 -3.752373e-03 -2.219097e-02 1.008139e-02 -8.453649e-02 1.650099e-02 -1.122893e-01 1.225521e-02 -1.249258e-01 6.960095e-03 -1.099129e-01 1.455032e-01 3.017163e-01
<VARIANCE> 52
 1.526711e+02 7.039504e+03 2.770946e+03 1.936320e+05 1.054687e+04 8.623662e+05 2.033019e+04 1.230637e+06 2.119659e+04 1.217704e+06 1.481353e+04 1.116575e+06 3.289424e+02 6.093449e+03 2.836529e+03 1.507391e+05 3.312063e+03 8.379450e+05 5.341862e+03 1.348046e+06 4.017469e+03 1.354794e+06 2.791854e+03 1.149045e+06 1.022037e+05 1.356285e+06 2.000000e+00 2.000000e+00 2.000000e+00 1.622613e+01 1.135251e+01 1.050862e+02 3.407596e+01 2.681450e+02 3.396222e+01 3.368185e+02 2.174707e+01 2.481931e+02 2.000000e+00 2.000000e+00 2.000000e+00 2.000000e+00 2.000000e+00 2.600483e+01 4.885155e+00 7.113185e+01 4.034201e+00 8.729746e+01 2.409881e+00 6.206012e+01 7.751556e+01 5.280684e+02
<GCONST> 4.457975e+02
<STATE> 14
<MEAN> 52
 5.082050e+01 2.128451e+02 1.255998e+02 1.023830e+03 1.077551e+02 1.090351e+03 1.219403e+02 1.186813e+03 1.201418e+02 1.089644e+03 1.025477e+02 1.082140e+03 -6.026239e+01 2.285377e+02 -1.217895e+02 1.160377e+03 -6.415003e+01 1.658630e+03 -6.243519e+01 1.944911e+03 -4.791754e+01 1.773864e+03 -4.139444e+01 1.694647e+03 2.926103e+02 -5.763684e+02 -1.011264e-03 -4.593357e-03 8.869134e-03 -1.065874e-01 6.102839e-02 -7.236436e-02 1.235358e-01 4.586877e-02 1.156408e-01 1.104064e-01 9.506873e-02 7.341742e-02 5.469657e-04 -5.416303e-04 -3.752373e-03 -2.219097e-02 1.008139e-02 -8.453649e-02 1.650099e-02 -1.122893e-01 1.225521e-02 -1.249258e-01 6.960095e-03 -1.099129e-01 1.455032e-01 3.017163e-01
<VARIANCE> 52
 1.526711e+02 7.039504e+03 2.770946e+03 1.936320e+05 1.054687e+04 8.623662e+05 2.033019e+04 1.230637e+06 2.119659e+04 1.217704e+06 1.481353e+04 1.116575e+06 3.289424e+02 6.093449e+03 2.836529e+03 1.507391e+05 3.312063e+03 8.379450e+05 5.341862e+03 1.348046e+06 4.017469e+03 1.354794e+06 2.791854e+03 1.149045e+06 1.022037e+05 1.356285e+06 2.000000e+00 2.000000e+00 2.000000e+00 1.622613e+01 1.135251e+01 1.050862e+02 3.407596e+01 2.681450e+02 3.396222e+01 3.368185e+02 2.174707e+01 2.481931e+02 2.000000e+00 2.000000e+00 2.000000e+00 2.000000e+00 2.000000e+00 2.600483e+01 4.885155e+00 7.113185e+01 4.034201e+00 8.729746e+01 2.409881e+00 6.206012e+01 7.751556e+01 5.280684e+02
<GCONST> 4.457975e+02
<STATE> 15
<MEAN> 52
 5.082050e+01 2.128451e+02 1.255998e+02 1.023830e+03 1.077551e+02 1.090351e+03 1.219403e+02 1.186813e+03 1.201418e+02 1.089644e+03 1.025477e+02 1.082140e+03 -6.026239e+01 2.285377e+02 -1.217895e+02 1.160377e+03 -6.415003e+01 1.658630e+03 -6.243519e+01 1.944911e+03 -4.791754e+01 1.773864e+03 -4.139444e+01 1.694647e+03 2.926103e+02 -5.763684e+02 -1.011264e-03 -4.593357e-03 8.869134e-03 -1.065874e-01 6.102839e-02 -7.236436e-02 1.235358e-01 4.586877e-02 1.156408e-01 1.104064e-01 9.506873e-02 7.341742e-02 5.469657e-04 -5.416303e-04 -3.752373e-03 -2.219097e-02 1.008139e-02 -8.453649e-02 1.650099e-02 -1.122893e-01 1.225521e-02 -1.249258e-01 6.960095e-03 -1.099129e-01 1.455032e-01 3.017163e-01
<VARIANCE> 52
 1.526711e+02 7.039504e+03 2.770946e+03 1.936320e+05 1.054687e+04 8.623662e+05 2.033019e+04 1.230637e+06 2.119659e+04 1.217704e+06 1.481353e+04 1.116575e+06 3.289424e+02 6.093449e+03 2.836529e+03 1.507391e+05 3.312063e+03 8.379450e+05 5.341862e+03 1.348046e+06 4.017469e+03 1.354794e+06 2.791854e+03 1.149045e+06 1.022037e+05 1.356285e+06 2.000000e+00 2.000000e+00 2.000000e+00 1.622613e+01 1.135251e+01 1.050862e+02 3.407596e+01 2.681450e+02 3.396222e+01 3.368185e+02 2.174707e+01 2.481931e+02 2.000000e+00 2.000000e+00 2.000000e+00 2.000000e+00 2.000000e+00 2.600483e+01 4.885155e+00 7.113185e+01 4.034201e+00 8.729746e+01 2.409881e+00 6.206012e+01 7.751556e+01 5.280684e+02
<GCONST> 4.457975e+02
<STATE> 16
<MEAN> 52
 5.082050e+01 2.128451e+02 1.255998e+02 1.023830e+03 1.077551e+02 1.090351e+03 1.219403e+02 1.186813e+03 1.201418e+02 1.089644e+03 1.025477e+02 1.082140e+03 -6.026239e+01 2.285377e+02 -1.217895e+02 1.160377e+03 -6.415003e+01 1.658630e+03 -6.243519e+01 1.944911e+03 -4.791754e+01 1.773864e+03 -4.139444e+01 1.694647e+03 2.926103e+02 -5.763684e+02 -1.011264e-03 -4.593357e-03 8.869134e-03 -1.065874e-01 6.102839e-02 -7.236436e-02 1.235358e-01 4.586877e-02 1.156408e-01 1.104064e-01 9.506873e-02 7.341742e-02 5.469657e-04 -5.416303e-04 -3.752373e-03 -2.219097e-02 1.008139e-02 -8.453649e-02 1.650099e-02 -1.122893e-01 1.225521e-02 -1.249258e-01 6.960095e-03 -1.099129e-01 1.455032e-01 3.017163e-01
<VARIANCE> 52
 1.526711e+02 7.039504e+03 2.770946e+03 1.936320e+05 1.054687e+04 8.623662e+05 2.033019e+04 1.230637e+06 2.119659e+04 1.217704e+06 1.481353e+04 1.116575e+06 3.289424e+02 6.093449e+03 2.836529e+03 1.507391e+05 3.312063e+03 8.379450e+05 5.341862e+03 1.348046e+06 4.017469e+03 1.354794e+06 2.791854e+03 1.149045e+06 1.022037e+05 1.356285e+06 2.000000e+00 2.000000e+00 2.000000e+00 1.622613e+01 1.135251e+01 1.050862e+02 3.407596e+01 2.681450e+02 3.396222e+01 3.368185e+02 2.174707e+01 2.481931e+02 2.000000e+00 2.000000e+00 2.000000e+00 2.000000e+00 2.000000e+00 2.600483e+01 4.885155e+00 7.113185e+01 4.034201e+00 8.729746e+01 2.409881e+00 6.206012e+01 7.751556e+01 5.280684e+02
<GCONST> 4.457975e+02
<STATE> 17
<MEAN> 52
 5.082050e+01 2.128451e+02 1.255998e+02 1.023830e+03 1.077551e+02 1.090351e+03 1.219403e+02 1.186813e+03 1.201418e+02 1.089644e+03 1.025477e+02 1.082140e+03 -6.026239e+01 2.285377e+02 -1.217895e+02 1.160377e+03 -6.415003e+01 1.658630e+03 -6.243519e+01 1.944911e+03 -4.791754e+01 1.773864e+03 -4.139444e+01 1.694647e+03 2.926103e+02 -5.763684e+02 -1.011264e-03 -4.593357e-03 8.869134e-03 -1.065874e-01 6.102839e-02 -7.236436e-02 1.235358e-01 4.586877e-02 1.156408e-01 1.104064e-01 9.506873e-02 7.341742e-02 5.469657e-04 -5.416303e-04 -3.752373e-03 -2.219097e-02 1.008139e-02 -8.453649e-02 1.650099e-02 -1.122893e-01 1.225521e-02 -1.249258e-01 6.960095e-03 -1.099129e-01 1.455032e-01 3.017163e-01
<VARIANCE> 52
 1.526711e+02 7.039504e+03 2.770946e+03 1.936320e+05 1.054687e+04 8.623662e+05 2.033019e+04 1.230637e+06 2.119659e+04 1.217704e+06 1.481353e+04 1.116575e+06 3.289424e+02 6.093449e+03 2.836529e+03 1.507391e+05 3.312063e+03 8.379450e+05 5.341862e+03 1.348046e+06 4.017469e+03 1.354794e+06 2.791854e+03 1.149045e+06 1.022037e+05 1.356285e+06 2.000000e+00 2.000000e+00 2.000000e+00 1.622613e+01 1.135251e+01 1.050862e+02 3.407596e+01 2.681450e+02 3.396222e+01 3.368185e+02 2.174707e+01 2.481931e+02 2.000000e+00 2.000000e+00 2.000000e+00 2.000000e+00 2.000000e+00 2.600483e+01 4.885155e+00 7.113185e+01 4.034201e+00 8.729746e+01 2.409881e+00 6.206012e+01 7.751556e+01 5.280684e+02
<GCONST> 4.457975e+02
<STATE> 18
<MEAN> 52
 5.082050e+01 2.128451e+02 1.255998e+02 1.023830e+03 1.077551e+02 1.090351e+03 1.219403e+02 1.186813e+03 1.201418e+02 1.089644e+03 1.025477e+02 1.082140e+03 -6.026239e+01 2.285377e+02 -1.217895e+02 1.160377e+03 -6.415003e+01 1.658630e+03 -6.243519e+01 1.944911e+03 -4.791754e+01 1.773864e+03 -4.139444e+01 1.694647e+03 2.926103e+02 -5.763684e+02 -1.011264e-03 -4.593357e-03 8.869134e-03 -1.065874e-01 6.102839e-02 -7.236436e-02 1.235358e-01 4.586877e-02 1.156408e-01 1.104064e-01 9.506873e-02 7.341742e-02 5.469657e-04 -5.416303e-04 -3.752373e-03 -2.219097e-02 1.008139e-02 -8.453649e-02 1.650099e-02 -1.122893e-01 1.225521e-02 -1.249258e-01 6.960095e-03 -1.099129e-01 1.455032e-01 3.017163e-01
<VARIANCE> 52
 1.526711e+02 7.039504e+03 2.770946e+03 1.936320e+05 1.054687e+04 8.623662e+05 2.033019e+04 1.230637e+06 2.119659e+04 1.217704e+06 1.481353e+04 1.116575e+06 3.289424e+02 6.093449e+03 2.836529e+03 1.507391e+05 3.312063e+03 8.379450e+05 5.341862e+03 1.348046e+06 4.017469e+03 1.354794e+06 2.791854e+03 1.149045e+06 1.022037e+05 1.356285e+06 2.000000e+00 2.000000e+00 2.000000e+00 1.622613e+01 1.135251e+01 1.050862e+02 3.407596e+01 2.681450e+02 3.396222e+01 3.368185e+02 2.174707e+01 2.481931e+02 2.000000e+00 2.000000e+00 2.000000e+00 2.000000e+00 2.000000e+00 2.600483e+01 4.885155e+00 7.113185e+01 4.034201e+00 8.729746e+01 2.409881e+00 6.206012e+01 7.751556e+01 5.280684e+02
<GCONST> 4.457975e+02
<STATE> 19
<MEAN> 52
 5.082050e+01 2.128451e+02 1.255998e+02 1.023830e+03 1.077551e+02 1.090351e+03 1.219403e+02 1.186813e+03 1.201418e+02 1.089644e+03 1.025477e+02 1.082140e+03 -6.026239e+01 2.285377e+02 -1.217895e+02 1.160377e+03 -6.415003e+01 1.658630e+03 -6.243519e+01 1.944911e+03 -4.791754e+01 1.773864e+03 -4.139444e+01 1.694647e+03 2.926103e+02 -5.763684e+02 -1.011264e-03 -4.593357e-03 8.869134e-03 -1.065874e-01 6.102839e-02 -7.236436e-02 1.235358e-01 4.586877e-02 1.156408e-01 1.104064e-01 9.506873e-02 7.341742e-02 5.469657e-04 -5.416303e-04 -3.752373e-03 -2.219097e-02 1.008139e-02 -8.453649e-02 1.650099e-02 -1.122893e-01 1.225521e-02 -1.249258e-01 6.960095e-03 -1.099129e-01 1.455032e-01 3.017163e-01
<VARIANCE> 52
 1.526711e+02 7.039504e+03 2.770946e+03 1.936320e+05 1.054687e+04 8.623662e+05 2.033019e+04 1.230637e+06 2.119659e+04 1.217704e+06 1.481353e+04 1.116575e+06 3.289424e+02 6.093449e+03 2.836529e+03 1.507391e+05 3.312063e+03 8.379450e+05 5.341862e+03 1.348046e+06 4.017469e+03 1.354794e+06 2.791854e+03 1.149045e+06 1.022037e+05 1.356285e+06 2.000000e+00 2.000000e+00 2.000000e+00 1.622613e+01 1.135251e+01 1.050862e+02 3.407596e+01 2.681450e+02 3.396222e+01 3.368185e+02 2.174707e+01 2.481931e+02 2.000000e+00 2.000000e+00 2.000000e+00 2.000000e+00 2.000000e+00 2.600483e+01 4.885155e+00 7.113185e+01 4.034201e+00 8.729746e+01 2.409881e+00 6.206012e+01 7.751556e+01 5.280684e+02
<GCONST> 4.457975e+02
<TRANSP> 20
 0.000000e+00 1.000000e+00 0.000000e+00 0.000000e+00 0.000000e+00 0.000000e+00 0.000000e+00 0.000000e+00 0.000000e+00 0.000000e+00 0.000000e+00 0.000000e+00 0.000000e+00 0.000000e+00 0.000000e+00 0.000000e+00 0.000000e+00 0.000000e+00 0.000000e+00 0.000000e+00
 0.000000e+00 6.000000e-01 4.000000e-01 0.000000e+00 0.000000e+00 0.000000e+00 0.000000e+00 0.000000e+00 0.000000e+00 0.000000e+00 0.000000e+00 0.000000e+00 0.000000e+00 0.000000e+00 0.000000e+00 0.000000e+00 0.000000e+00 0.000000e+00 0.000000e+00 0.000000e+00
 0.000000e+00 0.000000e+00 6.000000e-01 4.000000e-01 0.000000e+00 0.000000e+00 0.000000e+00 0.000000e+00 0.000000e+00 0.000000e+00 0.000000e+00 0.000000e+00 0.000000e+00 0.000000e+00 0.000000e+00 0.000000e+00 0.000000e+00 0.000000e+00 0.000000e+00 0.000000e+00
 0.000000e+00 0.000000e+00 0.000000e+00 6.000000e-01 4.000000e-01 0.000000e+00 0.000000e+00 0.000000e+00 0.000000e+00 0.000000e+00 0.000000e+00 0.000000e+00 0.000000e+00 0.000000e+00 0.000000e+00 0.000000e+00 0.000000e+00 0.000000e+00 0.000000e+00 0.000000e+00
 0.000000e+00 0.000000e+00 0.000000e+00 0.000000e+00 6.000000e-01 4.000000e-01 0.000000e+00 0.000000e+00 0.000000e+00 0.000000e+00 0.000000e+00 0.000000e+00 0.000000e+00 0.000000e+00 0.000000e+00 0.000000e+00 0.000000e+00 0.000000e+00 0.000000e+00 0.000000e+00
 0.000000e+00 0.000000e+00 0.000000e+00 0.000000e+00 0.000000e+00 6.000000e-01 4.000000e-01 0.000000e+00 0.000000e+00 0.000000e+00 0.000000e+00 0.000000e+00 0.000000e+00 0.000000e+00 0.000000e+00 0.000000e+00 0.000000e+00 0.000000e+00 0.000000e+00 0.000000e+00
 0.000000e+00 0.000000e+00 0.000000e+00 0.000000e+00 0.000000e+00 0.000000e+00 6.000000e-01 4.000000e-01 0.000000e+00 0.000000e+00 0.000000e+00 0.000000e+00 0.000000e+00 0.000000e+00 0.000000e+00 0.000000e+00 0.000000e+00 0.000000e+00 0.000000e+00 0.000000e+00
 0.000000e+00 0.000000e+00 0.000000e+00 0.000000e+00 0.000000e+00 0.000000e+00 0.000000e+00 6.000000e-01 4.000000e-01 0.000000e+00 0.000000e+00 0.000000e+00 0.000000e+00 0.000000e+00 0.000000e+00 0.000000e+00 0.000000e+00 0.000000e+00 0.000000e+00 0.000000e+00
 0.000000e+00 0.000000e+00 0.000000e+00 0.000000e+00 0.000000e+00 0.000000e+00 0.000000e+00 0.000000e+00 6.000000e-01 4.000000e-01 0.000000e+00 0.000000e+00 0.000000e+00 0.000000e+00 0.000000e+00 0.000000e+00 0.000000e+00 0.000000e+00 0.000000e+00 0.000000e+00
 0.000000e+00 0.000000e+00 0.000000e+00 0.000000e+00 0.000000e+00 0.000000e+00 0.000000e+00 0.000000e+00 0.000000e+00 6.000000e-01 4.000000e-01 0.000000e+00 0.000000e+00 0.000000e+00 0.000000e+00 0.000000e+00 0.000000e+00 0.000000e+00 0.000000e+00 0.000000e+00
 0.000000e+00 0.000000e+00 0.000000e+00 0.000000e+00 0.000000e+00 0.000000e+00 0.000000e+00 0.000000e+00 0.000000e+00 0.000000e+00 6.000000e-01 4.000000e-01 0.000000e+00 0.000000e+00 0.000000e+00 0.000000e+00 0.000000e+00 0.000000e+00 0.000000e+00 0.000000e+00
 0.000000e+00 0.000000e+00 0.000000e+00 0.000000e+00 0.000000e+00 0.000000e+00 0.000000e+00 0.000000e+00 0.000000e+00 0.000000e+00 0.000000e+00 6.000000e-01 4.000000e-01 0.000000e+00 0.000000e+00 0.000000e+00 0.000000e+00 0.000000e+00 0.000000e+00 0.000000e+00
 0.000000e+00 0.000000e+00 0.000000e+00 0.000000e+00 0.000000e+00 0.000000e+00 0.000000e+00 0.000000e+00 0.000000e+00 0.000000e+00 0.000000e+00 0.000000e+00 6.000000e-01 4.000000e-01 0.000000e+00 0.000000e+00 0.000000e+00 0.000000e+00 0.000000e+00 0.000000e+00
 0.000000e+00 0.000000e+00 0.000000e+00 0.000000e+00 0.000000e+00 0.000000e+00 0.000000e+00 0.000000e+00 0.000000e+00 0.000000e+00 0.000000e+00 0.000000e+00 0.000000e+00 6.000000e-01 4.000000e-01 0.000000e+00 0.000000e+00 0.000000e+00 0.000000e+00 0.000000e+00
 0.000000e+00 0.000000e+00 0.000000e+00 0.000000e+00 0.000000e+00 0.000000e+00 0.000000e+00 0.000000e+00 0.000000e+00 0.000000e+00 0.000000e+00 0.000000e+00 0.000000e+00 0.000000e+00 6.000000e-01 4.000000e-01 0.000000e+00 0.000000e+00 0.000000e+00 0.000000e+00
 0.000000e+00 0.000000e+00 0.000000e+00 0.000000e+00 0.000000e+00 0.000000e+00 0.000000e+00 0.000000e+00 0.000000e+00 0.000000e+00 0.000000e+00 0.000000e+00 0.000000e+00 0.000000e+00 0.000000e+00 6.000000e-01 4.000000e-01 0.000000e+00 0.000000e+00 0.000000e+00
 0.000000e+00 0.000000e+00 0.000000e+00 0.000000e+00 0.000000e+00 0.000000e+00 0.000000e+00 0.000000e+00 0.000000e+00 0.000000e+00 0.000000e+00 0.000000e+00 0.000000e+00 0.000000e+00 0.000000e+00 0.000000e+00 6.000000e-01 4.000000e-01 0.000000e+00 0.000000e+00
 0.000000e+00 0.000000e+00 0.000000e+00 0.000000e+00 0.000000e+00 0.000000e+00 0.000000e+00 0.000000e+00 0.000000e+00 0.000000e+00 0.000000e+00 0.000000e+00 0.000000e+00 0.000000e+00 0.000000e+00 0.000000e+00 0.000000e+00 6.000000e-01 4.000000e-01 0.000000e+00
 0.000000e+00 0.000000e+00 0.000000e+00 0.000000e+00 0.000000e+00 0.000000e+00 0.000000e+00 0.000000e+00 0.000000e+00 0.000000e+00 0.000000e+00 0.000000e+00 0.000000e+00 0.000000e+00 0.000000e+00 0.000000e+00 0.000000e+00 0.000000e+00 6.000000e-01 4.000000e-01
 0.000000e+00 0.000000e+00 0.000000e+00 0.000000e+00 0.000000e+00 0.000000e+00 0.000000e+00 0.000000e+00 0.000000e+00 0.000000e+00 0.000000e+00 0.000000e+00 0.000000e+00 0.000000e+00 0.000000e+00 0.000000e+00 0.000000e+00 0.000000e+00 0.000000e+00 0.000000e+00
<ENDHMM>