~o
<STREAMINFO> 1 52
<VECSIZE> 52<NULLD><USER><DIAGC>
~h "in"
<BEGINHMM>
<NUMSTATES> 20
<STATE> 2
<NUMMIXES> 7
<MIXTURE> 1 1.402456e-01
<MEAN> 52
 6.633584e+01 2.930504e+02 1.351901e+02 1.475517e+03 1.435214e+02 1.502048e+03 1.524568e+02 1.622744e+03 1.509813e+02 1.364966e+03 1.287905e+02 1.344666e+03 -6.533113e+01 3.164216e+02 -9.818041e+01 1.513012e+03 -6.624762e+01 1.986871e+03 -6.062114e+01 2.299923e+03 -5.397308e+01 2.002920e+03 -4.651825e+01 1.912332e+03 4.334573e+02 -1.304617e+02 3.303896e-02 7.083856e-02 1.682186e-01 6.874955e-01 4.085981e-01 8.554988e-01 4.539850e-01 9.903872e-01 5.413586e-01 7.445830e-01 4.749723e-01 6.193234e-01 1.903419e-02 1.389091e-01 1.516093e-01 9.219353e-01 2.491479e-01 1.187406e+00 3.870455e-01 1.834438e+00 3.282744e-01 2.241839e+00 2.522325e-01 2.175561e+00 4.339617e-01 1.122770e+00
<VARIANCE> 52
 7.805249e+01 2.490000e+03 2.006572e+03 1.206197e+05 2.949427e+03 3.168051e+05 4.966025e+03 4.908064e+05 5.291099e+03 4.363619e+05 3.737589e+03 3.810506e+05 7.098322e+01 2.015736e+03 6.409209e+02 5.396112e+04 2.035720e+03 1.875982e+05 3.277218e+03 3.488098e+05 3.613620e+03 3.501693e+05 2.542452e+03 2.817621e+05 6.408501e+04 5.037772e+05 3.594597e-03 3.351718e-02 1.128376e-01 1.967779e+00 3.816653e-01 6.784091e+00 6.800584e-01 1.712395e+01 8.648896e-01 1.924002e+01 6.432256e-01 1.295251e+01 6.682328e-03 5.501601e-02 2.847537e-01 2.351589e+00 2.344051e-01 4.217649e+00 4.896634e-01 9.856332e+00 3.988649e-01 1.809019e+01 2.507948e-01 1.665570e+01 4.687612e+00 6.110085e+01
<GCONST> 3.474778e+02
<MIXTURE> 2 1.308996e-01
<MEAN> 52
 5.004750e+01 1.712984e+02 1.658912e+02 8.284398e+02 5.175653e+01 4.273128e+02 3.723463e+01 3.990018e+02 3.442380e+01 3.113938e+02 3.125907e+01 3.362301e+02 -4.536226e+01 2.082806e+02 -8.912357e+01 1.163807e+03 -1.229634e+01 9.330578e+02 -1.376138e+00 9.688184e+02 -6.749125e-01 7.811484e+02 -1.944136e+00 7.893159e+02 8.678625e+01 6.894135e+00 1.166151e-02 1.784340e-02 8.331773e-02 6.066657e-01 5.746476e-02 1.249222e-01 9.571968e-02 6.006818e-01 1.086892e-01 5.725541e-01 7.338303e-02 3.517599e-01 1.002374e-02 3.379112e-02 1.526805e-01 4.582994e-01 4.343745e-01 5.442345e-02 6.324818e-01 -1.194749e-01 5.045108e-01 -1.184969e-01 4.247231e-01 -7.190824e-02 5.303073e-01 2.614733e+00
<VARIANCE> 52
 5.360870e+01 3.151037e+03 1.705740e+03 8.616151e+04 7.103345e+02 8.540862e+04 8.678942e+02 1.154935e+05 8.749878e+02 8.050623e+04 6.337388e+02 7.406506e+04 2.025619e+02 2.394846e+03 1.660082e+03 4.808003e+04 6.124791e+02 1.538858e+05 7.110944e+02 2.452870e+05 5.848583e+02 2.136399e+05 4.135544e+02 1.833196e+05 6.486055e+03 3.426347e+05 3.189842e-03 3.015256e-02 5.679965e-02 2.746152e+00 1.287074e-01 9.379582e+00 3.496652e-01 4.029633e+01 3.428701e-01 3.505413e+01 1.823820e-01 2.036051e+01 1.262147e-03 2.275626e-02 6.849007e-02 6.894403e-01 6.562760e-01 5.263050e+00 1.514675e+00 1.333632e+01 1.221154e+00 1.368878e+01 7.958571e-01 8.902401e+00 5.252016e+00 3.213826e+01
<GCONST> 3.215883e+02
<MIXTURE> 3 9.795500e-02
<MEAN> 52
 5.504079e+01 2.063857e+02 1.535460e+02 1.058377e+03 8.146149e+01 7.042828e+02 7.506070e+01 6.905564e+02 7.377419e+01 5.440894e+02 6.455955e+01 5.653790e+02 -5.273060e+01 2.403191e+02 -9.380060e+01 1.269825e+03 -2.735076e+01 1.229402e+03 -1.863698e+01 1.334069e+03 -1.596956e+01 1.101258e+03 -1.458808e+01 1.083326e+03 1.999511e+02 -1.367226e+02 1.115224e-02 2.816771e-02 4.815650e-02 3.774410e-01 1.634173e-03 2.501180e-01 -1.913209e-02 3.986807e-01 -8.769624e-03 2.330678e-01 -4.814453e-03 1.532933e-01 9.494724e-03 2.291923e-02 1.395003e-01 4.230640e-01 3.193829e-01 -5.797707e-02 4.667823e-01 -1.899959e-01 3.843606e-01 -2.569268e-01 3.213501e-01 -2.099423e-01 -3.533118e-01 1.576963e+00
<VARIANCE> 52
 1.155749e+02 6.247909e+03 1.834986e+03 2.047850e+05 3.389566e+03 2.555415e+05 5.211809e+03 3.305189e+05 5.443996e+03 2.328464e+05 3.892967e+03 2.146356e+05 2.333881e+02 4.804942e+03 1.087847e+03 8.698952e+04 1.715484e+03 3.357929e+05 2.476323e+03 5.272721e+05 2.415822e+03 4.382300e+05 1.712155e+03 3.722091e+05 5.298601e+04 2.591194e+05 1.661650e-03 1.782463e-02 5.829158e-02 1.249255e+00 8.993057e-02 5.271871e+00 1.983398e-01 1.459490e+01 2.115378e-01 1.382856e+01 1.441054e-01 9.292846e+00 4.638987e-03 3.362164e-02 1.505617e-01 1.705130e+00 2.989515e-01 1.171851e+00 6.269582e-01 3.250740e+00 4.206791e-01 3.449620e+00 2.990221e-01 2.340133e+00 2.110136e+00 2.616533e+01
<GCONST> 3.322071e+02
<MIXTURE> 4 2.617992e-01
<MEAN> 52
 4.565442e+01 1.376180e+02 1.411109e+02 6.523201e+02 3.576527e+01 2.519643e+02 1.955860e+01 1.950957e+02 1.667568e+01 1.411521e+02 1.615457e+01 1.729407e+02 -5.390171e+01 1.789183e+02 -1.135700e+02 1.032244e+03 -2.714533e+01 6.976882e+02 -1.737595e+01 6.716597e+02 -1.518522e+01 5.038213e+02 -1.414576e+01 5.324210e+02 3.846462e+01 -3.443159e+02 -2.222571e-02 -8.634356e-02 -5.967833e-02 -3.876253e-01 -1.577901e-01 -1.712644e+00 -2.590753e-01 -3.208082e+00 -2.426414e-01 -2.979837e+00 -1.828542e-01 -2.355597e+00 -1.129229e-02 -5.671995e-02 -4.343174e-03 -3.989588e-02 -5.169073e-02 -1.322057e+00 -1.059510e-01 -2.310611e+00 -1.585243e-01 -2.338398e+00 -1.105418e-01 -1.862122e+00 -8.447294e-01 -7.867038e-01
<VARIANCE> 52
 5.360870e+01 3.151037e+03 1.705740e+03 8.616151e+04 7.103345e+02 8.540862e+04 8.678942e+02 1.154935e+05 8.749878e+02 8.050623e+04 6.337388e+02 7.406506e+04 2.025619e+02 2.394846e+03 1.660082e+03 4.808003e+04 6.124791e+02 1.538858e+05 7.110944e+02 2.452870e+05 5.848583e+02 2.136399e+05 4.135544e+02 1.833196e+05 6.486055e+03 3.426347e+05 3.189842e-03 3.015256e-02 5.679965e-02 2.746152e+00 1.287074e-01 9.379582e+00 3.496652e-01 4.029633e+01 3.428701e-01 3.505413e+01 1.823820e-01 2.036051e+01 1.262147e-03 2.275626e-02 6.849007e-02 6.894403e-01 6.562760e-01 5.263050e+00 1.514675e+00 1.333632e+01 1.221154e+00 1.368878e+01 7.958571e-01 8.902401e+00 5.252016e+00 3.213826e+01
<GCONST> 3.215883e+02
<MIXTURE> 5 1.402456e-01
<MEAN> 52
 6.280195e+01 2.730904e+02 1.172721e+02 1.336595e+03 1.217980e+02 1.276906e+03 1.242688e+02 1.342514e+03 1.218853e+02 1.100736e+03 1.043361e+02 1.097748e+03 -6.870119e+01 2.984628e+02 -1.083070e+02 1.420094e+03 -8.429520e+01 1.813621e+03 -8.351993e+01 2.063683e+03 -7.801844e+01 1.766220e+03 -6.668735e+01 1.700006e+03 3.321973e+02 -4.143707e+02 9.056978e-03 -2.392225e-03 3.385338e-02 1.263853e-01 1.614819e-01 -1.863528e-01 1.241224e-01 -6.648566e-01 1.693608e-01 -1.009955e+00 1.541669e-01 -8.202605e-01 -1.366402e-02 4.508711e-02 -6.184001e-02 3.085396e-01 5.548631e-02 3.659291e-01 1.071417e-01 5.786461e-01 7.565139e-02 5.405367e-01 5.191486e-02 5.431051e-01 -4.320740e-01 -2.003912e+00
<VARIANCE> 52
 7.805249e+01 2.490000e+03 2.006572e+03 1.206197e+05 2.949427e+03 3.168051e+05 4.966025e+03 4.908064e+05 5.291099e+03 4.363619e+05 3.737589e+03 3.810506e+05 7.098322e+01 2.015736e+03 6.409209e+02 5.396112e+04 2.035720e+03 1.875982e+05 3.277218e+03 3.488098e+05 3.613620e+03 3.501693e+05 2.542452e+03 2.817621e+05 6.408501e+04 5.037772e+05 3.594597e-03 3.351718e-02 1.128376e-01 1.967779e+00 3.816653e-01 6.784091e+00 6.800584e-01 1.712395e+01 8.648896e-01 1.924002e+01 6.432256e-01 1.295251e+01 6.682328e-03 5.501601e-02 2.847537e-01 2.351589e+00 2.344051e-01 4.217649e+00 4.896634e-01 9.856332e+00 3.988649e-01 1.809019e+01 2.507948e-01 1.665570e+01 4.687612e+00 6.110085e+01
<GCONST> 3.474778e+02
<MIXTURE> 6 9.795500e-02
<MEAN> 52
 5.074055e+01 1.747682e+02 1.364113e+02 8.773646e+02 5.817350e+01 5.020784e+02 4.618356e+01 4.605933e+02 4.426081e+01 3.510728e+02 3.960209e+01 3.800638e+02 -5.884142e+01 2.125921e+02 -1.069936e+02 1.151849e+03 -4.391812e+01 9.976117e+02 -3.854205e+01 1.043615e+03 -3.562996e+01 8.364618e+02 -3.113936e+01 8.392903e+02 1.078763e+02 -3.403376e+02 -5.153093e-03 -2.523586e-02 -4.841810e-02 -6.963935e-02 -1.183195e-01 -6.683042e-01 -1.972735e-01 -1.129450e+00 -1.927426e-01 -1.254403e+00 -1.566593e-01 -1.066074e+00 -1.774932e-02 -5.042559e-02 -1.570881e-02 -9.925857e-02 1.006771e-01 -4.909853e-01 1.500595e-01 -9.111883e-01 1.249215e-01 -9.998530e-01 1.026185e-01 -8.218421e-01 -9.343641e-01 -4.691190e-01
<VARIANCE> 52
 1.155749e+02 6.247909e+03 1.834986e+03 2.047850e+05 3.389566e+03 2.555415e+05 5.211809e+03 3.305189e+05 5.443996e+03 2.328464e+05 3.892967e+03 2.146356e+05 2.333881e+02 4.804942e+03 1.087847e+03 8.698952e+04 1.715484e+03 3.357929e+05 2.476323e+03 5.272721e+05 2.415822e+03 4.382300e+05 1.712155e+03 3.722091e+05 5.298601e+04 2.591194e+05 1.661650e-03 1.782463e-02 5.829158e-02 1.249255e+00 8.993057e-02 5.271871e+00 1.983398e-01 1.459490e+01 2.115378e-01 1.382856e+01 1.441054e-01 9.292846e+00 4.638987e-03 3.362164e-02 1.505617e-01 1.705130e+00 2.989515e-01 1.171851e+00 6.269582e-01 3.250740e+00 4.206791e-01 3.449620e+00 2.990221e-01 2.340133e+00 2.110136e+00 2.616533e+01
<GCONST> 3.322071e+02
<MIXTURE> 7 1.308996e-01
<MEAN> 52
 4.711878e+01 1.488448e+02 1.493710e+02 7.110267e+02 4.109569e+01 3.104138e+02 2.545061e+01 2.630644e+02 2.259172e+01 1.978993e+02 2.118940e+01 2.273705e+02 -5.105523e+01 1.887057e+02 -1.054212e+02 1.076098e+03 -2.219567e+01 7.761447e+02 -1.204268e+01 7.707126e+02 -1.034845e+01 5.962637e+02 -1.007855e+01 6.180526e+02 5.457183e+01 -2.272459e+02 -1.092997e-02 -5.161457e-02 -1.201298e-02 -5.619499e-02 -8.603849e-02 -1.100122e+00 -1.408103e-01 -1.938494e+00 -1.255312e-01 -1.795707e+00 -9.744180e-02 -1.453145e+00 -4.186947e-03 -2.654959e-02 4.799804e-02 1.261692e-01 1.103310e-01 -8.632301e-01 1.401933e-01 -1.580232e+00 6.248739e-02 -1.598431e+00 6.787983e-02 -1.265384e+00 -3.863838e-01 3.471085e-01
<VARIANCE> 52
 5.360870e+01 3.151037e+03 1.705740e+03 8.616151e+04 7.103345e+02 8.540862e+04 8.678942e+02 1.154935e+05 8.749878e+02 8.050623e+04 6.337388e+02 7.406506e+04 2.025619e+02 2.394846e+03 1.660082e+03 4.808003e+04 6.124791e+02 1.538858e+05 7.110944e+02 2.452870e+05 5.848583e+02 2.136399e+05 4.135544e+02 1.833196e+05 6.486055e+03 3.426347e+05 3.189842e-03 3.015256e-02 5.679965e-02 2.746152e+00 1.287074e-01 9.379582e+00 3.496652e-01 4.029633e+01 3.428701e-01 3.505413e+01 1.823820e-01 2.036051e+01 1.262147e-03 2.275626e-02 6.849007e-02 6.894403e-01 6.562760e-01 5.263050e+00 1.514675e+00 1.333632e+01 1.221154e+00 1.368878e+01 7.958571e-01 8.902401e+00 5.252016e+00 3.213826e+01
<GCONST> 3.215883e+02
<STATE> 3
<NUMMIXES> 7
<MIXTURE> 1 1.171558e-01
<MEAN> 52
 6.846466e+01 3.011356e+02 1.311477e+02 1.521240e+03 1.532628e+02 1.538141e+03 1.675985e+02 1.647935e+03 1.673234e+02 1.372673e+03 1.432349e+02 1.356365e+03 -6.657967e+01 3.214372e+02 -9.708091e+01 1.528426e+03 -6.517580e+01 2.024571e+03 -5.841009e+01 2.344409e+03 -5.192221e+01 2.044696e+03 -4.455359e+01 1.948544e+03 4.473405e+02 -9.106097e+01 9.105434e-02 4.858956e-02 2.887823e-01 1.023613e+00 3.889345e-01 1.830580e-01 6.427911e-01 2.814823e-01 7.468493e-01 -6.979846e-01 8.049040e-01 -6.177998e-01 3.625219e-02 4.695536e-02 1.300545e-01 4.884077e-01 4.020979e-01 1.191532e+00 6.380998e-01 1.885851e+00 5.883163e-01 2.492973e+00 5.204369e-01 1.965043e+00 4.376011e-01 -2.955341e-02
<VARIANCE> 52
 7.991196e+01 1.730963e+03 1.171950e+03 6.897565e+04 3.239391e+03 2.044306e+05 5.565287e+03 3.188418e+05 5.948625e+03 2.947706e+05 4.241674e+03 2.571066e+05 6.008734e+01 1.312383e+03 6.815203e+02 4.021994e+04 1.661703e+03 1.375808e+05 2.509564e+03 2.540495e+05 2.682990e+03 2.708464e+05 1.884586e+03 2.170618e+05 5.564955e+04 2.318987e+05 2.210786e-02 1.283095e-02 2.311282e-01 2.916445e+00 6.685269e-01 1.304552e+01 2.569673e+00 3.926774e+01 3.158142e+00 5.002991e+01 3.228381e+00 3.065279e+01 8.757940e-03 1.856453e-02 7.289814e-02 1.557244e+00 3.872585e-01 1.068378e+01 9.378610e-01 2.258156e+01 7.714924e-01 4.058522e+01 6.138619e-01 2.819338e+01 9.545797e+00 2.049631e+02
<GCONST> 3.560765e+02
<MIXTURE> 2 1.347934e-01
<MEAN> 52
 4.967480e+01 1.730388e+02 1.669896e+02 8.504366e+02 5.378653e+01 4.181421e+02 4.052793e+01 3.766356e+02 3.770510e+01 2.840645e+02 3.408018e+01 3.140121e+02 -4.636447e+01 2.112556e+02 -8.905541e+01 1.192197e+03 -1.019839e+01 9.177749e+02 8.843565e-01 9.374837e+02 1.497316e+00 7.480465e+02 1.910810e-01 7.601504e+02 1.087010e+02 1.902669e+01 4.209654e-03 1.114547e-02 9.935077e-02 7.384611e-01 2.483460e-02 1.241322e+00 3.209111e-02 1.952455e+00 5.881622e-02 1.747142e+00 4.804632e-02 1.509477e+00 4.294833e-03 2.186468e-02 1.144929e-01 5.121270e-01 3.200750e-01 5.563819e-02 4.583315e-01 -2.173543e-02 3.948396e-01 -7.761717e-03 3.074651e-01 9.840012e-03 5.635333e-02 7.072358e+00
<VARIANCE> 52
 5.688782e+01 3.285133e+03 1.623066e+03 1.005255e+05 1.018844e+03 7.313183e+04 1.349215e+03 9.103187e+04 1.311980e+03 5.715811e+04 9.682224e+02 5.407770e+04 2.120764e+02 2.556468e+03 1.320612e+03 5.176604e+04 7.964937e+02 1.525163e+05 1.095477e+03 2.332511e+05 1.015427e+03 1.925416e+05 7.485725e+02 1.661393e+05 1.554584e+04 3.289610e+05 4.106953e-03 7.641470e-03 5.172287e-02 3.280665e+00 2.643487e-01 1.482149e+01 7.175547e-01 3.648210e+01 7.106596e-01 3.057717e+01 4.789783e-01 2.121122e+01 2.010234e-03 8.470587e-03 8.289728e-02 7.419440e-01 2.461494e-01 1.431096e+01 4.471078e-01 4.405466e+01 3.731744e-01 4.183183e+01 2.320023e-01 2.860188e+01 2.737562e+00 8.609586e+01
<GCONST> 3.270381e+02
<MIXTURE> 3 1.132571e-01
<MEAN> 52
 5.589600e+01 2.133383e+02 1.570792e+02 1.092576e+03 8.855418e+01 7.267219e+02 8.065163e+01 7.092809e+02 7.865321e+01 5.495682e+02 6.932093e+01 5.737216e+02 -5.382751e+01 2.477895e+02 -9.542960e+01 1.293642e+03 -3.203416e+01 1.290805e+03 -2.328480e+01 1.412025e+03 -2.036939e+01 1.166817e+03 -1.851225e+01 1.145108e+03 2.272726e+02 -1.517829e+02 2.013301e-03 1.575463e-02 9.505340e-02 5.765636e-01 -1.152717e-01 6.414686e-01 -2.195768e-01 1.120952e+00 -2.194983e-01 6.660942e-01 -1.793488e-01 5.732205e-01 9.058183e-04 2.551695e-02 9.396318e-02 6.274775e-01 3.070059e-01 1.009216e-01 4.664725e-01 1.055844e-01 4.158644e-01 -1.145468e-01 3.344771e-01 -1.191045e-01 -6.868656e-01 2.603148e+00
<VARIANCE> 52
 1.068778e+02 6.105944e+03 1.968382e+03 2.012916e+05 3.581768e+03 2.246645e+05 5.205376e+03 2.852455e+05 5.396677e+03 1.910221e+05 3.921497e+03 1.767005e+05 2.174093e+02 4.917667e+03 1.200346e+03 9.042488e+04 2.117111e+03 3.369201e+05 3.107586e+03 5.312574e+05 3.173669e+03 4.333979e+05 2.266708e+03 3.682143e+05 6.219349e+04 2.883781e+05 3.911953e-03 8.277927e-03 1.013562e-01 2.063042e+00 3.712726e-01 9.785705e+00 1.062227e+00 2.620602e+01 1.181029e+00 2.750292e+01 8.504221e-01 1.774784e+01 2.695564e-03 9.922408e-03 9.698094e-02 1.878177e+00 3.075930e-01 2.259361e+00 6.464040e-01 7.272720e+00 5.015718e-01 7.220521e+00 3.272400e-01 4.572623e+00 5.056820e+00 5.991214e+01
<GCONST> 3.459440e+02
<MIXTURE> 4 2.695869e-01
<MEAN> 52
 4.514936e+01 1.386492e+02 1.428172e+02 6.602021e+02 3.463493e+01 2.558847e+02 1.848893e+01 1.956066e+02 1.597234e+01 1.406179e+02 1.541042e+01 1.744845e+02 -5.510217e+01 1.809187e+02 -1.108595e+02 1.055684e+03 -2.713172e+01 6.834548e+02 -1.897444e+01 6.477072e+02 -1.762214e+01 4.847691e+02 -1.622495e+01 5.155892e+02 3.389127e+01 -3.251040e+02 -3.424165e-02 -4.130383e-02 -3.710521e-02 -3.482953e-01 -2.836545e-01 -1.068600e+00 -4.761605e-01 -1.671570e+00 -4.469876e-01 -1.570655e+00 -3.672032e-01 -1.253862e+00 -2.260655e-02 -3.335680e-02 -5.825844e-02 -4.690036e-03 2.239431e-02 -2.214152e+00 5.713476e-02 -4.004157e+00 2.831160e-02 -3.888413e+00 1.846536e-02 -3.199004e+00 -9.363814e-01 1.505087e+00
<VARIANCE> 52
 5.688782e+01 3.285133e+03 1.623066e+03 1.005255e+05 1.018844e+03 7.313183e+04 1.349215e+03 9.103187e+04 1.311980e+03 5.715811e+04 9.682224e+02 5.407770e+04 2.120764e+02 2.556468e+03 1.320612e+03 5.176604e+04 7.964937e+02 1.525163e+05 1.095477e+03 2.332511e+05 1.015427e+03 1.925416e+05 7.485725e+02 1.661393e+05 1.554584e+04 3.289610e+05 4.106953e-03 7.641470e-03 5.172287e-02 3.280665e+00 2.643487e-01 1.482149e+01 7.175547e-01 3.648210e+01 7.106596e-01 3.057717e+01 4.789783e-01 2.121122e+01 2.010234e-03 8.470587e-03 8.289728e-02 7.419440e-01 2.461494e-01 1.431096e+01 4.471078e-01 4.405466e+01 3.731744e-01 4.183183e+01 2.320023e-01 2.860188e+01 2.737562e+00 8.609586e+01
<GCONST> 3.270381e+02
<MIXTURE> 5 1.171558e-01
<MEAN> 52
 6.488892e+01 2.844937e+02 1.174542e+02 1.416188e+03 1.304966e+02 1.357285e+03 1.377581e+02 1.422071e+03 1.364724e+02 1.155501e+03 1.171837e+02 1.153543e+03 -6.968032e+01 3.069464e+02 -1.075233e+02 1.448206e+03 -8.148140e+01 1.876203e+03 -7.844831e+01 2.142795e+03 -7.264125e+01 1.836524e+03 -6.191832e+01 1.762184e+03 3.529799e+02 -2.836844e+02 3.157949e-02 3.280053e-03 9.647910e-02 3.405090e-01 6.188050e-02 -1.261685e+00 1.583099e-03 -2.225077e+00 3.600284e-02 -3.527257e+00 8.619618e-02 -2.832398e+00 -1.181362e-03 -7.545324e-03 2.205586e-02 -1.075067e-02 1.531775e-01 -1.159104e-01 2.507269e-01 -1.495099e-02 2.369777e-01 -5.528855e-02 2.070395e-01 -1.588550e-01 -7.982498e-01 -5.756166e+00
<VARIANCE> 52
 7.991196e+01 1.730963e+03 1.171950e+03 6.897565e+04 3.239391e+03 2.044306e+05 5.565287e+03 3.188418e+05 5.948625e+03 2.947706e+05 4.241674e+03 2.571066e+05 6.008734e+01 1.312383e+03 6.815203e+02 4.021994e+04 1.661703e+03 1.375808e+05 2.509564e+03 2.540495e+05 2.682990e+03 2.708464e+05 1.884586e+03 2.170618e+05 5.564955e+04 2.318987e+05 2.210786e-02 1.283095e-02 2.311282e-01 2.916445e+00 6.685269e-01 1.304552e+01 2.569673e+00 3.926774e+01 3.158142e+00 5.002991e+01 3.228381e+00 3.065279e+01 8.757940e-03 1.856453e-02 7.289814e-02 1.557244e+00 3.872585e-01 1.068378e+01 9.378610e-01 2.258156e+01 7.714924e-01 4.058522e+01 6.138619e-01 2.819338e+01 9.545797e+00 2.049631e+02
<GCONST> 3.560765e+02
<MIXTURE> 6 1.132571e-01
<MEAN> 52
 5.176073e+01 1.820821e+02 1.393326e+02 9.131139e+02 6.461503e+01 5.371267e+02 5.179232e+01 4.956473e+02 4.926837e+01 3.747439e+02 4.427219e+01 4.055786e+02 -5.972543e+01 2.197391e+02 -1.092880e+02 1.173359e+03 -5.043900e+01 1.058625e+03 -4.558309e+01 1.120475e+03 -4.290353e+01 9.034851e+02 -3.755623e+01 9.023857e+02 1.275182e+02 -3.665863e+02 -2.300494e-02 -2.063861e-02 -3.229254e-02 2.031833e-03 -3.590003e-01 -6.098158e-01 -6.318344e-01 -9.267212e-01 -6.541989e-01 -1.431635e+00 -5.482222e-01 -1.111907e+00 -1.986171e-02 -1.432756e-02 -3.060388e-02 7.929108e-02 8.516166e-02 -5.003252e-01 1.448755e-01 -9.731348e-01 1.325774e-01 -1.189388e+00 1.056575e-01 -9.744523e-01 -1.586360e+00 -4.929696e-01
<VARIANCE> 52
 1.068778e+02 6.105944e+03 1.968382e+03 2.012916e+05 3.581768e+03 2.246645e+05 5.205376e+03 2.852455e+05 5.396677e+03 1.910221e+05 3.921497e+03 1.767005e+05 2.174093e+02 4.917667e+03 1.200346e+03 9.042488e+04 2.117111e+03 3.369201e+05 3.107586e+03 5.312574e+05 3.173669e+03 4.333979e+05 2.266708e+03 3.682143e+05 6.219349e+04 2.883781e+05 3.911953e-03 8.277927e-03 1.013562e-01 2.063042e+00 3.712726e-01 9.785705e+00 1.062227e+00 2.620602e+01 1.181029e+00 2.750292e+01 8.504221e-01 1.774784e+01 2.695564e-03 9.922408e-03 9.698094e-02 1.878177e+00 3.075930e-01 2.259361e+00 6.464040e-01 7.272720e+00 5.015718e-01 7.220521e+00 3.272400e-01 4.572623e+00 5.056820e+00 5.991214e+01
<GCONST> 3.459440e+02
<MIXTURE> 7 1.347934e-01
<MEAN> 52
 4.665784e+01 1.501124e+02 1.508747e+02 7.236136e+02 4.101880e+01 3.099705e+02 2.583526e+01 2.559496e+02 2.321659e+01 1.884334e+02 2.163367e+01 2.209937e+02 -5.218960e+01 1.910310e+02 -1.035915e+02 1.101188e+03 -2.148728e+01 7.615615e+02 -1.235484e+01 7.442994e+02 -1.124899e+01 5.725282e+02 -1.075294e+01 5.971096e+02 5.882786e+01 -2.103938e+02 -2.142455e-02 -2.382073e-02 8.380119e-03 1.395684e-02 -1.808248e-01 -2.986261e-01 -3.067433e-01 -4.635620e-01 -2.783863e-01 -4.647228e-01 -2.287867e-01 -3.327489e-01 -1.363942e-02 -1.494964e-02 -6.746575e-04 1.675823e-01 1.216212e-01 -1.457555e+00 1.908670e-01 -2.676683e+00 1.504876e-01 -2.594863e+00 1.147986e-01 -2.129389e+00 -6.054698e-01 3.360844e+00
<VARIANCE> 52
 5.688782e+01 3.285133e+03 1.623066e+03 1.005255e+05 1.018844e+03 7.313183e+04 1.349215e+03 9.103187e+04 1.311980e+03 5.715811e+04 9.682224e+02 5.407770e+04 2.120764e+02 2.556468e+03 1.320612e+03 5.176604e+04 7.964937e+02 1.525163e+05 1.095477e+03 2.332511e+05 1.015427e+03 1.925416e+05 7.485725e+02 1.661393e+05 1.554584e+04 3.289610e+05 4.106953e-03 7.641470e-03 5.172287e-02 3.280665e+00 2.643487e-01 1.482149e+01 7.175547e-01 3.648210e+01 7.106596e-01 3.057717e+01 4.789783e-01 2.121122e+01 2.010234e-03 8.470587e-03 8.289728e-02 7.419440e-01 2.461494e-01 1.431096e+01 4.471078e-01 4.405466e+01 3.731744e-01 4.183183e+01 2.320023e-01 2.860188e+01 2.737562e+00 8.609586e+01
<GCONST> 3.270381e+02
<STATE> 4
<NUMMIXES> 7
<MIXTURE> 1 1.245971e-01
<MEAN> 52
 6.941750e+01 3.083282e+02 1.308535e+02 1.595308e+03 1.478182e+02 1.395486e+03 1.578322e+02 1.443088e+03 1.582559e+02 1.144075e+03 1.362182e+02 1.153796e+03 -6.742440e+01 3.306756e+02 -9.665886e+01 1.599711e+03 -5.169300e+01 2.082383e+03 -4.259808e+01 2.411305e+03 -3.660979e+01 2.084271e+03 -3.151492e+01 1.981324e+03 3.848195e+02 -1.501287e+02 4.122537e-02 3.752636e-02 1.366774e-01 1.399320e+00 2.600855e-02 5.531621e-02 -3.252316e-02 -2.609067e-01 2.536654e-03 -2.257943e+00 3.916601e-02 -1.712004e+00 2.558249e-02 3.982582e-02 1.172981e-01 5.798995e-01 2.728533e-01 3.547615e-01 5.362474e-01 5.569475e-01 4.810075e-01 3.769100e-01 3.539135e-01 2.816232e-01 -5.973960e-01 5.598779e-01
<VARIANCE> 52
 8.149467e+01 1.690392e+03 7.671638e+02 4.718760e+04 3.714161e+03 1.441107e+05 5.989453e+03 2.201648e+05 6.145000e+03 1.796812e+05 4.489772e+03 1.591810e+05 5.288959e+01 9.924937e+02 3.979311e+02 2.391151e+04 1.498248e+03 1.493902e+05 2.026002e+03 2.852010e+05 2.091984e+03 2.876118e+05 1.435708e+03 2.300121e+05 4.940536e+04 1.035266e+05 6.770287e-03 2.330193e-02 7.314703e-02 6.545619e+00 3.124925e-01 5.115362e+01 4.809210e-01 1.485291e+02 7.754683e-01 1.999146e+02 5.939894e-01 1.307939e+02 3.592305e-03 1.014884e-02 4.871946e-02 1.373793e+00 1.466019e-01 1.746136e+00 4.499003e-01 5.122212e+00 3.654884e-01 6.719278e+00 2.106266e-01 4.253950e+00 3.968998e+00 3.070706e+02
<GCONST> 3.370279e+02
<MIXTURE> 2 1.298201e-01
<MEAN> 52
 4.974955e+01 1.758634e+02 1.679440e+02 8.637211e+02 5.626841e+01 4.496534e+02 4.298663e+01 4.077037e+02 4.046468e+01 3.076604e+02 3.659843e+01 3.383391e+02 -4.658448e+01 2.125887e+02 -8.926968e+01 1.187341e+03 -1.111033e+01 9.496825e+02 -6.538200e-01 9.874520e+02 7.135391e-01 7.947563e+02 -5.470171e-01 8.021718e+02 1.176879e+02 1.677623e+01 8.357823e-03 4.343547e-02 9.515277e-02 6.121962e-01 -1.874347e-02 1.056778e+00 -3.997746e-02 1.822103e+00 -1.553443e-02 1.672042e+00 -6.014675e-03 1.317795e+00 1.526130e-02 3.009928e-02 1.175038e-01 2.692841e-01 3.169457e-01 -1.125408e-01 6.511995e-01 -3.419877e-01 5.646030e-01 -1.873313e-01 4.377753e-01 -9.741354e-02 -1.379161e-01 7.155535e+00
<VARIANCE> 52
 6.017445e+01 3.507869e+03 1.665808e+03 1.044457e+05 1.172669e+03 8.176821e+04 1.487857e+03 9.855082e+04 1.511422e+03 6.122798e+04 1.117795e+03 5.803114e+04 2.236687e+02 2.556396e+03 1.452375e+03 4.931950e+04 8.704949e+02 1.917176e+05 1.034883e+03 3.115259e+05 1.049295e+03 2.533218e+05 7.668085e+02 2.163465e+05 1.722297e+04 2.826077e+05 3.638277e-03 2.338923e-02 3.892783e-02 1.818532e+00 2.096823e-01 1.687198e+01 6.837084e-01 5.357530e+01 7.804974e-01 5.190553e+01 4.958745e-01 3.364322e+01 2.814359e-03 6.278875e-03 7.342323e-02 1.782031e-01 2.145109e-01 4.839265e+00 9.543811e-01 1.677880e+01 8.021105e-01 1.898135e+01 4.702188e-01 1.292308e+01 3.450612e+00 1.349940e+02
<GCONST> 3.283785e+02
<MIXTURE> 3 1.157627e-01
<MEAN> 52
 5.641585e+01 2.299917e+02 1.483221e+02 1.190694e+03 8.589655e+01 7.812994e+02 7.916421e+01 7.465526e+02 7.808383e+01 5.659122e+02 6.831951e+01 5.946279e+02 -5.662926e+01 2.614217e+02 -9.735783e+01 1.358533e+03 -2.947334e+01 1.432046e+03 -1.924768e+01 1.594560e+03 -1.582834e+01 1.324214e+03 -1.474701e+01 1.286891e+03 1.986711e+02 -1.632701e+02 1.197088e-02 1.108352e-02 7.894845e-02 5.340883e-01 -1.285942e-01 6.913322e-02 -2.482902e-01 -6.696057e-02 -2.544912e-01 -6.074129e-01 -2.043006e-01 -5.384046e-01 1.364091e-02 2.037206e-02 6.293730e-02 2.887583e-01 2.535193e-01 7.119285e-02 5.109659e-01 2.323464e-02 4.840286e-01 -9.914917e-02 3.593543e-01 -7.099396e-02 -8.323085e-01 1.709568e+00
<VARIANCE> 52
 1.062941e+02 7.392246e+03 1.742776e+03 2.298451e+05 3.094932e+03 2.217810e+05 4.498451e+03 2.621716e+05 4.647708e+03 1.686943e+05 3.345514e+03 1.583716e+05 2.645864e+02 5.554623e+03 1.062392e+03 9.413766e+04 1.332605e+03 4.626489e+05 1.568016e+03 7.456843e+05 1.510507e+03 6.008082e+05 1.082152e+03 5.061829e+05 3.892818e+04 1.555237e+05 6.517360e-03 2.571823e-02 8.535496e-02 2.385663e+00 2.203318e-01 1.769996e+01 6.326901e-01 5.757891e+01 8.950245e-01 7.647808e+01 6.163939e-01 5.260458e+01 6.650663e-03 1.514808e-02 6.962917e-02 3.970065e-01 2.323663e-01 1.902927e+00 8.476804e-01 5.375605e+00 7.128975e-01 8.526684e+00 3.888332e-01 5.768435e+00 6.607845e+00 1.518539e+02
<GCONST> 3.475770e+02
<MIXTURE> 4 2.596402e-01
<MEAN> 52
 4.509521e+01 1.403270e+02 1.434554e+02 6.698128e+02 3.572186e+01 2.780826e+02 1.984298e+01 2.193469e+02 1.713847e+01 1.591946e+02 1.653836e+01 1.938012e+02 -5.555781e+01 1.822522e+02 -1.121357e+02 1.054093e+03 -2.881282e+01 6.869691e+02 -1.995558e+01 6.525649e+02 -1.872215e+01 4.927698e+02 -1.716180e+01 5.230934e+02 3.894615e+01 -3.021889e+02 -2.783306e-02 -4.832575e-02 -2.322807e-02 -1.969216e-01 -2.934900e-01 -1.407753e+00 -5.360974e-01 -2.569606e+00 -5.456090e-01 -2.650688e+00 -4.285248e-01 -2.162372e+00 -1.656902e-02 -1.744433e-02 -4.507652e-02 1.599948e-02 3.905375e-02 -1.432441e+00 6.504485e-02 -2.799704e+00 2.723926e-02 -2.801387e+00 2.634029e-02 -2.254335e+00 -1.252465e+00 1.843197e-01
<VARIANCE> 52
 6.017445e+01 3.507869e+03 1.665808e+03 1.044457e+05 1.172669e+03 8.176821e+04 1.487857e+03 9.855082e+04 1.511422e+03 6.122798e+04 1.117795e+03 5.803114e+04 2.236687e+02 2.556396e+03 1.452375e+03 4.931950e+04 8.704949e+02 1.917176e+05 1.034883e+03 3.115259e+05 1.049295e+03 2.533218e+05 7.668085e+02 2.163465e+05 1.722297e+04 2.826077e+05 3.638277e-03 2.338923e-02 3.892783e-02 1.818532e+00 2.096823e-01 1.687198e+01 6.837084e-01 5.357530e+01 7.804974e-01 5.190553e+01 4.958745e-01 3.364322e+01 2.814359e-03 6.278875e-03 7.342323e-02 1.782031e-01 2.145109e-01 4.839265e+00 9.543811e-01 1.677880e+01 8.021105e-01 1.898135e+01 4.702188e-01 1.292308e+01 3.450612e+00 1.349940e+02
<GCONST> 3.283785e+02
<MIXTURE> 5 1.245971e-01
<MEAN> 52
 6.580652e+01 2.918824e+02 1.197744e+02 1.508418e+03 1.234406e+02 1.243638e+03 1.268756e+02 1.255402e+03 1.268999e+02 9.745193e+02 1.094158e+02 9.942060e+02 -7.033341e+01 3.180740e+02 -1.046381e+02 1.537857e+03 -6.717588e+01 1.927779e+03 -6.060254e+01 2.197689e+03 -5.490508e+01 1.869753e+03 -4.667122e+01 1.789486e+03 2.959103e+02 -2.788309e+02 8.312669e-03 -2.353352e-02 2.849460e-02 3.759435e-01 -1.975956e-01 -2.805554e+00 -3.099170e-01 -5.135808e+00 -3.497061e-01 -7.913589e+00 -2.691168e-01 -6.286610e+00 1.608152e-03 -4.707612e-04 2.900818e-02 1.110639e-01 1.196987e-01 -1.738043e-01 2.679490e-01 -3.483447e-01 2.391849e-01 -6.599528e-01 1.703373e-01 -5.433810e-01 -1.394290e+00 -6.449494e+00
<VARIANCE> 52
 8.149467e+01 1.690392e+03 7.671638e+02 4.718760e+04 3.714161e+03 1.441107e+05 5.989453e+03 2.201648e+05 6.145000e+03 1.796812e+05 4.489772e+03 1.591810e+05 5.288959e+01 9.924937e+02 3.979311e+02 2.391151e+04 1.498248e+03 1.493902e+05 2.026002e+03 2.852010e+05 2.091984e+03 2.876118e+05 1.435708e+03 2.300121e+05 4.940536e+04 1.035266e+05 6.770287e-03 2.330193e-02 7.314703e-02 6.545619e+00 3.124925e-01 5.115362e+01 4.809210e-01 1.485291e+02 7.754683e-01 1.999146e+02 5.939894e-01 1.307939e+02 3.592305e-03 1.014884e-02 4.871946e-02 1.373793e+00 1.466019e-01 1.746136e+00 4.499003e-01 5.122212e+00 3.654884e-01 6.719278e+00 2.106266e-01 4.253950e+00 3.968998e+00 3.070706e+02
<GCONST> 3.370279e+02
<MIXTURE> 6 1.157627e-01
<MEAN> 52
 5.229189e+01 1.956005e+02 1.316235e+02 9.989257e+02 6.364370e+01 5.929249e+02 5.233601e+01 5.417418e+02 5.081419e+01 4.016226e+02 4.518335e+01 4.354442e+02 -6.313571e+01 2.316099e+02 -1.103956e+02 1.235805e+03 -4.407528e+01 1.159972e+03 -3.508696e+01 1.249148e+03 -3.137444e+01 1.014166e+03 -2.790545e+01 1.002305e+03 1.197502e+02 -3.210161e+02 -2.032119e-02 -5.306410e-02 -3.791384e-02 -8.373544e-02 -3.163522e-01 -1.613720e+00 -5.664574e-01 -3.102191e+00 -6.329141e-01 -4.105483e+00 -5.183436e-01 -3.439565e+00 -1.897973e-02 -2.885896e-02 -4.261206e-02 3.672449e-02 6.070172e-02 -4.805936e-01 1.426877e-01 -9.041795e-01 1.462956e-01 -1.267169e+00 1.099283e-01 -1.031697e+00 -1.860538e+00 -3.219592e+00
<VARIANCE> 52
 1.062941e+02 7.392246e+03 1.742776e+03 2.298451e+05 3.094932e+03 2.217810e+05 4.498451e+03 2.621716e+05 4.647708e+03 1.686943e+05 3.345514e+03 1.583716e+05 2.645864e+02 5.554623e+03 1.062392e+03 9.413766e+04 1.332605e+03 4.626489e+05 1.568016e+03 7.456843e+05 1.510507e+03 6.008082e+05 1.082152e+03 5.061829e+05 3.892818e+04 1.555237e+05 6.517360e-03 2.571823e-02 8.535496e-02 2.385663e+00 2.203318e-01 1.769996e+01 6.326901e-01 5.757891e+01 8.950245e-01 7.647808e+01 6.163939e-01 5.260458e+01 6.650663e-03 1.514808e-02 6.962917e-02 3.970065e-01 2.323663e-01 1.902927e+00 8.476804e-01 5.375605e+00 7.128975e-01 8.526684e+00 3.888332e-01 5.768435e+00 6.607845e+00 1.518539e+02
<GCONST> 3.475770e+02
<MIXTURE> 7 1.298201e-01
<MEAN> 52
 4.664666e+01 1.521725e+02 1.516183e+02 7.344489e+02 4.257071e+01 3.352729e+02 2.755753e+01 2.821325e+02 2.491387e+01 2.086832e+02 2.322505e+01 2.419805e+02 -5.256670e+01 1.923644e+02 -1.045137e+02 1.098509e+03 -2.291199e+01 7.745402e+02 -1.352166e+01 7.641940e+02 -1.224359e+01 5.934320e+02 -1.162354e+01 6.161195e+02 6.519341e+01 -1.958672e+02 -1.576943e-02 -1.773868e-02 1.623221e-02 7.278433e-02 -2.019078e-01 -5.862430e-01 -3.707241e-01 -1.105703e+00 -3.689175e-01 -1.209778e+00 -2.876881e-01 -1.002316e+00 -5.958917e-03 -1.596460e-03 9.116925e-03 1.004277e-01 1.316844e-01 -9.924740e-01 2.604297e-01 -1.980465e+00 2.063605e-01 -1.930035e+00 1.634853e-01 -1.535361e+00 -8.809490e-01 2.508058e+00
<VARIANCE> 52
 6.017445e+01 3.507869e+03 1.665808e+03 1.044457e+05 1.172669e+03 8.176821e+04 1.487857e+03 9.855082e+04 1.511422e+03 6.122798e+04 1.117795e+03 5.803114e+04 2.236687e+02 2.556396e+03 1.452375e+03 4.931950e+04 8.704949e+02 1.917176e+05 1.034883e+03 3.115259e+05 1.049295e+03 2.533218e+05 7.668085e+02 2.163465e+05 1.722297e+04 2.826077e+05 3.638277e-03 2.338923e-02 3.892783e-02 1.818532e+00 2.096823e-01 1.687198e+01 6.837084e-01 5.357530e+01 7.804974e-01 5.190553e+01 4.958745e-01 3.364322e+01 2.814359e-03 6.278875e-03 7.342323e-02 1.782031e-01 2.145109e-01 4.839265e+00 9.543811e-01 1.677880e+01 8.021105e-01 1.898135e+01 4.702188e-01 1.292308e+01 3.450612e+00 1.349940e+02
<GCONST> 3.283785e+02
<STATE> 5
<NUMMIXES> 7
<MIXTURE> 1 9.706450e-02
<MEAN> 52
 6.548740e+01 2.906562e+02 1.372934e+02 1.578021e+03 1.167461e+02 1.193984e+03 1.164187e+02 1.189176e+03 1.166272e+02 9.028535e+02 1.011965e+02 9.228090e+02 -6.805643e+01 3.218487e+02 -9.556383e+01 1.617160e+03 -4.561237e+01 1.925143e+03 -3.551389e+01 2.193718e+03 -3.122418e+01 1.866491e+03 -2.743102e+01 1.787488e+03 3.057836e+02 -2.176792e+02 3.580016e-02 9.705468e-02 1.764064e-01 2.740422e+00 -2.187072e-01 1.411537e+00 -3.794403e-01 1.979168e+00 -3.156004e-01 7.945986e-01 -2.878487e-01 2.077579e-01 2.366547e-02 1.082074e-01 1.359753e-01 2.076775e+00 1.641188e+00 5.181971e-01 3.059379e+00 4.212028e-01 3.017767e+00 -1.307420e-01 2.361636e+00 -1.021842e-01 -2.714743e+00 4.478095e+00
<VARIANCE> 52
 7.159934e+01 1.985453e+03 1.141293e+03 8.489033e+04 2.984876e+03 1.754334e+05 4.821088e+03 2.652516e+05 4.900004e+03 1.920549e+05 3.551970e+03 1.681244e+05 4.336337e+01 1.315956e+03 3.707477e+02 2.728398e+04 1.552958e+03 9.407803e+04 1.866179e+03 1.846910e+05 1.790641e+03 2.004394e+05 1.216968e+03 1.626572e+05 4.489170e+04 4.844213e+05 8.848333e-03 3.513731e-02 8.548307e-01 1.779605e+01 8.341696e-01 4.497549e+01 2.356638e+00 1.578772e+02 2.017373e+00 2.142269e+02 1.343312e+00 1.153173e+02 9.498791e-03 2.607234e-02 1.752823e-01 9.299142e+00 6.490019e+00 6.440658e+00 2.382092e+01 1.331121e+01 2.212764e+01 1.583204e+01 1.264780e+01 1.049187e+01 3.585114e+01 3.474133e+02
<GCONST> 3.730388e+02
<MIXTURE> 2 1.314258e-01
<MEAN> 52
 4.989423e+01 1.780451e+02 1.684892e+02 8.942002e+02 5.572553e+01 4.680839e+02 4.253600e+01 4.156809e+02 4.065287e+01 3.049261e+02 3.669920e+01 3.398326e+02 -4.667128e+01 2.167754e+02 -8.779980e+01 1.208229e+03 -1.080908e+01 9.403321e+02 -1.344581e+00 9.736766e+02 -8.769560e-01 7.731779e+02 -1.648279e+00 7.812986e+02 1.021634e+02 -2.395834e+01 9.310888e-03 6.637222e-02 1.216203e-01 1.256348e+00 2.052039e-03 3.151392e+00 2.853870e-04 4.578495e+00 4.014650e-02 4.029694e+00 1.466164e-02 3.620924e+00 6.312309e-03 3.024451e-02 6.662723e-02 3.273416e-01 7.219406e-01 4.340123e-01 1.249392e+00 4.134440e-01 1.306616e+00 5.947740e-01 9.991436e-01 5.703504e-01 2.761118e-01 1.219227e+01
<VARIANCE> 52
 6.521075e+01 3.764872e+03 1.690650e+03 1.161014e+05 1.127346e+03 7.406019e+04 1.435973e+03 8.050140e+04 1.518899e+03 4.502041e+04 1.114212e+03 4.433407e+04 2.355523e+02 2.956603e+03 1.356798e+03 5.707243e+04 5.120259e+02 1.787508e+05 4.913470e+02 2.840184e+05 4.430865e+02 2.168648e+05 3.333848e+02 1.852310e+05 1.168613e+04 1.030390e+05 8.046457e-03 2.805773e-02 2.070008e-01 4.931015e+00 4.686513e-01 5.221400e+01 1.120237e+00 1.554451e+02 1.288410e+00 1.584422e+02 7.006586e-01 1.179128e+02 3.140459e-03 4.220625e-03 7.062247e-02 3.799748e-01 1.127115e+00 2.129378e+01 3.154682e+00 4.504205e+01 3.747097e+00 4.600793e+01 2.155947e+00 3.374609e+01 1.949743e+01 4.597901e+02
<GCONST> 3.471089e+02
<MIXTURE> 3 1.400837e-01
<MEAN> 52
 5.598438e+01 2.251594e+02 1.512269e+02 1.180711e+03 8.077454e+01 7.176303e+02 7.173760e+01 6.603978e+02 7.140833e+01 4.827660e+02 6.304888e+01 5.189025e+02 -5.696174e+01 2.584306e+02 -9.872958e+01 1.362549e+03 -2.586922e+01 1.343648e+03 -1.558910e+01 1.476634e+03 -1.340242e+01 1.214052e+03 -1.255592e+01 1.187117e+03 1.757188e+02 -1.592366e+02 1.307203e-03 7.190122e-02 -1.092106e-03 1.639705e+00 -2.801358e-01 2.820076e+00 -5.008005e-01 3.033243e+00 -4.335079e-01 1.262335e+00 -3.525209e-01 1.272335e+00 1.734365e-03 4.390822e-02 1.596521e-02 7.418774e-01 7.683039e-01 -7.275349e-02 1.354874e+00 -2.071962e-01 1.339272e+00 -3.318588e-01 1.063432e+00 -2.689488e-01 -1.726263e+00 7.631024e+00
<VARIANCE> 52
 1.269212e+02 6.293457e+03 1.725870e+03 2.270257e+05 2.564630e+03 1.694766e+05 3.607590e+03 1.898478e+05 3.910019e+03 1.094967e+05 2.852406e+03 1.037816e+05 2.030966e+02 4.720104e+03 9.285193e+02 8.754562e+04 1.061302e+03 3.890673e+05 1.164830e+03 6.215476e+05 1.063934e+03 4.851360e+05 7.670953e+02 4.084059e+05 3.109667e+04 1.511013e+05 7.012365e-03 3.009987e-02 4.434195e-01 8.658495e+00 6.812474e-01 6.840266e+01 2.013620e+00 1.838239e+02 1.975328e+00 1.856120e+02 1.174713e+00 1.408028e+02 3.606780e-03 9.670909e-03 6.914748e-02 2.114090e+00 1.571729e+00 1.918500e+01 4.537698e+00 3.679877e+01 4.653342e+00 4.744711e+01 2.987628e+00 3.515157e+01 2.486267e+01 6.191979e+02
<GCONST> 3.723646e+02
<MIXTURE> 4 2.628517e-01
<MEAN> 52
 4.504904e+01 1.412300e+02 1.438187e+02 6.897582e+02 3.557994e+01 3.047999e+02 1.979946e+01 2.454442e+02 1.726904e+01 1.776180e+02 1.667131e+01 2.134987e+02 -5.587990e+01 1.841506e+02 -1.099007e+02 1.064890e+03 -2.438588e+01 6.866585e+02 -1.464439e+01 6.539164e+02 -1.350673e+01 4.937654e+02 -1.260358e+01 5.230677e+02 3.730197e+01 -2.165565e+02 -4.451034e-02 -3.413044e-02 -1.513638e-01 -7.600528e-02 -4.086966e-01 -1.184164e+00 -6.347621e-01 -2.902163e+00 -6.409024e-01 -3.522736e+00 -4.875705e-01 -2.894335e+00 -2.731157e-02 -8.735289e-03 -9.282209e-02 -4.251094e-02 8.494654e-02 -2.334699e+00 1.837062e-01 -3.613358e+00 1.451712e-01 -3.474975e+00 1.181549e-01 -2.915133e+00 -2.373242e+00 -6.733632e-01
<VARIANCE> 52
 6.521075e+01 3.764872e+03 1.690650e+03 1.161014e+05 1.127346e+03 7.406019e+04 1.435973e+03 8.050140e+04 1.518899e+03 4.502041e+04 1.114212e+03 4.433407e+04 2.355523e+02 2.956603e+03 1.356798e+03 5.707243e+04 5.120259e+02 1.787508e+05 4.913470e+02 2.840184e+05 4.430865e+02 2.168648e+05 3.333848e+02 1.852310e+05 1.168613e+04 1.030390e+05 8.046457e-03 2.805773e-02 2.070008e-01 4.931015e+00 4.686513e-01 5.221400e+01 1.120237e+00 1.554451e+02 1.288410e+00 1.584422e+02 7.006586e-01 1.179128e+02 3.140459e-03 4.220625e-03 7.062247e-02 3.799748e-01 1.127115e+00 2.129378e+01 3.154682e+00 4.504205e+01 3.747097e+00 4.600793e+01 2.155947e+00 3.374609e+01 1.949743e+01 4.597901e+02
<GCONST> 3.471089e+02
<MIXTURE> 5 1.400837e-01
<MEAN> 52
 5.147800e+01 1.934268e+02 1.346095e+02 9.901226e+02 6.051768e+01 5.529601e+02 4.771232e+01 4.861116e+02 4.639627e+01 3.504048e+02 4.168571e+01 3.900419e+02 -6.266222e+01 2.309494e+02 -1.109182e+02 1.244197e+03 -3.890028e+01 1.094147e+03 -2.924094e+01 1.161280e+03 -2.644962e+01 9.354456e+02 -2.363452e+01 9.314907e+02 1.051818e+02 -3.147236e+02 -3.218874e-02 2.503961e-03 -2.674511e-01 4.626926e-01 -6.102867e-01 -4.881599e-01 -1.068409e+00 -2.390024e+00 -9.956933e-01 -4.187245e+00 -7.860576e-01 -3.474079e+00 -2.228823e-02 4.571913e-03 -8.921843e-02 1.602810e-01 2.668295e-01 -1.824781e+00 5.027993e-01 -2.633676e+00 4.764076e-01 -3.087133e+00 3.720413e-01 -2.640499e+00 -3.720762e+00 -2.322450e+00
<VARIANCE> 52
 1.269212e+02 6.293457e+03 1.725870e+03 2.270257e+05 2.564630e+03 1.694766e+05 3.607590e+03 1.898478e+05 3.910019e+03 1.094967e+05 2.852406e+03 1.037816e+05 2.030966e+02 4.720104e+03 9.285193e+02 8.754562e+04 1.061302e+03 3.890673e+05 1.164830e+03 6.215476e+05 1.063934e+03 4.851360e+05 7.670953e+02 4.084059e+05 3.109667e+04 1.511013e+05 7.012365e-03 3.009987e-02 4.434195e-01 8.658495e+00 6.812474e-01 6.840266e+01 2.013620e+00 1.838239e+02 1.975328e+00 1.856120e+02 1.174713e+00 1.408028e+02 3.606780e-03 9.670909e-03 6.914748e-02 2.114090e+00 1.571729e+00 1.918500e+01 4.537698e+00 3.679877e+01 4.653342e+00 4.744711e+01 2.987628e+00 3.515157e+01 2.486267e+01 6.191979e+02
<GCONST> 3.723646e+02
<MIXTURE> 6 9.706450e-02
<MEAN> 52
 6.210275e+01 2.728328e+02 1.237802e+02 1.461477e+03 9.489249e+01 1.026444e+03 8.864509e+01 9.831658e+02 8.862719e+01 7.275572e+02 7.735712e+01 7.587970e+02 -7.069047e+01 3.073383e+02 -1.032657e+02 1.551088e+03 -6.137541e+01 1.802455e+03 -5.279361e+01 2.021815e+03 -4.815056e+01 1.687409e+03 -4.138504e+01 1.626164e+03 2.210330e+02 -4.960807e+02 -1.826076e-03 2.207488e-02 -1.934219e-01 1.053008e+00 -5.840388e-01 -1.271013e+00 -9.934940e-01 -3.046800e+00 -8.837374e-01 -5.059999e+00 -7.514541e-01 -4.087678e+00 -1.531923e-02 4.361968e-02 -3.149159e-02 8.569950e-01 6.221676e-01 -4.969409e-01 1.107111e+00 -1.038178e+00 1.136166e+00 -1.722322e+00 9.390860e-01 -1.397830e+00 -5.109776e+00 -2.977516e+00
<VARIANCE> 52
 7.159934e+01 1.985453e+03 1.141293e+03 8.489033e+04 2.984876e+03 1.754334e+05 4.821088e+03 2.652516e+05 4.900004e+03 1.920549e+05 3.551970e+03 1.681244e+05 4.336337e+01 1.315956e+03 3.707477e+02 2.728398e+04 1.552958e+03 9.407803e+04 1.866179e+03 1.846910e+05 1.790641e+03 2.004394e+05 1.216968e+03 1.626572e+05 4.489170e+04 4.844213e+05 8.848333e-03 3.513731e-02 8.548307e-01 1.779605e+01 8.341696e-01 4.497549e+01 2.356638e+00 1.578772e+02 2.017373e+00 2.142269e+02 1.343312e+00 1.153173e+02 9.498791e-03 2.607234e-02 1.752823e-01 9.299142e+00 6.490019e+00 6.440658e+00 2.382092e+01 1.331121e+01 2.212764e+01 1.583204e+01 1.264780e+01 1.049187e+01 3.585114e+01 3.474133e+02
<GCONST> 3.730388e+02
<MIXTURE> 7 1.314258e-01
<MEAN> 52
 4.666410e+01 1.535017e+02 1.520422e+02 7.579055e+02 4.229514e+01 3.592279e+02 2.737831e+01 3.021898e+02 2.506365e+01 2.200540e+02 2.334727e+01 2.556100e+02 -5.281036e+01 1.950255e+02 -1.025337e+02 1.112670e+03 -1.986028e+01 7.712164e+02 -1.021112e+01 7.605032e+02 -9.296804e+00 5.869029e+02 -8.951811e+00 6.091447e+02 5.892245e+01 -1.523571e+02 -2.656993e-02 -6.295517e-04 -6.036908e-02 3.681125e-01 -2.717804e-01 2.610211e-01 -4.230796e-01 -4.086103e-01 -4.138861e-01 -1.005259e+00 -3.201598e-01 -7.225821e-01 -1.610361e-02 4.257978e-03 -3.967231e-02 8.077326e-02 2.972779e-01 -1.411795e+00 5.389347e-01 -2.271091e+00 5.323197e-01 -2.118392e+00 4.118178e-01 -1.753305e+00 -1.490124e+00 3.615180e+00
<VARIANCE> 52
 6.521075e+01 3.764872e+03 1.690650e+03 1.161014e+05 1.127346e+03 7.406019e+04 1.435973e+03 8.050140e+04 1.518899e+03 4.502041e+04 1.114212e+03 4.433407e+04 2.355523e+02 2.956603e+03 1.356798e+03 5.707243e+04 5.120259e+02 1.787508e+05 4.913470e+02 2.840184e+05 4.430865e+02 2.168648e+05 3.333848e+02 1.852310e+05 1.168613e+04 1.030390e+05 8.046457e-03 2.805773e-02 2.070008e-01 4.931015e+00 4.686513e-01 5.221400e+01 1.120237e+00 1.554451e+02 1.288410e+00 1.584422e+02 7.006586e-01 1.179128e+02 3.140459e-03 4.220625e-03 7.062247e-02 3.799748e-01 1.127115e+00 2.129378e+01 3.154682e+00 4.504205e+01 3.747097e+00 4.600793e+01 2.155947e+00 3.374609e+01 1.949743e+01 4.597901e+02
<GCONST> 3.471089e+02
<STATE> 6
<NUMMIXES> 7
<MIXTURE> 1 9.717820e-02
<MEAN> 52
 6.511179e+01 2.992582e+02 1.280896e+02 1.633167e+03 9.075996e+01 1.214248e+03 8.289103e+01 1.220786e+03 8.444903e+01 9.189800e+02 7.373386e+01 9.345164e+02 -6.781535e+01 3.321032e+02 -9.351496e+01 1.683133e+03 -3.010958e+01 1.882870e+03 -1.899231e+01 2.127352e+03 -1.635518e+01 1.775996e+03 -1.497020e+01 1.702046e+03 2.006793e+02 -1.761186e+02 1.952138e-02 1.130600e-01 1.084127e-01 1.979525e+00 -1.084557e-01 2.226805e+00 -3.422849e-01 3.913973e+00 -3.684106e-01 3.029394e+00 -2.712309e-01 2.381543e+00 2.159960e-02 1.286084e-01 8.055271e-02 6.198589e-01 5.678807e-01 2.709521e-01 9.666914e-01 3.885266e-01 8.763144e-01 1.918256e-01 6.711403e-01 1.358383e-01 -1.647553e+00 5.464203e+00
<VARIANCE> 52
 7.893462e+01 1.485015e+03 7.893491e+02 5.298412e+04 2.150225e+03 1.435748e+05 3.368551e+03 2.334829e+05 3.593939e+03 1.649528e+05 2.596624e+03 1.411184e+05 4.768152e+01 1.201715e+03 3.963077e+02 2.199358e+04 9.262251e+02 1.288673e+05 9.533439e+02 2.362809e+05 7.974081e+02 2.248668e+05 5.846011e+02 1.830761e+05 2.689785e+04 5.700738e+04 7.497679e-03 3.644409e-02 1.649652e-01 1.695772e+01 2.453667e-01 2.959678e+01 6.916656e-01 1.044768e+02 9.818622e-01 1.111736e+02 5.477355e-01 7.155550e+01 3.490594e-03 3.920251e-02 2.603377e-02 6.820682e-01 4.775634e-01 1.691114e+00 1.124882e+00 5.136353e+00 9.716617e-01 4.347095e+00 6.365183e-01 2.878099e+00 9.053390e+00 1.538125e+02
<GCONST> 3.334978e+02
<MIXTURE> 2 1.298658e-01
<MEAN> 52
 5.003342e+01 1.898633e+02 1.652418e+02 9.705208e+02 5.374554e+01 5.001149e+02 4.053775e+01 4.325374e+02 3.971392e+01 3.114823e+02 3.574957e+01 3.495400e+02 -4.778323e+01 2.250728e+02 -8.814448e+01 1.237398e+03 -1.158422e+01 9.816939e+02 -2.250570e+00 1.019494e+03 -1.889842e+00 8.134038e+02 -2.521613e+00 8.165616e+02 1.008580e+02 -4.581014e+01 7.780779e-03 5.604267e-02 8.886546e-02 1.256199e+00 -2.016696e-02 1.535092e+00 -4.189545e-02 2.072038e+00 1.125515e-02 1.804988e+00 8.492649e-03 1.615651e+00 8.697895e-03 4.757795e-02 5.287986e-02 3.351199e-01 4.754143e-01 1.935655e-01 7.329447e-01 3.616496e-01 6.123474e-01 3.666493e-01 4.883819e-01 2.895550e-01 -3.041780e-02 5.324872e+00
<VARIANCE> 52
 6.971294e+01 4.785076e+03 1.690076e+03 1.527518e+05 9.047570e+02 7.453052e+04 1.157420e+03 7.147996e+04 1.297225e+03 3.735142e+04 9.400614e+02 3.764721e+04 2.519009e+02 3.538753e+03 1.302618e+03 6.544577e+04 4.610968e+02 2.092414e+05 4.147902e+02 3.239693e+05 3.627287e+02 2.469121e+05 2.699613e+02 2.089739e+05 1.022846e+04 4.705240e+04 1.144227e-02 1.537958e-02 2.327936e-01 4.038842e+00 1.037345e+00 2.974625e+01 2.267110e+00 9.639886e+01 2.472169e+00 8.991780e+01 1.769050e+00 6.226371e+01 4.358246e-03 1.251104e-02 2.370728e-02 3.377851e-01 4.201030e-01 3.534617e+00 9.605758e-01 1.186192e+01 6.517627e-01 1.146359e+01 4.244963e-01 7.760548e+00 1.268619e+01 1.424693e+02
<GCONST> 3.333081e+02
<MIXTURE> 3 1.430905e-01
<MEAN> 52
 5.202986e+01 2.040485e+02 1.553717e+02 1.078788e+03 6.288596e+01 6.013352e+02 5.054806e+01 5.336602e+02 5.027983e+01 3.848250e+02 4.507136e+01 4.246289e+02 -5.434072e+01 2.393852e+02 -9.624415e+01 1.294628e+03 -1.842766e+01 1.130283e+03 -8.797659e+00 1.202489e+03 -7.568825e+00 9.728792e+02 -7.435937e+00 9.644434e+02 1.201357e+02 -1.086117e+02 -1.270222e-02 6.145331e-02 -1.144230e-02 1.381137e+00 -1.548475e-01 1.699489e+00 -3.331606e-01 1.727131e+00 -2.751897e-01 9.208879e-01 -2.063902e-01 9.969084e-01 -1.515958e-03 3.804157e-02 4.960047e-02 3.011551e-01 3.715611e-01 2.018219e-01 5.449260e-01 3.437700e-01 4.887246e-01 2.447108e-01 3.975029e-01 1.597627e-01 -9.264559e-01 2.524921e+00
<VARIANCE> 52
 9.951778e+01 6.062044e+03 1.615657e+03 2.134312e+05 1.771881e+03 1.082027e+05 2.343087e+03 1.084538e+05 2.626183e+03 5.796054e+04 1.920125e+03 5.600985e+04 2.452213e+02 4.511411e+03 8.745773e+02 8.443534e+04 6.658865e+02 3.419348e+05 6.454144e+02 5.331491e+05 6.003638e+02 4.112340e+05 4.152595e+02 3.470825e+05 1.966867e+04 4.926940e+04 9.046689e-03 2.851275e-02 8.941674e-02 5.699497e+00 3.501861e-01 3.177114e+01 1.359793e+00 9.714874e+01 1.302545e+00 1.105835e+02 8.061118e-01 7.361330e+01 2.106691e-03 8.908661e-03 2.469372e-02 3.392926e-01 3.783491e-01 1.336915e+00 7.214486e-01 6.268876e+00 5.251913e-01 4.443563e+00 3.732005e-01 2.990870e+00 8.113755e+00 1.479952e+02
<GCONST> 3.346535e+02
<MIXTURE> 4 2.597316e-01
<MEAN> 52
 4.502377e+01 1.483587e+02 1.405755e+02 7.360200e+02 3.569804e+01 3.363132e+02 2.012523e+01 2.721230e+02 1.810372e+01 1.955232e+02 1.735332e+01 2.331226e+02 -5.730607e+01 1.893803e+02 -1.097996e+02 1.083903e+03 -2.446812e+01 7.072364e+02 -1.447041e+01 6.779840e+02 -1.331711e+01 5.152623e+02 -1.237991e+01 5.422797e+02 4.017647e+01 -1.759595e+02 -5.640035e-02 -1.836600e-02 -2.006267e-01 5.038637e-02 -6.312678e-01 -1.737315e+00 -9.453110e-01 -3.818937e+00 -9.321328e-01 -3.884512e+00 -7.895411e-01 -3.118790e+00 -3.091231e-02 -1.953370e-02 -3.950316e-02 -1.359577e-02 8.652219e-02 -9.344692e-01 1.448909e-01 -1.704819e+00 1.279564e-01 -1.664826e+00 9.746154e-02 -1.381911e+00 -2.167479e+00 -1.836758e+00
<VARIANCE> 52
 6.971294e+01 4.785076e+03 1.690076e+03 1.527518e+05 9.047570e+02 7.453052e+04 1.157420e+03 7.147996e+04 1.297225e+03 3.735142e+04 9.400614e+02 3.764721e+04 2.519009e+02 3.538753e+03 1.302618e+03 6.544577e+04 4.610968e+02 2.092414e+05 4.147902e+02 3.239693e+05 3.627287e+02 2.469121e+05 2.699613e+02 2.089739e+05 1.022846e+04 4.705240e+04 1.144227e-02 1.537958e-02 2.327936e-01 4.038842e+00 1.037345e+00 2.974625e+01 2.267110e+00 9.639886e+01 2.472169e+00 8.991780e+01 1.769050e+00 6.226371e+01 4.358246e-03 1.251104e-02 2.370728e-02 3.377851e-01 4.201030e-01 3.534617e+00 9.605758e-01 1.186192e+01 6.517627e-01 1.146359e+01 4.244963e-01 7.760548e+00 1.268619e+01 1.424693e+02
<GCONST> 3.333081e+02
<MIXTURE> 5 1.430905e-01
<MEAN> 52
 4.803952e+01 1.729049e+02 1.392937e+02 8.939934e+02 4.604848e+01 4.697585e+02 3.118588e+01 4.019308e+02 2.978131e+01 2.885250e+02 2.754366e+01 3.299633e+02 -6.060454e+01 2.125184e+02 -1.080734e+02 1.178397e+03 -2.874957e+01 8.963826e+02 -1.895966e+01 9.104208e+02 -1.736975e+01 7.163690e+02 -1.558710e+01 7.287886e+02 6.403769e+01 -1.973985e+02 -5.074786e-02 -6.089566e-03 -1.310528e-01 4.261918e-01 -3.915536e-01 -5.551473e-01 -7.996013e-01 -2.215432e+00 -7.317061e-01 -3.285460e+00 -5.655252e-01 -2.435019e+00 -1.987544e-02 2.872888e-04 -1.325647e-02 6.815984e-02 1.255207e-01 -2.606783e-01 2.051734e-01 -6.577390e-01 1.988442e-01 -5.984796e-01 1.531423e-01 -5.320027e-01 -2.065842e+00 -2.341210e+00
<VARIANCE> 52
 9.951778e+01 6.062044e+03 1.615657e+03 2.134312e+05 1.771881e+03 1.082027e+05 2.343087e+03 1.084538e+05 2.626183e+03 5.796054e+04 1.920125e+03 5.600985e+04 2.452213e+02 4.511411e+03 8.745773e+02 8.443534e+04 6.658865e+02 3.419348e+05 6.454144e+02 5.331491e+05 6.003638e+02 4.112340e+05 4.152595e+02 3.470825e+05 1.966867e+04 4.926940e+04 9.046689e-03 2.851275e-02 8.941674e-02 5.699497e+00 3.501861e-01 3.177114e+01 1.359793e+00 9.714874e+01 1.302545e+00 1.105835e+02 8.061118e-01 7.361330e+01 2.106691e-03 8.908661e-03 2.469372e-02 3.392926e-01 3.783491e-01 1.336915e+00 7.214486e-01 6.268876e+00 5.251913e-01 4.443563e+00 3.732005e-01 2.990870e+00 8.113755e+00 1.479952e+02
<GCONST> 3.346535e+02
<MIXTURE> 6 9.717820e-02
<MEAN> 52
 6.155798e+01 2.838438e+02 1.168514e+02 1.541094e+03 7.221176e+01 1.062682e+03 5.967534e+01 1.027506e+03 6.046924e+01 7.565225e+02 5.335104e+01 7.842534e+02 -7.057742e+01 3.182368e+02 -1.014780e+02 1.623812e+03 -4.228316e+01 1.739278e+03 -3.134281e+01 1.932917e+03 -2.765054e+01 1.586316e+03 -2.464161e+01 1.530896e+03 1.350771e+02 -2.716234e+02 -1.511428e-02 3.669864e-02 -5.405091e-02 3.323350e-01 -3.065937e-01 5.068851e-02 -6.749507e-01 -1.745830e-01 -7.647665e-01 -1.188162e+00 -5.672675e-01 -1.002077e+00 -2.032897e-03 4.940994e-02 1.601277e-02 2.895091e-01 2.914569e-01 -2.492193e-01 5.424496e-01 -5.180143e-01 4.820228e-01 -6.421620e-01 3.520119e-01 -5.427601e-01 -2.851107e+00 5.033565e-01
<VARIANCE> 52
 7.893462e+01 1.485015e+03 7.893491e+02 5.298412e+04 2.150225e+03 1.435748e+05 3.368551e+03 2.334829e+05 3.593939e+03 1.649528e+05 2.596624e+03 1.411184e+05 4.768152e+01 1.201715e+03 3.963077e+02 2.199358e+04 9.262251e+02 1.288673e+05 9.533439e+02 2.362809e+05 7.974081e+02 2.248668e+05 5.846011e+02 1.830761e+05 2.689785e+04 5.700738e+04 7.497679e-03 3.644409e-02 1.649652e-01 1.695772e+01 2.453667e-01 2.959678e+01 6.916656e-01 1.044768e+02 9.818622e-01 1.111736e+02 5.477355e-01 7.155550e+01 3.490594e-03 3.920251e-02 2.603377e-02 6.820682e-01 4.775634e-01 1.691114e+00 1.124882e+00 5.136353e+00 9.716617e-01 4.347095e+00 6.365183e-01 2.878099e+00 9.053390e+00 1.538125e+02
<GCONST> 3.334978e+02
<MIXTURE> 7 1.298658e-01
<MEAN> 52
 4.669365e+01 1.621936e+02 1.487976e+02 8.141869e+02 4.171387e+01 3.909138e+02 2.692940e+01 3.255945e+02 2.530712e+01 2.341762e+02 2.348540e+01 2.719284e+02 -5.413179e+01 2.012778e+02 -1.025812e+02 1.135068e+03 -2.017349e+01 7.987222e+02 -1.039713e+01 7.918206e+02 -9.508018e+00 6.146428e+02 -9.093813e+00 6.337070e+02 6.040364e+01 -1.325764e+02 -3.500664e-02 6.436892e-03 -1.041293e-01 4.523238e-01 -4.275675e-01 -6.465124e-01 -6.441725e-01 -1.855279e+00 -6.176702e-01 -1.988012e+00 -5.235299e-01 -1.540643e+00 -1.770891e-02 2.836851e-03 -8.708820e-03 1.026428e-01 2.161529e-01 -5.584576e-01 3.409088e-01 -1.015996e+00 2.894201e-01 -9.876677e-01 2.277683e-01 -8.247554e-01 -1.455125e+00 5.504520e-01
<VARIANCE> 52
 6.971294e+01 4.785076e+03 1.690076e+03 1.527518e+05 9.047570e+02 7.453052e+04 1.157420e+03 7.147996e+04 1.297225e+03 3.735142e+04 9.400614e+02 3.764721e+04 2.519009e+02 3.538753e+03 1.302618e+03 6.544577e+04 4.610968e+02 2.092414e+05 4.147902e+02 3.239693e+05 3.627287e+02 2.469121e+05 2.699613e+02 2.089739e+05 1.022846e+04 4.705240e+04 1.144227e-02 1.537958e-02 2.327936e-01 4.038842e+00 1.037345e+00 2.974625e+01 2.267110e+00 9.639886e+01 2.472169e+00 8.991780e+01 1.769050e+00 6.226371e+01 4.358246e-03 1.251104e-02 2.370728e-02 3.377851e-01 4.201030e-01 3.534617e+00 9.605758e-01 1.186192e+01 6.517627e-01 1.146359e+01 4.244963e-01 7.760548e+00 1.268619e+01 1.424693e+02
<GCONST> 3.333081e+02
<STATE> 7
<NUMMIXES> 7
<MIXTURE> 1 1.057950e-01
<MEAN> 52
 6.480336e+01 2.984207e+02 1.288554e+02 1.655370e+03 8.390791e+01 1.196784e+03 7.207946e+01 1.192313e+03 7.455520e+01 8.884951e+02 6.595177e+01 9.044353e+02 -6.634811e+01 3.317415e+02 -9.367432e+01 1.691377e+03 -2.657114e+01 1.862333e+03 -1.518969e+01 2.105194e+03 -1.283398e+01 1.749066e+03 -1.203775e+01 1.675232e+03 1.706191e+02 -1.794002e+02 3.767931e-02 1.231593e-01 2.010141e-01 2.502876e+00 -2.002791e-01 2.303694e+00 -5.475646e-01 3.674997e+00 -4.242195e-01 3.578912e+00 -3.201368e-01 2.859538e+00 5.651278e-02 7.127228e-02 1.162678e-01 1.382285e+00 1.026337e+00 8.114524e-01 1.666195e+00 1.568417e+00 1.632887e+00 2.000021e+00 1.320988e+00 1.568638e+00 -2.589806e+00 5.943441e+00
<VARIANCE> 52
 6.449213e+01 1.421577e+03 6.414762e+02 5.358005e+04 1.605398e+03 1.286843e+05 2.472685e+03 2.191805e+05 2.719087e+03 1.549040e+05 1.973097e+03 1.303033e+05 5.220503e+01 1.256863e+03 3.887324e+02 2.292247e+04 7.013329e+02 1.201481e+05 6.713673e+02 2.235506e+05 5.652407e+02 2.044145e+05 4.128358e+02 1.644220e+05 1.975782e+04 4.694877e+04 7.475999e-03 5.837116e-02 2.190237e-01 1.993709e+01 4.986100e-01 2.485633e+01 1.996215e+00 8.548130e+01 1.611948e+00 1.093314e+02 9.656497e-01 7.271337e+01 1.009667e-02 1.678982e-02 7.683869e-02 6.551692e+00 1.369098e+00 6.243729e+00 3.277914e+00 2.124104e+01 3.075713e+00 3.880582e+01 2.198761e+00 2.571210e+01 2.545963e+01 2.406457e+02
<GCONST> 3.496205e+02
<MIXTURE> 2 1.293086e-01
<MEAN> 52
 4.934731e+01 1.867683e+02 1.676853e+02 9.660459e+02 4.581364e+01 4.744918e+02 3.101877e+01 4.043980e+02 3.046774e+01 2.898450e+02 2.764653e+01 3.303092e+02 -4.763120e+01 2.209889e+02 -8.885548e+01 1.227005e+03 -1.056314e+01 9.331565e+02 -1.901118e+00 9.600209e+02 -1.663845e+00 7.607506e+02 -2.210121e+00 7.678811e+02 7.332160e+01 -4.045205e+01 1.808355e-02 8.348885e-02 9.871872e-02 1.255482e+00 2.690929e-02 1.342615e+00 2.056015e-02 2.148331e+00 5.204397e-02 2.005363e+00 3.714022e-02 1.615526e+00 7.938202e-03 3.409954e-02 1.003131e-01 1.817904e-01 2.960202e-01 4.471458e-01 4.177375e-01 8.150157e-01 4.534129e-01 6.002828e-01 3.739566e-01 4.356322e-01 3.927273e-02 4.257517e+00
<VARIANCE> 52
 5.914732e+01 4.420235e+03 1.656975e+03 1.498297e+05 4.888329e+02 5.477809e+04 5.850665e+02 4.999305e+04 7.114986e+02 2.518262e+04 4.985474e+02 2.610318e+04 2.721666e+02 3.165322e+03 1.271334e+03 6.435528e+04 2.956059e+02 1.825812e+05 2.082252e+02 2.824493e+05 1.616049e+02 2.139756e+05 1.287214e+02 1.807319e+05 5.099639e+03 3.407378e+04 4.979051e-03 2.747031e-02 8.855689e-02 4.830123e+00 5.258846e-01 1.720674e+01 1.332520e+00 5.242298e+01 1.276492e+00 5.367651e+01 8.388977e-01 3.429648e+01 2.349901e-03 1.096610e-02 8.983693e-02 1.852475e-01 2.397148e-01 6.722249e+00 4.657575e-01 2.003052e+01 4.936294e-01 1.492145e+01 3.412420e-01 8.651950e+00 6.097333e+00 7.664458e+01
<GCONST> 3.171892e+02
<MIXTURE> 3 1.355879e-01
<MEAN> 52
 5.179480e+01 2.089416e+02 1.541104e+02 1.115857e+03 5.371782e+01 5.956334e+02 3.939257e+01 5.220699e+02 3.989445e+01 3.729338e+02 3.576890e+01 4.136382e+02 -5.498802e+01 2.425754e+02 -9.451081e+01 1.324109e+03 -1.520016e+01 1.124527e+03 -5.730386e+00 1.188096e+03 -4.861346e+00 9.505470e+02 -5.054988e+00 9.436918e+02 8.481271e+01 -1.118137e+02 6.101998e-03 8.841322e-02 6.417139e-02 9.593585e-01 -1.749638e-01 1.434872e+00 -3.273213e-01 2.330703e+00 -2.810743e-01 1.982676e+00 -2.372312e-01 1.625095e+00 5.634340e-03 3.813622e-02 7.735168e-02 2.515764e-01 3.771271e-01 1.836219e-01 5.637812e-01 3.880842e-01 5.697882e-01 2.267540e-01 4.570126e-01 1.533835e-01 -1.034618e+00 4.123644e+00
<VARIANCE> 52
 9.574517e+01 6.298034e+03 1.785092e+03 2.379351e+05 9.381244e+02 9.601693e+04 1.181946e+03 9.324277e+04 1.448746e+03 4.891616e+04 1.015713e+03 4.745050e+04 2.440463e+02 4.578988e+03 7.950404e+02 9.150033e+04 3.182214e+02 3.157407e+05 2.289176e+02 4.850758e+05 1.881019e+02 3.649822e+05 1.436719e+02 3.072763e+05 8.473090e+03 4.769532e+04 5.957506e-03 4.963716e-02 9.429125e-02 3.416383e+00 6.118672e-01 1.286860e+01 1.707443e+00 4.089000e+01 1.636353e+00 3.628788e+01 1.009597e+00 2.427440e+01 3.161561e-03 1.502159e-02 9.174723e-02 3.431706e-01 3.834671e-01 2.392590e+00 7.022206e-01 8.073798e+00 7.519921e-01 6.438450e+00 5.169873e-01 4.445356e+00 9.956269e+00 9.170063e+01
<GCONST> 3.275875e+02
<MIXTURE> 4 2.586171e-01
<MEAN> 52
 4.473286e+01 1.468774e+02 1.432617e+02 7.337988e+02 3.254790e+01 3.340634e+02 1.650588e+01 2.702432e+02 1.446338e+01 1.946308e+02 1.424962e+01 2.333703e+02 -5.752969e+01 1.872322e+02 -1.102490e+02 1.074795e+03 -2.087906e+01 6.767794e+02 -1.055912e+01 6.411451e+02 -9.291281e+00 4.832056e+02 -9.017448e+00 5.128057e+02 3.047455e+01 -1.512066e+02 -2.425389e-02 -1.595617e-02 -7.983235e-02 -6.317052e-02 -4.081981e-01 -1.146245e+00 -6.720489e-01 -2.195892e+00 -6.258477e-01 -2.390492e+00 -5.124079e-01 -1.898265e+00 -2.114727e-02 -2.873195e-02 -7.952381e-02 -7.645194e-02 2.256140e-03 -1.108492e+00 8.258939e-03 -1.870312e+00 3.186026e-02 -1.717415e+00 2.346105e-02 -1.329220e+00 -1.442294e+00 -9.952966e-01
<VARIANCE> 52
 5.914732e+01 4.420235e+03 1.656975e+03 1.498297e+05 4.888329e+02 5.477809e+04 5.850665e+02 4.999305e+04 7.114986e+02 2.518262e+04 4.985474e+02 2.610318e+04 2.721666e+02 3.165322e+03 1.271334e+03 6.435528e+04 2.956059e+02 1.825812e+05 2.082252e+02 2.824493e+05 1.616049e+02 2.139756e+05 1.287214e+02 1.807319e+05 5.099639e+03 3.407378e+04 4.979051e-03 2.747031e-02 8.855689e-02 4.830123e+00 5.258846e-01 1.720674e+01 1.332520e+00 5.242298e+01 1.276492e+00 5.367651e+01 8.388977e-01 3.429648e+01 2.349901e-03 1.096610e-02 8.983693e-02 1.852475e-01 2.397148e-01 6.722249e+00 4.657575e-01 2.003052e+01 4.936294e-01 1.492145e+01 3.412420e-01 8.651950e+00 6.097333e+00 7.664458e+01
<GCONST> 3.171892e+02
<MIXTURE> 5 1.355879e-01
<MEAN> 52
 4.788082e+01 1.771976e+02 1.372102e+02 9.207428e+02 4.146630e+01 4.716870e+02 2.564079e+01 3.999272e+02 2.466949e+01 2.844658e+02 2.302080e+01 3.265056e+02 -6.123682e+01 2.155081e+02 -1.057894e+02 1.203113e+03 -2.233566e+01 8.997634e+02 -1.178240e+01 9.095062e+02 -1.034736e+01 7.088920e+02 -9.849516e+00 7.219617e+02 4.799296e+01 -1.991707e+02 -2.477196e-02 -7.043667e-04 -5.865613e-02 2.200201e-01 -4.878516e-01 -4.142523e-05 -8.499979e-01 -2.271087e-01 -7.927543e-01 -4.269006e-01 -6.391460e-01 -3.456672e-01 -1.685676e-02 -1.088882e-02 -4.380754e-02 1.725336e-02 1.294281e-01 -4.350981e-01 2.285868e-01 -7.484930e-01 2.229182e-01 -7.882100e-01 1.694053e-01 -6.899770e-01 -2.296760e+00 2.932261e-01
<VARIANCE> 52
 9.574517e+01 6.298034e+03 1.785092e+03 2.379351e+05 9.381244e+02 9.601693e+04 1.181946e+03 9.324277e+04 1.448746e+03 4.891616e+04 1.015713e+03 4.745050e+04 2.440463e+02 4.578988e+03 7.950404e+02 9.150033e+04 3.182214e+02 3.157407e+05 2.289176e+02 4.850758e+05 1.881019e+02 3.649822e+05 1.436719e+02 3.072763e+05 8.473090e+03 4.769532e+04 5.957506e-03 4.963716e-02 9.429125e-02 3.416383e+00 6.118672e-01 1.286860e+01 1.707443e+00 4.089000e+01 1.636353e+00 3.628788e+01 1.009597e+00 2.427440e+01 3.161561e-03 1.502159e-02 9.174723e-02 3.431706e-01 3.834671e-01 2.392590e+00 7.022206e-01 8.073798e+00 7.519921e-01 6.438450e+00 5.169873e-01 4.445356e+00 9.956269e+00 9.170063e+01
<GCONST> 3.275875e+02
<MIXTURE> 6 1.057950e-01
<MEAN> 52
 6.159108e+01 2.833391e+02 1.187244e+02 1.562780e+03 6.788095e+01 1.053294e+03 5.218902e+01 1.005047e+03 5.369725e+01 7.310637e+02 4.818395e+01 7.600450e+02 -6.923823e+01 3.175605e+02 -1.015608e+02 1.630817e+03 -3.716422e+01 1.723683e+03 -2.555399e+01 1.916070e+03 -2.234390e+01 1.568218e+03 -2.016509e+01 1.513036e+03 1.143941e+02 -2.660708e+02 3.093768e-03 2.651878e-02 1.381426e-02 7.168376e-01 -4.827284e-01 3.094495e-01 -1.112715e+00 -2.324688e-02 -9.320695e-01 -6.035542e-01 -7.132066e-01 -5.513477e-01 1.631990e-02 1.944207e-02 5.388606e-03 3.584338e-01 5.583036e-01 -1.880458e-01 9.419948e-01 -2.751029e-01 9.313787e-01 -4.917518e-01 7.278596e-01 -4.596465e-01 -4.608108e+00 -2.616630e-01
<VARIANCE> 52
 6.449213e+01 1.421577e+03 6.414762e+02 5.358005e+04 1.605398e+03 1.286843e+05 2.472685e+03 2.191805e+05 2.719087e+03 1.549040e+05 1.973097e+03 1.303033e+05 5.220503e+01 1.256863e+03 3.887324e+02 2.292247e+04 7.013329e+02 1.201481e+05 6.713673e+02 2.235506e+05 5.652407e+02 2.044145e+05 4.128358e+02 1.644220e+05 1.975782e+04 4.694877e+04 7.475999e-03 5.837116e-02 2.190237e-01 1.993709e+01 4.986100e-01 2.485633e+01 1.996215e+00 8.548130e+01 1.611948e+00 1.093314e+02 9.656497e-01 7.271337e+01 1.009667e-02 1.678982e-02 7.683869e-02 6.551692e+00 1.369098e+00 6.243729e+00 3.277914e+00 2.124104e+01 3.075713e+00 3.880582e+01 2.198761e+00 2.571210e+01 2.545963e+01 2.406457e+02
<GCONST> 3.496205e+02
<MIXTURE> 7 1.293086e-01
<MEAN> 52
 4.627101e+01 1.601744e+02 1.514029e+02 8.112145e+02 3.696982e+01 3.808729e+02 2.134351e+01 3.149615e+02 1.979817e+01 2.263689e+02 1.871526e+01 2.656833e+02 -5.423019e+01 1.984844e+02 -1.031178e+02 1.125532e+03 -1.744042e+01 7.622384e+02 -7.673122e+00 7.474371e+02 -6.748802e+00 5.757206e+02 -6.748339e+00 5.978308e+02 4.475690e+01 -1.142884e+02 -1.014141e-02 1.719217e-02 -2.031533e-02 3.763803e-01 -2.631623e-01 -3.166249e-01 -4.411792e-01 -7.478178e-01 -3.998838e-01 -9.252067e-01 -3.292252e-01 -7.270014e-01 -1.145211e-02 -7.788118e-03 -1.957819e-02 9.628832e-03 1.001775e-01 -5.899462e-01 1.447518e-01 -9.752030e-01 1.723778e-01 -9.448489e-01 1.402929e-01 -7.409357e-01 -9.484384e-01 7.556411e-01
<VARIANCE> 52
 5.914732e+01 4.420235e+03 1.656975e+03 1.498297e+05 4.888329e+02 5.477809e+04 5.850665e+02 4.999305e+04 7.114986e+02 2.518262e+04 4.985474e+02 2.610318e+04 2.721666e+02 3.165322e+03 1.271334e+03 6.435528e+04 2.956059e+02 1.825812e+05 2.082252e+02 2.824493e+05 1.616049e+02 2.139756e+05 1.287214e+02 1.807319e+05 5.099639e+03 3.407378e+04 4.979051e-03 2.747031e-02 8.855689e-02 4.830123e+00 5.258846e-01 1.720674e+01 1.332520e+00 5.242298e+01 1.276492e+00 5.367651e+01 8.388977e-01 3.429648e+01 2.349901e-03 1.096610e-02 8.983693e-02 1.852475e-01 2.397148e-01 6.722249e+00 4.657575e-01 2.003052e+01 4.936294e-01 1.492145e+01 3.412420e-01 8.651950e+00 6.097333e+00 7.664458e+01
<GCONST> 3.171892e+02
<STATE> 8
<NUMMIXES> 7
<MIXTURE> 1 1.098920e-01
<MEAN> 52
 6.491066e+01 2.926971e+02 1.338200e+02 1.636981e+03 7.032995e+01 1.198903e+03 5.621704e+01 1.207528e+03 5.715886e+01 9.005416e+02 5.087634e+01 9.150714e+02 -6.636072e+01 3.330672e+02 -8.994426e+01 1.710156e+03 -2.063496e+01 1.830741e+03 -9.346785e+00 2.058200e+03 -7.828666e+00 1.697276e+03 -7.658185e+00 1.626312e+03 1.211440e+02 -1.610563e+02 6.622854e-02 -2.441884e-02 3.571021e-01 4.303114e-01 -3.036062e-01 2.645555e+00 -7.305581e-01 4.954775e+00 -7.989875e-01 4.768410e+00 -6.055882e-01 3.767310e+00 8.157438e-02 1.558842e-01 3.275988e-01 5.136073e-01 1.034000e+00 9.859777e-01 1.414111e+00 1.998292e+00 1.194819e+00 2.027179e+00 9.948115e-01 1.551549e+00 -2.635832e+00 7.154473e+00
<VARIANCE> 52
 6.531784e+01 1.325378e+03 6.876931e+02 5.045095e+04 8.641611e+02 1.206310e+05 1.383961e+03 2.043318e+05 1.493974e+03 1.454694e+05 1.066752e+03 1.228000e+05 5.545947e+01 1.254478e+03 4.302685e+02 2.147470e+04 3.589160e+02 1.035882e+05 2.824290e+02 1.922530e+05 2.244550e+02 1.718812e+05 1.685628e+02 1.387142e+05 9.604906e+03 3.890880e+04 1.644883e-02 4.113866e-02 3.707538e-01 1.109195e+01 6.409190e-01 2.173702e+01 2.648837e+00 6.449794e+01 3.025521e+00 6.395826e+01 1.759265e+00 4.101803e+01 2.546775e-02 8.174117e-02 3.171308e-01 8.607866e-01 1.792328e+00 1.201648e+01 3.008646e+00 4.648878e+01 2.247843e+00 5.163410e+01 1.503373e+00 3.306282e+01 2.847585e+01 2.028400e+02
<GCONST> 3.460099e+02
<MIXTURE> 2 1.228058e-01
<MEAN> 52
 4.931620e+01 1.876305e+02 1.668244e+02 9.685623e+02 4.050365e+01 4.917023e+02 2.415828e+01 4.315824e+02 2.363583e+01 3.133704e+02 2.188538e+01 3.517125e+02 -4.730536e+01 2.229939e+02 -8.791636e+01 1.230186e+03 -1.013985e+01 9.442264e+02 -1.557060e+00 9.741735e+02 -1.402370e+00 7.729250e+02 -1.916474e+00 7.773829e+02 5.931630e+01 -3.141912e+01 1.542091e-02 6.322129e-02 1.185581e-01 7.814416e-01 5.336365e-02 1.402363e+00 1.073577e-01 2.369166e+00 2.008414e-01 2.084802e+00 7.608008e-02 1.771504e+00 9.996019e-03 4.609343e-02 7.642481e-02 2.240408e-01 2.981431e-01 2.512824e-01 4.395010e-01 4.402919e-01 4.166985e-01 3.223573e-01 3.288547e-01 2.408991e-01 3.715278e-01 3.692970e+00
<VARIANCE> 52
 5.616192e+01 4.680556e+03 1.592057e+03 1.471723e+05 2.891423e+02 6.215724e+04 2.918900e+02 6.275399e+04 3.702307e+02 3.320902e+04 2.579684e+02 3.308802e+04 2.704694e+02 3.486719e+03 1.192741e+03 6.574488e+04 3.002150e+02 1.973881e+05 2.073620e+02 3.056565e+05 1.544022e+02 2.325230e+05 1.283335e+02 1.951233e+05 2.979328e+03 3.489291e+04 5.812722e-03 3.537142e-02 1.318946e-01 2.330163e+00 1.361979e+00 1.382820e+01 3.517626e+00 3.641781e+01 4.999455e+00 2.641300e+01 2.435813e+00 1.922169e+01 1.663709e-03 1.500150e-02 2.439371e-02 2.908857e-01 3.453842e-01 1.549577e+00 7.481971e-01 5.401646e+00 6.884533e-01 4.362357e+00 4.296034e-01 2.901862e+00 1.716602e+01 4.787562e+01
<GCONST> 3.138269e+02
<MIXTURE> 3 1.444965e-01
<MEAN> 52
 5.090440e+01 2.014851e+02 1.572960e+02 1.064780e+03 4.435770e+01 5.775187e+02 2.756870e+01 5.132584e+02 2.685437e+01 3.700544e+02 2.490079e+01 4.099437e+02 -5.435165e+01 2.394487e+02 -9.479720e+01 1.305891e+03 -1.302853e+01 1.039258e+03 -3.741771e+00 1.077572e+03 -3.205445e+00 8.513604e+02 -3.644037e+00 8.529254e+02 5.607183e+01 -8.171098e+01 9.045886e-03 4.088590e-02 1.627945e-01 7.009072e-01 -1.978914e-01 1.643805e+00 -4.050424e-01 2.799827e+00 -4.255013e-01 2.591591e+00 -3.607917e-01 2.186734e+00 7.186763e-03 4.851523e-02 4.746825e-02 2.181898e-01 2.615530e-01 1.511268e-01 4.211806e-01 2.019389e-01 4.224386e-01 9.614037e-02 3.278817e-01 5.553547e-02 -9.533651e-01 4.017169e+00
<VARIANCE> 52
 7.194009e+01 5.221336e+03 1.623383e+03 1.856878e+05 4.392135e+02 8.058489e+04 4.802505e+02 8.263842e+04 5.778174e+02 4.338601e+04 4.099656e+02 4.147954e+04 2.395322e+02 4.184637e+03 8.507440e+02 8.638850e+04 1.866138e+02 2.455603e+05 1.128625e+02 3.713832e+05 9.011395e+01 2.745017e+05 7.318707e+01 2.302788e+05 3.493763e+03 2.901014e+04 6.209433e-03 3.409057e-02 1.657859e-01 6.250448e+00 1.503033e+00 1.067493e+01 3.640966e+00 2.629467e+01 4.006826e+00 2.371048e+01 2.522392e+00 1.655309e+01 3.100376e-03 8.560615e-03 2.169024e-02 2.695804e-01 2.995677e-01 8.623021e-01 7.294736e-01 2.685698e+00 8.067209e-01 2.182728e+00 5.030267e-01 1.513041e+00 1.981033e+01 5.055498e+01
<GCONST> 3.137551e+02
<MIXTURE> 4 2.456117e-01
<MEAN> 52
 4.481973e+01 1.465818e+02 1.428841e+02 7.383840e+02 3.030114e+01 3.421142e+02 1.390740e+01 2.812779e+02 1.209100e+01 2.040303e+02 1.224854e+01 2.425719e+02 -5.717293e+01 1.875648e+02 -1.086380e+02 1.076342e+03 -2.053588e+01 6.776561e+02 -1.019710e+01 6.424563e+02 -8.857891e+00 4.836012e+02 -8.713536e+00 5.123464e+02 2.656636e+01 -1.434970e+02 -3.032381e-02 -4.962246e-02 -9.934564e-02 -1.344507e-01 -6.468595e-01 -8.288140e-01 -1.017962e+00 -1.251664e+00 -1.140726e+00 -9.988127e-01 -8.603454e-01 -8.590490e-01 -1.447714e-02 -2.739494e-02 -1.728611e-02 -9.956214e-02 -5.447327e-02 -4.956096e-01 -7.948926e-02 -9.541947e-01 -8.114007e-02 -9.308181e-01 -6.441007e-02 -7.811921e-01 -2.114386e+00 -4.585627e-01
<VARIANCE> 52
 5.616192e+01 4.680556e+03 1.592057e+03 1.471723e+05 2.891423e+02 6.215724e+04 2.918900e+02 6.275399e+04 3.702307e+02 3.320902e+04 2.579684e+02 3.308802e+04 2.704694e+02 3.486719e+03 1.192741e+03 6.574488e+04 3.002150e+02 1.973881e+05 2.073620e+02 3.056565e+05 1.544022e+02 2.325230e+05 1.283335e+02 1.951233e+05 2.979328e+03 3.489291e+04 5.812722e-03 3.537142e-02 1.318946e-01 2.330163e+00 1.361979e+00 1.382820e+01 3.517626e+00 3.641781e+01 4.999455e+00 2.641300e+01 2.435813e+00 1.922169e+01 1.663709e-03 1.500150e-02 2.439371e-02 2.908857e-01 3.453842e-01 1.549577e+00 7.481971e-01 5.401646e+00 6.884533e-01 4.362357e+00 4.296034e-01 2.901862e+00 1.716602e+01 4.787562e+01
<GCONST> 3.138269e+02
<MIXTURE> 5 1.444965e-01
<MEAN> 52
 4.751170e+01 1.725815e+02 1.411796e+02 8.924139e+02 3.597474e+01 4.639688e+02 1.880286e+01 3.982708e+02 1.723923e+01 2.867372e+02 1.680175e+01 3.284775e+02 -6.054237e+01 2.135731e+02 -1.064642e+02 1.188323e+03 -1.849279e+01 8.410420e+02 -7.991241e+00 8.338074e+02 -7.002580e+00 6.417888e+02 -7.066015e+00 6.609759e+02 3.242861e+01 -1.498404e+02 -2.247410e-02 -3.296863e-02 -7.278472e-05 -2.991287e-01 -6.882844e-01 3.369042e-01 -1.168295e+00 7.486935e-01 -1.226184e+00 6.438548e-01 -9.960734e-01 5.593142e-01 -1.508565e-02 1.150579e-02 -1.144218e-02 1.050524e-02 4.262194e-02 -2.203141e-01 7.954374e-02 -4.535851e-01 6.316802e-02 -4.948220e-01 4.418415e-02 -4.364875e-01 -2.733717e+00 1.173088e+00
<VARIANCE> 52
 7.194009e+01 5.221336e+03 1.623383e+03 1.856878e+05 4.392135e+02 8.058489e+04 4.802505e+02 8.263842e+04 5.778174e+02 4.338601e+04 4.099656e+02 4.147954e+04 2.395322e+02 4.184637e+03 8.507440e+02 8.638850e+04 1.866138e+02 2.455603e+05 1.128625e+02 3.713832e+05 9.011395e+01 2.745017e+05 7.318707e+01 2.302788e+05 3.493763e+03 2.901014e+04 6.209433e-03 3.409057e-02 1.657859e-01 6.250448e+00 1.503033e+00 1.067493e+01 3.640966e+00 2.629467e+01 4.006826e+00 2.371048e+01 2.522392e+00 1.655309e+01 3.100376e-03 8.560615e-03 2.169024e-02 2.695804e-01 2.995677e-01 8.623021e-01 7.294736e-01 2.685698e+00 8.067209e-01 2.182728e+00 5.030267e-01 1.513041e+00 1.981033e+01 5.055498e+01
<GCONST> 3.137551e+02
<MIXTURE> 6 1.098920e-01
<MEAN> 52
 6.167788e+01 2.781347e+02 1.233304e+02 1.547135e+03 5.857130e+01 1.059975e+03 4.133638e+01 1.026716e+03 4.169808e+01 7.479798e+02 3.781187e+01 7.749000e+02 -6.933957e+01 3.188998e+02 -9.824142e+01 1.651539e+03 -2.821300e+01 1.702001e+03 -1.606903e+01 1.882814e+03 -1.382139e+01 1.531442e+03 -1.285145e+01 1.477334e+03 8.194217e+01 -2.399575e+02 1.492734e-02 -1.055495e-01 1.135439e-01 -9.018718e-01 -6.238359e-01 7.806354e-01 -1.381568e+00 1.742351e+00 -1.494748e+00 1.569454e+00 -1.136137e+00 1.205498e+00 1.773990e-02 4.152251e-02 1.023414e-01 1.424929e-01 4.984890e-01 -4.006141e-01 7.202930e-01 -7.290156e-01 5.951071e-01 -8.470955e-01 5.043631e-01 -7.484626e-01 -4.770342e+00 1.457597e+00
<VARIANCE> 52
 6.531784e+01 1.325378e+03 6.876931e+02 5.045095e+04 8.641611e+02 1.206310e+05 1.383961e+03 2.043318e+05 1.493974e+03 1.454694e+05 1.066752e+03 1.228000e+05 5.545947e+01 1.254478e+03 4.302685e+02 2.147470e+04 3.589160e+02 1.035882e+05 2.824290e+02 1.922530e+05 2.244550e+02 1.718812e+05 1.685628e+02 1.387142e+05 9.604906e+03 3.890880e+04 1.644883e-02 4.113866e-02 3.707538e-01 1.109195e+01 6.409190e-01 2.173702e+01 2.648837e+00 6.449794e+01 3.025521e+00 6.395826e+01 1.759265e+00 4.101803e+01 2.546775e-02 8.174117e-02 3.171308e-01 8.607866e-01 1.792328e+00 1.201648e+01 3.008646e+00 4.648878e+01 2.247843e+00 5.163410e+01 1.503373e+00 3.306282e+01 2.847585e+01 2.028400e+02
<GCONST> 3.460099e+02
<MIXTURE> 7 1.228058e-01
<MEAN> 52
 4.631855e+01 1.602647e+02 1.508642e+02 8.151101e+02 3.370198e+01 3.919769e+02 1.732436e+01 3.313794e+02 1.593928e+01 2.404770e+02 1.546082e+01 2.789521e+02 -5.388374e+01 1.993745e+02 -1.017308e+02 1.127623e+03 -1.707054e+01 7.665129e+02 -7.317088e+00 7.530287e+02 -6.372718e+00 5.800425e+02 -6.447849e+00 6.006919e+02 3.748301e+01 -1.061377e+02 -1.507557e-02 -1.200788e-02 -2.671105e-02 1.708467e-01 -4.134518e-01 -8.508825e-02 -6.428557e-01 -4.472065e-02 -6.935371e-01 2.905893e-02 -5.482036e-01 1.780200e-02 -6.319417e-03 -2.898812e-03 1.395086e-02 8.305505e-03 6.306553e-02 -2.466456e-01 9.350751e-02 -4.893658e-01 8.480610e-02 -5.130930e-01 6.667821e-02 -4.404950e-01 -1.285748e+00 9.252816e-01
<VARIANCE> 52
 5.616192e+01 4.680556e+03 1.592057e+03 1.471723e+05 2.891423e+02 6.215724e+04 2.918900e+02 6.275399e+04 3.702307e+02 3.320902e+04 2.579684e+02 3.308802e+04 2.704694e+02 3.486719e+03 1.192741e+03 6.574488e+04 3.002150e+02 1.973881e+05 2.073620e+02 3.056565e+05 1.544022e+02 2.325230e+05 1.283335e+02 1.951233e+05 2.979328e+03 3.489291e+04 5.812722e-03 3.537142e-02 1.318946e-01 2.330163e+00 1.361979e+00 1.382820e+01 3.517626e+00 3.641781e+01 4.999455e+00 2.641300e+01 2.435813e+00 1.922169e+01 1.663709e-03 1.500150e-02 2.439371e-02 2.908857e-01 3.453842e-01 1.549577e+00 7.481971e-01 5.401646e+00 6.884533e-01 4.362357e+00 4.296034e-01 2.901862e+00 1.716602e+01 4.787562e+01
<GCONST> 3.138269e+02
<STATE> 9
<NUMMIXES> 7
<MIXTURE> 1 1.215171e-01
<MEAN> 52
 6.428614e+01 2.917727e+02 1.395730e+02 1.595076e+03 5.445704e+01 1.199023e+03 3.630042e+01 1.226444e+03 3.703746e+01 9.220638e+02 3.398162e+01 9.323687e+02 -6.731702e+01 3.385864e+02 -9.071844e+01 1.729591e+03 -1.685522e+01 1.795513e+03 -5.615073e+00 2.007002e+03 -4.667926e+00 1.643837e+03 -5.070286e+00 1.577443e+03 7.461114e+01 -1.392672e+02 6.738563e-02 7.348618e-02 2.638934e-01 1.203554e+00 -5.294140e-01 4.378028e+00 -1.048142e+00 8.102127e+00 -1.074764e+00 7.936325e+00 -8.224521e-01 6.396636e+00 4.251483e-02 1.733150e-01 1.813798e-01 6.484511e-01 1.180263e+00 4.415865e-01 1.857920e+00 7.418771e-01 1.662648e+00 6.108617e-01 1.308630e+00 4.395473e-01 -3.618476e+00 1.261221e+01
<VARIANCE> 52
 7.686393e+01 1.427106e+03 8.577373e+02 6.524291e+04 4.391073e+02 1.399768e+05 5.534477e+02 2.232369e+05 6.639349e+02 1.557435e+05 4.771712e+02 1.314750e+05 5.902411e+01 1.411681e+03 4.512798e+02 2.491352e+04 2.055403e+02 9.292028e+04 1.358875e+02 1.655352e+05 1.020719e+02 1.398049e+05 8.315771e+01 1.129567e+05 3.463952e+03 3.192584e+04 1.394944e-02 5.461629e-02 4.942099e-01 2.038224e+01 1.504597e+00 4.321622e+01 4.942095e+00 1.172085e+02 5.926505e+00 1.111003e+02 3.798093e+00 7.331537e+01 1.483562e-02 7.435117e-02 8.770857e-02 1.594005e+00 2.238140e+00 3.191547e+00 5.332105e+00 9.814713e+00 4.756774e+00 1.153516e+01 2.971597e+00 7.301057e+00 6.038689e+01 3.574239e+02
<GCONST> 3.422942e+02
<MIXTURE> 2 1.236825e-01
<MEAN> 52
 4.919862e+01 1.804212e+02 1.675368e+02 9.259253e+02 3.480811e+01 4.741065e+02 1.794237e+01 4.197148e+02 1.632429e+01 3.068318e+02 1.568026e+01 3.451584e+02 -4.673815e+01 2.178219e+02 -8.674942e+01 1.208936e+03 -9.663570e+00 8.697951e+02 -1.183311e+00 8.819252e+02 -1.206081e+00 6.888201e+02 -1.698348e+00 6.994666e+02 3.887117e+01 -9.140160e+00 9.121289e-03 3.684795e-02 1.082291e-01 3.918453e-01 1.492369e-01 9.594930e-01 2.591708e-01 1.740113e+00 3.082042e-01 1.672456e+00 2.467916e-01 1.298851e+00 1.241469e-02 5.339898e-02 7.045861e-02 2.318359e-01 2.268532e-01 4.435276e-01 3.126729e-01 7.304175e-01 2.891930e-01 5.651603e-01 2.401053e-01 4.291635e-01 6.251072e-01 3.279023e+00
<VARIANCE> 52
 5.358276e+01 3.971529e+03 1.419269e+03 1.159463e+05 1.258225e+02 4.785546e+04 1.068214e+02 4.909064e+04 1.164216e+02 2.635188e+04 7.989337e+01 2.640442e+04 2.515318e+02 3.043156e+03 1.221831e+03 5.831874e+04 1.532031e+02 1.378885e+05 9.042815e+01 2.148415e+05 6.028314e+01 1.619591e+05 5.384617e+01 1.356412e+05 9.416986e+02 3.326716e+04 1.394929e-03 1.635674e-02 4.294769e-02 1.928856e+00 1.517005e+00 3.660868e+00 4.485084e+00 9.458328e+00 6.032596e+00 8.779605e+00 4.139340e+00 5.462325e+00 2.868076e-03 1.796142e-02 6.950289e-02 3.505555e-01 3.990867e-01 2.003308e+00 6.388061e-01 5.138402e+00 5.457105e-01 3.734748e+00 4.256401e-01 2.346867e+00 1.795268e+01 3.447459e+01
<GCONST> 2.956613e+02
<MIXTURE> 3 1.311180e-01
<MEAN> 52
 5.274825e+01 2.159358e+02 1.529681e+02 1.153903e+03 4.099091e+01 6.914310e+02 2.414409e+01 6.446948e+02 2.386132e+01 4.735230e+02 2.208695e+01 5.083684e+02 -5.639698e+01 2.558342e+02 -9.529934e+01 1.372677e+03 -1.354503e+01 1.175790e+03 -3.931037e+00 1.246062e+03 -3.349970e+00 9.959272e+02 -3.803637e+00 9.844974e+02 5.237878e+01 -8.030573e+01 7.264961e-03 1.924865e-02 1.027104e-01 2.398046e-01 -5.226220e-01 1.409452e+00 -8.972446e-01 2.882426e+00 -9.631374e-01 3.045933e+00 -7.928324e-01 2.355652e+00 9.331496e-03 6.380705e-02 1.898259e-02 4.217711e-01 3.099819e-01 3.317986e-01 4.980193e-01 4.556275e-01 4.557296e-01 2.733615e-01 3.384375e-01 1.971876e-01 -1.874448e+00 5.138644e+00
<VARIANCE> 52
 7.483229e+01 5.698125e+03 1.509207e+03 1.997262e+05 2.821785e+02 1.204634e+05 3.423040e+02 1.362978e+05 4.264088e+02 7.710173e+04 2.863021e+02 7.148288e+04 2.385286e+02 4.938627e+03 7.685280e+02 9.976945e+04 2.221658e+02 3.188271e+05 1.372328e+02 4.895075e+05 1.026990e+02 3.694297e+05 8.599770e+01 3.080576e+05 2.930222e+03 2.106398e+04 3.098052e-03 1.293652e-02 2.292618e-01 3.088190e+00 3.453242e+00 8.292383e+00 9.532607e+00 2.124205e+01 1.031757e+01 2.505939e+01 6.689273e+00 1.497249e+01 9.245275e-03 2.106714e-02 3.164775e-02 1.098471e+00 3.186966e-01 1.969689e+00 7.723749e-01 4.814766e+00 6.514001e-01 3.677631e+00 3.723294e-01 2.389526e+00 3.881441e+01 8.763959e+01
<GCONST> 3.241053e+02
<MIXTURE> 4 2.473650e-01
<MEAN> 52
 4.480661e+01 1.426092e+02 1.449329e+02 7.216199e+02 2.807787e+01 3.428512e+02 1.174110e+01 2.867764e+02 9.850363e+00 2.094323e+02 1.031728e+01 2.476617e+02 -5.625400e+01 1.847230e+02 -1.077222e+02 1.064040e+03 -1.709008e+01 6.469951e+02 -6.888934e+00 6.038191e+02 -5.864614e+00 4.473552e+02 -6.101145e+00 4.784896e+02 2.045891e+01 -1.185759e+02 -1.328796e-02 -3.988814e-02 -1.611384e-02 -4.414542e-01 -5.897636e-01 -1.885107e-01 -1.011510e+00 -1.051514e-01 -1.165476e+00 -1.053682e-01 -9.739305e-01 -1.034456e-01 -1.971797e-02 -2.701315e-02 -8.772180e-02 -1.234105e-01 -1.521866e-01 -4.057019e-01 -1.668792e-01 -6.296652e-01 -1.540404e-01 -5.943695e-01 -1.513413e-01 -4.900057e-01 -1.917129e+00 -2.438810e-01
<VARIANCE> 52
 5.358276e+01 3.971529e+03 1.419269e+03 1.159463e+05 1.258225e+02 4.785546e+04 1.068214e+02 4.909064e+04 1.164216e+02 2.635188e+04 7.989337e+01 2.640442e+04 2.515318e+02 3.043156e+03 1.221831e+03 5.831874e+04 1.532031e+02 1.378885e+05 9.042815e+01 2.148415e+05 6.028314e+01 1.619591e+05 5.384617e+01 1.356412e+05 9.416986e+02 3.326716e+04 1.394929e-03 1.635674e-02 4.294769e-02 1.928856e+00 1.517005e+00 3.660868e+00 4.485084e+00 9.458328e+00 6.032596e+00 8.779605e+00 4.139340e+00 5.462325e+00 2.868076e-03 1.796142e-02 6.950289e-02 3.505555e-01 3.990867e-01 2.003308e+00 6.388061e-01 5.138402e+00 5.457105e-01 3.734748e+00 4.256401e-01 2.346867e+00 1.795268e+01 3.447459e+01
<GCONST> 2.956613e+02
<MIXTURE> 5 1.311180e-01
<MEAN> 52
 4.928802e+01 1.857414e+02 1.374287e+02 9.751405e+02 3.427164e+01 5.525997e+02 1.674351e+01 4.970207e+02 1.560146e+01 3.624542e+02 1.531877e+01 4.014232e+02 -6.257473e+01 2.277240e+02 -1.063883e+02 1.246331e+03 -1.950712e+01 9.499304e+02 -8.616893e+00 9.662023e+02 -7.403590e+00 7.528043e+02 -7.513035e+00 7.624857e+02 3.072617e+01 -1.383595e+02 -1.499910e-02 -2.624688e-02 -8.881472e-02 -4.631253e-01 -1.265938e+00 2.575921e-01 -2.132241e+00 1.038862e+00 -2.247977e+00 1.043559e+00 -1.827378e+00 8.078799e-01 -2.912945e-02 5.748950e-03 -5.217667e-02 2.539247e-03 8.416906e-02 -2.295839e-01 1.464799e-01 -4.220755e-01 1.328922e-01 -4.937245e-01 9.436229e-02 -4.211361e-01 -4.366496e+00 1.394004e+00
<VARIANCE> 52
 7.483229e+01 5.698125e+03 1.509207e+03 1.997262e+05 2.821785e+02 1.204634e+05 3.423040e+02 1.362978e+05 4.264088e+02 7.710173e+04 2.863021e+02 7.148288e+04 2.385286e+02 4.938627e+03 7.685280e+02 9.976945e+04 2.221658e+02 3.188271e+05 1.372328e+02 4.895075e+05 1.026990e+02 3.694297e+05 8.599770e+01 3.080576e+05 2.930222e+03 2.106398e+04 3.098052e-03 1.293652e-02 2.292618e-01 3.088190e+00 3.453242e+00 8.292383e+00 9.532607e+00 2.124205e+01 1.031757e+01 2.505939e+01 6.689273e+00 1.497249e+01 9.245275e-03 2.106714e-02 3.164775e-02 1.098471e+00 3.186966e-01 1.969689e+00 7.723749e-01 4.814766e+00 6.514001e-01 3.677631e+00 3.723294e-01 2.389526e+00 3.881441e+01 8.763959e+01
<GCONST> 3.241053e+02
<MIXTURE> 6 1.215171e-01
<MEAN> 52
 6.077926e+01 2.766619e+02 1.278582e+02 1.492906e+03 4.607508e+01 1.049369e+03 2.689024e+01 1.037452e+03 2.673068e+01 7.642064e+02 2.524392e+01 7.873307e+02 -7.039011e+01 3.235574e+02 -9.921579e+01 1.666455e+03 -2.258990e+01 1.673581e+03 -1.027790e+01 1.844258e+03 -8.709152e+00 1.494275e+03 -8.717920e+00 1.443007e+03 5.106900e+01 -2.107384e+02 2.014253e-02 -1.999434e-02 -1.730683e-02 -6.023141e-01 -1.020062e+00 1.748466e+00 -1.937374e+00 3.771613e+00 -2.048540e+00 3.720160e+00 -1.602000e+00 2.971660e+00 -6.205792e-03 6.424538e-02 6.291723e-02 1.434355e-01 5.818462e-01 -2.730095e-01 9.342660e-01 -5.112606e-01 7.902464e-01 -7.476763e-01 6.190972e-01 -6.412715e-01 -6.726836e+00 5.049949e+00
<VARIANCE> 52
 7.686393e+01 1.427106e+03 8.577373e+02 6.524291e+04 4.391073e+02 1.399768e+05 5.534477e+02 2.232369e+05 6.639349e+02 1.557435e+05 4.771712e+02 1.314750e+05 5.902411e+01 1.411681e+03 4.512798e+02 2.491352e+04 2.055403e+02 9.292028e+04 1.358875e+02 1.655352e+05 1.020719e+02 1.398049e+05 8.315771e+01 1.129567e+05 3.463952e+03 3.192584e+04 1.394944e-02 5.461629e-02 4.942099e-01 2.038224e+01 1.504597e+00 4.321622e+01 4.942095e+00 1.172085e+02 5.926505e+00 1.111003e+02 3.798093e+00 7.331537e+01 1.483562e-02 7.435117e-02 8.770857e-02 1.594005e+00 2.238140e+00 3.191547e+00 5.332105e+00 9.814713e+00 4.756774e+00 1.153516e+01 2.971597e+00 7.301057e+00 6.038689e+01 3.574239e+02
<GCONST> 3.422942e+02
<MIXTURE> 7 1.236825e-01
<MEAN> 52
 4.627061e+01 1.552132e+02 1.524675e+02 7.897217e+02 3.032128e+01 3.866030e+02 1.380819e+01 3.310892e+02 1.200834e+01 2.418988e+02 1.210494e+01 2.801606e+02 -5.308205e+01 1.957560e+02 -1.007313e+02 1.112339e+03 -1.461458e+01 7.212618e+02 -4.987060e+00 6.965211e+02 -4.311770e+00 5.278435e+02 -4.633546e+00 5.521486e+02 2.659633e+01 -8.209731e+01 -5.818210e-03 -1.430944e-02 2.533381e-02 -1.636877e-01 -3.434301e-01 1.941572e-01 -5.879499e-01 5.099366e-01 -6.742496e-01 4.872398e-01 -5.670231e-01 3.639867e-01 -9.007081e-03 -2.091080e-04 -3.499500e-02 -4.995048e-03 -2.584003e-02 -1.226254e-01 -7.028490e-03 -1.763043e-01 -6.295905e-03 -2.078596e-01 -2.085914e-02 -1.836160e-01 -1.069717e+00 9.304204e-01
<VARIANCE> 52
 5.358276e+01 3.971529e+03 1.419269e+03 1.159463e+05 1.258225e+02 4.785546e+04 1.068214e+02 4.909064e+04 1.164216e+02 2.635188e+04 7.989337e+01 2.640442e+04 2.515318e+02 3.043156e+03 1.221831e+03 5.831874e+04 1.532031e+02 1.378885e+05 9.042815e+01 2.148415e+05 6.028314e+01 1.619591e+05 5.384617e+01 1.356412e+05 9.416986e+02 3.326716e+04 1.394929e-03 1.635674e-02 4.294769e-02 1.928856e+00 1.517005e+00 3.660868e+00 4.485084e+00 9.458328e+00 6.032596e+00 8.779605e+00 4.139340e+00 5.462325e+00 2.868076e-03 1.796142e-02 6.950289e-02 3.505555e-01 3.990867e-01 2.003308e+00 6.388061e-01 5.138402e+00 5.457105e-01 3.734748e+00 4.256401e-01 2.346867e+00 1.795268e+01 3.447459e+01
<GCONST> 2.956613e+02
<STATE> 10
<NUMMIXES> 7
<MIXTURE> 1 1.167962e-01
<MEAN> 52
 6.448898e+01 2.951839e+02 1.377001e+02 1.613337e+03 4.511359e+01 1.291553e+03 2.540909e+01 1.354546e+03 2.544617e+01 1.033855e+03 2.393266e+01 1.034509e+03 -6.829233e+01 3.438624e+02 -9.008556e+01 1.759903e+03 -1.363560e+01 1.824877e+03 -3.478767e+00 2.035477e+03 -2.691899e+00 1.658734e+03 -3.224411e+00 1.594882e+03 4.827237e+01 -8.689133e+01 5.523085e-02 3.766657e-02 6.544706e-01 4.348729e-01 -1.272995e-01 4.933038e+00 -2.280713e-01 9.070513e+00 -3.696773e-01 9.393236e+00 -3.107974e-01 7.594537e+00 4.350606e-02 9.330627e-02 1.648517e-01 3.647558e-01 7.062938e-01 -9.697856e-02 1.103291e+00 -2.933118e-01 1.023910e+00 -4.664505e-01 8.215998e-01 -3.123292e-01 -1.611228e+00 1.623742e+01
<VARIANCE> 52
 5.625877e+01 1.046574e+03 5.326808e+02 3.734489e+04 2.276201e+02 8.060328e+04 2.157796e+02 1.395359e+05 2.831097e+02 1.016747e+05 2.143107e+02 8.381254e+04 5.889093e+01 7.955024e+02 3.498711e+02 1.406067e+04 1.331927e+02 7.949014e+04 7.347112e+01 1.475562e+05 4.406715e+01 1.320871e+05 3.519199e+01 1.074167e+05 1.476447e+03 2.143732e+04 7.657604e-03 1.288128e-02 1.140210e+00 7.236125e+00 4.974685e-01 3.189401e+01 2.256775e+00 9.653474e+01 3.603554e+00 9.674165e+01 2.073880e+00 6.426995e+01 6.949190e-03 2.038947e-02 6.802517e-02 3.138508e-01 8.441039e-01 1.221661e+00 2.426285e+00 5.964908e+00 1.947651e+00 7.345737e+00 1.198580e+00 4.670936e+00 3.115742e+01 2.748101e+02
<GCONST> 3.129267e+02
<MIXTURE> 2 1.348584e-01
<MEAN> 52
 4.973799e+01 1.811119e+02 1.705514e+02 9.185455e+02 3.464732e+01 5.002378e+02 1.752424e+01 4.516735e+02 1.544066e+01 3.347023e+02 1.520142e+01 3.719762e+02 -4.675803e+01 2.190116e+02 -8.770316e+01 1.204367e+03 -9.472808e+00 8.505527e+02 -1.038018e+00 8.546231e+02 -1.180353e+00 6.668639e+02 -1.637690e+00 6.819025e+02 3.758436e+01 1.157729e+01 1.888815e-02 3.881746e-02 9.587996e-02 5.014108e-01 2.167695e-01 1.251094e+00 2.104286e-01 1.779352e+00 2.735367e-01 1.415644e+00 2.440486e-01 1.165507e+00 7.168246e-03 3.233907e-02 4.770472e-02 9.174930e-02 3.082930e-01 5.590559e-01 4.526814e-01 8.267560e-01 4.218587e-01 6.561814e-01 3.444000e-01 5.678880e-01 9.233375e-01 3.767166e+00
<VARIANCE> 52
 5.755517e+01 4.012071e+03 1.375911e+03 1.126456e+05 1.261129e+02 6.077430e+04 1.049027e+02 6.545027e+04 1.033802e+02 3.690419e+04 7.560696e+01 3.611469e+04 2.461429e+02 3.103069e+03 1.269487e+03 5.474709e+04 1.872096e+02 1.205201e+05 1.101335e+02 1.851483e+05 6.958435e+01 1.423390e+05 6.458447e+01 1.208939e+05 8.426655e+02 4.411874e+04 2.170869e-03 6.421559e-03 2.973711e-02 2.239899e+00 8.499103e-01 8.322495e+00 1.215870e+00 1.524865e+01 1.896179e+00 9.067097e+00 1.313421e+00 5.948258e+00 7.109158e-04 4.850230e-03 4.873369e-02 9.460770e-02 1.045399e+00 4.902397e+00 2.089278e+00 1.102814e+01 1.890404e+00 8.368347e+00 1.274700e+00 5.663347e+00 9.594286e+00 4.811338e+01
<GCONST> 2.966965e+02
<MIXTURE> 3 1.134868e-01
<MEAN> 52
 5.343192e+01 2.153987e+02 1.549676e+02 1.134544e+03 3.921909e+01 7.073714e+02 2.147876e+01 6.694308e+02 2.009010e+01 4.976454e+02 1.931469e+01 5.299736e+02 -5.615744e+01 2.576806e+02 -9.368935e+01 1.374387e+03 -1.236887e+01 1.117366e+03 -2.887242e+00 1.165656e+03 -2.551018e+00 9.149922e+02 -3.073389e+00 9.138044e+02 4.041113e+01 -6.211550e+01 2.109657e-02 4.619885e-02 1.137788e-01 4.604280e-01 -1.003201e-01 1.316278e+00 -2.634713e-01 1.828408e+00 -3.117613e-01 1.695750e+00 -2.131031e-01 1.420677e+00 1.853271e-03 3.786452e-02 2.560850e-02 8.759134e-02 3.183165e-01 3.173375e-01 4.717163e-01 5.922962e-01 4.347904e-01 4.260294e-01 3.418690e-01 3.191268e-01 -4.087995e-01 3.101399e+00
<VARIANCE> 52
 8.724197e+01 5.120935e+03 1.214269e+03 1.614556e+05 2.284509e+02 1.299243e+05 2.296964e+02 1.640042e+05 2.472171e+02 9.922988e+04 1.825655e+02 8.926741e+04 2.183878e+02 4.809987e+03 8.594623e+02 9.518380e+04 1.101748e+02 2.257874e+05 5.878331e+01 3.337313e+05 4.698085e+01 2.392659e+05 4.081612e+01 2.025868e+05 1.247757e+03 1.504079e+04 3.575151e-03 1.220727e-02 1.345585e-01 1.360125e+00 1.128805e+00 7.502442e+00 3.340284e+00 1.877799e+01 4.620658e+00 1.917073e+01 2.892999e+00 1.270294e+01 1.382845e-03 1.320333e-02 3.417801e-02 1.478178e-01 9.568514e-01 1.360623e+00 2.079977e+00 5.300405e+00 1.556883e+00 5.051628e+00 1.004969e+00 2.677609e+00 3.451994e+01 7.858106e+01
<GCONST> 3.108109e+02
<MIXTURE> 4 2.697169e-01
<MEAN> 52
 4.518608e+01 1.431073e+02 1.482954e+02 7.171692e+02 2.790932e+01 3.523231e+02 1.137892e+01 2.981740e+02 9.340099e+00 2.194395e+02 9.984284e+00 2.579531e+02 -5.617139e+01 1.855885e+02 -1.090811e+02 1.063979e+03 -1.768228e+01 6.422567e+02 -7.334689e+00 5.964499e+02 -6.185387e+00 4.404968e+02 -6.459558e+00 4.732837e+02 2.016714e+01 -1.144495e+02 -9.067405e-03 -9.263320e-03 -7.586751e-03 -3.965668e-01 -3.363740e-01 -4.798303e-01 -4.511704e-01 -5.636188e-01 -5.526741e-01 -3.910533e-01 -4.435789e-01 -2.978365e-01 -8.829556e-03 -9.447083e-03 -8.474953e-02 -9.280090e-02 -3.051755e-01 -7.694256e-01 -4.145787e-01 -1.165763e+00 -4.030932e-01 -1.079504e+00 -3.330157e-01 -8.599793e-01 -9.351412e-01 -3.946624e-01
<VARIANCE> 52
 5.755517e+01 4.012071e+03 1.375911e+03 1.126456e+05 1.261129e+02 6.077430e+04 1.049027e+02 6.545027e+04 1.033802e+02 3.690419e+04 7.560696e+01 3.611469e+04 2.461429e+02 3.103069e+03 1.269487e+03 5.474709e+04 1.872096e+02 1.205201e+05 1.101335e+02 1.851483e+05 6.958435e+01 1.423390e+05 6.458447e+01 1.208939e+05 8.426655e+02 4.411874e+04 2.170869e-03 6.421559e-03 2.973711e-02 2.239899e+00 8.499103e-01 8.322495e+00 1.215870e+00 1.524865e+01 1.896179e+00 9.067097e+00 1.313421e+00 5.948258e+00 7.109158e-04 4.850230e-03 4.873369e-02 9.460770e-02 1.045399e+00 4.902397e+00 2.089278e+00 1.102814e+01 1.890404e+00 8.368347e+00 1.274700e+00 5.663347e+00 9.594286e+00 4.811338e+01
<GCONST> 2.966965e+02
<MIXTURE> 5 1.167962e-01
<MEAN> 52
 6.148875e+01 2.822436e+02 1.284681e+02 1.536037e+03 3.907875e+01 1.177990e+03 1.953331e+01 1.205128e+03 1.871583e+01 9.063091e+02 1.807692e+01 9.187076e+02 -7.136194e+01 3.325806e+02 -9.756749e+01 1.712471e+03 -1.825196e+01 1.712101e+03 -6.907379e+00 1.881825e+03 -5.347223e+00 1.513358e+03 -5.597324e+00 1.463784e+03 3.290255e+01 -1.454573e+02 2.022775e-02 -7.731715e-03 2.273481e-01 -6.411290e-01 -4.094253e-01 2.674046e+00 -8.289740e-01 5.140429e+00 -1.128999e+00 5.458943e+00 -8.868363e-01 4.387795e+00 1.016134e-02 3.618960e-02 6.052513e-02 1.406662e-01 3.387932e-01 -5.390937e-01 4.802299e-01 -1.270238e+00 4.656772e-01 -1.550571e+00 3.836811e-01 -1.176823e+00 -3.843982e+00 9.606461e+00
<VARIANCE> 52
 5.625877e+01 1.046574e+03 5.326808e+02 3.734489e+04 2.276201e+02 8.060328e+04 2.157796e+02 1.395359e+05 2.831097e+02 1.016747e+05 2.143107e+02 8.381254e+04 5.889093e+01 7.955024e+02 3.498711e+02 1.406067e+04 1.331927e+02 7.949014e+04 7.347112e+01 1.475562e+05 4.406715e+01 1.320871e+05 3.519199e+01 1.074167e+05 1.476447e+03 2.143732e+04 7.657604e-03 1.288128e-02 1.140210e+00 7.236125e+00 4.974685e-01 3.189401e+01 2.256775e+00 9.653474e+01 3.603554e+00 9.674165e+01 2.073880e+00 6.426995e+01 6.949190e-03 2.038947e-02 6.802517e-02 3.138508e-01 8.441039e-01 1.221661e+00 2.426285e+00 5.964908e+00 1.947651e+00 7.345737e+00 1.198580e+00 4.670936e+00 3.115742e+01 2.748101e+02
<GCONST> 3.129267e+02
<MIXTURE> 6 1.134868e-01
<MEAN> 52
 4.969578e+01 1.867744e+02 1.410290e+02 9.738179e+02 3.317325e+01 5.631913e+02 1.541646e+01 5.074411e+02 1.380084e+01 3.716422e+02 1.391001e+01 4.104630e+02 -6.206862e+01 2.299390e+02 -1.054160e+02 1.250979e+03 -1.656743e+01 9.272978e+02 -5.954053e+00 9.345780e+02 -5.292722e+00 7.193329e+02 -5.628889e+00 7.337658e+02 2.628169e+01 -1.111719e+02 -2.820455e-03 2.004247e-03 -3.295005e-02 -6.069601e-03 -5.253011e-01 2.206550e-01 -9.945291e-01 9.506541e-02 -1.171590e+00 -5.562532e-02 -8.934559e-01 -4.970610e-03 -1.302138e-02 -8.097780e-03 -4.834069e-02 -6.619699e-02 -7.295867e-02 -1.492454e-01 -1.051687e-01 -3.286081e-01 -6.431004e-02 -4.730037e-01 -5.912359e-02 -3.354092e-01 -2.758946e+00 -4.444392e-01
<VARIANCE> 52
 8.724197e+01 5.120935e+03 1.214269e+03 1.614556e+05 2.284509e+02 1.299243e+05 2.296964e+02 1.640042e+05 2.472171e+02 9.922988e+04 1.825655e+02 8.926741e+04 2.183878e+02 4.809987e+03 8.594623e+02 9.518380e+04 1.101748e+02 2.257874e+05 5.878331e+01 3.337313e+05 4.698085e+01 2.392659e+05 4.081612e+01 2.025868e+05 1.247757e+03 1.504079e+04 3.575151e-03 1.220727e-02 1.345585e-01 1.360125e+00 1.128805e+00 7.502442e+00 3.340284e+00 1.877799e+01 4.620658e+00 1.917073e+01 2.892999e+00 1.270294e+01 1.382845e-03 1.320333e-02 3.417801e-02 1.478178e-01 9.568514e-01 1.360623e+00 2.079977e+00 5.300405e+00 1.556883e+00 5.051628e+00 1.004969e+00 2.677609e+00 3.451994e+01 7.858106e+01
<GCONST> 3.108109e+02
<MIXTURE> 7 1.348584e-01
<MEAN> 52
 4.670338e+01 1.557755e+02 1.557141e+02 7.842946e+02 3.015532e+01 4.016280e+02 1.342736e+01 3.493405e+02 1.137362e+01 2.578604e+02 1.172333e+01 2.959608e+02 -5.303360e+01 1.967295e+02 -1.019551e+02 1.110775e+03 -1.494579e+01 7.116887e+02 -5.235799e+00 6.825076e+02 -4.517042e+00 5.159525e+02 -4.852268e+00 5.428233e+02 2.597288e+01 -7.244055e+01 2.511116e-04 6.763607e-03 2.690215e-02 -9.724092e-02 -1.519928e-01 9.714448e-02 -2.306374e-01 2.173716e-01 -2.772705e-01 2.111791e-01 -2.143697e-01 1.899445e-01 -3.496956e-03 4.481636e-03 -4.059812e-02 -3.128417e-02 -1.006860e-01 -3.265984e-01 -1.254920e-01 -5.015898e-01 -1.281092e-01 -5.009424e-01 -1.072105e-01 -3.840235e-01 -3.156483e-01 9.926138e-01
<VARIANCE> 52
 5.755517e+01 4.012071e+03 1.375911e+03 1.126456e+05 1.261129e+02 6.077430e+04 1.049027e+02 6.545027e+04 1.033802e+02 3.690419e+04 7.560696e+01 3.611469e+04 2.461429e+02 3.103069e+03 1.269487e+03 5.474709e+04 1.872096e+02 1.205201e+05 1.101335e+02 1.851483e+05 6.958435e+01 1.423390e+05 6.458447e+01 1.208939e+05 8.426655e+02 4.411874e+04 2.170869e-03 6.421559e-03 2.973711e-02 2.239899e+00 8.499103e-01 8.322495e+00 1.215870e+00 1.524865e+01 1.896179e+00 9.067097e+00 1.313421e+00 5.948258e+00 7.109158e-04 4.850230e-03 4.873369e-02 9.460770e-02 1.045399e+00 4.902397e+00 2.089278e+00 1.102814e+01 1.890404e+00 8.368347e+00 1.274700e+00 5.663347e+00 9.594286e+00 4.811338e+01
<GCONST> 2.966965e+02
<STATE> 11
<NUMMIXES> 7
<MIXTURE> 1 7.783680e-02
<MEAN> 52
 6.414169e+01 2.891568e+02 1.400946e+02 1.565176e+03 4.416864e+01 1.318825e+03 2.470945e+01 1.408668e+03 2.343343e+01 1.085258e+03 2.221692e+01 1.079322e+03 -6.666226e+01 3.391354e+02 -8.851040e+01 1.733417e+03 -1.206390e+01 1.738772e+03 -2.347651e+00 1.923802e+03 -1.899720e+00 1.554885e+03 -2.465373e+00 1.500089e+03 4.049674e+01 -4.809390e+01 2.923771e-02 5.603362e-02 9.713104e-02 2.896707e-01 1.875304e-02 3.640224e+00 7.937568e-02 7.980666e+00 -2.295834e-02 8.425536e+00 -1.937664e-02 6.638319e+00 9.517813e-03 9.482208e-02 3.117102e-02 2.203067e-01 2.511883e-01 3.674098e-01 4.433399e-01 7.169262e-01 3.891872e-01 7.360656e-01 2.842223e-01 5.585026e-01 -3.336931e-01 1.134509e+01
<VARIANCE> 52
 5.216336e+01 1.330679e+03 4.830946e+02 4.151962e+04 2.137877e+02 8.691289e+04 2.151229e+02 1.433570e+05 2.351231e+02 1.027019e+05 1.735410e+02 8.534800e+04 7.115002e+01 1.259512e+03 3.880481e+02 2.593127e+04 8.361961e+01 7.978559e+04 5.052475e+01 1.382137e+05 2.889764e+01 1.160057e+05 2.235993e+01 9.444755e+04 9.180016e+02 1.865991e+04 6.060001e-03 1.566107e-02 1.469411e-01 1.550828e+00 5.710835e-01 1.865465e+01 1.997579e+00 9.457404e+01 2.440454e+00 1.035442e+02 1.565322e+00 6.231148e+01 3.797078e-03 3.160162e-02 6.435563e-02 5.414965e-01 2.738708e-01 1.052891e+00 6.210087e-01 4.913381e+00 4.649602e-01 6.236601e+00 2.983989e-01 4.010051e+00 1.275479e+01 2.316814e+02
<GCONST> 2.999693e+02
<MIXTURE> 2 1.429737e-01
<MEAN> 52
 5.019946e+01 1.554125e+02 1.726670e+02 7.865726e+02 3.096969e+01 4.437288e+02 1.347111e+01 4.180801e+02 1.102123e+01 3.096082e+02 1.155682e+01 3.427420e+02 -4.066479e+01 1.957168e+02 -7.885680e+01 1.089894e+03 -1.003093e+01 7.560525e+02 -1.604742e+00 7.625571e+02 -1.412473e+00 5.784368e+02 -1.680141e+00 5.928586e+02 2.791797e+01 1.110925e+01 1.331440e-02 1.593949e-02 5.311012e-02 3.647612e-01 8.952767e-02 8.898318e-01 1.362360e-01 1.398218e+00 1.420110e-01 1.277525e+00 1.101556e-01 1.022356e+00 7.802310e-03 1.822411e-02 5.072814e-02 9.495588e-02 3.543144e-02 3.867574e-01 7.060444e-02 6.799977e-01 6.012732e-02 6.807184e-01 4.362736e-02 5.278363e-01 3.103425e-01 1.991481e+00
<VARIANCE> 52
 4.785438e+01 2.700368e+03 1.068323e+03 5.753363e+04 8.847556e+01 2.689011e+04 6.166628e+01 3.256757e+04 4.877054e+01 1.853512e+04 3.671003e+01 1.755313e+04 2.296102e+02 1.862496e+03 1.367563e+03 3.023579e+04 1.184315e+02 5.188721e+04 6.467912e+01 8.487205e+04 4.197418e+01 6.365772e+04 3.884390e+01 5.328873e+04 3.714598e+02 2.377322e+04 7.270903e-04 1.385593e-03 1.013949e-02 1.134091e+00 7.757680e-02 4.950733e+00 2.217035e-01 1.044320e+01 2.496611e-01 8.934417e+00 1.321743e-01 5.734562e+00 5.000000e-04 1.189212e-03 4.159619e-02 6.408185e-02 3.700336e-02 6.515625e-01 9.767885e-02 2.086426e+00 7.143098e-02 2.397010e+00 4.239298e-02 1.430777e+00 6.722093e-01 2.204973e+01
<GCONST> 2.432313e+02
<MIXTURE> 3 1.362156e-01
<MEAN> 52
 5.144613e+01 1.611195e+02 1.659761e+02 8.464995e+02 3.227126e+01 5.079613e+02 1.417288e+01 4.823086e+02 1.196223e+01 3.579061e+02 1.255283e+01 3.908180e+02 -4.468320e+01 2.058497e+02 -8.464749e+01 1.140769e+03 -1.065644e+01 8.217578e+02 -2.225508e+00 8.294849e+02 -1.835678e+00 6.260530e+02 -2.137867e+00 6.400048e+02 2.338800e+01 -3.464524e+01 1.263986e-02 1.863417e-02 3.671666e-02 3.727142e-01 6.000910e-02 7.268263e-01 9.137822e-02 1.225182e+00 9.203893e-02 1.096280e+00 7.065074e-02 8.855696e-01 2.048565e-03 2.284667e-02 1.181227e-02 8.937882e-02 2.854522e-02 4.857106e-01 7.120259e-02 8.086661e-01 7.286585e-02 7.003034e-01 4.781667e-02 5.598241e-01 1.528761e-01 1.385512e+00
<VARIANCE> 52
 5.379156e+01 3.859062e+03 1.150048e+03 9.694002e+04 1.085523e+02 5.552030e+04 8.217444e+01 6.565244e+04 7.223750e+01 3.915009e+04 5.365707e+01 3.638504e+04 2.615438e+02 3.130820e+03 1.042570e+03 5.975454e+04 5.862025e+01 8.679095e+04 2.472938e+01 1.236863e+05 1.725156e+01 8.588903e+04 1.600871e+01 7.398656e+04 3.014896e+02 3.911172e+03 1.563529e-03 2.393846e-03 2.605627e-02 8.639742e-01 1.890940e-01 3.690233e+00 6.273965e-01 1.043559e+01 7.228336e-01 9.161930e+00 4.425660e-01 5.827258e+00 6.750167e-04 2.822555e-03 2.641554e-02 7.456420e-02 2.804448e-02 9.148791e-01 8.368874e-02 2.851593e+00 8.035348e-02 2.953021e+00 4.292424e-02 1.838243e+00 2.444650e+00 3.010522e+01
<GCONST> 2.547993e+02
<MIXTURE> 4 2.859474e-01
<MEAN> 52
 4.604884e+01 1.242335e+02 1.530558e+02 6.426556e+02 2.532600e+01 3.453396e+02 8.759433e+00 3.098011e+02 6.831077e+00 2.279220e+02 7.921489e+00 2.632491e+02 -4.975653e+01 1.698228e+02 -1.010452e+02 9.855632e+02 -1.656050e+01 6.193798e+02 -6.430141e+00 5.877603e+02 -5.299722e+00 4.270539e+02 -5.419634e+00 4.543525e+02 1.635399e+01 -8.140216e+01 -2.864368e-03 -6.394638e-03 -7.306897e-03 -2.742011e-01 -7.758801e-02 -4.451828e-01 -1.462764e-01 -5.407386e-01 -1.577856e-01 -5.159043e-01 -1.079791e-01 -4.144609e-01 -5.614098e-03 -2.466861e-03 -7.164273e-02 -5.693048e-02 -7.998610e-02 -9.755915e-02 -1.169173e-01 -1.866703e-01 -1.002321e-01 -2.482184e-01 -7.990998e-02 -1.898543e-01 -1.815878e-01 -8.259474e-01
<VARIANCE> 52
 4.785438e+01 2.700368e+03 1.068323e+03 5.753363e+04 8.847556e+01 2.689011e+04 6.166628e+01 3.256757e+04 4.877054e+01 1.853512e+04 3.671003e+01 1.755313e+04 2.296102e+02 1.862496e+03 1.367563e+03 3.023579e+04 1.184315e+02 5.188721e+04 6.467912e+01 8.487205e+04 4.197418e+01 6.365772e+04 3.884390e+01 5.328873e+04 3.714598e+02 2.377322e+04 7.270903e-04 1.385593e-03 1.013949e-02 1.134091e+00 7.757680e-02 4.950733e+00 2.217035e-01 1.044320e+01 2.496611e-01 8.934417e+00 1.321743e-01 5.734562e+00 5.000000e-04 1.189212e-03 4.159619e-02 6.408185e-02 3.700336e-02 6.515625e-01 9.767885e-02 2.086426e+00 7.143098e-02 2.397010e+00 4.239298e-02 1.430777e+00 6.722093e-01 2.204973e+01
<GCONST> 2.432313e+02
<MIXTURE> 5 1.362156e-01
<MEAN> 52
 4.851242e+01 1.362709e+02 1.524111e+02 7.219587e+02 2.810372e+01 4.137103e+02 1.054688e+01 3.798177e+02 8.562527e+00 2.787606e+02 9.622789e+00 3.145186e+02 -5.115212e+01 1.834682e+02 -9.756303e+01 1.042990e+03 -1.371900e+01 7.039166e+02 -4.214654e+00 6.888086e+02 -3.497078e+00 5.088257e+02 -3.738303e+00 5.312029e+02 1.644262e+01 -5.966098e+01 -3.176732e-03 -9.366097e-04 -2.785116e-02 9.133667e-04 -1.139307e-01 -4.157290e-02 -2.254553e-01 -6.698477e-02 -2.480395e-01 -1.144668e-01 -1.954518e-01 -8.001900e-02 -8.343869e-03 1.595575e-03 -5.319916e-02 -1.984697e-02 -3.844073e-02 1.031134e-01 -4.451343e-02 1.331997e-01 -4.052091e-02 1.292914e-02 -3.505599e-02 1.749685e-02 -4.725389e-01 -8.092173e-01
<VARIANCE> 52
 5.379156e+01 3.859062e+03 1.150048e+03 9.694002e+04 1.085523e+02 5.552030e+04 8.217444e+01 6.565244e+04 7.223750e+01 3.915009e+04 5.365707e+01 3.638504e+04 2.615438e+02 3.130820e+03 1.042570e+03 5.975454e+04 5.862025e+01 8.679095e+04 2.472938e+01 1.236863e+05 1.725156e+01 8.588903e+04 1.600871e+01 7.398656e+04 3.014896e+02 3.911172e+03 1.563529e-03 2.393846e-03 2.605627e-02 8.639742e-01 1.890940e-01 3.690233e+00 6.273965e-01 1.043559e+01 7.228336e-01 9.161930e+00 4.425660e-01 5.827258e+00 6.750167e-04 2.822555e-03 2.641554e-02 7.456420e-02 2.804448e-02 9.148791e-01 8.368874e-02 2.851593e+00 8.035348e-02 2.953021e+00 4.292424e-02 1.838243e+00 2.444650e+00 3.010522e+01
<GCONST> 2.547993e+02
<MIXTURE> 6 7.783680e-02
<MEAN> 52
 6.125272e+01 2.745654e+02 1.313028e+02 1.483670e+03 3.832004e+01 1.200901e+03 1.884262e+01 1.257218e+03 1.729995e+01 9.570697e+02 1.694752e+01 9.624642e+02 -7.003629e+01 3.249396e+02 -9.638998e+01 1.669005e+03 -1.572166e+01 1.625786e+03 -5.190881e+00 1.775094e+03 -4.049982e+00 1.418647e+03 -4.356825e+00 1.377159e+03 2.837732e+01 -1.027344e+02 -1.900692e-03 5.975941e-03 -5.620056e-02 -2.084583e-01 -2.835273e-01 1.912583e+00 -4.859673e-01 4.090698e+00 -6.478364e-01 4.355269e+00 -5.198280e-01 3.480814e+00 -1.513036e-02 2.371470e-02 -7.030262e-02 -7.403913e-02 4.185767e-02 -4.303215e-02 1.281235e-01 -1.697197e-01 1.164352e-01 -2.628620e-01 6.571869e-02 -2.425019e-01 -1.762247e+00 5.256652e+00
<VARIANCE> 52
 5.216336e+01 1.330679e+03 4.830946e+02 4.151962e+04 2.137877e+02 8.691289e+04 2.151229e+02 1.433570e+05 2.351231e+02 1.027019e+05 1.735410e+02 8.534800e+04 7.115002e+01 1.259512e+03 3.880481e+02 2.593127e+04 8.361961e+01 7.978559e+04 5.052475e+01 1.382137e+05 2.889764e+01 1.160057e+05 2.235993e+01 9.444755e+04 9.180016e+02 1.865991e+04 6.060001e-03 1.566107e-02 1.469411e-01 1.550828e+00 5.710835e-01 1.865465e+01 1.997579e+00 9.457404e+01 2.440454e+00 1.035442e+02 1.565322e+00 6.231148e+01 3.797078e-03 3.160162e-02 6.435563e-02 5.414965e-01 2.738708e-01 1.052891e+00 6.210087e-01 4.913381e+00 4.649602e-01 6.236601e+00 2.983989e-01 4.010051e+00 1.275479e+01 2.316814e+02
<GCONST> 2.999693e+02
<MIXTURE> 7 1.429737e-01
