~o
<STREAMINFO> 1 52
<VECSIZE> 52<NULLD><USER><DIAGC>
~h "in"
<BEGINHMM>
<NUMSTATES> 20
<STATE> 2
<MEAN> 52
 5.285717e+01 1.953761e+02 1.399731e+02 9.785223e+02 6.034218e+01 7.356713e+02 4.947021e+01 7.543501e+02 4.570178e+01 6.077368e+02 4.062495e+01 6.204041e+02 -5.685877e+01 2.314337e+02 -1.026816e+02 1.218184e+03 -3.720387e+01 1.173489e+03 -2.885088e+01 1.278724e+03 -2.388481e+01 1.060599e+03 -2.160626e+01 1.040605e+03 1.271775e+02 -2.186199e+02 2.863680e-03 -8.741528e-03 1.163007e-02 1.286520e-01 3.761616e-02 -1.329456e-01 1.433387e-02 -3.767462e-01 3.354838e-02 -4.816828e-01 2.388237e-02 -3.681832e-01 -2.489900e-04 -1.105507e-03 -1.407962e-02 1.963588e-01 4.651908e-02 -1.739139e-01 1.084745e-01 -3.262992e-01 8.510324e-02 -4.025288e-01 5.332508e-02 -3.404621e-01 -1.591121e-01 1.332207e-01
<VARIANCE> 52
 1.300905e+02 6.955806e+03 1.582432e+03 2.044091e+05 2.564967e+03 3.764092e+05 3.737219e+03 5.348398e+05 3.645516e+03 4.141020e+05 2.586273e+03 3.682405e+05 2.374780e+02 5.869127e+03 1.568692e+03 1.062495e+05 1.818608e+03 4.614612e+05 2.241539e+03 7.548616e+05 1.700903e+03 6.741908e+05 1.265553e+03 5.645449e+05 3.267778e+04 4.005056e+05 2.098930e-03 3.057204e-02 5.492723e-02 1.659989e+00 2.178313e-01 3.718874e+00 6.394987e-01 7.742059e+00 6.246706e-01 8.310033e+00 3.866007e-01 5.913947e+00 3.763218e-03 2.417360e-02 1.155902e-01 1.124783e+00 4.237131e-01 2.476430e+00 1.518070e+00 5.375576e+00 1.017426e+00 9.411592e+00 5.066914e-01 6.589052e+00 4.936546e+00 2.098940e+01
<GCONST> 3.429334e+02
<STATE> 3
<MEAN> 52
 5.331328e+01 1.990021e+02 1.401339e+02 9.976663e+02 6.476605e+01 7.367372e+02 5.528070e+01 7.415443e+02 5.246945e+01 5.889421e+02 4.637675e+01 6.065480e+02 -5.724298e+01 2.345220e+02 -1.019456e+02 1.232107e+03 -3.804674e+01 1.168759e+03 -2.964253e+01 1.266874e+03 -2.558966e+01 1.045538e+03 -2.297423e+01 1.028295e+03 1.429367e+02 -1.945031e+02 5.771277e-03 1.219727e-02 1.760333e-02 1.079691e-01 -1.132652e-03 -2.274646e-01 5.407736e-03 -6.670707e-01 7.004428e-02 -1.035331e+00 8.901046e-02 -7.601244e-01 -9.266818e-04 1.080567e-02 2.622246e-02 1.441999e-01 9.491768e-02 -4.968689e-01 1.619306e-01 -8.779937e-01 9.706527e-02 -8.781094e-01 7.969484e-02 -7.290024e-01 -1.272915e-01 4.796759e-01
<VARIANCE> 52
 1.374421e+02 6.953230e+03 1.453925e+03 2.041539e+05 3.145186e+03 3.404052e+05 4.817605e+03 4.612680e+05 4.873730e+03 3.456535e+05 3.479156e+03 3.113032e+05 2.198654e+02 5.715798e+03 1.409906e+03 1.003307e+05 1.862641e+03 4.240950e+05 2.282717e+03 6.866270e+05 1.855226e+03 5.956785e+05 1.372237e+03 4.995568e+05 4.094422e+04 3.167959e+05 7.814066e-03 1.220559e-02 1.336590e-01 2.267101e+00 5.597994e-01 1.405541e+01 1.901478e+00 4.135115e+01 2.696460e+00 4.771571e+01 2.006949e+00 3.048043e+01 3.385284e-03 1.446799e-02 5.907972e-02 9.296030e-01 7.052132e-01 1.025692e+01 2.164199e+00 2.857439e+01 1.682877e+00 3.458092e+01 9.731608e-01 2.358992e+01 1.089992e+01 1.312636e+02
<GCONST> 3.648237e+02
<STATE> 4
<MEAN> 52
 5.328779e+01 2.012858e+02 1.407900e+02 1.018357e+03 6.423857e+01 7.279158e+02 5.427229e+01 7.198422e+02 5.143681e+01 5.612590e+02 4.577490e+01 5.835699e+02 -5.786961e+01 2.369149e+02 -1.021914e+02 1.244656e+03 -3.547416e+01 1.187253e+03 -2.703362e+01 1.294176e+03 -2.264209e+01 1.069915e+03 -2.040084e+01 1.050214e+03 1.336451e+02 -1.913320e+02 -6.072279e-04 7.942587e-03 1.686916e-02 3.531904e-01 -3.100634e-02 -3.898268e-01 -1.002667e-01 -7.783165e-01 -8.176732e-02 -1.262760e+00 -4.703069e-02 -1.073934e+00 -3.140520e-03 1.244753e-02 1.356431e-02 1.517915e-01 9.502517e-02 -4.316767e-01 1.528219e-01 -7.863886e-01 1.371565e-01 -8.659046e-01 9.884542e-02 -6.765651e-01 -4.477415e-01 6.507816e-01
<VARIANCE> 52
 1.385100e+02 7.182188e+03 1.476788e+03 2.152243e+05 3.097831e+03 3.020498e+05 4.655355e+03 3.905699e+05 4.657167e+03 2.744867e+05 3.357479e+03 2.508379e+05 2.348187e+02 5.914159e+03 1.436623e+03 1.040777e+05 1.592929e+03 4.638686e+05 1.990089e+03 7.585085e+05 1.527679e+03 6.462995e+05 1.138362e+03 5.394300e+05 3.528291e+04 2.717161e+05 3.222469e-03 3.726288e-02 7.118773e-02 2.397021e+00 5.282990e-01 2.423030e+01 1.506877e+00 8.206955e+01 1.912506e+00 1.042828e+02 1.407976e+00 6.228627e+01 2.049039e-03 8.923956e-03 1.064736e-01 4.648501e-01 4.757788e-01 4.206195e+00 8.458553e-01 1.310956e+01 8.653629e-01 1.872055e+01 5.504363e-01 1.270827e+01 8.471485e+00 1.841361e+02
<GCONST> 3.585156e+02
<STATE> 5
<MEAN> 52
 5.315311e+01 1.998450e+02 1.433935e+02 1.018438e+03 6.113375e+01 6.879495e+02 4.994526e+01 6.680168e+02 4.770884e+01 5.101718e+02 4.265132e+01 5.370176e+02 -5.812785e+01 2.365352e+02 -1.028868e+02 1.249040e+03 -3.549403e+01 1.163190e+03 -2.700657e+01 1.257874e+03 -2.365355e+01 1.033643e+03 -2.135217e+01 1.017754e+03 1.305902e+02 -2.200994e+02 -5.873794e-03 1.945507e-02 1.126477e-02 4.615271e-01 -2.799058e-02 -7.947865e-01 -7.404757e-02 -1.860898e+00 -3.531313e-02 -2.420787e+00 2.579165e-02 -1.878822e+00 -6.487927e-03 1.152229e-02 -3.034671e-02 2.436063e-01 2.193830e-01 -6.224031e-01 4.479893e-01 -1.141921e+00 3.993285e-01 -1.194249e+00 3.190680e-01 -9.909596e-01 -6.113448e-01 8.212805e-02
<VARIANCE> 52
 1.405911e+02 6.772408e+03 1.666196e+03 2.334014e+05 2.685927e+03 2.435150e+05 3.991464e+03 3.057370e+05 4.085398e+03 2.020559e+05 2.958846e+03 1.846098e+05 2.211909e+02 5.625832e+03 1.541004e+03 1.058140e+05 1.593154e+03 3.956074e+05 2.103764e+03 6.412991e+05 1.854761e+03 5.331096e+05 1.340373e+03 4.457318e+05 3.872156e+04 3.281829e+05 6.500470e-03 2.142360e-02 2.230504e-01 7.873201e+00 8.933935e-01 6.323763e+01 2.173456e+00 1.703136e+02 2.393164e+00 1.749512e+02 4.232210e+00 1.209849e+02 4.120735e-03 9.434197e-03 8.417347e-02 1.657624e+00 2.209214e+00 2.151397e+01 7.336617e+00 4.378589e+01 7.041714e+00 5.093066e+01 4.135314e+00 3.970202e+01 1.664127e+01 5.092949e+02
<GCONST> 3.808445e+02
<STATE> 6
<MEAN> 52
 5.234696e+01 1.967217e+02 1.436340e+02 1.013105e+03 5.381198e+01 6.527441e+02 4.058662e+01 6.252058e+02 3.859309e+01 4.721703e+02 3.486326e+01 5.006352e+02 -5.749144e+01 2.331294e+02 -1.025761e+02 1.244512e+03 -2.974005e+01 1.100819e+03 -2.023980e+01 1.177909e+03 -1.743048e+01 9.566248e+02 -1.594168e+01 9.462841e+02 9.908137e+01 -1.642437e+02 -1.081303e-02 1.272315e-02 5.461624e-03 4.658104e-01 -1.691110e-01 -3.133523e-01 -3.109420e-01 -1.140875e+00 -2.949080e-01 -1.371292e+00 -2.426855e-01 -1.160253e+00 -6.036093e-03 1.456773e-02 -1.625027e-02 1.419737e-01 1.528453e-01 -3.271440e-01 2.494999e-01 -6.556714e-01 2.030799e-01 -7.272380e-01 1.575856e-01 -5.926138e-01 -8.068343e-01 5.200183e-02
<VARIANCE> 52
 1.308201e+02 7.006828e+03 1.420261e+03 2.256843e+05 1.887999e+03 2.029376e+05 2.619496e+03 2.526995e+05 2.694223e+03 1.619002e+05 1.946908e+03 1.478643e+05 2.430746e+02 5.882971e+03 1.450642e+03 1.122778e+05 9.897722e+02 3.820219e+05 1.082480e+03 6.126368e+05 8.946079e+02 4.970438e+05 6.618037e+02 4.151502e+05 2.076985e+04 9.381700e+04 1.035768e-02 1.609699e-02 7.401165e-02 6.247312e+00 4.653098e-01 2.950846e+01 1.203969e+00 8.639500e+01 1.229857e+00 7.767415e+01 8.741972e-01 5.562265e+01 3.441114e-03 2.415031e-02 3.008765e-02 5.329362e-01 4.970237e-01 3.400984e+00 1.058318e+00 1.177158e+01 8.200274e-01 1.241872e+01 5.313011e-01 7.901134e+00 8.210117e+00 1.514345e+02
<GCONST> 3.488463e+02
<STATE> 7
<MEAN> 52
 5.334097e+01 2.041898e+02 1.412872e+02 1.047847e+03 5.764518e+01 7.117157e+02 4.495036e+01 6.928022e+02 4.292098e+01 5.333779e+02 3.856575e+01 5.584370e+02 -5.786572e+01 2.382825e+02 -1.027583e+02 1.261351e+03 -3.294097e+01 1.135007e+03 -2.326943e+01 1.214628e+03 -2.105421e+01 9.874008e+02 -1.901984e+01 9.768781e+02 1.151480e+02 -1.611854e+02 6.340113e-04 1.368062e-02 1.324494e-02 1.446840e-01 -1.940382e-01 -4.795405e-01 -3.747863e-01 -1.175731e+00 -3.470738e-01 -1.099897e+00 -2.733744e-01 -8.581593e-01 5.915578e-03 7.281840e-03 -3.262099e-02 1.459774e-01 1.470460e-01 -1.797335e-01 2.836802e-01 -4.350988e-01 2.717646e-01 -5.069221e-01 2.085500e-01 -3.971790e-01 -1.185948e+00 -4.170914e-01
<VARIANCE> 52
 1.268112e+02 7.241623e+03 1.401180e+03 2.300497e+05 1.869984e+03 2.536496e+05 2.678753e+03 3.269002e+05 2.788982e+03 2.320960e+05 1.944810e+03 2.091669e+05 2.254106e+02 6.159648e+03 1.503676e+03 1.241614e+05 9.750718e+02 3.752946e+05 1.031487e+03 5.843350e+05 9.708940e+02 4.699762e+05 6.931479e+02 3.944157e+05 2.248489e+04 9.148927e+04 6.721948e-03 4.041916e-02 8.621501e-02 5.355772e+00 5.552728e-01 2.485603e+01 1.664256e+00 7.600831e+01 2.021315e+00 8.964523e+01 1.178930e+00 6.075344e+01 4.971140e-03 1.270061e-02 1.054590e-01 1.053598e+00 5.611464e-01 8.172300e+00 1.536828e+00 2.519866e+01 2.127040e+00 2.521192e+01 1.273368e+00 1.591714e+01 1.701210e+01 1.244974e+02
<GCONST> 3.594182e+02
<STATE> 8
<MEAN> 52
 5.228597e+01 1.978403e+02 1.446145e+02 1.027546e+03 4.656970e+01 6.284285e+02 3.112654e+01 5.935646e+02 2.980409e+01 4.425528e+02 2.726034e+01 4.727926e+02 -5.791845e+01 2.353414e+02 -1.047758e+02 1.260888e+03 -2.569658e+01 1.101906e+03 -1.474954e+01 1.175186e+03 -1.240580e+01 9.479536e+02 -1.183684e+01 9.382737e+02 7.240111e+01 -1.854717e+02 -7.194765e-03 -1.785381e-02 2.906041e-02 1.657300e-01 -3.064661e-01 -1.119955e+00 -5.261985e-01 -1.941548e+00 -4.944741e-01 -2.097625e+00 -4.296905e-01 -1.598363e+00 1.487753e-05 -8.481305e-03 -2.074895e-02 8.164881e-02 1.572853e-01 1.118040e-01 2.637091e-01 2.361221e-01 2.727201e-01 2.619152e-01 2.192976e-01 2.280025e-01 -1.382295e+00 -2.120850e+00
<VARIANCE> 52
 1.114028e+02 6.695938e+03 1.344331e+03 2.143716e+05 1.042020e+03 1.907011e+05 1.351817e+03 2.372376e+05 1.464056e+03 1.476491e+05 1.035912e+03 1.347690e+05 2.513535e+02 5.828525e+03 1.467677e+03 1.095720e+05 5.736909e+02 3.729236e+05 4.795026e+02 5.955798e+05 3.836997e+02 4.790736e+05 2.906148e+02 3.978826e+05 9.208886e+03 1.154288e+05 7.663061e-03 2.630165e-02 2.517049e-01 6.061459e+00 1.152428e+00 5.779663e+01 2.672384e+00 1.784791e+02 2.855258e+00 2.195490e+02 2.032858e+00 1.150632e+02 4.414512e-03 3.665368e-02 1.140265e-01 1.015433e+00 8.328272e-01 6.861130e+00 1.989511e+00 2.447978e+01 1.933206e+00 2.635626e+01 1.298860e+00 1.850516e+01 2.135930e+01 3.569810e+02
<GCONST> 3.603027e+02
<STATE> 9
<MEAN> 52
 5.278381e+01 2.012080e+02 1.429520e+02 1.052186e+03 4.276724e+01 6.486277e+02 2.690107e+01 6.188265e+02 2.574142e+01 4.636766e+02 2.384237e+01 4.922996e+02 -5.839790e+01 2.391867e+02 -1.046940e+02 1.281685e+03 -2.419437e+01 1.128359e+03 -1.293941e+01 1.207024e+03 -1.073683e+01 9.734750e+02 -1.043531e+01 9.618808e+02 6.245528e+01 -1.910898e+02 3.071493e-04 -2.365882e-03 -3.171705e-02 2.975532e-01 -2.598776e-01 -2.327676e-01 -3.480083e-01 -5.447446e-01 -3.179330e-01 -5.816252e-01 -2.450536e-01 -4.644984e-01 3.790243e-03 -8.663563e-03 -2.737926e-02 1.023211e-01 3.561258e-02 2.089744e-01 8.803117e-02 4.073868e-01 8.396876e-02 3.790114e-01 5.184227e-02 3.021865e-01 -7.712717e-01 -8.412547e-01
<VARIANCE> 52
 1.072901e+02 6.706590e+03 1.272613e+03 2.144362e+05 7.785702e+02 2.012660e+05 9.587048e+02 2.541161e+05 1.056940e+03 1.573258e+05 7.578040e+02 1.429714e+05 2.464674e+02 6.056280e+03 1.526670e+03 1.153412e+05 4.477951e+02 3.664807e+05 3.607037e+02 5.841032e+05 2.738856e+02 4.697261e+05 2.088018e+02 3.900968e+05 6.367167e+03 1.397214e+05 4.370231e-03 4.501502e-02 2.236882e-01 8.504361e+00 2.575346e+00 3.041040e+01 7.262044e+00 9.106339e+01 9.724242e+00 1.062067e+02 5.809911e+00 6.522223e+01 5.652362e-03 3.388611e-02 8.196913e-02 1.017859e+00 1.377158e+00 6.742580e+00 3.120878e+00 2.111688e+01 2.770533e+00 1.960973e+01 1.728657e+00 1.249687e+01 4.490636e+01 2.813615e+02
<GCONST> 3.605969e+02
<STATE> 10
<MEAN> 52
 5.337115e+01 2.020387e+02 1.449692e+02 1.056141e+03 4.287098e+01 6.645302e+02 2.626501e+01 6.407546e+02 2.486323e+01 4.805853e+02 2.331862e+01 5.074456e+02 -5.816801e+01 2.404057e+02 -1.051700e+02 1.288885e+03 -2.294771e+01 1.133162e+03 -1.173942e+01 1.214364e+03 -9.502718e+00 9.784352e+02 -9.359447e+00 9.672377e+02 5.809662e+01 -2.012222e+02 5.585777e-03 2.518901e-02 7.384575e-02 2.021410e-01 2.580893e-02 6.038391e-02 1.164806e-02 -9.089136e-02 -1.951420e-02 -7.399380e-02 -4.436135e-03 -3.609511e-02 2.197902e-03 9.183060e-03 -3.099936e-02 6.053649e-02 8.850945e-02 2.460736e-01 1.656551e-01 5.279304e-01 1.587466e-01 5.752417e-01 1.182198e-01 4.864960e-01 -5.007373e-01 -8.653603e-01
<VARIANCE> 52
 1.108596e+02 6.651563e+03 1.081304e+03 2.067949e+05 7.086485e+02 2.181283e+05 8.348529e+02 2.818149e+05 9.084425e+02 1.727985e+05 6.676315e+02 1.567350e+05 2.365623e+02 6.046248e+03 1.637334e+03 1.175598e+05 3.778268e+02 3.521520e+05 3.065767e+02 5.644663e+05 2.152408e+02 4.576172e+05 1.636750e+02 3.813617e+05 5.109346e+03 1.741903e+05 7.690521e-03 3.263981e-02 2.984313e-01 4.896841e+00 2.698089e+00 2.334225e+01 7.672712e+00 6.425423e+01 7.646123e+00 6.834486e+01 4.773159e+00 4.431460e+01 3.486128e-03 1.542111e-02 5.731606e-02 5.329533e-01 1.290838e+00 7.003519e+00 2.962175e+00 2.115230e+01 2.206676e+00 2.218502e+01 1.431477e+00 1.549509e+01 2.382450e+01 2.414297e+02
<GCONST> 3.543751e+02
<STATE> 11
<MEAN> 52
 5.267812e+01 1.867247e+02 1.486924e+02 9.776974e+02 4.104375e+01 5.875056e+02 2.424619e+01 5.604442e+02 2.254809e+01 4.204882e+02 2.138135e+01 4.480433e+02 -5.545086e+01 2.263667e+02 -1.034812e+02 1.230997e+03 -2.198666e+01 1.044790e+03 -1.104549e+01 1.109343e+03 -8.791037e+00 8.892866e+02 -8.685556e+00 8.830271e+02 5.237232e+01 -2.022237e+02 6.499014e-03 1.222027e-02 3.065145e-02 8.634800e-02 3.025457e-03 -9.027603e-02 -3.718767e-02 -2.474458e-01 -5.263747e-02 -3.374061e-02 -5.182624e-02 -4.864210e-02 -2.675866e-03 1.219414e-02 -4.175706e-02 3.841117e-02 -1.625337e-02 2.251144e-01 -1.009363e-02 3.399410e-01 1.118518e-02 4.380340e-01 1.419297e-03 3.977629e-01 -2.873950e-01 -9.161125e-01
<VARIANCE> 52
 9.492650e+01 7.185319e+03 9.739742e+02 2.001311e+05 6.915825e+02 2.096759e+05 7.955302e+02 2.691787e+05 8.384840e+02 1.683073e+05 6.129547e+02 1.532482e+05 2.759845e+02 6.296789e+03 1.874909e+03 1.116806e+05 3.614389e+02 3.545446e+05 2.918555e+02 5.701828e+05 1.896796e+02 4.673538e+05 1.483453e+02 3.907855e+05 4.218830e+03 1.950095e+05 4.954737e-03 1.919223e-02 1.713218e-01 2.622505e+00 1.006541e+00 1.816631e+01 4.003460e+00 4.850996e+01 4.150693e+00 4.561044e+01 2.703742e+00 2.967554e+01 3.361362e-03 1.705430e-02 7.000078e-02 5.100399e-01 2.679712e-01 2.959961e+00 6.224405e-01 1.062943e+01 4.825245e-01 1.202231e+01 2.936996e-01 7.811045e+00 1.444395e+01 1.597037e+02
<GCONST> 3.376518e+02
<STATE> 12
<MEAN> 52
 5.283784e+01 1.983848e+02 1.458943e+02 1.021009e+03 4.745915e+01 6.279004e+02 3.198775e+01 6.093965e+02 3.010671e+01 4.606276e+02 2.776492e+01 4.844094e+02 -5.723987e+01 2.348141e+02 -1.076284e+02 1.251150e+03 -2.773514e+01 1.181103e+03 -1.704288e+01 1.296480e+03 -1.344637e+01 1.068500e+03 -1.260186e+01 1.046200e+03 7.206342e+01 -3.295854e+02 -5.100471e-03 3.155428e-02 4.605260e-04 -2.924988e-02 6.502511e-02 7.921326e-01 1.856163e-01 1.890906e+00 1.916174e-01 2.030734e+00 1.354849e-01 1.509417e+00 1.431805e-03 5.279522e-03 -7.490415e-03 -1.092008e-01 -1.729834e-01 1.416686e+00 -3.399257e-01 2.708535e+00 -3.067663e-01 3.024956e+00 -2.164544e-01 2.473967e+00 5.231090e-01 -3.093218e+00
<VARIANCE> 52
 9.117323e+01 6.811703e+03 1.049620e+03 1.893741e+05 1.221183e+03 2.360359e+05 1.765671e+03 3.158765e+05 1.841569e+03 2.013867e+05 1.338133e+03 1.821947e+05 2.772621e+02 6.379371e+03 1.844430e+03 1.185642e+05 5.365280e+02 3.976728e+05 5.098458e+02 6.683621e+05 3.487657e+02 5.775856e+05 2.572924e+02 4.782728e+05 7.184531e+03 3.775572e+05 9.748477e-03 1.236686e-01 1.213407e-01 2.805248e+00 2.607114e+00 9.892819e+01 6.120640e+00 3.479413e+02 7.233275e+00 3.310193e+02 4.842376e+00 1.941669e+02 6.344898e-03 4.129591e-02 1.070556e-01 1.028199e+00 9.120985e-01 2.023060e+01 2.443960e+00 7.451883e+01 2.514074e+00 8.179102e+01 1.290347e+00 5.325692e+01 1.976998e+01 4.328665e+02
<GCONST> 3.748846e+02
<STATE> 13
<MEAN> 52
 5.431063e+01 2.051950e+02 1.516586e+02 1.044047e+03 5.297031e+01 6.416459e+02 3.746296e+01 6.224418e+02 3.522128e+01 4.737710e+02 3.236256e+01 4.975026e+02 -5.771225e+01 2.413913e+02 -1.096399e+02 1.272644e+03 -2.863372e+01 1.237877e+03 -1.806889e+01 1.366971e+03 -1.383160e+01 1.139702e+03 -1.292852e+01 1.112369e+03 8.183909e+01 -3.892734e+02 8.486482e-03 -6.074340e-03 3.788697e-02 -3.204139e-02 7.990007e-02 -4.728109e-02 1.053786e-01 -2.318872e-01 5.293290e-02 -3.990354e-02 6.712559e-02 -2.082508e-02 2.506035e-03 -2.698331e-03 -2.927919e-02 -5.037003e-02 -3.620920e-02 2.026794e-01 -1.103877e-01 3.184874e-01 -5.871364e-02 4.670897e-01 -3.572633e-02 4.058540e-01 1.519075e-01 -8.748510e-01
<VARIANCE> 52
 1.078738e+02 6.603640e+03 1.297558e+03 1.821994e+05 1.856396e+03 2.550445e+05 2.343547e+03 3.529720e+05 2.399480e+03 2.302647e+05 1.788139e+03 2.061788e+05 2.495498e+02 6.195711e+03 2.161233e+03 1.188394e+05 5.792748e+02 4.754501e+05 5.397192e+02 8.126206e+05 3.501735e+02 7.225768e+05 2.642556e+02 5.947908e+05 9.991653e+03 5.436795e+05 5.610666e-03 1.849028e-02 1.086934e-01 2.281086e+00 5.131159e-01 7.260516e+00 1.651304e+00 2.821755e+01 2.592756e+00 2.096730e+01 1.099288e+00 1.286849e+01 2.096620e-03 9.658837e-03 1.129186e-01 2.927880e-01 2.487745e-01 1.220235e+00 7.053263e-01 3.763246e+00 5.012724e-01 4.747257e+00 2.643755e-01 3.170572e+00 7.251989e+00 6.556918e+01
<GCONST> 3.359330e+02
<STATE> 14
<MEAN> 52
 5.341297e+01 1.974697e+02 1.501803e+02 1.005099e+03 4.761918e+01 6.606431e+02 3.104745e+01 6.588009e+02 2.820308e+01 5.043017e+02 2.642456e+01 5.243094e+02 -5.673967e+01 2.345108e+02 -1.099694e+02 1.245905e+03 -2.911705e+01 1.160342e+03 -1.813776e+01 1.265730e+03 -1.448949e+01 1.039540e+03 -1.353522e+01 1.021040e+03 7.153951e+01 -2.993700e+02 1.432871e-03 9.639674e-03 7.822244e-03 5.120704e-02 5.805905e-03 1.152197e-01 -4.272329e-02 3.944769e-01 -7.308839e-02 3.560635e-01 -5.645077e-02 2.723843e-01 -2.799344e-03 6.953329e-03 -4.259927e-02 2.142561e-03 -1.671739e-01 6.063178e-01 -2.323179e-01 1.135829e+00 -2.191028e-01 1.169736e+00 -1.803289e-01 9.274410e-01 1.907779e-01 -1.748427e+00
<VARIANCE> 52
 9.002011e+01 6.560041e+03 1.199439e+03 1.778502e+05 1.147072e+03 2.620100e+05 1.430673e+03 3.669151e+05 1.437905e+03 2.399407e+05 1.063324e+03 2.131238e+05 2.720522e+02 6.251313e+03 2.446951e+03 1.215696e+05 5.647590e+02 4.005261e+05 5.209531e+02 6.716731e+05 3.673568e+02 5.823166e+05 2.752477e+02 4.807186e+05 6.478517e+03 4.093235e+05 3.092110e-03 1.748385e-02 2.215903e-02 8.599838e-01 6.113629e-01 1.059089e+01 1.834323e+00 3.986639e+01 2.357965e+00 3.334706e+01 1.556125e+00 2.296990e+01 3.140582e-03 1.240281e-02 4.785220e-02 2.097349e-01 3.986594e-01 1.128878e+01 9.541317e-01 3.555758e+01 1.103603e+00 3.268052e+01 6.786426e-01 2.152489e+01 6.625934e+00 1.699552e+02
<GCONST> 3.427649e+02
<STATE> 15
<MEAN> 52
 5.442134e+01 2.106413e+02 1.479403e+02 1.058057e+03 5.133762e+01 7.136855e+02 3.508926e+01 7.144089e+02 3.214064e+01 5.491988e+02 2.995458e+01 5.668170e+02 -5.892789e+01 2.467220e+02 -1.145721e+02 1.287970e+03 -3.205259e+01 1.265845e+03 -2.033772e+01 1.398974e+03 -1.618618e+01 1.158647e+03 -1.520813e+01 1.129908e+03 8.255328e+01 -3.467554e+02 1.853050e-03 1.250725e-02 -1.784918e-02 -1.021280e-01 6.817997e-03 -2.716656e-01 -2.111423e-02 -5.069475e-01 -3.758597e-02 -4.819999e-01 -1.367646e-02 -3.711405e-01 -2.048226e-03 5.738623e-03 -7.904505e-02 -6.760387e-02 -2.031635e-01 6.827685e-01 -3.202952e-01 1.266104e+00 -3.157056e-01 1.376340e+00 -2.425089e-01 1.096815e+00 3.492383e-01 -4.074075e+00
<VARIANCE> 52
 9.243908e+01 6.703861e+03 1.346424e+03 1.829381e+05 1.276699e+03 3.119687e+05 1.608585e+03 4.361247e+05 1.577820e+03 2.877948e+05 1.180320e+03 2.562176e+05 2.713400e+02 6.425502e+03 2.649267e+03 1.277680e+05 6.016340e+02 4.345005e+05 5.439223e+02 7.289691e+05 3.916696e+02 6.270284e+05 2.940954e+02 5.168601e+05 7.805912e+03 4.560929e+05 4.095109e-03 1.989602e-02 1.147751e-01 2.196903e+00 5.528606e-01 1.922617e+01 2.086016e+00 7.409467e+01 2.826204e+00 5.823282e+01 1.655261e+00 3.861858e+01 1.839281e-03 1.789051e-02 1.478094e-01 3.192293e-01 4.134415e-01 1.328483e+01 1.107081e+00 4.259850e+01 1.280256e+00 4.135511e+01 7.220276e-01 2.888925e+01 1.000401e+01 2.913138e+02
<GCONST> 3.542425e+02
<STATE> 16
<MEAN> 52
 5.456049e+01 2.077618e+02 1.477683e+02 1.036379e+03 4.989725e+01 6.842034e+02 3.429930e+01 6.884780e+02 3.137532e+01 5.358953e+02 2.893911e+01 5.518924e+02 -5.797423e+01 2.419199e+02 -1.155658e+02 1.258952e+03 -3.443312e+01 1.268135e+03 -2.308714e+01 1.415940e+03 -1.834186e+01 1.186142e+03 -1.691057e+01 1.153421e+03 8.487671e+01 -4.147453e+02 1.572055e-02 3.943922e-02 -7.631768e-02 1.409047e-01 6.789603e-01 -6.566715e-01 1.538757e+00 -8.072109e-01 2.090504e+00 -3.751221e-01 1.598821e+00 -2.830276e-01 5.471052e-03 6.963268e-03 -2.996852e-02 -1.156114e-01 -2.777047e-01 1.003335e+00 -4.794569e-01 1.910134e+00 -4.287345e-01 2.577563e+00 -3.306731e-01 2.164912e+00 2.778550e+00 -5.591673e+00
<VARIANCE> 52
 9.171322e+01 6.637073e+03 1.483368e+03 1.824895e+05 1.282663e+03 3.464346e+05 1.547059e+03 4.956194e+05 1.533783e+03 3.421934e+05 1.116491e+03 3.042444e+05 2.617454e+02 6.248664e+03 2.788278e+03 1.234851e+05 6.879219e+02 4.832842e+05 6.587554e+02 8.239315e+05 4.875615e+02 7.189446e+05 3.567238e+02 5.937255e+05 7.617031e+03 5.557688e+05 1.208774e-02 2.007737e-02 8.591478e-01 1.890215e+00 1.466846e+02 2.967242e+01 4.697413e+02 9.452960e+01 7.330302e+02 8.567285e+01 4.681787e+02 5.908435e+01 4.357124e-03 2.307814e-02 6.127012e-02 9.209180e-01 7.044238e-01 4.828296e+01 2.261958e+00 1.435557e+02 2.505953e+00 1.664565e+02 1.533943e+00 1.156700e+02 7.755989e+02 4.546424e+02
<GCONST> 3.968398e+02
<STATE> 17
<MEAN> 52
 5.499097e+01 2.106741e+02 1.473915e+02 1.052006e+03 5.456070e+01 7.189481e+02 3.997925e+01 7.292968e+02 3.733273e+01 5.736505e+02 3.401430e+01 5.866316e+02 -5.814936e+01 2.434241e+02 -1.162963e+02 1.260916e+03 -3.818097e+01 1.309419e+03 -2.696467e+01 1.470830e+03 -2.203217e+01 1.240937e+03 -2.002352e+01 1.202820e+03 1.026470e+02 -4.398858e+02 3.929865e-04 -7.753460e-03 2.894506e-03 -1.285939e-01 1.806569e-02 -4.160173e-01 5.017185e-02 -5.683570e-01 1.110849e-01 -4.038281e-01 9.867597e-02 -4.190364e-01 8.464241e-04 -1.893042e-02 -3.891232e-02 -1.011336e-01 -2.226304e-01 7.349941e-01 -3.825503e-01 1.308887e+00 -3.528234e-01 1.775764e+00 -2.773091e-01 1.475763e+00 6.225983e-01 -3.976467e+00
<VARIANCE> 52
 9.593729e+01 6.881912e+03 1.594911e+03 1.858556e+05 1.539115e+03 3.976888e+05 2.097762e+03 5.603772e+05 2.113367e+03 4.026183e+05 1.503895e+03 3.590374e+05 2.671209e+02 6.453752e+03 2.938463e+03 1.260818e+05 8.016050e+02 5.251930e+05 8.220420e+02 8.865927e+05 6.875879e+02 7.745689e+05 4.901567e+02 6.415877e+05 1.087681e+04 6.024078e+05 3.587214e-03 4.184984e-02 2.029737e-01 2.341476e+00 1.569662e+00 3.193762e+01 9.035963e+00 7.910374e+01 1.922477e+01 7.807407e+01 1.174913e+01 5.565303e+01 2.241011e-03 5.216729e-02 8.203649e-02 6.588167e-01 4.416390e-01 1.985366e+01 1.577789e+00 5.662954e+01 1.583350e+00 6.377837e+01 9.262418e-01 4.358944e+01 2.590004e+01 2.654166e+02
<GCONST> 3.734575e+02
<STATE> 18
<MEAN> 52
 5.516198e+01 2.078624e+02 1.488051e+02 1.036033e+03 5.455969e+01 6.791053e+02 3.962408e+01 6.822130e+02 3.714438e+01 5.296523e+02 3.382800e+01 5.442909e+02 -5.765435e+01 2.404877e+02 -1.179648e+02 1.247728e+03 -3.931309e+01 1.302265e+03 -2.779510e+01 1.465709e+03 -2.246896e+01 1.241544e+03 -2.064563e+01 1.201932e+03 1.021407e+02 -4.879150e+02 1.391632e-02 -1.259472e-02 -3.309736e-02 1.142213e-02 1.307872e-01 -2.381519e-01 2.166387e-01 -5.275669e-01 2.453078e-01 -3.954390e-01 1.801989e-01 -3.505160e-01 3.805161e-03 -2.928567e-02 -2.934601e-02 -1.099565e-01 -1.746559e-01 5.548463e-01 -2.929011e-01 8.111057e-01 -2.147017e-01 1.257436e+00 -1.864953e-01 1.040424e+00 7.006680e-01 -2.700881e+00
<VARIANCE> 52
 9.871481e+01 6.822619e+03 1.673545e+03 1.801739e+05 1.682168e+03 3.610565e+05 2.213914e+03 5.037918e+05 2.273281e+03 3.393010e+05 1.628930e+03 3.043398e+05 2.623040e+02 6.526058e+03 3.200427e+03 1.286704e+05 8.435664e+02 5.520328e+05 8.188379e+02 9.341965e+05 7.092373e+02 8.193832e+05 5.244531e+02 6.784645e+05 9.890938e+03 6.871618e+05 8.602593e-03 7.328872e-02 9.034666e-02 8.598356e-01 4.553243e-01 9.242072e+00 1.075020e+00 2.476357e+01 1.439796e+00 2.433040e+01 8.551482e-01 1.806428e+01 4.042925e-03 5.480961e-02 7.689272e-02 4.768330e-01 3.646223e-01 2.241906e+01 1.303426e+00 4.681850e+01 1.572250e+00 6.170332e+01 7.701085e-01 4.505478e+01 6.047332e+00 1.328509e+02
<GCONST> 3.575604e+02
<STATE> 19
<MEAN> 52
 5.538148e+01 2.082462e+02 1.486811e+02 1.038308e+03 5.617609e+01 6.772570e+02 4.156143e+01 6.797782e+02 3.906934e+01 5.268638e+02 3.556711e+01 5.420002e+02 -5.762679e+01 2.398765e+02 -1.192181e+02 1.241976e+03 -4.168110e+01 1.318819e+03 -3.009042e+01 1.491813e+03 -2.406555e+01 1.270243e+03 -2.205010e+01 1.226570e+03 1.093417e+02 -5.117528e+02 3.949358e-03 -3.699829e-03 -3.444499e-02 1.555829e-02 4.286334e-02 -1.204235e-01 9.869913e-02 -1.776142e-01 9.684607e-02 -2.377276e-01 8.349322e-02 -1.906403e-01 3.103585e-03 -1.325321e-02 -3.304475e-02 -1.016225e-01 -1.791496e-01 2.093833e-01 -3.040886e-01 3.999206e-01 -2.401810e-01 5.449445e-01 -1.687253e-01 4.336991e-01 5.109775e-01 -1.098588e+00
<VARIANCE> 52
 1.021075e+02 6.916320e+03 1.724466e+03 1.805535e+05 1.849422e+03 3.607028e+05 2.510633e+03 5.005768e+05 2.561500e+03 3.379775e+05 1.850969e+03 3.039645e+05 2.653665e+02 6.614741e+03 3.255669e+03 1.299038e+05 8.660921e+02 5.761995e+05 8.167737e+02 9.802479e+05 6.828862e+02 8.732838e+05 5.213860e+02 7.215343e+05 1.128988e+04 7.364844e+05 1.021322e-02 2.298564e-02 2.933089e-01 1.164809e+00 1.540835e-01 7.587543e-01 6.361227e-01 1.647381e+00 7.078846e-01 1.640096e+00 4.295499e-01 1.173114e+00 4.989577e-03 1.575039e-02 7.787000e-02 4.555267e-01 2.792974e-01 1.627688e+00 9.598408e-01 5.335474e+00 8.659631e-01 8.147898e+00 4.578303e-01 5.100154e+00 2.835919e+00 2.024776e+01
<GCONST> 3.309949e+02
<TRANSP> 20
 0.000000e+00 1.000000e+00 0.000000e+00 0.000000e+00 0.000000e+00 0.000000e+00 0.000000e+00 0.000000e+00 0.000000e+00 0.000000e+00 0.000000e+00 0.000000e+00 0.000000e+00 0.000000e+00 0.000000e+00 0.000000e+00 0.000000e+00 0.000000e+00 0.000000e+00 0.000000e+00
 0.000000e+00 2.126070e-02 9.787393e-01 0.000000e+00 0.000000e+00 0.000000e+00 0.000000e+00 0.000000e+00 0.000000e+00 0.000000e+00 0.000000e+00 0.000000e+00 0.000000e+00 0.000000e+00 0.000000e+00 0.000000e+00 0.000000e+00 0.000000e+00 0.000000e+00 0.000000e+00
 0.000000e+00 0.000000e+00 8.072514e-02 9.192749e-01 0.000000e+00 0.000000e+00 0.000000e+00 0.000000e+00 0.000000e+00 0.000000e+00 0.000000e+00 0.000000e+00 0.000000e+00 0.000000e+00 0.000000e+00 0.000000e+00 0.000000e+00 0.000000e+00 0.000000e+00 0.000000e+00
 0.000000e+00 0.000000e+00 0.000000e+00 5.664787e-02 9.433521e-01 0.000000e+00 0.000000e+00 0.000000e+00 0.000000e+00 0.000000e+00 0.000000e+00 0.000000e+00 0.000000e+00 0.000000e+00 0.000000e+00 0.000000e+00 0.000000e+00 0.000000e+00 0.000000e+00 0.000000e+00
 0.000000e+00 0.000000e+00 0.000000e+00 0.000000e+00 1.073257e-01 8.926743e-01 0.000000e+00 0.000000e+00 0.000000e+00 0.000000e+00 0.000000e+00 0.000000e+00 0.000000e+00 0.000000e+00 0.000000e+00 0.000000e+00 0.000000e+00 0.000000e+00 0.000000e+00 0.000000e+00
 0.000000e+00 0.000000e+00 0.000000e+00 0.000000e+00 0.000000e+00 9.138417e-03 9.908616e-01 0.000000e+00 0.000000e+00 0.000000e+00 0.000000e+00 0.000000e+00 0.000000e+00 0.000000e+00 0.000000e+00 0.000000e+00 0.000000e+00 0.000000e+00 0.000000e+00 0.000000e+00
 0.000000e+00 0.000000e+00 0.000000e+00 0.000000e+00 0.000000e+00 0.000000e+00 1.021657e-01 8.978343e-01 0.000000e+00 0.000000e+00 0.000000e+00 0.000000e+00 0.000000e+00 0.000000e+00 0.000000e+00 0.000000e+00 0.000000e+00 0.000000e+00 0.000000e+00 0.000000e+00
 0.000000e+00 0.000000e+00 0.000000e+00 0.000000e+00 0.000000e+00 0.000000e+00 0.000000e+00 8.715868e-03 9.912841e-01 0.000000e+00 0.000000e+00 0.000000e+00 0.000000e+00 0.000000e+00 0.000000e+00 0.000000e+00 0.000000e+00 0.000000e+00 0.000000e+00 0.000000e+00
 0.000000e+00 0.000000e+00 0.000000e+00 0.000000e+00 0.000000e+00 0.000000e+00 0.000000e+00 0.000000e+00 4.149289e-02 9.585071e-01 0.000000e+00 0.000000e+00 0.000000e+00 0.000000e+00 0.000000e+00 0.000000e+00 0.000000e+00 0.000000e+00 0.000000e+00 0.000000e+00
 0.000000e+00 0.000000e+00 0.000000e+00 0.000000e+00 0.000000e+00 0.000000e+00 0.000000e+00 0.000000e+00 0.000000e+00 4.951236e-02 9.504876e-01 0.000000e+00 0.000000e+00 0.000000e+00 0.000000e+00 0.000000e+00 0.000000e+00 0.000000e+00 0.000000e+00 0.000000e+00
 0.000000e+00 0.000000e+00 0.000000e+00 0.000000e+00 0.000000e+00 0.000000e+00 0.000000e+00 0.000000e+00 0.000000e+00 0.000000e+00 1.396590e-01 8.603410e-01 0.000000e+00 0.000000e+00 0.000000e+00 0.000000e+00 0.000000e+00 0.000000e+00 0.000000e+00 0.000000e+00
 0.000000e+00 0.000000e+00 0.000000e+00 0.000000e+00 0.000000e+00 0.000000e+00 0.000000e+00 0.000000e+00 0.000000e+00 0.000000e+00 0.000000e+00 1.459976e-01 8.540024e-01 0.000000e+00 0.000000e+00 0.000000e+00 0.000000e+00 0.000000e+00 0.000000e+00 0.000000e+00
 0.000000e+00 0.000000e+00 0.000000e+00 0.000000e+00 0.000000e+00 0.000000e+00 0.000000e+00 0.000000e+00 0.000000e+00 0.000000e+00 0.000000e+00 0.000000e+00 5.792113e-02 9.420789e-01 0.000000e+00 0.000000e+00 0.000000e+00 0.000000e+00 0.000000e+00 0.000000e+00
 0.000000e+00 0.000000e+00 0.000000e+00 0.000000e+00 0.000000e+00 0.000000e+00 0.000000e+00 0.000000e+00 0.000000e+00 0.000000e+00 0.000000e+00 0.000000e+00 0.000000e+00 7.924142e-02 9.207586e-01 0.000000e+00 0.000000e+00 0.000000e+00 0.000000e+00 0.000000e+00
 0.000000e+00 0.000000e+00 0.000000e+00 0.000000e+00 0.000000e+00 0.000000e+00 0.000000e+00 0.000000e+00 0.000000e+00 0.000000e+00 0.000000e+00 0.000000e+00 0.000000e+00 0.000000e+00 9.223729e-02 9.077627e-01 0.000000e+00 0.000000e+00 0.000000e+00 0.000000e+00
 0.000000e+00 0.000000e+00 0.000000e+00 0.000000e+00 0.000000e+00 0.000000e+00 0.000000e+00 0.000000e+00 0.000000e+00 0.000000e+00 0.000000e+00 0.000000e+00 0.000000e+00 0.000000e+00 0.000000e+00 2.963877e-02 9.703612e-01 0.000000e+00 0.000000e+00 0.000000e+00
 0.000000e+00 0.000000e+00 0.000000e+00 0.000000e+00 0.000000e+00 0.000000e+00 0.000000e+00 0.000000e+00 0.000000e+00 0.000000e+00 0.000000e+00 0.000000e+00 0.000000e+00 0.000000e+00 0.000000e+00 0.000000e+00 4.139509e-02 9.586049e-01 0.000000e+00 0.000000e+00
 0.000000e+00 0.000000e+00 0.000000e+00 0.000000e+00 0.000000e+00 0.000000e+00 0.000000e+00 0.000000e+00 0.000000e+00 0.000000e+00 0.000000e+00 0.000000e+00 0.000000e+00 0.000000e+00 0.000000e+00 0.000000e+00 0.000000e+00 9.507637e-09 1.000000e+00 0.000000e+00
 0.000000e+00 0.000000e+00 0.000000e+00 0.000000e+00 0.000000e+00 0.000000e+00 0.000000e+00 0.000000e+00 0.000000e+00 0.000000e+00 0.000000e+00 0.000000e+00 0.000000e+00 0.000000e+00 0.000000e+00 0.000000e+00 0.000000e+00 0.000000e+00 1.168064e-06 9.999989e-01
 0.000000e+00 0.000000e+00 0.000000e+00 0.000000e+00 0.000000e+00 0.000000e+00 0.000000e+00 0.000000e+00 0.000000e+00 0.000000e+00 0.000000e+00 0.000000e+00 0.000000e+00 0.000000e+00 0.000000e+00 0.000000e+00 0.000000e+00 0.000000e+00 0.000000e+00 0.000000e+00
<ENDHMM>
~h "orange"
<BEGINHMM>
<NUMSTATES> 20
<STATE> 2
<MEAN> 52
 5.200464e+01 1.805938e+02 1.057839e+02 8.477248e+02 1.877727e+01 3.146289e+02 9.804504e+00 2.732896e+02 9.243652e+00 2.154204e+02 8.755890e+00 2.368130e+02 -5.687708e+01 2.083830e+02 -1.231750e+02 1.102383e+03 -4.975441e+01 1.730671e+03 -4.690104e+01 2.106346e+03 -3.124407e+01 1.951530e+03 -2.688305e+01 1.835695e+03 5.905450e+01 -1.422891e+03 1.781794e-02 1.088993e-02 -5.114803e-02 1.412250e-01 4.815358e-02 3.149714e-04 6.820603e-02 -6.652048e-02 9.216674e-02 -9.409948e-02 8.822232e-02 -4.901638e-02 1.368887e-02 2.336495e-03 3.135496e-02 1.659358e-01 -1.005313e-02 4.174092e-01 -3.734925e-02 5.394186e-01 -1.090438e-02 5.033103e-01 -3.718238e-03 4.289607e-01 1.161265e-01 -1.070914e+00
<VARIANCE> 52
 8.258989e+01 4.386657e+03 1.215500e+03 8.985053e+04 7.994219e+02 1.683200e+05 8.519531e+02 2.356155e+05 5.035078e+02 1.669620e+05 4.108672e+02 1.551855e+05 3.332320e+02 4.586290e+03 2.583574e+03 1.236280e+05 1.841004e+03 7.559636e+05 2.942054e+03 1.253718e+06 1.929451e+03 1.276273e+06 1.309061e+03 1.055965e+06 6.591531e+03 1.335766e+06 2.025282e-02 3.830391e-02 2.814955e-01 1.645487e+00 8.144957e-01 1.245609e+00 2.221880e+00 3.458714e+00 1.860959e+00 3.218951e+00 1.449641e+00 1.846126e+00 1.191630e-02 1.786863e-02 3.850447e-02 1.474509e+00 8.802699e-02 2.581755e+00 2.535742e-01 4.204656e+00 1.739845e-01 3.620801e+00 1.057352e-01 2.700754e+00 2.634174e+00 1.968565e+01
<GCONST> 3.297946e+02
<STATE> 3
<MEAN> 52
 5.163900e+01 1.823419e+02 1.062570e+02 8.584995e+02 1.924005e+01 3.121348e+02 1.001706e+01 2.611475e+02 9.579681e+00 2.024622e+02 9.061142e+00 2.263403e+02 -5.748935e+01 2.101070e+02 -1.239064e+02 1.112816e+03 -5.047877e+01 1.742559e+03 -4.758382e+01 2.118208e+03 -3.185149e+01 1.960279e+03 -2.744398e+01 1.844778e+03 6.000153e+01 -1.413890e+03 -1.071862e-02 -5.187148e-03 -3.344190e-02 1.549729e-01 -1.529893e-02 1.200426e-01 -1.171887e-03 -2.785100e-01 2.140239e-02 -5.660965e-01 6.817535e-03 -4.365125e-01 -8.561993e-03 7.133534e-03 -1.019443e-02 8.442269e-02 -2.428555e-02 4.530523e-01 -3.633587e-02 7.510955e-01 -2.104985e-02 6.893528e-01 -1.507844e-02 5.664555e-01 3.326759e-02 -2.332956e+00
<VARIANCE> 52
 8.001218e+01 4.551545e+03 1.320717e+03 9.813280e+04 7.190820e+02 1.531842e+05 7.235469e+02 1.990950e+05 4.424297e+02 1.370360e+05 3.599531e+02 1.296850e+05 3.303796e+02 4.748721e+03 2.479958e+03 1.243241e+05 1.922646e+03 7.341359e+05 3.022742e+03 1.215000e+06 1.982123e+03 1.230405e+06 1.357061e+03 1.019756e+06 5.733438e+03 1.252486e+06 1.096908e-02 5.596535e-02 2.468026e-01 1.287155e+00 9.494114e-01 1.496659e+01 2.027104e+00 4.917144e+01 1.554513e+00 3.797157e+01 1.174529e+00 2.372262e+01 9.041668e-03 4.629670e-02 1.690449e-01 3.565643e-01 9.899776e-02 5.561435e+00 1.690856e-01 1.636936e+01 1.897763e-01 1.841557e+01 1.447688e-01 1.305159e+01 2.834593e+00 1.523844e+02
<GCONST> 3.461079e+02
<STATE> 4
<MEAN> 52
 5.155391e+01 1.834898e+02 1.040093e+02 8.631268e+02 1.912144e+01 2.943777e+02 9.776306e+00 2.382156e+02 9.785133e+00 1.818835e+02 9.182701e+00 2.069642e+02 -5.750127e+01 2.112654e+02 -1.231632e+02 1.118270e+03 -5.065479e+01 1.767896e+03 -4.743401e+01 2.155193e+03 -3.142655e+01 1.993757e+03 -2.707031e+01 1.874806e+03 6.161581e+01 -1.453340e+03 -1.667769e-02 4.584201e-03 -3.135172e-02 -1.301336e-01 8.118325e-02 -6.874676e-01 1.457374e-01 -1.241634e+00 1.573584e-01 -1.143118e+00 1.283990e-01 -9.281683e-01 -1.643228e-03 1.208646e-02 1.931313e-02 1.279276e-01 -3.440860e-02 5.627880e-01 -6.620055e-02 9.045331e-01 -3.714751e-02 8.339964e-01 -2.602442e-02 6.858045e-01 1.983600e-01 -3.348936e+00
<VARIANCE> 52
 7.681711e+01 4.759582e+03 1.209921e+03 1.041587e+05 6.411670e+02 1.287421e+05 6.511543e+02 1.596592e+05 4.072676e+02 1.081099e+05 3.250811e+02 1.045363e+05 3.265146e+02 4.789379e+03 2.387755e+03 1.216315e+05 1.737343e+03 7.260417e+05 2.740239e+03 1.203503e+06 1.775373e+03 1.217785e+06 1.212614e+03 1.007868e+06 5.472430e+03 1.229066e+06 2.082655e-02 1.731873e-02 1.727996e-01 9.196199e+00 7.089870e-01 3.404051e+01 1.712219e+00 9.618967e+01 1.057437e+00 7.513742e+01 7.544329e-01 5.023315e+01 1.247216e-02 1.107450e-02 8.182379e-02 4.253302e-01 5.850727e-02 4.359662e+00 1.538036e-01 1.026119e+01 8.178562e-02 9.178411e+00 5.321430e-02 6.241032e+00 1.428127e+00 2.192481e+02
<GCONST> 3.403655e+02
<STATE> 5
<MEAN> 52
 5.101497e+01 1.882092e+02 1.070876e+02 8.785189e+02 2.003827e+01 2.789220e+02 1.018827e+01 2.155872e+02 1.026986e+01 1.606018e+02 9.575058e+00 1.884505e+02 -5.828578e+01 2.149791e+02 -1.244504e+02 1.135765e+03 -4.798127e+01 1.793850e+03 -4.371857e+01 2.190535e+03 -2.868928e+01 2.012242e+03 -2.493220e+01 1.892481e+03 5.962842e+01 -1.447042e+03 -1.871010e-03 5.002759e-03 -2.433477e-02 -1.023926e-01 -2.363634e-02 -1.684123e+00 3.636360e-03 -2.383188e+00 2.204084e-02 -2.158711e+00 -5.706310e-03 -1.869429e+00 -2.107528e-03 -4.101276e-03 5.923057e-02 9.188008e-02 -1.238933e-01 3.008599e+00 -2.504243e-01 5.317309e+00 -1.819807e-01 5.240504e+00 -1.263418e-01 4.182920e+00 2.419462e-01 -1.279233e+01
<VARIANCE> 52
 7.552910e+01 4.785903e+03 1.281411e+03 1.118204e+05 5.754854e+02 1.013986e+05 5.762412e+02 1.211244e+05 3.880098e+02 8.043675e+04 3.004658e+02 7.959006e+04 3.111267e+02 4.619388e+03 2.211091e+03 1.119981e+05 1.623208e+03 6.397144e+05 2.518484e+03 1.065429e+06 1.571533e+03 1.073613e+06 1.074057e+03 8.875604e+05 5.648336e+03 1.099535e+06 2.823775e-02 3.940067e-02 1.777273e-01 2.345918e+00 1.664472e+00 2.885835e+01 3.221113e+00 6.647472e+01 2.188223e+00 5.583453e+01 1.724602e+00 3.940035e+01 1.919642e-02 4.092619e-02 1.449072e-01 5.329140e+00 3.686857e-01 1.059941e+02 1.164623e+00 3.418474e+02 7.170941e-01 3.106831e+02 4.262820e-01 1.979205e+02 3.908920e+00 1.321591e+03
<GCONST> 3.690084e+02
<STATE> 6
<MEAN> 52
 5.111644e+01 1.783358e+02 1.069366e+02 8.211698e+02 2.341192e+01 2.224415e+02 1.428977e+01 1.622197e+02 1.415008e+01 1.193418e+02 1.286799e+01 1.445669e+02 -5.709156e+01 2.092203e+02 -1.185607e+02 1.127419e+03 -5.589645e+01 1.892948e+03 -5.348758e+01 2.327222e+03 -3.607341e+01 2.165295e+03 -3.091387e+01 2.028755e+03 7.991299e+01 -1.720205e+03 4.275752e-03 -2.748467e-02 6.180316e-02 -1.140674e-01 1.751143e-01 -8.275259e-01 2.512424e-01 -1.463472e+00 2.091454e-01 -1.336787e+00 1.848244e-01 -1.115057e+00 2.506891e-03 3.826514e-03 1.709234e-02 6.958826e-02 -3.770503e-02 7.961245e-01 -6.734905e-02 1.206661e+00 -5.619059e-02 1.250602e+00 -3.632167e-02 1.036316e+00 2.814490e-01 -4.168826e+00
<VARIANCE> 52
 7.717655e+01 4.357707e+03 1.364837e+03 9.663149e+04 9.389912e+02 7.661280e+04 9.038271e+02 9.523784e+04 6.662491e+02 6.505928e+04 5.187965e+02 6.308390e+04 3.424257e+02 4.704668e+03 1.908727e+03 1.146312e+05 1.851401e+03 6.641145e+05 3.165224e+03 1.078820e+06 2.219961e+03 1.105097e+06 1.464542e+03 9.224074e+05 1.126913e+04 1.318678e+06 1.824690e-02 5.576058e-02 4.870523e-01 2.326687e+00 7.423428e-01 2.882020e+01 1.833218e+00 6.503782e+01 1.213577e+00 4.391021e+01 8.521200e-01 3.042437e+01 2.834907e-02 2.332254e-02 2.570841e-02 2.379493e-01 1.568124e-01 9.782486e+00 4.412532e-01 2.273289e+01 6.177839e-01 2.518107e+01 2.477771e-01 1.756344e+01 2.622520e+00 2.439411e+02
<GCONST> 3.499886e+02
<STATE> 7
<MEAN> 52
 5.125027e+01 1.771586e+02 1.094919e+02 8.197368e+02 2.169747e+01 2.475371e+02 1.199378e+01 1.952425e+02 1.102712e+01 1.505861e+02 1.045412e+01 1.746440e+02 -5.630595e+01 2.060172e+02 -1.234529e+02 1.092747e+03 -5.539888e+01 1.801657e+03 -5.107323e+01 2.212634e+03 -3.351294e+01 2.044201e+03 -2.971266e+01 1.919022e+03 6.966873e+01 -1.533536e+03 -2.858772e-02 -4.729056e-03 5.658216e-02 -1.724381e-01 -3.931602e-02 -1.244043e+00 -9.234983e-02 -1.880715e+00 -4.781270e-02 -1.520467e+00 -3.420508e-02 -1.242577e+00 -8.876511e-03 4.389399e-04 -3.435514e-02 6.876266e-02 1.969948e-03 7.068939e-01 4.009019e-02 1.233900e+00 7.853667e-02 1.157347e+00 2.778738e-02 9.449928e-01 -2.157768e-01 -4.559668e+00
<VARIANCE> 52
 8.470171e+01 4.547766e+03 1.473503e+03 9.395461e+04 8.096260e+02 8.264922e+04 7.487871e+02 1.194254e+05 4.213518e+02 8.949350e+04 3.593101e+02 8.319616e+04 3.298239e+02 4.833921e+03 2.128591e+03 1.238808e+05 1.707829e+03 6.693220e+05 2.527109e+03 1.085008e+06 1.501021e+03 1.094760e+06 1.109357e+03 9.102881e+05 6.770703e+03 1.154813e+06 3.605562e-02 3.638801e-02 5.068799e-01 1.811729e+00 6.808276e-01 4.279178e+01 1.471965e+00 8.950604e+01 1.165543e+00 5.772626e+01 8.195884e-01 4.306497e+01 1.060477e-02 1.528586e-02 1.116255e-01 3.834609e-01 8.841974e-01 1.525565e+01 2.833442e+00 4.566560e+01 2.856075e+00 5.470250e+01 1.566148e+00 3.682599e+01 3.365291e+00 4.711220e+02
<GCONST> 3.605226e+02
<STATE> 8
<MEAN> 52
 5.122238e+01 1.845126e+02 1.107925e+02 8.634603e+02 1.874465e+01 2.419729e+02 8.074242e+00 1.753554e+02 8.484535e+00 1.284972e+02 8.177570e+00 1.563864e+02 -5.760884e+01 2.122720e+02 -1.230144e+02 1.139048e+03 -4.845096e+01 1.820105e+03 -4.223378e+01 2.222056e+03 -2.737148e+01 2.033842e+03 -2.445796e+01 1.913074e+03 5.686535e+01 -1.503903e+03 -7.327460e-05 -4.427627e-03 1.216457e-01 -9.890556e-02 -9.847069e-02 -1.241639e+00 -2.484152e-01 -1.242615e+00 -2.334077e-01 -1.116488e+00 -1.723261e-01 -1.028790e+00 3.300244e-03 -7.417541e-03 3.645546e-02 2.300757e-02 1.394868e-01 -6.743016e-01 2.499604e-01 -8.287354e-01 1.615827e-01 -1.961172e+00 1.259377e-01 -1.810247e+00 -4.984503e-01 -2.655384e+00
<VARIANCE> 52
 8.463441e+01 4.277061e+03 1.469928e+03 9.034473e+04 4.519863e+02 7.453941e+04 3.593987e+02 9.312824e+04 2.560798e+02 6.460293e+04 2.118857e+02 6.216118e+04 2.982345e+02 4.331444e+03 2.269433e+03 1.047883e+05 1.250430e+03 5.915808e+05 1.702485e+03 9.794239e+05 9.923187e+02 9.879944e+05 7.169570e+02 8.197241e+05 5.089326e+03 1.047499e+06 1.433778e-02 2.249264e-02 4.538960e-01 2.508148e+00 1.317540e+00 5.072374e+01 1.702327e+00 1.220468e+02 1.336682e+00 9.869882e+01 1.022761e+00 6.930762e+01 8.253780e-03 1.734883e-02 2.936086e-01 1.882201e+00 2.579124e+00 2.444518e+02 6.815497e+00 6.806443e+02 5.506200e+00 8.884721e+02 3.224096e+00 6.344292e+02 1.068917e+01 2.430707e+03
<GCONST> 3.755546e+02
<STATE> 9
<MEAN> 52
 5.168236e+01 1.785860e+02 1.106911e+02 8.261261e+02 1.784076e+01 2.225002e+02 7.400417e+00 1.659650e+02 7.931876e+00 1.250841e+02 7.626353e+00 1.489956e+02 -5.614801e+01 2.085588e+02 -1.199402e+02 1.124518e+03 -4.931963e+01 1.810196e+03 -4.338977e+01 2.215562e+03 -2.788986e+01 2.040030e+03 -2.475413e+01 1.915393e+03 5.879281e+01 -1.560051e+03 1.001532e-02 -7.628646e-03 4.442863e-02 -1.198322e-01 -1.303949e-01 -5.912598e-01 -2.202784e-01 -5.492287e-01 -1.934131e-01 -2.292961e-01 -1.581906e-01 -2.705870e-01 5.933921e-03 3.558239e-03 1.356052e-02 6.375200e-02 2.475280e-02 5.643368e-02 -6.017804e-03 -1.770632e-01 -4.024506e-03 5.053878e-02 1.896876e-02 5.690503e-02 -4.135590e-01 -1.946511e+00
<VARIANCE> 52
 9.909811e+01 4.189432e+03 1.665265e+03 7.360060e+04 4.649736e+02 7.182241e+04 3.713023e+02 1.016480e+05 2.724548e+02 7.326581e+04 2.240599e+02 6.904573e+04 3.148508e+02 4.593297e+03 2.185477e+03 1.135529e+05 1.159122e+03 6.669660e+05 1.593768e+03 1.103324e+06 9.364248e+02 1.107189e+06 6.645326e+02 9.213858e+05 5.735331e+03 1.139162e+06 2.309287e-02 3.536861e-02 4.046296e-01 4.008415e+00 2.056595e+00 5.287043e+01 4.431827e+00 1.154766e+02 2.994428e+00 8.916502e+01 2.171051e+00 6.894793e+01 1.185456e-02 4.076554e-02 1.079255e-01 2.039328e+00 2.917406e-01 4.116015e+01 7.987883e-01 9.769538e+01 5.580243e-01 1.042784e+02 3.637540e-01 7.650803e+01 1.145910e+01 7.611462e+02
<GCONST> 3.631777e+02
<STATE> 10
<MEAN> 52
 5.179496e+01 1.795452e+02 1.099340e+02 8.329669e+02 1.876638e+01 2.136235e+02 8.324327e+00 1.561918e+02 8.887835e+00 1.163259e+02 8.491879e+00 1.403031e+02 -5.661162e+01 2.102111e+02 -1.185991e+02 1.135374e+03 -5.137686e+01 1.866921e+03 -4.587928e+01 2.294324e+03 -2.940960e+01 2.118702e+03 -2.600666e+01 1.985709e+03 6.379460e+01 -1.631329e+03 8.373444e-03 -2.447770e-02 3.500809e-02 -1.040210e-01 7.029784e-02 2.844093e-01 1.580851e-01 7.125695e-01 1.371603e-01 7.696167e-01 1.126311e-01 6.158543e-01 6.340511e-03 -1.534697e-03 2.276446e-02 -7.592104e-02 -1.031304e-01 2.093433e-01 -1.672291e-01 3.155360e-01 -1.358734e-01 4.819404e-01 -8.953419e-02 4.168052e-01 3.875481e-01 1.577912e-01
<VARIANCE> 52
 1.082952e+02 4.121955e+03 1.879054e+03 7.522184e+04 5.448447e+02 6.692862e+04 4.208678e+02 9.530700e+04 2.953230e+02 6.812575e+04 2.480898e+02 6.452238e+04 2.997404e+02 4.581959e+03 2.135246e+03 1.126947e+05 1.133062e+03 6.365705e+05 1.549630e+03 1.048652e+06 9.215771e+02 1.051595e+06 6.500388e+02 8.765358e+05 5.854690e+03 1.120443e+06 1.869076e-02 6.939118e-02 6.105115e-01 9.058946e+00 1.293293e+00 2.508828e+01 3.330652e+00 6.484227e+01 1.903448e+00 5.538157e+01 1.302017e+00 3.931787e+01 1.163157e-02 2.489220e-02 6.405752e-02 1.391349e+00 4.302005e-01 1.645678e+01 8.769776e-01 3.672538e+01 9.230369e-01 4.678717e+01 4.609284e-01 3.362828e+01 6.507368e+00 3.918304e+02
<GCONST> 3.558893e+02
<STATE> 11
<MEAN> 52
 5.158429e+01 1.706269e+02 1.086262e+02 8.217355e+02 1.854571e+01 2.495189e+02 8.503466e+00 2.042230e+02 8.928749e+00 1.588638e+02 8.568125e+00 1.805122e+02 -5.473488e+01 1.996503e+02 -1.188253e+02 1.086183e+03 -4.807470e+01 1.708954e+03 -4.198205e+01 2.086631e+03 -2.707462e+01 1.924528e+03 -2.405506e+01 1.808057e+03 6.072282e+01 -1.454877e+03 1.097604e-02 -1.147631e-02 -7.421217e-03 -5.171012e-03 2.132875e-01 6.909423e-01 3.533638e-01 1.333072e+00 3.027396e-01 1.230219e+00 2.511205e-01 9.409144e-01 7.714461e-03 -2.383024e-02 3.331706e-02 -1.629100e-01 -1.222892e-02 -1.668406e-02 -3.060723e-02 -4.877564e-02 -2.889078e-02 1.776142e-01 -2.102890e-02 1.734961e-01 3.879259e-01 1.365449e+00
<VARIANCE> 52
 1.211445e+02 4.368442e+03 1.876094e+03 7.352191e+04 5.864581e+02 9.183833e+04 4.414527e+02 1.415137e+05 3.124353e+02 1.072721e+05 2.664314e+02 9.966030e+04 2.969895e+02 5.170574e+03 2.450984e+03 1.366159e+05 1.119295e+03 8.173380e+05 1.491230e+03 1.351728e+06 8.453314e+02 1.310093e+06 6.040387e+02 1.095698e+06 5.878790e+03 1.365256e+06 3.171741e-02 2.463745e-02 2.306512e-01 4.356893e+00 1.266371e+00 2.521736e+01 3.018017e+00 6.968597e+01 2.353253e+00 5.369227e+01 1.647166e+00 3.589545e+01 1.877581e-02 2.578726e-02 1.081870e-01 1.134575e+00 1.133799e-01 6.699027e+00 3.426349e-01 1.605947e+01 2.294703e-01 1.777269e+01 1.235717e-01 1.231771e+01 3.210491e+00 2.301359e+02
<GCONST> 3.482511e+02
<STATE> 12
<MEAN> 52
 5.208150e+01 1.924697e+02 1.172964e+02 8.669628e+02 3.171848e+01 3.521807e+02 2.180791e+01 3.295129e+02 1.936744e+01 2.666476e+02 1.799312e+01 2.825728e+02 -5.890488e+01 2.191212e+02 -1.257274e+02 1.129535e+03 -5.916864e+01 1.870017e+03 -5.315705e+01 2.299355e+03 -3.515715e+01 2.123501e+03 -3.157685e+01 1.991641e+03 9.697627e+01 -1.496873e+03 -1.915003e-02 -3.417339e-04 -4.546497e-02 3.147176e-02 3.160305e-01 2.693092e+00 6.071492e-01 4.399724e+00 4.248997e-01 3.895528e+00 3.530513e-01 3.237697e+00 -1.651897e-02 -1.778904e-02 2.418533e-02 -4.004951e-01 -1.172418e-01 3.092527e-03 -2.517017e-01 9.188986e-02 -2.031134e-01 4.791169e-01 -1.362123e-01 3.951931e-01 8.138841e-01 3.629801e+00
<VARIANCE> 52
 1.245702e+02 4.752603e+03 2.449948e+03 9.929751e+04 1.701054e+03 1.885921e+05 1.768180e+03 2.975183e+05 1.094734e+03 2.268246e+05 8.942964e+02 2.031798e+05 2.928731e+02 5.125471e+03 2.552659e+03 1.304367e+05 1.537880e+03 6.859034e+05 1.827938e+03 1.124899e+06 1.054703e+03 1.108517e+06 8.340704e+02 9.220092e+05 1.235867e+04 1.353666e+06 3.575993e-02 6.330482e-02 2.855565e-01 7.925568e+00 1.815290e+00 1.322387e+02 5.706982e+00 3.190969e+02 3.912119e+00 2.296616e+02 2.750816e+00 1.610409e+02 2.220115e-02 7.837259e-02 2.019697e-01 4.287803e+00 4.475487e-01 3.314857e+01 1.325266e+00 8.436795e+01 8.540285e-01 7.714803e+01 4.892498e-01 5.284399e+01 8.523426e+00 7.164360e+02
<GCONST> 3.848146e+02
<STATE> 13
<MEAN> 52
 5.023772e+01 1.819264e+02 1.011227e+02 8.700192e+02 2.340517e+01 2.178013e+02 1.375415e+01 1.573925e+02 1.497826e+01 1.168258e+02 1.357433e+01 1.399423e+02 -5.803934e+01 2.146816e+02 -1.127787e+02 1.168253e+03 -5.578168e+01 2.034785e+03 -5.127903e+01 2.511132e+03 -3.342385e+01 2.348877e+03 -2.902347e+01 2.191649e+03 8.439311e+01 -1.866555e+03 -3.719191e-03 1.361580e-02 -2.003564e-02 4.002489e-01 3.382144e-02 8.856987e-01 3.143709e-02 1.277732e+00 5.229794e-02 9.936647e-01 4.256382e-02 8.812451e-01 3.229674e-03 2.813710e-03 -7.841585e-03 -2.461539e-02 2.200299e-02 -4.044930e-02 5.839010e-02 -9.980103e-02 3.740127e-02 -1.247199e-01 2.774093e-02 -9.098430e-02 4.433298e-02 1.436695e+00
<VARIANCE> 52
 1.160317e+02 4.133919e+03 1.770414e+03 9.195637e+04 8.634379e+02 7.657063e+04 8.150596e+02 1.114491e+05 6.220275e+02 8.246088e+04 5.123412e+02 7.607795e+04 3.467441e+02 5.090008e+03 1.608253e+03 1.282881e+05 9.483291e+02 6.449537e+05 1.272327e+03 1.016378e+06 7.438145e+02 1.022628e+06 5.346685e+02 8.553115e+05 6.763656e+03 1.188493e+06 2.555581e-02 6.384154e-02 1.938512e-01 3.192678e+00 2.143800e-01 6.491428e+00 5.781702e-01 1.477133e+01 4.412604e-01 1.089752e+01 3.176144e-01 7.930272e+00 1.692697e-02 4.056451e-02 4.418809e-02 1.791534e-01 9.656585e-02 7.470707e-01 3.688910e-01 1.890636e+00 2.262006e-01 3.062870e+00 1.399346e-01 2.138080e+00 8.576724e-01 2.937472e+01
<GCONST> 3.216725e+02
<STATE> 14
<MEAN> 52
 5.080919e+01 1.807309e+02 1.125103e+02 8.782772e+02 2.551037e+01 3.279852e+02 1.498711e+01 2.876067e+02 1.440369e+01 2.228448e+02 1.343747e+01 2.456510e+02 -5.658998e+01 2.055909e+02 -1.229850e+02 1.093906e+03 -5.370440e+01 1.775790e+03 -4.706898e+01 2.174455e+03 -3.078606e+01 2.000946e+03 -2.766958e+01 1.878716e+03 7.924957e+01 -1.371788e+03 -4.934011e-03 4.196050e-02 1.215302e-01 2.801110e-01 7.073788e-02 3.173205e+00 6.405544e-02 5.457252e+00 -1.513489e-02 4.489067e+00 3.193626e-03 3.726420e+00 -1.344479e-02 1.475087e-02 -2.791151e-02 3.956470e-02 1.004259e-01 -1.325147e+00 2.162901e-01 -2.268603e+00 1.556283e-01 -2.903856e+00 1.030721e-01 -2.429932e+00 -1.400961e-01 1.019161e+01
<VARIANCE> 52
 1.111400e+02 4.296479e+03 1.822847e+03 1.066082e+05 8.980524e+02 1.172004e+05 8.946220e+02 1.746617e+05 6.033029e+02 1.295250e+05 4.981833e+02 1.183805e+05 3.052512e+02 5.073668e+03 2.334000e+03 1.482455e+05 1.149598e+03 7.413262e+05 1.549115e+03 1.205682e+06 8.924394e+02 1.181640e+06 6.481158e+02 9.862702e+05 7.668083e+03 1.245811e+06 4.619357e-02 2.931881e-02 4.345508e-01 2.675140e+00 4.854794e-01 6.736685e+01 1.222504e+00 2.029763e+02 7.609172e-01 1.504442e+02 5.448309e-01 1.011597e+02 1.633969e-02 4.869099e-02 6.777209e-02 1.721209e+00 6.348370e-01 4.902818e+01 2.557666e+00 1.147152e+02 1.824475e+00 1.532740e+02 9.239303e-01 1.105548e+02 4.852602e+00 7.050757e+02
<GCONST> 3.705248e+02
<STATE> 15
<MEAN> 52
 5.220629e+01 1.973953e+02 1.137141e+02 9.748218e+02 2.839502e+01 4.672729e+02 1.691776e+01 4.461364e+02 1.576966e+01 3.434989e+02 1.467752e+01 3.631251e+02 -5.960268e+01 2.236947e+02 -1.191080e+02 1.164206e+03 -5.712511e+01 1.870188e+03 -5.120514e+01 2.284797e+03 -3.485493e+01 2.104015e+03 -3.065301e+01 1.972383e+03 9.029688e+01 -1.217319e+03 -5.796040e-03 5.706046e-02 8.318084e-02 3.040857e-01 3.957528e-01 5.839458e+00 5.370057e-01 1.003916e+01 2.949744e-01 8.844464e+00 2.941031e-01 7.338386e+00 -2.341408e-02 4.754654e-02 -1.231478e-02 4.882169e-02 -6.567751e-02 -8.930643e-01 -8.604287e-02 -1.713442e+00 -1.372157e-01 -2.011024e+00 -1.132457e-01 -1.680514e+00 7.977704e-01 1.415816e+01
<VARIANCE> 52
 1.240868e+02 5.137650e+03 1.849440e+03 1.491866e+05 8.416619e+02 2.219016e+05 7.920959e+02 3.221734e+05 4.824813e+02 2.231316e+05 4.011369e+02 2.015090e+05 3.064590e+02 6.249397e+03 1.753594e+03 1.532992e+05 1.171979e+03 7.173336e+05 1.597268e+03 1.160908e+06 9.709916e+02 1.139612e+06 6.908805e+02 9.467636e+05 7.453889e+03 1.224651e+06 1.741640e-02 3.342590e-02 5.946349e-01 3.974283e+00 2.751096e+00 1.541750e+02 6.874255e+00 4.848253e+02 5.089205e+00 3.833372e+02 3.639697e+00 2.464157e+02 1.363162e-02 3.916561e-02 6.720553e-02 1.594202e+00 2.842664e-01 2.431443e+01 8.285385e-01 7.772903e+01 6.964557e-01 8.701762e+01 4.298560e-01 6.200687e+01 1.189705e+01 1.089783e+03
<GCONST> 3.784338e+02
<STATE> 16
<MEAN> 52
 5.085595e+01 1.877249e+02 1.162627e+02 8.986124e+02 3.957888e+01 4.864966e+02 3.119479e+01 4.897948e+02 2.614041e+01 3.966497e+02 2.397807e+01 4.107311e+02 -5.795415e+01 2.122551e+02 -1.225903e+02 1.098539e+03 -6.537358e+01 1.758328e+03 -6.202559e+01 2.143702e+03 -4.362002e+01 1.975552e+03 -3.849039e+01 1.856985e+03 1.286959e+02 -1.133463e+03 -4.232381e-03 2.542155e-02 -7.030819e-02 -1.106887e-01 1.518952e+00 5.975442e+00 3.057877e+00 1.032821e+01 2.552289e+00 1.124985e+01 2.038434e+00 9.212179e+00 -1.176679e-02 3.651072e-02 4.434650e-02 -5.388822e-02 -2.339954e-01 -2.895355e-01 -5.141397e-01 -9.876823e-01 -5.143994e-01 -9.376974e-01 -4.160397e-01 -6.894817e-01 4.353164e+00 1.355561e+01
<VARIANCE> 52
 1.097715e+02 4.762691e+03 2.152155e+03 1.340010e+05 2.233172e+03 2.435714e+05 2.739039e+03 3.726936e+05 1.628422e+03 2.778526e+05 1.306552e+03 2.498240e+05 3.078400e+02 6.015895e+03 2.039916e+03 1.634097e+05 1.936129e+03 7.362328e+05 2.890163e+03 1.210415e+06 1.826390e+03 1.195810e+06 1.317708e+03 9.909590e+05 2.230334e+04 1.393827e+06 1.026906e-02 7.676146e-02 3.518515e-01 2.953470e+00 7.641909e+01 2.233183e+02 2.351535e+02 6.778580e+02 2.696287e+02 7.356203e+02 1.772343e+02 4.918961e+02 1.318036e-02 5.365605e-02 4.730392e-01 1.615414e+00 7.446056e+00 6.320279e+01 1.625991e+01 2.292746e+02 8.431842e+00 2.288881e+02 5.482163e+00 1.502206e+02 3.584075e+02 3.129275e+03
<GCONST> 4.256266e+02
<STATE> 17
<MEAN> 52
 5.178593e+01 1.763410e+02 1.238712e+02 8.218489e+02 7.927491e+01 6.085446e+02 8.074251e+01 6.688081e+02 6.658809e+01 5.911734e+02 5.932378e+01 5.934040e+02 -5.530997e+01 1.986251e+02 -1.262842e+02 9.892260e+02 -8.416862e+01 1.638845e+03 -8.689793e+01 2.008306e+03 -6.255916e+01 1.863038e+03 -5.497178e+01 1.756440e+03 2.463697e+02 -9.063362e+02 -3.605301e-03 1.444153e-02 -2.528456e-02 2.595884e-02 5.139086e-01 1.683045e+00 9.077924e-01 2.748779e+00 9.591188e-01 3.121665e+00 8.061429e-01 2.640600e+00 -5.194184e-03 -8.271426e-03 -3.139898e-02 -3.285139e-01 -3.813131e-02 -1.396126e+00 -6.432389e-02 -2.266561e+00 -7.022768e-02 -2.406254e+00 -7.246529e-02 -2.026968e+00 1.334609e+00 6.263974e+00
<VARIANCE> 52
 1.339862e+02 5.342226e+03 2.748959e+03 1.511319e+05 7.589642e+03 2.895000e+05 1.110226e+04 4.781312e+05 7.170379e+03 4.110636e+05 5.522848e+03 3.673112e+05 3.056025e+02 6.698817e+03 2.111986e+03 2.114854e+05 3.739412e+03 6.877842e+05 6.051651e+03 1.099475e+06 3.693194e+03 1.053533e+06 2.741236e+03 8.748206e+05 7.299777e+04 1.260415e+06 1.580378e-02 3.257506e-02 1.203096e-01 1.437006e+00 5.971441e+00 4.220424e+01 2.275203e+01 1.300810e+02 3.426206e+01 1.600238e+02 2.234614e+01 1.068907e+02 1.288784e-02 2.726907e-02 1.158642e-01 1.988605e+00 3.026243e-01 2.606715e+01 1.130354e+00 7.815388e+01 9.707502e-01 1.017968e+02 5.511812e-01 7.356844e+01 5.179252e+01 3.682499e+02
<GCONST> 3.995544e+02
<STATE> 18
<MEAN> 52
 5.060837e+01 1.911893e+02 1.092983e+02 9.181309e+02 4.835747e+01 5.327136e+02 4.441745e+01 5.452610e+02 3.821524e+01 4.592527e+02 3.363016e+01 4.688425e+02 -5.935389e+01 2.148954e+02 -1.218077e+02 1.111894e+03 -6.830514e+01 1.757451e+03 -6.622066e+01 2.138942e+03 -4.733970e+01 1.976376e+03 -4.176578e+01 1.857887e+03 1.601713e+02 -1.121551e+03 -1.788904e-04 6.035167e-03 -2.601172e-02 1.191602e-01 1.268846e-01 1.338988e+00 2.793642e-01 2.210911e+00 2.103979e-01 2.106097e+00 1.631244e-01 1.713001e+00 -1.108185e-04 1.424483e-03 1.577235e-03 -4.957855e-02 -4.733928e-02 -7.303948e-01 -7.182216e-02 -1.258221e+00 -8.350363e-02 -1.189991e+00 -6.292306e-02 -1.010483e+00 4.132417e-01 4.085108e+00
<VARIANCE> 52
 1.398195e+02 5.378468e+03 2.026219e+03 1.356290e+05 4.215570e+03 3.223865e+05 6.055961e+03 5.023000e+05 4.088891e+03 4.067785e+05 3.007281e+03 3.640395e+05 3.030225e+02 6.694073e+03 2.000286e+03 1.791119e+05 2.987532e+03 7.841949e+05 4.613137e+03 1.290734e+06 3.029247e+03 1.257183e+06 2.271643e+03 1.042970e+06 4.961681e+04 1.313595e+06 1.590469e-02 1.630461e-02 2.510940e-01 3.904222e+00 6.013699e-01 1.609587e+01 1.434116e+00 4.029688e+01 1.075210e+00 4.239988e+01 7.071182e-01 2.897335e+01 7.497671e-03 1.927140e-02 3.320293e-02 5.562634e-01 1.637040e-01 1.274937e+01 2.572119e-01 3.980308e+01 2.571780e-01 3.922117e+01 1.860442e-01 2.742608e+01 2.350415e+00 1.340060e+02
<GCONST> 3.651019e+02
<STATE> 19
<MEAN> 52
 5.082162e+01 1.936236e+02 1.071713e+02 9.390900e+02 4.629456e+01 5.336620e+02 4.163522e+01 5.391475e+02 3.651959e+01 4.487051e+02 3.206181e+01 4.602515e+02 -5.966793e+01 2.164312e+02 -1.208903e+02 1.121262e+03 -6.603218e+01 1.755667e+03 -6.318774e+01 2.135485e+03 -4.486034e+01 1.970853e+03 -3.952258e+01 1.852538e+03 1.513644e+02 -1.116791e+03 6.104556e-03 2.415371e-02 -3.459974e-02 2.650506e-01 8.013591e-02 4.650621e-01 1.430689e-01 5.818679e-01 1.513377e-01 4.970484e-01 1.043214e-01 4.417250e-01 2.824348e-03 6.464666e-04 3.423984e-05 -6.606901e-02 -3.044261e-02 -3.907735e-01 -4.797704e-02 -7.321525e-01 -3.371444e-02 -7.032925e-01 -2.731639e-02 -5.480701e-01 2.459915e-01 1.708239e+00
<VARIANCE> 52
 1.440689e+02 5.474828e+03 1.900631e+03 1.344117e+05 3.598332e+03 3.267350e+05 4.992938e+03 5.011370e+05 3.513555e+03 3.981145e+05 2.587320e+03 3.577905e+05 3.011578e+02 6.819033e+03 1.984378e+03 1.776238e+05 2.493737e+03 8.120909e+05 3.602005e+03 1.338001e+06 2.394862e+03 1.298512e+06 1.786018e+03 1.077004e+06 3.862247e+04 1.296771e+06 1.008009e-02 2.715839e-02 6.214697e-02 8.411171e-01 2.904339e-01 1.808815e+00 6.041292e-01 3.607629e+00 5.750600e-01 3.137736e+00 4.106288e-01 2.114705e+00 5.301801e-03 1.265955e-02 8.845102e-02 9.428231e-01 9.573599e-02 9.852254e+00 2.485909e-01 4.372379e+01 1.867413e-01 4.653115e+01 1.166050e-01 3.051030e+01 1.067574e+00 1.406496e+02
<GCONST> 3.466565e+02
<TRANSP> 20
 0.000000e+00 1.000000e+00 0.000000e+00 0.000000e+00 0.000000e+00 0.000000e+00 0.000000e+00 0.000000e+00 0.000000e+00 0.000000e+00 0.000000e+00 0.000000e+00 0.000000e+00 0.000000e+00 0.000000e+00 0.000000e+00 0.000000e+00 0.000000e+00 0.000000e+00 0.000000e+00
 0.000000e+00 6.721562e-20 1.000000e+00 0.000000e+00 0.000000e+00 0.000000e+00 0.000000e+00 0.000000e+00 0.000000e+00 0.000000e+00 0.000000e+00 0.000000e+00 0.000000e+00 0.000000e+00 0.000000e+00 0.000000e+00 0.000000e+00 0.000000e+00 0.000000e+00 0.000000e+00
 0.000000e+00 0.000000e+00 2.080055e-02 9.791995e-01 0.000000e+00 0.000000e+00 0.000000e+00 0.000000e+00 0.000000e+00 0.000000e+00 0.000000e+00 0.000000e+00 0.000000e+00 0.000000e+00 0.000000e+00 0.000000e+00 0.000000e+00 0.000000e+00 0.000000e+00 0.000000e+00
 0.000000e+00 0.000000e+00 0.000000e+00 1.994260e-02 9.800574e-01 0.000000e+00 0.000000e+00 0.000000e+00 0.000000e+00 0.000000e+00 0.000000e+00 0.000000e+00 0.000000e+00 0.000000e+00 0.000000e+00 0.000000e+00 0.000000e+00 0.000000e+00 0.000000e+00 0.000000e+00
 0.000000e+00 0.000000e+00 0.000000e+00 0.000000e+00 1.398247e-01 8.601753e-01 0.000000e+00 0.000000e+00 0.000000e+00 0.000000e+00 0.000000e+00 0.000000e+00 0.000000e+00 0.000000e+00 0.000000e+00 0.000000e+00 0.000000e+00 0.000000e+00 0.000000e+00 0.000000e+00
 0.000000e+00 0.000000e+00 0.000000e+00 0.000000e+00 0.000000e+00 1.325503e-01 8.674497e-01 0.000000e+00 0.000000e+00 0.000000e+00 0.000000e+00 0.000000e+00 0.000000e+00 0.000000e+00 0.000000e+00 0.000000e+00 0.000000e+00 0.000000e+00 0.000000e+00 0.000000e+00
 0.000000e+00 0.000000e+00 0.000000e+00 0.000000e+00 0.000000e+00 0.000000e+00 6.983919e-02 9.301608e-01 0.000000e+00 0.000000e+00 0.000000e+00 0.000000e+00 0.000000e+00 0.000000e+00 0.000000e+00 0.000000e+00 0.000000e+00 0.000000e+00 0.000000e+00 0.000000e+00
 0.000000e+00 0.000000e+00 0.000000e+00 0.000000e+00 0.000000e+00 0.000000e+00 0.000000e+00 1.315895e-01 8.684106e-01 0.000000e+00 0.000000e+00 0.000000e+00 0.000000e+00 0.000000e+00 0.000000e+00 0.000000e+00 0.000000e+00 0.000000e+00 0.000000e+00 0.000000e+00
 0.000000e+00 0.000000e+00 0.000000e+00 0.000000e+00 0.000000e+00 0.000000e+00 0.000000e+00 0.000000e+00 4.102007e-02 9.589800e-01 0.000000e+00 0.000000e+00 0.000000e+00 0.000000e+00 0.000000e+00 0.000000e+00 0.000000e+00 0.000000e+00 0.000000e+00 0.000000e+00
 0.000000e+00 0.000000e+00 0.000000e+00 0.000000e+00 0.000000e+00 0.000000e+00 0.000000e+00 0.000000e+00 0.000000e+00 7.981942e-17 1.000000e+00 0.000000e+00 0.000000e+00 0.000000e+00 0.000000e+00 0.000000e+00 0.000000e+00 0.000000e+00 0.000000e+00 0.000000e+00
 0.000000e+00 0.000000e+00 0.000000e+00 0.000000e+00 0.000000e+00 0.000000e+00 0.000000e+00 0.000000e+00 0.000000e+00 0.000000e+00 1.042927e-01 8.957074e-01 0.000000e+00 0.000000e+00 0.000000e+00 0.000000e+00 0.000000e+00 0.000000e+00 0.000000e+00 0.000000e+00
 0.000000e+00 0.000000e+00 0.000000e+00 0.000000e+00 0.000000e+00 0.000000e+00 0.000000e+00 0.000000e+00 0.000000e+00 0.000000e+00 0.000000e+00 2.164101e-01 7.835899e-01 0.000000e+00 0.000000e+00 0.000000e+00 0.000000e+00 0.000000e+00 0.000000e+00 0.000000e+00
 0.000000e+00 0.000000e+00 0.000000e+00 0.000000e+00 0.000000e+00 0.000000e+00 0.000000e+00 0.000000e+00 0.000000e+00 0.000000e+00 0.000000e+00 0.000000e+00 3.921095e-01 6.078905e-01 0.000000e+00 0.000000e+00 0.000000e+00 0.000000e+00 0.000000e+00 0.000000e+00
 0.000000e+00 0.000000e+00 0.000000e+00 0.000000e+00 0.000000e+00 0.000000e+00 0.000000e+00 0.000000e+00 0.000000e+00 0.000000e+00 0.000000e+00 0.000000e+00 0.000000e+00 1.046084e-01 8.953916e-01 0.000000e+00 0.000000e+00 0.000000e+00 0.000000e+00 0.000000e+00
 0.000000e+00 0.000000e+00 0.000000e+00 0.000000e+00 0.000000e+00 0.000000e+00 0.000000e+00 0.000000e+00 0.000000e+00 0.000000e+00 0.000000e+00 0.000000e+00 0.000000e+00 0.000000e+00 1.593394e-01 8.406607e-01 0.000000e+00 0.000000e+00 0.000000e+00 0.000000e+00
 0.000000e+00 0.000000e+00 0.000000e+00 0.000000e+00 0.000000e+00 0.000000e+00 0.000000e+00 0.000000e+00 0.000000e+00 0.000000e+00 0.000000e+00 0.000000e+00 0.000000e+00 0.000000e+00 0.000000e+00 1.613545e-01 8.386456e-01 0.000000e+00 0.000000e+00 0.000000e+00
 0.000000e+00 0.000000e+00 0.000000e+00 0.000000e+00 0.000000e+00 0.000000e+00 0.000000e+00 0.000000e+00 0.000000e+00 0.000000e+00 0.000000e+00 0.000000e+00 0.000000e+00 0.000000e+00 0.000000e+00 0.000000e+00 2.422523e-01 7.577477e-01 0.000000e+00 0.000000e+00
 0.000000e+00 0.000000e+00 0.000000e+00 0.000000e+00 0.000000e+00 0.000000e+00 0.000000e+00 0.000000e+00 0.000000e+00 0.000000e+00 0.000000e+00 0.000000e+00 0.000000e+00 0.000000e+00 0.000000e+00 0.000000e+00 0.000000e+00 1.578780e-02 9.842122e-01 0.000000e+00
 0.000000e+00 0.000000e+00 0.000000e+00 0.000000e+00 0.000000e+00 0.000000e+00 0.000000e+00 0.000000e+00 0.000000e+00 0.000000e+00 0.000000e+00 0.000000e+00 0.000000e+00 0.000000e+00 0.000000e+00 0.000000e+00 0.000000e+00 0.000000e+00 2.126199e-06 9.999979e-01
 0.000000e+00 0.000000e+00 0.000000e+00 0.000000e+00 0.000000e+00 0.000000e+00 0.000000e+00 0.000000e+00 0.000000e+00 0.000000e+00 0.000000e+00 0.000000e+00 0.000000e+00 0.000000e+00 0.000000e+00 0.000000e+00 0.000000e+00 0.000000e+00 0.000000e+00 0.000000e+00
<ENDHMM>
~h "blue"
<BEGINHMM>
<NUMSTATES> 20
<STATE> 2
<MEAN> 52
 5.474421e+01 2.121166e+02 1.404493e+02 1.075026e+03 7.616829e+01 7.251785e+02 6.897664e+01 7.418704e+02 6.595235e+01 6.225173e+02 5.824318e+01 6.273242e+02 -5.825354e+01 2.254848e+02 -1.325838e+02 1.153040e+03 -3.791045e+01 1.474378e+03 -3.115638e+01 1.727576e+03 -2.115999e+01 1.536618e+03 -1.902749e+01 1.472587e+03 1.537740e+02 -8.425610e+02 5.411838e-03 -8.223832e-03 6.423274e-02 -2.244696e-01 7.925767e-02 -2.482719e-01 1.147890e-01 -4.582526e-01 5.927360e-02 -4.410393e-01 5.607024e-02 -3.599833e-01 -1.395414e-03 1.968645e-03 1.031617e-02 1.448444e-01 -3.576405e-02 3.659991e-01 -6.386108e-02 5.640911e-01 -5.577665e-02 5.270289e-01 -5.038206e-02 4.268686e-01 1.958008e-01 -1.804339e+00
<VARIANCE> 52
 8.380139e+01 5.562004e+03 1.888472e+03 1.380147e+05 4.984828e+03 4.741225e+05 6.599305e+03 6.979998e+05 6.707008e+03 5.594375e+05 4.930051e+03 5.014962e+05 2.842898e+02 6.221392e+03 2.782761e+03 1.854765e+05 1.496969e+03 7.927857e+05 2.123482e+03 1.337672e+06 1.211109e+03 1.259371e+06 8.394081e+02 1.049253e+06 3.681572e+04 1.425012e+06 4.897888e-03 8.798954e-03 1.476086e-01 6.647940e+00 6.431338e-01 3.402176e+00 1.548667e+00 1.742028e+01 1.606472e+00 1.420841e+01 1.024623e+00 9.264575e+00 2.852778e-03 8.257769e-03 2.152972e-02 7.223157e-01 1.338934e-01 1.062719e+00 3.317480e-01 2.585363e+00 2.740123e-01 2.536716e+00 2.234548e-01 1.661319e+00 2.749405e+00 6.184019e+01
<GCONST> 3.452867e+02
<STATE> 3
<MEAN> 52
 5.477009e+01 2.145989e+02 1.405494e+02 1.085444e+03 7.498898e+01 7.013376e+02 6.650127e+01 7.028005e+02 6.352763e+01 5.808806e+02 5.606078e+01 5.896318e+02 -5.821255e+01 2.280817e+02 -1.323880e+02 1.166002e+03 -3.689983e+01 1.490497e+03 -2.955084e+01 1.748908e+03 -2.007192e+01 1.549315e+03 -1.815321e+01 1.484780e+03 1.463821e+02 -8.472581e+02 3.364239e-03 1.759916e-02 1.185579e-02 1.289449e-01 9.754447e-02 -1.553606e+00 1.418000e-01 -2.888007e+00 2.494611e-01 -3.083987e+00 1.700235e-01 -2.558199e+00 2.291346e-03 2.057989e-02 4.111096e-03 2.024227e-01 -1.147411e-01 1.555195e+00 -1.520104e-01 2.711527e+00 -1.240828e-01 2.669302e+00 -1.017143e-01 2.172818e+00 6.373373e-01 -9.759322e+00
<VARIANCE> 52
 7.639013e+01 5.382359e+03 1.801642e+03 1.351163e+05 4.245344e+03 4.155490e+05 5.231109e+03 6.052515e+05 5.112996e+03 4.724550e+05 3.763285e+03 4.215485e+05 2.731947e+02 6.015554e+03 2.685726e+03 1.762085e+05 1.380938e+03 7.361848e+05 1.930426e+03 1.246360e+06 1.098941e+03 1.170789e+06 7.680645e+02 9.729272e+05 3.095472e+04 1.340077e+06 5.962856e-03 2.017467e-02 9.996256e-02 3.633266e+00 2.537340e+00 3.494821e+01 6.238758e+00 1.096099e+02 3.991229e+00 1.267325e+02 2.612821e+00 8.448387e+01 5.378800e-03 1.027878e-02 2.527755e-02 8.898394e-01 3.232833e-01 1.797512e+01 6.920832e-01 5.713760e+01 5.638185e-01 5.940992e+01 3.180760e-01 3.982408e+01 1.350831e+01 8.082225e+02
<GCONST> 3.760333e+02
<STATE> 4
<MEAN> 52
 5.460090e+01 2.156616e+02 1.420055e+02 1.089995e+03 8.086296e+01 6.489817e+02 7.297996e+01 6.369826e+02 7.007746e+01 5.165660e+02 6.161896e+01 5.284578e+02 -5.908776e+01 2.288151e+02 -1.312183e+02 1.180184e+03 -3.964907e+01 1.565114e+03 -3.216491e+01 1.849153e+03 -2.172242e+01 1.649450e+03 -1.958038e+01 1.573726e+03 1.599810e+02 -9.647179e+02 -4.327440e-03 8.714110e-03 2.494016e-02 1.436853e-02 7.483953e-01 -1.664349e+00 1.179256e+00 -3.295223e+00 1.084324e+00 -3.670263e+00 8.946791e-01 -2.962569e+00 -7.852434e-03 1.558116e-03 2.278392e-02 1.489885e-01 -9.673914e-02 8.310304e-01 -1.648137e-01 1.494434e+00 -1.168263e-01 1.374980e+00 -8.240333e-02 1.068116e+00 1.644899e+00 -7.463395e+00
<VARIANCE> 52
 7.852431e+01 5.678308e+03 2.064658e+03 1.449826e+05 4.426727e+03 3.808834e+05 5.353634e+03 5.499294e+05 5.230963e+03 4.105477e+05 3.870740e+03 3.668410e+05 2.871547e+02 6.152008e+03 2.620802e+03 1.768444e+05 1.355647e+03 7.795468e+05 1.904048e+03 1.314234e+06 1.062878e+03 1.248972e+06 7.400238e+02 1.037986e+06 3.074980e+04 1.393702e+06 7.600428e-03 1.354229e-02 1.274361e-01 3.243629e+00 1.957135e+01 6.668740e+01 5.413467e+01 1.938976e+02 4.300083e+01 2.177664e+02 2.905973e+01 1.520702e+02 3.497919e-03 1.704671e-02 3.580777e-02 6.692958e-01 1.889131e-01 7.190727e+00 5.173795e-01 2.248863e+01 4.736487e-01 1.773829e+01 2.930934e-01 1.125283e+01 6.817677e+01 4.340164e+02
<GCONST> 3.832349e+02
<STATE> 5
<MEAN> 52
 5.464901e+01 2.249756e+02 1.363410e+02 1.142526e+03 8.069093e+01 5.973260e+02 7.220441e+01 5.544008e+02 7.016814e+01 4.333135e+02 6.149394e+01 4.546229e+02 -5.993216e+01 2.319294e+02 -1.344561e+02 1.182549e+03 -4.539222e+01 1.623534e+03 -3.671008e+01 1.930121e+03 -2.541287e+01 1.716173e+03 -2.329865e+01 1.633896e+03 1.660891e+02 -9.598032e+02 -3.112247e-03 8.136339e-03 1.734931e-02 -1.132491e-01 8.736594e-01 -4.293547e+00 1.417468e+00 -6.983245e+00 1.526054e+00 -6.745470e+00 1.247843e+00 -5.628030e+00 5.294660e-03 -3.597103e-03 5.085181e-02 6.460100e-02 -3.422239e-01 3.440508e+00 -7.057145e-01 6.135766e+00 -5.044349e-01 6.635919e+00 -3.679209e-01 5.397869e+00 3.132785e+00 -2.328353e+01
<VARIANCE> 52
 6.898785e+01 5.611252e+03 1.794214e+03 1.562344e+05 3.478641e+03 2.989898e+05 4.065284e+03 4.191459e+05 3.805206e+03 3.029261e+05 2.845857e+03 2.732096e+05 2.520469e+02 5.622206e+03 2.317804e+03 1.514002e+05 1.536959e+03 6.425271e+05 2.101370e+03 1.088757e+06 1.263117e+03 1.024598e+06 9.196810e+02 8.505427e+05 2.554506e+04 1.100335e+06 1.543403e-02 6.988476e-02 4.159144e-01 8.461250e+00 2.375187e+01 2.361530e+02 6.448979e+01 8.823151e+02 7.518784e+01 1.045810e+03 5.034004e+01 6.611439e+02 5.477409e-03 6.396205e-02 3.524087e-01 3.827659e+00 2.452091e+00 2.253640e+02 7.154231e+00 4.744192e+02 5.289607e+00 4.384511e+02 2.976779e+00 3.163513e+02 1.371434e+02 3.337181e+03
<GCONST> 4.229736e+02
<STATE> 6
<MEAN> 52
 5.491054e+01 2.048763e+02 1.463004e+02 1.035530e+03 8.942561e+01 4.678926e+02 8.004440e+01 4.246582e+02 7.760788e+01 3.310660e+02 6.832036e+01 3.503674e+02 -5.589969e+01 2.178363e+02 -1.246905e+02 1.139997e+03 -4.803950e+01 1.646975e+03 -4.132972e+01 1.980716e+03 -2.840714e+01 1.786758e+03 -2.534320e+01 1.695233e+03 1.879232e+02 -1.245093e+03 1.447788e-04 1.739608e-02 3.897101e-02 9.127778e-02 2.531637e-01 -1.770583e+00 3.533489e-01 -3.207235e+00 4.308836e-01 -3.230255e+00 3.733341e-01 -2.640757e+00 2.693050e-03 4.873518e-03 1.013174e-02 4.546785e-02 -1.615698e-01 6.725492e-01 -2.728188e-01 1.106497e+00 -2.305367e-01 1.070743e+00 -1.763322e-01 8.818141e-01 1.010282e+00 -6.397412e+00
<VARIANCE> 52
 7.610589e+01 6.642773e+03 1.957080e+03 1.732555e+05 3.349239e+03 2.709411e+05 3.824939e+03 3.650370e+05 3.673572e+03 2.603600e+05 2.739410e+03 2.385778e+05 3.320706e+02 6.131872e+03 2.640351e+03 1.548670e+05 1.371214e+03 6.920108e+05 1.902843e+03 1.172471e+06 1.092501e+03 1.130828e+06 7.857786e+02 9.417397e+05 2.462096e+04 1.304178e+06 4.304430e-03 2.079518e-02 1.982008e-01 8.168163e+00 1.432070e+00 3.267941e+01 4.069681e+00 9.086749e+01 2.430398e+00 9.069459e+01 1.756178e+00 6.297187e+01 3.521302e-03 2.704980e-02 4.578157e-02 5.242359e-01 3.533364e-01 7.334753e+00 9.477863e-01 1.864079e+01 7.612937e-01 1.436969e+01 4.607159e-01 9.657349e+00 1.015593e+01 3.147494e+02
<GCONST> 3.669172e+02
<STATE> 7
<MEAN> 52
 5.481638e+01 2.146209e+02 1.451423e+02 1.080857e+03 9.178001e+01 5.003903e+02 8.284096e+01 4.525491e+02 8.049741e+01 3.524036e+02 7.079143e+01 3.731312e+02 -5.771338e+01 2.259445e+02 -1.308856e+02 1.163907e+03 -5.113548e+01 1.674212e+03 -4.272243e+01 2.012187e+03 -2.938848e+01 1.808437e+03 -2.672093e+01 1.715824e+03 1.951153e+02 -1.182667e+03 -2.013782e-03 1.888083e-02 5.976732e-02 1.921122e-01 2.909560e-01 -1.720210e+00 3.821902e-01 -3.252896e+00 4.133117e-01 -3.437201e+00 3.602411e-01 -2.761308e+00 -7.731417e-04 -3.227161e-03 -2.110367e-02 2.808373e-02 -1.615492e-01 1.420457e+00 -2.838079e-01 2.579168e+00 -2.055057e-01 2.455649e+00 -1.600674e-01 1.981545e+00 9.650851e-01 -9.988279e+00
<VARIANCE> 52
 7.246275e+01 6.149510e+03 1.940380e+03 1.729319e+05 3.425581e+03 2.523078e+05 3.920948e+03 3.451714e+05 3.783309e+03 2.512826e+05 2.817281e+03 2.292962e+05 2.940648e+02 5.671848e+03 2.534218e+03 1.563517e+05 1.498216e+03 7.187914e+05 1.925556e+03 1.213776e+06 1.064290e+03 1.166375e+06 7.936477e+02 9.734234e+05 2.500810e+04 1.320816e+06 4.500748e-03 4.551880e-02 2.363619e-01 8.770695e+00 2.456836e+00 3.103303e+01 4.623023e+00 9.446464e+01 3.409236e+00 9.493052e+01 2.416253e+00 6.192024e+01 3.199449e-03 3.752093e-02 5.645648e-02 1.821888e+00 5.012145e-01 2.867216e+01 1.597486e+00 8.823963e+01 1.142962e+00 8.288779e+01 6.770777e-01 5.567916e+01 1.226924e+01 7.935711e+02
<GCONST> 3.800027e+02
<STATE> 8
<MEAN> 52
 5.500838e+01 2.158357e+02 1.461673e+02 1.091264e+03 9.329172e+01 4.397483e+02 8.394398e+01 3.739837e+02 8.262608e+01 2.837668e+02 7.248155e+01 3.079775e+02 -5.753445e+01 2.267472e+02 -1.282281e+02 1.185169e+03 -4.923716e+01 1.710463e+03 -4.067617e+01 2.056483e+03 -2.786471e+01 1.845221e+03 -2.522953e+01 1.749868e+03 1.945762e+02 -1.236845e+03 4.274523e-03 1.664177e-02 6.924352e-02 -1.567330e-01 3.573492e-01 -4.465027e+00 5.449048e-01 -7.676902e+00 5.702462e-01 -7.266753e+00 4.653303e-01 -5.938973e+00 6.873532e-03 7.605767e-03 -2.387882e-02 -3.888980e-02 -3.184991e-01 1.808135e+00 -6.263731e-01 3.276094e+00 -4.620063e-01 3.659418e+00 -3.420023e-01 3.000617e+00 1.596634e+00 -1.862185e+01
<VARIANCE> 52
 6.033132e+01 6.422469e+03 1.787488e+03 1.694608e+05 3.100242e+03 2.151875e+05 3.574821e+03 2.897251e+05 3.516356e+03 2.099651e+05 2.612091e+03 1.908405e+05 2.912112e+02 5.611477e+03 2.359231e+03 1.437968e+05 1.212356e+03 6.943121e+05 1.650640e+03 1.171344e+06 9.174149e+02 1.116708e+06 6.492581e+02 9.317845e+05 2.258218e+04 1.217023e+06 1.834089e-02 6.355350e-02 2.518229e-01 2.196785e+00 2.802146e+00 1.410090e+03 9.728439e+00 5.002497e+03 7.082717e+00 5.853714e+03 4.100266e+00 3.735168e+03 1.252733e-02 5.490748e-02 1.757062e-01 1.793610e+00 1.212010e+00 6.996261e+01 4.610533e+00 2.188341e+02 2.850415e+00 2.823528e+02 1.555980e+00 1.917887e+02 2.813538e+01 7.381949e+03
<GCONST> 4.099275e+02
<STATE> 9
<MEAN> 52
 5.499581e+01 2.152390e+02 1.477939e+02 1.078048e+03 9.593187e+01 4.083304e+02 8.722562e+01 3.388427e+02 8.579690e+01 2.543297e+02 7.534582e+01 2.797192e+02 -5.740556e+01 2.257664e+02 -1.318460e+02 1.168905e+03 -5.224478e+01 1.766657e+03 -4.361521e+01 2.141815e+03 -2.916052e+01 1.936903e+03 -2.651152e+01 1.831433e+03 2.044401e+02 -1.343544e+03 3.634761e-04 -1.328329e-02 4.353310e-02 -1.335894e-01 1.149329e-01 -2.068684e+00 1.995418e-01 -3.614360e+00 2.144829e-01 -3.586902e+00 1.779301e-01 -2.864059e+00 6.876171e-03 -7.573077e-03 -3.045691e-02 -4.831041e-02 -2.406833e-01 1.963069e+00 -4.169745e-01 3.338900e+00 -2.821039e-01 3.866340e+00 -2.220716e-01 3.222470e+00 8.394141e-01 -1.286193e+01
<VARIANCE> 52
 6.632722e+01 6.083901e+03 1.784957e+03 1.585330e+05 3.372408e+03 1.858123e+05 3.897866e+03 2.479056e+05 3.776764e+03 1.758555e+05 2.810178e+03 1.621957e+05 2.807067e+02 5.423435e+03 2.409701e+03 1.392978e+05 1.233630e+03 7.143028e+05 1.643542e+03 1.199386e+06 9.072539e+02 1.131357e+06 6.475190e+02 9.445675e+05 2.335219e+04 1.210471e+06 7.702463e-03 4.251307e-02 4.277905e-01 4.988392e+00 2.115689e+00 5.411846e+01 4.623080e+00 1.791530e+02 3.420994e+00 1.772396e+02 2.278662e+00 1.065834e+02 5.064726e-03 2.832710e-02 9.848052e-02 3.021429e+00 1.812743e+00 5.218835e+01 4.053766e+00 1.317374e+02 3.215520e+00 1.836995e+02 2.350943e+00 1.324142e+02 2.216015e+01 1.505858e+03
<GCONST> 3.894467e+02
<STATE> 10
<MEAN> 52
 5.509164e+01 2.174940e+02 1.477606e+02 1.095086e+03 9.688906e+01 4.300427e+02 8.817701e+01 3.639579e+02 8.649289e+01 2.756387e+02 7.592683e+01 2.990821e+02 -5.845710e+01 2.290896e+02 -1.298239e+02 1.194790e+03 -5.356189e+01 1.822992e+03 -4.515707e+01 2.211242e+03 -3.008506e+01 2.001098e+03 -2.735936e+01 1.890617e+03 2.091572e+02 -1.377596e+03 -1.097836e-02 -1.070179e-02 3.633124e-02 -4.222868e-02 2.259443e-01 -1.176853e+00 3.239841e-01 -1.869697e+00 3.362998e-01 -1.743951e+00 2.674730e-01 -1.398953e+00 -3.628596e-04 -1.737787e-02 1.769260e-02 -1.107217e-02 -3.053312e-01 1.084120e+00 -4.788290e-01 1.693869e+00 -4.393252e-01 1.921433e+00 -3.407598e-01 1.606038e+00 1.129326e+00 -5.982657e+00
<VARIANCE> 52
 6.437913e+01 5.907782e+03 1.761248e+03 1.599805e+05 3.459583e+03 2.236314e+05 3.995442e+03 3.003190e+05 3.859946e+03 2.133162e+05 2.859348e+03 1.945693e+05 2.896998e+02 5.348246e+03 2.065316e+03 1.375038e+05 1.252201e+03 6.760686e+05 1.662659e+03 1.137033e+06 9.306503e+02 1.078515e+06 6.650249e+02 9.024328e+05 2.390840e+04 1.207955e+06 1.294098e-02 2.069874e-02 2.145794e-01 4.204936e+00 6.893933e+00 2.412858e+01 1.493067e+01 7.149969e+01 1.460943e+01 7.623491e+01 9.910701e+00 5.021347e+01 5.339877e-03 1.941072e-02 1.454115e-01 1.688815e+00 1.625101e+00 1.621741e+01 4.036744e+00 4.075464e+01 3.770589e+00 4.780035e+01 2.245750e+00 3.346937e+01 5.295721e+01 4.584228e+02
<GCONST> 3.849656e+02
<STATE> 11
<MEAN> 52
 5.393005e+01 2.048978e+02 1.449782e+02 1.034020e+03 9.255160e+01 3.882299e+02 8.415323e+01 3.218265e+02 8.222081e+01 2.435511e+02 7.225770e+01 2.695049e+02 -5.594130e+01 2.140270e+02 -1.345747e+02 1.113435e+03 -5.319313e+01 1.703570e+03 -4.463150e+01 2.070262e+03 -2.992298e+01 1.882144e+03 -2.714298e+01 1.779822e+03 2.023871e+02 -1.322190e+03 2.012357e-03 -2.134070e-02 2.795242e-02 -1.726958e-01 1.780960e-01 -1.217205e+00 2.887905e-01 -1.994548e+00 2.414201e-01 -1.870495e+00 1.968106e-01 -1.539576e+00 3.128885e-03 -8.725841e-03 3.240228e-02 1.042696e-01 -9.418716e-02 8.697902e-01 -1.743722e-01 1.334682e+00 -1.551658e-01 1.616713e+00 -1.068591e-01 1.388485e+00 5.590053e-01 -6.006232e+00
<VARIANCE> 52
 7.172282e+01 6.194676e+03 1.876022e+03 1.484486e+05 3.807832e+03 1.581645e+05 4.350077e+03 2.136229e+05 4.234484e+03 1.531198e+05 3.127984e+03 1.421790e+05 2.761571e+02 6.011212e+03 2.433397e+03 1.651585e+05 1.287714e+03 8.530641e+05 1.723915e+03 1.416102e+06 9.478127e+02 1.313447e+06 6.860916e+02 1.102588e+06 2.567486e+04 1.323968e+06 4.848723e-03 3.677925e-02 2.997217e-01 1.283934e+00 1.439301e+00 2.399994e+01 3.177654e+00 6.559359e+01 2.867009e+00 5.719731e+01 1.955824e+00 3.891697e+01 2.747208e-03 1.959100e-02 1.489511e-01 9.617761e-01 2.363201e-01 9.884899e+00 6.452877e-01 2.470327e+01 4.917338e-01 3.452066e+01 2.979752e-01 2.519934e+01 6.461005e+00 3.867469e+02
<GCONST> 3.645336e+02
<STATE> 12
<MEAN> 52
 5.455304e+01 2.158071e+02 1.481380e+02 1.085130e+03 1.039390e+02 3.718208e+02 9.663744e+01 2.882970e+02 9.487434e+01 2.074302e+02 8.296075e+01 2.366761e+02 -5.759917e+01 2.250380e+02 -1.284107e+02 1.179435e+03 -6.223799e+01 1.843609e+03 -5.439596e+01 2.245629e+03 -3.747982e+01 2.041108e+03 -3.390482e+01 1.926672e+03 2.390037e+02 -1.421965e+03 -5.695652e-03 -1.490817e-02 6.820783e-02 -3.484198e-01 3.076875e-01 -2.082258e+00 4.863396e-01 -2.740532e+00 5.001603e-01 -2.422552e+00 4.024648e-01 -2.056109e+00 -2.281285e-03 1.822545e-03 5.129059e-02 1.531237e-02 -4.332965e-01 2.893796e+00 -8.302684e-01 5.043905e+00 -6.445840e-01 5.766139e+00 -4.837770e-01 4.790542e+00 1.803705e+00 -1.557149e+01
<VARIANCE> 52
 5.683696e+01 6.365152e+03 1.581877e+03 1.670253e+05 3.148391e+03 1.375205e+05 4.049973e+03 1.773274e+05 3.892121e+03 1.223097e+05 2.864026e+03 1.137377e+05 2.889998e+02 5.383515e+03 1.667814e+03 1.271511e+05 1.484222e+03 6.401761e+05 2.172938e+03 1.074268e+06 1.305270e+03 1.041153e+06 9.524631e+02 8.711983e+05 2.439358e+04 1.084889e+06 6.843655e-03 3.804345e-02 5.390881e-01 3.919278e+00 1.025297e+00 1.038765e+02 2.917664e+00 2.639122e+02 3.171505e+00 2.400261e+02 2.029631e+00 1.582634e+02 3.777206e-03 2.089985e-02 1.898879e-01 1.565927e+00 1.098093e+00 5.011080e+01 3.728497e+00 1.507054e+02 2.446497e+00 1.973622e+02 1.487958e+00 1.370360e+02 1.848594e+01 1.306014e+03
<GCONST> 3.863453e+02
<STATE> 13
<MEAN> 52
 5.489541e+01 2.142032e+02 1.630053e+02 1.017395e+03 1.192780e+02 2.259652e+02 1.114994e+02 1.363661e+02 1.090778e+02 8.968417e+01 9.551560e+01 1.161783e+02 -5.890849e+01 2.334004e+02 -1.190097e+02 1.232487e+03 -6.857531e+01 2.112412e+03 -6.327236e+01 2.611465e+03 -4.378442e+01 2.409730e+03 -3.835550e+01 2.259923e+03 2.814086e+02 -1.976932e+03 -4.249311e-03 2.196126e-03 1.616763e-02 -1.494064e-01 1.885748e-02 -6.980994e-02 3.605157e-02 -1.010187e-01 3.147618e-02 -7.265341e-02 2.734964e-02 -5.792759e-02 -4.841365e-03 7.527560e-03 3.505496e-03 5.051342e-02 -1.291962e-02 4.957157e-02 -1.637705e-02 4.432075e-02 -2.688793e-02 3.432426e-02 -2.162083e-02 3.432305e-02 7.891141e-02 -1.535048e-01
<VARIANCE> 52
 7.682605e+01 5.803990e+03 2.423710e+03 1.224100e+05 3.804396e+03 6.433731e+04 4.741815e+03 8.083050e+04 4.414476e+03 5.755636e+04 3.281453e+03 5.431666e+04 4.266046e+02 5.784559e+03 1.485068e+03 1.166634e+05 1.200387e+03 5.032168e+05 1.801924e+03 7.980519e+05 1.176346e+03 7.711799e+05 8.256120e+02 6.521922e+05 2.587688e+04 7.699979e+05 6.218276e-03 1.899633e-02 2.519653e-01 2.368885e+00 2.379766e-01 4.697554e+00 5.670325e-01 1.078925e+01 4.795697e-01 7.334876e+00 3.091059e-01 5.269030e+00 3.780047e-03 1.549683e-02 3.383771e-02 2.239089e-01 4.357931e-02 8.299212e-01 1.701371e-01 1.585691e+00 1.261530e-01 1.985221e+00 6.500736e-02 1.389570e+00 1.127135e+00 1.987033e+01
<GCONST> 3.191286e+02
<STATE> 14
<MEAN> 52
 5.424911e+01 2.062097e+02 1.505597e+02 1.025509e+03 1.044054e+02 3.305931e+02 9.686993e+01 2.543632e+02 9.459444e+01 1.850024e+02 8.298195e+01 2.119138e+02 -5.645587e+01 2.205655e+02 -1.259869e+02 1.168030e+03 -6.212990e+01 1.859527e+03 -5.482781e+01 2.265621e+03 -3.794320e+01 2.066713e+03 -3.402770e+01 1.950609e+03 2.419038e+02 -1.516895e+03 -4.444040e-03 9.128435e-03 -8.276796e-02 3.618402e-02 -1.076882e-01 6.740954e-01 -1.737986e-01 1.092951e+00 -1.435424e-01 7.619502e-01 -1.248162e-01 6.238099e-01 -7.160003e-03 1.029772e-02 1.396104e-02 1.381062e-01 8.740239e-03 -5.623136e-01 5.861266e-02 -1.312978e+00 1.839065e-02 -1.726231e+00 1.658996e-02 -1.483976e+00 -2.255527e-01 3.280315e+00
<VARIANCE> 52
 6.534827e+01 5.635623e+03 2.230192e+03 1.291614e+05 4.078840e+03 1.185351e+05 4.909392e+03 1.633769e+05 4.687848e+03 1.169367e+05 3.476857e+03 1.084425e+05 2.990682e+02 5.520742e+03 1.787825e+03 1.233490e+05 1.551227e+03 7.221386e+05 2.296883e+03 1.202750e+06 1.391729e+03 1.165001e+06 9.873582e+02 9.770311e+05 3.009246e+04 1.179690e+06 7.346883e-03 1.491521e-02 3.020997e-01 2.323571e+00 4.725690e-01 3.555283e+01 1.091554e+00 1.064700e+02 1.075758e+00 9.154227e+01 7.811867e-01 6.275875e+01 2.677127e-03 1.257193e-02 6.140625e-02 6.913064e-01 5.259635e-01 2.665153e+01 1.252366e+00 9.749967e+01 1.036029e+00 1.100480e+02 5.761652e-01 8.164510e+01 6.730519e+00 4.553876e+02
<GCONST> 3.677135e+02
<STATE> 15
<MEAN> 52
 5.453718e+01 2.175904e+02 1.489074e+02 1.083889e+03 1.083899e+02 3.683159e+02 1.017748e+02 2.838694e+02 1.001515e+02 2.029550e+02 8.765300e+01 2.325762e+02 -5.848462e+01 2.311446e+02 -1.250741e+02 1.214214e+03 -6.404744e+01 1.957505e+03 -5.745234e+01 2.385710e+03 -3.979239e+01 2.184161e+03 -3.538434e+01 2.057551e+03 2.552021e+02 -1.528391e+03 4.145914e-03 2.311994e-02 -1.226646e-01 3.053765e-01 -1.764277e-01 1.870631e+00 -2.003888e-01 2.915657e+00 -1.250936e-01 2.550447e+00 -1.393233e-01 2.095797e+00 -9.353822e-04 1.713549e-02 4.321029e-02 1.130014e-01 8.153437e-02 -6.264691e-01 1.180755e-01 -1.221036e+00 6.635109e-02 -1.425271e+00 6.055320e-02 -1.202404e+00 -3.016500e-01 5.199624e+00
<VARIANCE> 52
 7.171984e+01 5.572910e+03 2.408945e+03 1.480752e+05 3.807155e+03 1.366663e+05 4.709356e+03 1.697356e+05 4.562515e+03 1.156480e+05 3.359819e+03 1.098804e+05 2.720476e+02 5.477364e+03 1.567802e+03 1.235828e+05 1.563494e+03 6.374018e+05 2.354029e+03 1.062718e+06 1.444326e+03 1.042580e+06 9.916693e+02 8.720714e+05 2.927485e+04 1.117685e+06 6.530957e-03 1.669606e-02 3.355250e-01 3.289916e+00 1.289041e+00 4.956857e+01 2.761232e+00 1.385657e+02 3.052471e+00 1.112504e+02 1.992348e+00 7.596095e+01 4.544157e-03 2.118045e-02 1.165544e-01 1.005013e+00 3.945135e-01 1.326137e+01 8.192100e-01 3.841062e+01 5.309569e-01 4.818520e+01 3.459287e-01 3.394564e+01 1.124544e+01 4.240207e+02
<GCONST> 3.699310e+02
<STATE> 16
<MEAN> 52
 5.413037e+01 2.184658e+02 1.472126e+02 1.075650e+03 1.069917e+02 4.311514e+02 1.013054e+02 3.690010e+02 9.789963e+01 2.874752e+02 8.581970e+01 3.122333e+02 -5.926738e+01 2.309979e+02 -1.261480e+02 1.205648e+03 -6.563623e+01 1.858309e+03 -5.972494e+01 2.246465e+03 -4.273096e+01 2.048667e+03 -3.797317e+01 1.937035e+03 2.568814e+02 -1.350910e+03 -1.273139e-02 -9.263130e-03 -8.310471e-02 -2.424352e-01 -3.651428e-02 2.826367e+00 6.854630e-02 5.250853e+00 7.501602e-02 6.355381e+00 8.840942e-02 5.255827e+00 -8.172121e-03 -1.314935e-02 2.838402e-02 -4.357450e-02 1.742774e-01 -3.060717e+00 2.276506e-01 -5.671207e+00 1.247694e-01 -5.885127e+00 9.588647e-02 -4.801481e+00 -3.506241e-01 1.397644e+01
<VARIANCE> 52
 8.166499e+01 5.466060e+03 2.442867e+03 1.408278e+05 4.469197e+03 2.165754e+05 5.875770e+03 3.105035e+05 5.396063e+03 2.456470e+05 3.975456e+03 2.246816e+05 2.694946e+02 5.247180e+03 1.495701e+03 1.146150e+05 1.940933e+03 6.915044e+05 2.975112e+03 1.181052e+06 1.951676e+03 1.156036e+06 1.362705e+03 9.613618e+05 3.830678e+04 1.236002e+06 7.613664e-03 4.535812e-02 4.138234e-01 1.074911e+01 6.511450e+00 3.634627e+02 2.569017e+01 1.028437e+03 4.353936e+01 1.501019e+03 2.941734e+01 1.065729e+03 4.450350e-03 4.816970e-02 2.298104e-01 1.549155e+00 2.894110e+00 1.106478e+02 6.029342e+00 3.707575e+02 4.367913e+00 3.888354e+02 2.625265e+00 2.559074e+02 9.169025e+01 2.510146e+03
<GCONST> 4.183034e+02
<STATE> 17
<MEAN> 52
 5.402597e+01 2.077614e+02 1.457369e+02 1.041479e+03 1.039382e+02 4.647638e+02 9.892444e+01 4.258900e+02 9.492932e+01 3.490487e+02 8.327187e+01 3.651254e+02 -5.835527e+01 2.199996e+02 -1.257398e+02 1.162369e+03 -6.717022e+01 1.849506e+03 -6.217138e+01 2.249635e+03 -4.353680e+01 2.067021e+03 -3.878717e+01 1.949402e+03 2.529231e+02 -1.334391e+03 -2.072472e-03 -3.032381e-02 -1.018412e-01 7.144924e-02 -2.042913e-01 8.253717e-02 -2.662411e-01 3.756852e-01 -2.604526e-01 6.647334e-01 -2.351447e-01 4.990587e-01 -1.783411e-03 -5.052956e-02 -2.554983e-03 -1.986380e-01 8.723518e-02 -7.716017e-01 1.079769e-01 -1.271101e+00 7.824367e-02 -9.963186e-01 7.102071e-02 -8.201778e-01 -3.846717e-01 1.836428e+00
<VARIANCE> 52
 8.445095e+01 6.061799e+03 2.854427e+03 1.586049e+05 5.237657e+03 3.114626e+05 7.055521e+03 4.847889e+05 6.533807e+03 4.242369e+05 4.838270e+03 3.666169e+05 2.832773e+02 5.748910e+03 1.798078e+03 1.398930e+05 2.173101e+03 7.365398e+05 3.237779e+03 1.241092e+06 1.953479e+03 1.210999e+06 1.432994e+03 1.008443e+06 3.962914e+04 1.262568e+06 8.302659e-03 5.643568e-02 3.466460e-01 2.805758e+00 1.528714e+00 2.133690e+01 3.847141e+00 6.054343e+01 3.502326e+00 5.353662e+01 2.274944e+00 3.536271e+01 8.089986e-03 9.096234e-02 1.162647e-01 1.498979e+00 1.009161e+00 1.638743e+01 2.137204e+00 4.877562e+01 1.310633e+00 4.289096e+01 8.411222e-01 2.753717e+01 1.360409e+01 1.887163e+02
<GCONST> 3.834935e+02
<STATE> 18
<MEAN> 52
 5.349100e+01 2.141624e+02 1.441440e+02 1.072069e+03 1.036120e+02 4.101460e+02 9.849539e+01 3.459106e+02 9.651883e+01 2.697559e+02 8.425511e+01 2.932869e+02 -5.950180e+01 2.262503e+02 -1.261885e+02 1.194549e+03 -6.523059e+01 1.880370e+03 -5.905067e+01 2.284569e+03 -4.142429e+01 2.097062e+03 -3.687471e+01 1.977505e+03 2.504385e+02 -1.425294e+03 -1.252611e-02 -1.348052e-02 -7.826368e-02 7.342768e-02 -1.176454e-01 4.524002e-01 -9.424178e-02 7.656012e-01 -1.036312e-01 7.939382e-01 -9.788812e-02 6.396805e-01 -1.075781e-02 -2.547318e-02 -3.301127e-02 -1.016993e-01 -5.390467e-02 -8.238154e-01 -7.344153e-02 -1.442839e+00 -7.576685e-02 -1.308029e+00 -5.439617e-02 -1.087848e+00 -6.563805e-03 2.699849e+00
<VARIANCE> 52
 8.980362e+01 5.830355e+03 2.442524e+03 1.409939e+05 5.119645e+03 2.393818e+05 6.936906e+03 3.483320e+05 6.812863e+03 2.835915e+05 5.015629e+03 2.553340e+05 2.914009e+02 5.615724e+03 1.603395e+03 1.307057e+05 1.710607e+03 7.599379e+05 2.494827e+03 1.278616e+06 1.545592e+03 1.239375e+06 1.110368e+03 1.035443e+06 3.544384e+04 1.183769e+06 8.698871e-03 4.097150e-02 1.508644e-01 1.087663e+00 8.123873e-01 7.633485e+00 1.895280e+00 2.145667e+01 1.530154e+00 2.203608e+01 1.184264e+00 1.482750e+01 3.291158e-03 9.024900e-02 5.416356e-02 7.339060e-01 2.226265e-01 2.745763e+01 5.070039e-01 9.607564e+01 4.126896e-01 8.526824e+01 2.741025e-01 5.937220e+01 3.495175e+00 2.338413e+02
<GCONST> 3.658863e+02
<STATE> 19
<MEAN> 52
 5.334778e+01 2.138215e+02 1.419579e+02 1.075673e+03 1.015504e+02 4.095933e+02 9.629788e+01 3.421055e+02 9.424875e+01 2.635923e+02 8.232838e+01 2.886018e+02 -5.955614e+01 2.255740e+02 -1.267258e+02 1.189377e+03 -6.517838e+01 1.869432e+03 -5.880362e+01 2.272449e+03 -4.123090e+01 2.085834e+03 -3.677045e+01 1.966226e+03 2.460571e+02 -1.398788e+03 -3.855343e-03 -7.235996e-03 -5.804753e-02 1.025504e-02 -1.158417e-01 3.044639e-01 -1.624002e-01 4.727365e-01 -1.557055e-01 4.189145e-01 -1.256455e-01 3.506310e-01 -4.371460e-03 -1.705956e-02 -7.797953e-03 -8.348958e-02 3.028794e-03 -2.950076e-01 1.861559e-02 -4.697034e-01 1.789190e-02 -4.462780e-01 9.224196e-03 -3.789671e-01 -1.776563e-01 1.137061e+00
<VARIANCE> 52
 9.476368e+01 5.920380e+03 2.417204e+03 1.416168e+05 4.909441e+03 2.195465e+05 6.385203e+03 3.210335e+05 6.211996e+03 2.539365e+05 4.587172e+03 2.274200e+05 2.902731e+02 5.765835e+03 1.629411e+03 1.321830e+05 1.724861e+03 7.673136e+05 2.501906e+03 1.291076e+06 1.553051e+03 1.247235e+06 1.122233e+03 1.042089e+06 3.425444e+04 1.132433e+06 5.921907e-03 1.336647e-02 1.272967e-01 8.992565e-01 3.441754e-01 1.260106e+00 9.029603e-01 3.225076e+00 7.563275e-01 2.597497e+00 4.904209e-01 1.765633e+00 3.647347e-03 1.681893e-02 2.660915e-02 2.895926e-01 5.305032e-02 4.822031e+00 1.316471e-01 1.604681e+01 1.162947e-01 1.353322e+01 6.046051e-02 8.714094e+00 1.376685e+00 4.809784e+01
<GCONST> 3.336844e+02
<TRANSP> 20
 0.000000e+00 1.000000e+00 0.000000e+00 0.000000e+00 0.000000e+00 0.000000e+00 0.000000e+00 0.000000e+00 0.000000e+00 0.000000e+00 0.000000e+00 0.000000e+00 0.000000e+00 0.000000e+00 0.000000e+00 0.000000e+00 0.000000e+00 0.000000e+00 0.000000e+00 0.000000e+00
 0.000000e+00 1.471208e-02 9.852879e-01 0.000000e+00 0.000000e+00 0.000000e+00 0.000000e+00 0.000000e+00 0.000000e+00 0.000000e+00 0.000000e+00 0.000000e+00 0.000000e+00 0.000000e+00 0.000000e+00 0.000000e+00 0.000000e+00 0.000000e+00 0.000000e+00 0.000000e+00
 0.000000e+00 0.000000e+00 8.278859e-02 9.172114e-01 0.000000e+00 0.000000e+00 0.000000e+00 0.000000e+00 0.000000e+00 0.000000e+00 0.000000e+00 0.000000e+00 0.000000e+00 0.000000e+00 0.000000e+00 0.000000e+00 0.000000e+00 0.000000e+00 0.000000e+00 0.000000e+00
 0.000000e+00 0.000000e+00 0.000000e+00 4.156485e-02 9.584352e-01 0.000000e+00 0.000000e+00 0.000000e+00 0.000000e+00 0.000000e+00 0.000000e+00 0.000000e+00 0.000000e+00 0.000000e+00 0.000000e+00 0.000000e+00 0.000000e+00 0.000000e+00 0.000000e+00 0.000000e+00
 0.000000e+00 0.000000e+00 0.000000e+00 0.000000e+00 3.376360e-01 6.623641e-01 0.000000e+00 0.000000e+00 0.000000e+00 0.000000e+00 0.000000e+00 0.000000e+00 0.000000e+00 0.000000e+00 0.000000e+00 0.000000e+00 0.000000e+00 0.000000e+00 0.000000e+00 0.000000e+00
 0.000000e+00 0.000000e+00 0.000000e+00 0.000000e+00 0.000000e+00 1.215788e-01 8.784212e-01 0.000000e+00 0.000000e+00 0.000000e+00 0.000000e+00 0.000000e+00 0.000000e+00 0.000000e+00 0.000000e+00 0.000000e+00 0.000000e+00 0.000000e+00 0.000000e+00 0.000000e+00
 0.000000e+00 0.000000e+00 0.000000e+00 0.000000e+00 0.000000e+00 0.000000e+00 5.222671e-02 9.477733e-01 0.000000e+00 0.000000e+00 0.000000e+00 0.000000e+00 0.000000e+00 0.000000e+00 0.000000e+00 0.000000e+00 0.000000e+00 0.000000e+00 0.000000e+00 0.000000e+00
 0.000000e+00 0.000000e+00 0.000000e+00 0.000000e+00 0.000000e+00 0.000000e+00 0.000000e+00 8.512274e-02 9.148772e-01 0.000000e+00 0.000000e+00 0.000000e+00 0.000000e+00 0.000000e+00 0.000000e+00 0.000000e+00 0.000000e+00 0.000000e+00 0.000000e+00 0.000000e+00
 0.000000e+00 0.000000e+00 0.000000e+00 0.000000e+00 0.000000e+00 0.000000e+00 0.000000e+00 0.000000e+00 2.149101e-02 9.785089e-01 0.000000e+00 0.000000e+00 0.000000e+00 0.000000e+00 0.000000e+00 0.000000e+00 0.000000e+00 0.000000e+00 0.000000e+00 0.000000e+00
 0.000000e+00 0.000000e+00 0.000000e+00 0.000000e+00 0.000000e+00 0.000000e+00 0.000000e+00 0.000000e+00 0.000000e+00 3.585069e-02 9.641493e-01 0.000000e+00 0.000000e+00 0.000000e+00 0.000000e+00 0.000000e+00 0.000000e+00 0.000000e+00 0.000000e+00 0.000000e+00
 0.000000e+00 0.000000e+00 0.000000e+00 0.000000e+00 0.000000e+00 0.000000e+00 0.000000e+00 0.000000e+00 0.000000e+00 0.000000e+00 9.929031e-02 9.007096e-01 0.000000e+00 0.000000e+00 0.000000e+00 0.000000e+00 0.000000e+00 0.000000e+00 0.000000e+00 0.000000e+00
 0.000000e+00 0.000000e+00 0.000000e+00 0.000000e+00 0.000000e+00 0.000000e+00 0.000000e+00 0.000000e+00 0.000000e+00 0.000000e+00 0.000000e+00 3.292349e-01 6.707651e-01 0.000000e+00 0.000000e+00 0.000000e+00 0.000000e+00 0.000000e+00 0.000000e+00 0.000000e+00
 0.000000e+00 0.000000e+00 0.000000e+00 0.000000e+00 0.000000e+00 0.000000e+00 0.000000e+00 0.000000e+00 0.000000e+00 0.000000e+00 0.000000e+00 0.000000e+00 6.088730e-01 3.911270e-01 0.000000e+00 0.000000e+00 0.000000e+00 0.000000e+00 0.000000e+00 0.000000e+00
 0.000000e+00 0.000000e+00 0.000000e+00 0.000000e+00 0.000000e+00 0.000000e+00 0.000000e+00 0.000000e+00 0.000000e+00 0.000000e+00 0.000000e+00 0.000000e+00 0.000000e+00 1.002974e-01 8.997026e-01 0.000000e+00 0.000000e+00 0.000000e+00 0.000000e+00 0.000000e+00
 0.000000e+00 0.000000e+00 0.000000e+00 0.000000e+00 0.000000e+00 0.000000e+00 0.000000e+00 0.000000e+00 0.000000e+00 0.000000e+00 0.000000e+00 0.000000e+00 0.000000e+00 0.000000e+00 8.155039e-02 9.184496e-01 0.000000e+00 0.000000e+00 0.000000e+00 0.000000e+00
 0.000000e+00 0.000000e+00 0.000000e+00 0.000000e+00 0.000000e+00 0.000000e+00 0.000000e+00 0.000000e+00 0.000000e+00 0.000000e+00 0.000000e+00 0.000000e+00 0.000000e+00 0.000000e+00 0.000000e+00 1.245764e-01 8.754236e-01 0.000000e+00 0.000000e+00 0.000000e+00
 0.000000e+00 0.000000e+00 0.000000e+00 0.000000e+00 0.000000e+00 0.000000e+00 0.000000e+00 0.000000e+00 0.000000e+00 0.000000e+00 0.000000e+00 0.000000e+00 0.000000e+00 0.000000e+00 0.000000e+00 0.000000e+00 9.794763e-02 9.020524e-01 0.000000e+00 0.000000e+00
 0.000000e+00 0.000000e+00 0.000000e+00 0.000000e+00 0.000000e+00 0.000000e+00 0.000000e+00 0.000000e+00 0.000000e+00 0.000000e+00 0.000000e+00 0.000000e+00 0.000000e+00 0.000000e+00 0.000000e+00 0.000000e+00 0.000000e+00 3.597122e-03 9.964029e-01 0.000000e+00
 0.000000e+00 0.000000e+00 0.000000e+00 0.000000e+00 0.000000e+00 0.000000e+00 0.000000e+00 0.000000e+00 0.000000e+00 0.000000e+00 0.000000e+00 0.000000e+00 0.000000e+00 0.000000e+00 0.000000e+00 0.000000e+00 0.000000e+00 0.000000e+00 3.076789e-14 1.000000e+00
 0.000000e+00 0.000000e+00 0.000000e+00 0.000000e+00 0.000000e+00 0.000000e+00 0.000000e+00 0.000000e+00 0.000000e+00 0.000000e+00 0.000000e+00 0.000000e+00 0.000000e+00 0.000000e+00 0.000000e+00 0.000000e+00 0.000000e+00 0.000000e+00 0.000000e+00 0.000000e+00
<ENDHMM>
~h "sil0"
<BEGINHMM>
<NUMSTATES> 20
<STATE> 2
<MEAN> 52
 4.901975e+01 2.484928e+02 1.052118e+02 1.208645e+03 2.371649e+02 2.381771e+03 3.116731e+02 2.756748e+03 3.125973e+02 2.741839e+03 2.614501e+02 2.662691e+03 -6.145186e+01 2.345158e+02 -9.628426e+01 1.188484e+03 -7.665813e+01 2.195696e+03 -8.349808e+01 2.617787e+03 -6.074889e+01 2.458304e+03 -5.017779e+01 2.336343e+03 6.304559e+02 1.985980e+01 1.067289e-02 2.494301e-03 9.203876e-03 -5.547179e-03 8.910509e-03 -3.423795e-03 1.272367e-02 4.107045e-03 1.094492e-02 1.837313e-05 8.972989e-03 -2.336755e-03 1.114098e-02 9.702782e-03 4.066711e-04 -5.509211e-03 2.860939e-03 -4.143406e-03 3.071128e-03 5.482227e-03 8.074610e-03 3.101949e-03 7.147701e-03 -3.156597e-04 -1.638880e-03 -5.572587e-03
<VARIANCE> 52
 2.982100e+02 9.627561e+03 8.937891e+02 1.333939e+05 6.349791e+03 2.584817e+05 1.146340e+04 2.929447e+05 1.310713e+04 2.561509e+05 9.817242e+03 2.520455e+05 2.049630e+02 8.391854e+03 5.601187e+02 1.553340e+05 1.349695e+03 5.076322e+05 2.576301e+03 6.883401e+05 2.066039e+03 6.763502e+05 1.418840e+03 5.973492e+05 3.395650e+04 2.681814e+03 8.161543e-03 2.025092e-02 9.031929e-03 4.894588e-02 1.520250e-02 6.670206e-02 2.534875e-02 1.189863e-01 3.181975e-02 1.557983e-01 2.945079e-02 1.221944e-01 7.636537e-03 1.685718e-02 3.391163e-02 6.308280e-02 6.070241e-03 5.665266e-02 9.835127e-03 8.500762e-02 1.083060e-02 1.055352e-01 8.028097e-03 7.663205e-02 4.698031e-02 3.486161e-01
<GCONST> 2.614668e+02
<STATE> 3
<MEAN> 52
 4.728212e+01 2.573866e+02 1.007522e+02 1.242198e+03 2.358228e+02 2.375381e+03 3.139587e+02 2.739970e+03 3.159232e+02 2.723198e+03 2.635533e+02 2.647319e+03 -6.890562e+01 2.521437e+02 -1.206553e+02 1.312930e+03 -1.433609e+02 2.801881e+03 -1.751998e+02 3.341796e+03 -1.425833e+02 3.276894e+03 -1.165456e+02 3.104586e+03 8.379501e+02 -6.427074e+01 1.576556e-02 -9.437278e-03 1.086816e-03 -1.789551e-01 -4.412754e-02 -1.258138e+00 -8.800392e-02 -1.616046e+00 -9.906843e-02 -2.005000e+00 -7.660405e-02 -1.857819e+00 1.852240e-02 2.244024e-02 -6.748598e-03 -8.421627e-02 1.064608e-02 -4.190808e-01 2.994905e-02 -5.036080e-01 4.275927e-02 -6.430528e-01 3.990557e-02 -5.993162e-01 -1.871728e-01 -1.360095e+00
<VARIANCE> 52
 2.195688e+02 5.320061e+03 7.538734e+02 7.352076e+04 4.340582e+03 1.755522e+05 7.748634e+03 2.177405e+05 8.770410e+03 2.200772e+05 6.623363e+03 2.067084e+05 2.984552e+02 4.386446e+03 1.527750e+03 8.795713e+04 9.046592e+03 7.016016e+05 1.686536e+04 1.021610e+06 1.431542e+04 1.225478e+06 9.549536e+03 1.063144e+06 9.102941e+04 1.506125e+04 1.292715e-02 5.169371e-02 7.225331e-02 2.644371e-01 3.799542e-01 6.008156e+00 8.237889e-01 1.057444e+01 8.029674e-01 1.640665e+01 6.322600e-01 1.379657e+01 9.672930e-03 5.238461e-02 6.986549e-02 3.483447e-01 1.329899e-01 3.146261e+00 2.869100e-01 5.406015e+00 3.746531e-01 7.177693e+00 2.831225e-01 5.583623e+00 2.054790e+00 2.065072e+01
<GCONST> 3.480222e+02
<STATE> 4
<MEAN> 52
 5.119304e+01 2.383564e+02 1.235316e+02 1.120392e+03 2.124913e+02 1.462782e+03 2.603179e+02 1.611678e+03 2.581649e+02 1.522119e+03 2.200437e+02 1.504821e+03 -6.202163e+01 2.421574e+02 -1.048533e+02 1.231375e+03 -9.986553e+01 2.423724e+03 -1.154654e+02 2.927111e+03 -8.968243e+01 2.809816e+03 -7.332333e+01 2.648879e+03 6.162834e+02 -6.682707e+02 7.839190e-03 -5.803989e-02 3.597654e-01 -1.246382e+00 -9.078359e-01 -1.389917e+01 -2.162734e+00 -2.072130e+01 -2.407346e+00 -2.445726e+01 -1.858428e+00 -2.150819e+01 1.179543e-04 -1.272945e-02 -2.478874e-02 -3.824664e-02 1.741030e-02 -1.563534e-01 4.684735e-02 -1.294369e-01 4.984470e-02 -1.842552e-01 3.605432e-02 -2.012262e-01 -2.597465e+00 -2.385223e+01
<VARIANCE> 52
 1.907585e+02 6.587277e+03 2.585558e+03 1.312370e+05 6.164546e+03 7.898004e+05 1.368667e+04 1.140652e+06 1.571717e+04 1.191452e+06 1.101825e+04 1.092094e+06 2.190192e+02 5.422663e+03 8.514454e+02 1.068526e+05 4.418503e+03 5.631963e+05 8.874032e+03 8.146903e+05 7.458140e+03 9.409999e+05 4.883892e+03 8.219340e+05 8.327284e+04 1.057367e+06 1.365178e-02 6.972606e-02 1.831780e+00 4.083570e+01 5.414756e+00 3.774561e+02 2.655663e+01 8.493254e+02 2.962161e+01 1.318204e+03 1.742659e+01 1.041328e+03 4.646813e-03 1.505877e-02 3.374036e-02 1.072681e-01 1.994531e-02 5.464795e-01 4.689556e-02 9.769936e-01 5.239309e-02 1.319431e+00 3.683059e-02 1.099783e+00 3.127946e+01 1.391030e+03
<GCONST> 3.859280e+02
<STATE> 5
<MEAN> 52
 4.943813e+01 2.385779e+02 1.159580e+02 1.116587e+03 1.909365e+02 1.749641e+03 2.373930e+02 1.990160e+03 2.353181e+02 1.921786e+03 1.987987e+02 1.877551e+03 -6.305425e+01 2.401110e+02 -1.108746e+02 1.203742e+03 -9.819556e+01 2.279691e+03 -1.095600e+02 2.738048e+03 -8.370860e+01 2.599289e+03 -6.981621e+01 2.457619e+03 5.653584e+02 -4.075966e+02 -8.557484e-03 -7.379486e-02 1.688820e-01 -1.644372e+00 -1.539049e+00 -8.079929e+00 -2.900407e+00 -1.111416e+01 -2.992943e+00 -1.212721e+01 -2.404015e+00 -1.088729e+01 8.195536e-04 -2.762086e-02 -4.444066e-02 -3.383019e-01 1.216486e-01 -1.495429e+00 2.312572e-01 -1.947350e+00 2.038037e-01 -2.363002e+00 1.459272e-01 -2.138879e+00 -3.509260e+00 -9.350468e+00
<VARIANCE> 52
 1.967036e+02 6.830777e+03 2.324873e+03 1.448443e+05 8.385719e+03 8.185932e+05 1.770677e+04 1.139485e+06 1.957305e+04 1.187328e+06 1.368502e+04 1.099337e+06 2.248882e+02 5.958639e+03 1.399806e+03 1.283195e+05 3.932613e+03 6.290642e+05 7.213454e+03 9.234846e+05 5.594512e+03 1.033526e+06 3.773469e+03 8.935622e+05 9.066122e+04 8.156898e+05 2.196195e-02 1.129065e-01 1.587559e+00 3.887000e+01 2.596240e+01 2.064551e+02 9.702493e+01 4.403690e+02 1.051550e+02 4.872615e+02 6.532647e+01 3.764800e+02 9.280206e-03 5.702246e-02 3.329004e-01 2.123505e+00 2.511584e+00 1.770350e+01 6.059626e+00 3.373874e+01 5.513983e+00 5.158006e+01 3.413052e+00 4.156021e+01 1.709032e+02 5.728013e+02
<GCONST> 4.314501e+02
<STATE> 6
<MEAN> 52
 4.911070e+01 1.963569e+02 1.427764e+02 8.231981e+02 1.382544e+02 1.093964e+03 1.614712e+02 1.226444e+03 1.592053e+02 1.181082e+03 1.358975e+02 1.165497e+03 -5.635674e+01 2.215895e+02 -1.001913e+02 1.146378e+03 -9.211164e+01 2.229659e+03 -1.048844e+02 2.702516e+03 -8.089771e+01 2.591628e+03 -6.651036e+01 2.445658e+03 4.167039e+02 -1.326007e+03 -2.573057e-03 -7.602777e-02 7.170280e-02 -2.022480e+00 -3.662410e-01 -5.197810e+00 -6.100879e-01 -6.846460e+00 -6.276223e-01 -6.908408e+00 -5.025798e-01 -6.212566e+00 1.036441e-02 -1.491818e-02 1.949290e-03 -3.100939e-02 4.538694e-02 -1.776451e-01 8.527267e-02 -2.221730e-01 7.128450e-02 -3.017011e-01 5.370140e-02 -2.871285e-01 -8.183225e-01 -6.328266e+00
<VARIANCE> 52
