~o
<STREAMINFO> 1 52
<VECSIZE> 52<NULLD><USER><DIAGC>
~h "wagon"
<BEGINHMM>
<NUMSTATES> 20
<STATE> 2
<MEAN> 52
 4.662857e+01 2.058923e+02 1.314374e+02 9.236298e+02 1.040881e+02 9.702260e+02 1.158242e+02 1.054115e+03 1.122619e+02 9.820063e+02 9.666432e+01 9.816133e+02 -5.568960e+01 2.048941e+02 -1.241854e+02 1.018569e+03 -7.069118e+01 1.372534e+03 -7.167084e+01 1.601132e+03 -5.748956e+01 1.450571e+03 -5.060418e+01 1.401263e+03 2.966877e+02 -4.533275e+02 -1.135821e-03 -2.459577e-03 3.304139e-03 -8.179184e-02 2.145477e-03 2.247078e-02 8.964762e-03 1.525604e-01 -2.469501e-03 2.075074e-01 1.169048e-03 1.662272e-01 1.280974e-03 5.909980e-04 1.751993e-03 -1.491320e-02 4.220420e-03 -7.106442e-02 1.637062e-04 -1.199305e-01 2.970365e-04 -1.048352e-01 -1.363987e-03 -8.823930e-02 1.232549e-03 2.925342e-01
<VARIANCE> 52
 2.477370e+02 4.245919e+03 6.497110e+03 1.395839e+05 1.006425e+04 8.230121e+05 1.845994e+04 1.192255e+06 1.823084e+04 1.213674e+06 1.300605e+04 1.111360e+06 2.921291e+02 3.603428e+03 3.650884e+03 9.135636e+04 4.403910e+03 5.682272e+05 7.219383e+03 9.288521e+05 5.657411e+03 9.340041e+05 4.123035e+03 7.922112e+05 1.072775e+05 8.456268e+05 2.000000e+00 2.000000e+00 5.347866e+00 2.488492e+01 2.146162e+01 2.165227e+02 5.768179e+01 5.878467e+02 5.979148e+01 5.988403e+02 3.901042e+01 4.240607e+02 2.000000e+00 2.000000e+00 3.990956e+00 7.777163e+00 5.986233e+00 7.043687e+01 1.475938e+01 1.730498e+02 1.401511e+01 1.899371e+02 9.007020e+00 1.385729e+02 1.533834e+02 1.219157e+03
<GCONST> 4.624308e+02
<STATE> 3
<MEAN> 52
 4.662857e+01 2.058923e+02 1.314374e+02 9.236298e+02 1.040881e+02 9.702260e+02 1.158242e+02 1.054115e+03 1.122619e+02 9.820063e+02 9.666432e+01 9.816133e+02 -5.568960e+01 2.048941e+02 -1.241854e+02 1.018569e+03 -7.069118e+01 1.372534e+03 -7.167084e+01 1.601132e+03 -5.748956e+01 1.450571e+03 -5.060418e+01 1.401263e+03 2.966877e+02 -4.533275e+02 -1.135821e-03 -2.459577e-03 3.304139e-03 -8.179184e-02 2.145477e-03 2.247078e-02 8.964762e-03 1.525604e-01 -2.469501e-03 2.075074e-01 1.169048e-03 1.662272e-01 1.280974e-03 5.909980e-04 1.751993e-03 -1.491320e-02 4.220420e-03 -7.106442e-02 1.637062e-04 -1.199305e-01 2.970365e-04 -1.048352e-01 -1.363987e-03 -8.823930e-02 1.232549e-03 2.925342e-01
<VARIANCE> 52
 2.477370e+02 4.245919e+03 6.497110e+03 1.395839e+05 1.006425e+04 8.230121e+05 1.845994e+04 1.192255e+06 1.823084e+04 1.213674e+06 1.300605e+04 1.111360e+06 2.921291e+02 3.603428e+03 3.650884e+03 9.135636e+04 4.403910e+03 5.682272e+05 7.219383e+03 9.288521e+05 5.657411e+03 9.340041e+05 4.123035e+03 7.922112e+05 1.072775e+05 8.456268e+05 2.000000e+00 2.000000e+00 5.347866e+00 2.488492e+01 2.146162e+01 2.165227e+02 5.768179e+01 5.878467e+02 5.979148e+01 5.988403e+02 3.901042e+01 4.240607e+02 2.000000e+00 2.000000e+00 3.990956e+00 7.777163e+00 5.986233e+00 7.043687e+01 1.475938e+01 1.730498e+02 1.401511e+01 1.899371e+02 9.007020e+00 1.385729e+02 1.533834e+02 1.219157e+03
<GCONST> 4.624308e+02
<STATE> 4
<MEAN> 52
 4.662857e+01 2.058923e+02 1.314374e+02 9.236298e+02 1.040881e+02 9.702260e+02 1.158242e+02 1.054115e+03 1.122619e+02 9.820063e+02 9.666432e+01 9.816133e+02 -5.568960e+01 2.048941e+02 -1.241854e+02 1.018569e+03 -7.069118e+01 1.372534e+03 -7.167084e+01 1.601132e+03 -5.748956e+01 1.450571e+03 -5.060418e+01 1.401263e+03 2.966877e+02 -4.533275e+02 -1.135821e-03 -2.459577e-03 3.304139e-03 -8.179184e-02 2.145477e-03 2.247078e-02 8.964762e-03 1.525604e-01 -2.469501e-03 2.075074e-01 1.169048e-03 1.662272e-01 1.280974e-03 5.909980e-04 1.751993e-03 -1.491320e-02 4.220420e-03 -7.106442e-02 1.637062e-04 -1.199305e-01 2.970365e-04 -1.048352e-01 -1.363987e-03 -8.823930e-02 1.232549e-03 2.925342e-01
<VARIANCE> 52
 2.477370e+02 4.245919e+03 6.497110e+03 1.395839e+05 1.006425e+04 8.230121e+05 1.845994e+04 1.192255e+06 1.823084e+04 1.213674e+06 1.300605e+04 1.111360e+06 2.921291e+02 3.603428e+03 3.650884e+03 9.135636e+04 4.403910e+03 5.682272e+05 7.219383e+03 9.288521e+05 5.657411e+03 9.340041e+05 4.123035e+03 7.922112e+05 1.072775e+05 8.456268e+05 2.000000e+00 2.000000e+00 5.347866e+00 2.488492e+01 2.146162e+01 2.165227e+02 5.768179e+01 5.878467e+02 5.979148e+01 5.988403e+02 3.901042e+01 4.240607e+02 2.000000e+00 2.000000e+00 3.990956e+00 7.777163e+00 5.986233e+00 7.043687e+01 1.475938e+01 1.730498e+02 1.401511e+01 1.899371e+02 9.007020e+00 1.385729e+02 1.533834e+02 1.219157e+03
<GCONST> 4.624308e+02
<STATE> 5
<MEAN> 52
 4.662857e+01 2.058923e+02 1.314374e+02 9.236298e+02 1.040881e+02 9.702260e+02 1.158242e+02 1.054115e+03 1.122619e+02 9.820063e+02 9.666432e+01 9.816133e+02 -5.568960e+01 2.048941e+02 -1.241854e+02 1.018569e+03 -7.069118e+01 1.372534e+03 -7.167084e+01 1.601132e+03 -5.748956e+01 1.450571e+03 -5.060418e+01 1.401263e+03 2.966877e+02 -4.533275e+02 -1.135821e-03 -2.459577e-03 3.304139e-03 -8.179184e-02 2.145477e-03 2.247078e-02 8.964762e-03 1.525604e-01 -2.469501e-03 2.075074e-01 1.169048e-03 1.662272e-01 1.280974e-03 5.909980e-04 1.751993e-03 -1.491320e-02 4.220420e-03 -7.106442e-02 1.637062e-04 -1.199305e-01 2.970365e-04 -1.048352e-01 -1.363987e-03 -8.823930e-02 1.232549e-03 2.925342e-01
<VARIANCE> 52
 2.477370e+02 4.245919e+03 6.497110e+03 1.395839e+05 1.006425e+04 8.230121e+05 1.845994e+04 1.192255e+06 1.823084e+04 1.213674e+06 1.300605e+04 1.111360e+06 2.921291e+02 3.603428e+03 3.650884e+03 9.135636e+04 4.403910e+03 5.682272e+05 7.219383e+03 9.288521e+05 5.657411e+03 9.340041e+05 4.123035e+03 7.922112e+05 1.072775e+05 8.456268e+05 2.000000e+00 2.000000e+00 5.347866e+00 2.488492e+01 2.146162e+01 2.165227e+02 5.768179e+01 5.878467e+02 5.979148e+01 5.988403e+02 3.901042e+01 4.240607e+02 2.000000e+00 2.000000e+00 3.990956e+00 7.777163e+00 5.986233e+00 7.043687e+01 1.475938e+01 1.730498e+02 1.401511e+01 1.899371e+02 9.007020e+00 1.385729e+02 1.533834e+02 1.219157e+03
<GCONST> 4.624308e+02
<STATE> 6
<MEAN> 52
 4.662857e+01 2.058923e+02 1.314374e+02 9.236298e+02 1.040881e+02 9.702260e+02 1.158242e+02 1.054115e+03 1.122619e+02 9.820063e+02 9.666432e+01 9.816133e+02 -5.568960e+01 2.048941e+02 -1.241854e+02 1.018569e+03 -7.069118e+01 1.372534e+03 -7.167084e+01 1.601132e+03 -5.748956e+01 1.450571e+03 -5.060418e+01 1.401263e+03 2.966877e+02 -4.533275e+02 -1.135821e-03 -2.459577e-03 3.304139e-03 -8.179184e-02 2.145477e-03 2.247078e-02 8.964762e-03 1.525604e-01 -2.469501e-03 2.075074e-01 1.169048e-03 1.662272e-01 1.280974e-03 5.909980e-04 1.751993e-03 -1.491320e-02 4.220420e-03 -7.106442e-02 1.637062e-04 -1.199305e-01 2.970365e-04 -1.048352e-01 -1.363987e-03 -8.823930e-02 1.232549e-03 2.925342e-01
<VARIANCE> 52
 2.477370e+02 4.245919e+03 6.497110e+03 1.395839e+05 1.006425e+04 8.230121e+05 1.845994e+04 1.192255e+06 1.823084e+04 1.213674e+06 1.300605e+04 1.111360e+06 2.921291e+02 3.603428e+03 3.650884e+03 9.135636e+04 4.403910e+03 5.682272e+05 7.219383e+03 9.288521e+05 5.657411e+03 9.340041e+05 4.123035e+03 7.922112e+05 1.072775e+05 8.456268e+05 2.000000e+00 2.000000e+00 5.347866e+00 2.488492e+01 2.146162e+01 2.165227e+02 5.768179e+01 5.878467e+02 5.979148e+01 5.988403e+02 3.901042e+01 4.240607e+02 2.000000e+00 2.000000e+00 3.990956e+00 7.777163e+00 5.986233e+00 7.043687e+01 1.475938e+01 1.730498e+02 1.401511e+01 1.899371e+02 9.007020e+00 1.385729e+02 1.533834e+02 1.219157e+03
<GCONST> 4.624308e+02
<STATE> 7
<MEAN> 52
 4.662857e+01 2.058923e+02 1.314374e+02 9.236298e+02 1.040881e+02 9.702260e+02 1.158242e+02 1.054115e+03 1.122619e+02 9.820063e+02 9.666432e+01 9.816133e+02 -5.568960e+01 2.048941e+02 -1.241854e+02 1.018569e+03 -7.069118e+01 1.372534e+03 -7.167084e+01 1.601132e+03 -5.748956e+01 1.450571e+03 -5.060418e+01 1.401263e+03 2.966877e+02 -4.533275e+02 -1.135821e-03 -2.459577e-03 3.304139e-03 -8.179184e-02 2.145477e-03 2.247078e-02 8.964762e-03 1.525604e-01 -2.469501e-03 2.075074e-01 1.169048e-03 1.662272e-01 1.280974e-03 5.909980e-04 1.751993e-03 -1.491320e-02 4.220420e-03 -7.106442e-02 1.637062e-04 -1.199305e-01 2.970365e-04 -1.048352e-01 -1.363987e-03 -8.823930e-02 1.232549e-03 2.925342e-01
<VARIANCE> 52
 2.477370e+02 4.245919e+03 6.497110e+03 1.395839e+05 1.006425e+04 8.230121e+05 1.845994e+04 1.192255e+06 1.823084e+04 1.213674e+06 1.300605e+04 1.111360e+06 2.921291e+02 3.603428e+03 3.650884e+03 9.135636e+04 4.403910e+03 5.682272e+05 7.219383e+03 9.288521e+05 5.657411e+03 9.340041e+05 4.123035e+03 7.922112e+05 1.072775e+05 8.456268e+05 2.000000e+00 2.000000e+00 5.347866e+00 2.488492e+01 2.146162e+01 2.165227e+02 5.768179e+01 5.878467e+02 5.979148e+01 5.988403e+02 3.901042e+01 4.240607e+02 2.000000e+00 2.000000e+00 3.990956e+00 7.777163e+00 5.986233e+00 7.043687e+01 1.475938e+01 1.730498e+02 1.401511e+01 1.899371e+02 9.007020e+00 1.385729e+02 1.533834e+02 1.219157e+03
<GCONST> 4.624308e+02
<STATE> 8
<MEAN> 52
 4.662857e+01 2.058923e+02 1.314374e+02 9.236298e+02 1.040881e+02 9.702260e+02 1.158242e+02 1.054115e+03 1.122619e+02 9.820063e+02 9.666432e+01 9.816133e+02 -5.568960e+01 2.048941e+02 -1.241854e+02 1.018569e+03 -7.069118e+01 1.372534e+03 -7.167084e+01 1.601132e+03 -5.748956e+01 1.450571e+03 -5.060418e+01 1.401263e+03 2.966877e+02 -4.533275e+02 -1.135821e-03 -2.459577e-03 3.304139e-03 -8.179184e-02 2.145477e-03 2.247078e-02 8.964762e-03 1.525604e-01 -2.469501e-03 2.075074e-01 1.169048e-03 1.662272e-01 1.280974e-03 5.909980e-04 1.751993e-03 -1.491320e-02 4.220420e-03 -7.106442e-02 1.637062e-04 -1.199305e-01 2.970365e-04 -1.048352e-01 -1.363987e-03 -8.823930e-02 1.232549e-03 2.925342e-01
<VARIANCE> 52
 2.477370e+02 4.245919e+03 6.497110e+03 1.395839e+05 1.006425e+04 8.230121e+05 1.845994e+04 1.192255e+06 1.823084e+04 1.213674e+06 1.300605e+04 1.111360e+06 2.921291e+02 3.603428e+03 3.650884e+03 9.135636e+04 4.403910e+03 5.682272e+05 7.219383e+03 9.288521e+05 5.657411e+03 9.340041e+05 4.123035e+03 7.922112e+05 1.072775e+05 8.456268e+05 2.000000e+00 2.000000e+00 5.347866e+00 2.488492e+01 2.146162e+01 2.165227e+02 5.768179e+01 5.878467e+02 5.979148e+01 5.988403e+02 3.901042e+01 4.240607e+02 2.000000e+00 2.000000e+00 3.990956e+00 7.777163e+00 5.986233e+00 7.043687e+01 1.475938e+01 1.730498e+02 1.401511e+01 1.899371e+02 9.007020e+00 1.385729e+02 1.533834e+02 1.219157e+03
<GCONST> 4.624308e+02
<STATE> 9
<MEAN> 52
 4.662857e+01 2.058923e+02 1.314374e+02 9.236298e+02 1.040881e+02 9.702260e+02 1.158242e+02 1.054115e+03 1.122619e+02 9.820063e+02 9.666432e+01 9.816133e+02 -5.568960e+01 2.048941e+02 -1.241854e+02 1.018569e+03 -7.069118e+01 1.372534e+03 -7.167084e+01 1.601132e+03 -5.748956e+01 1.450571e+03 -5.060418e+01 1.401263e+03 2.966877e+02 -4.533275e+02 -1.135821e-03 -2.459577e-03 3.304139e-03 -8.179184e-02 2.145477e-03 2.247078e-02 8.964762e-03 1.525604e-01 -2.469501e-03 2.075074e-01 1.169048e-03 1.662272e-01 1.280974e-03 5.909980e-04 1.751993e-03 -1.491320e-02 4.220420e-03 -7.106442e-02 1.637062e-04 -1.199305e-01 2.970365e-04 -1.048352e-01 -1.363987e-03 -8.823930e-02 1.232549e-03 2.925342e-01
<VARIANCE> 52
 2.477370e+02 4.245919e+03 6.497110e+03 1.395839e+05 1.006425e+04 8.230121e+05 1.845994e+04 1.192255e+06 1.823084e+04 1.213674e+06 1.300605e+04 1.111360e+06 2.921291e+02 3.603428e+03 3.650884e+03 9.135636e+04 4.403910e+03 5.682272e+05 7.219383e+03 9.288521e+05 5.657411e+03 9.340041e+05 4.123035e+03 7.922112e+05 1.072775e+05 8.456268e+05 2.000000e+00 2.000000e+00 5.347866e+00 2.488492e+01 2.146162e+01 2.165227e+02 5.768179e+01 5.878467e+02 5.979148e+01 5.988403e+02 3.901042e+01 4.240607e+02 2.000000e+00 2.000000e+00 3.990956e+00 7.777163e+00 5.986233e+00 7.043687e+01 1.475938e+01 1.730498e+02 1.401511e+01 1.899371e+02 9.007020e+00 1.385729e+02 1.533834e+02 1.219157e+03
<GCONST> 4.624308e+02
<STATE> 10
<MEAN> 52
 4.662857e+01 2.058923e+02 1.314374e+02 9.236298e+02 1.040881e+02 9.702260e+02 1.158242e+02 1.054115e+03 1.122619e+02 9.820063e+02 9.666432e+01 9.816133e+02 -5.568960e+01 2.048941e+02 -1.241854e+02 1.018569e+03 -7.069118e+01 1.372534e+03 -7.167084e+01 1.601132e+03 -5.748956e+01 1.450571e+03 -5.060418e+01 1.401263e+03 2.966877e+02 -4.533275e+02 -1.135821e-03 -2.459577e-03 3.304139e-03 -8.179184e-02 2.145477e-03 2.247078e-02 8.964762e-03 1.525604e-01 -2.469501e-03 2.075074e-01 1.169048e-03 1.662272e-01 1.280974e-03 5.909980e-04 1.751993e-03 -1.491320e-02 4.220420e-03 -7.106442e-02 1.637062e-04 -1.199305e-01 2.970365e-04 -1.048352e-01 -1.363987e-03 -8.823930e-02 1.232549e-03 2.925342e-01
<VARIANCE> 52
 2.477370e+02 4.245919e+03 6.497110e+03 1.395839e+05 1.006425e+04 8.230121e+05 1.845994e+04 1.192255e+06 1.823084e+04 1.213674e+06 1.300605e+04 1.111360e+06 2.921291e+02 3.603428e+03 3.650884e+03 9.135636e+04 4.403910e+03 5.682272e+05 7.219383e+03 9.288521e+05 5.657411e+03 9.340041e+05 4.123035e+03 7.922112e+05 1.072775e+05 8.456268e+05 2.000000e+00 2.000000e+00 5.347866e+00 2.488492e+01 2.146162e+01 2.165227e+02 5.768179e+01 5.878467e+02 5.979148e+01 5.988403e+02 3.901042e+01 4.240607e+02 2.000000e+00 2.000000e+00 3.990956e+00 7.777163e+00 5.986233e+00 7.043687e+01 1.475938e+01 1.730498e+02 1.401511e+01 1.899371e+02 9.007020e+00 1.385729e+02 1.533834e+02 1.219157e+03
<GCONST> 4.624308e+02
<STATE> 11
<MEAN> 52
 4.662857e+01 2.058923e+02 1.314374e+02 9.236298e+02 1.040881e+02 9.702260e+02 1.158242e+02 1.054115e+03 1.122619e+02 9.820063e+02 9.666432e+01 9.816133e+02 -5.568960e+01 2.048941e+02 -1.241854e+02 1.018569e+03 -7.069118e+01 1.372534e+03 -7.167084e+01 1.601132e+03 -5.748956e+01 1.450571e+03 -5.060418e+01 1.401263e+03 2.966877e+02 -4.533275e+02 -1.135821e-03 -2.459577e-03 3.304139e-03 -8.179184e-02 2.145477e-03 2.247078e-02 8.964762e-03 1.525604e-01 -2.469501e-03 2.075074e-01 1.169048e-03 1.662272e-01 1.280974e-03 5.909980e-04 1.751993e-03 -1.491320e-02 4.220420e-03 -7.106442e-02 1.637062e-04 -1.199305e-01 2.970365e-04 -1.048352e-01 -1.363987e-03 -8.823930e-02 1.232549e-03 2.925342e-01
<VARIANCE> 52
 2.477370e+02 4.245919e+03 6.497110e+03 1.395839e+05 1.006425e+04 8.230121e+05 1.845994e+04 1.192255e+06 1.823084e+04 1.213674e+06 1.300605e+04 1.111360e+06 2.921291e+02 3.603428e+03 3.650884e+03 9.135636e+04 4.403910e+03 5.682272e+05 7.219383e+03 9.288521e+05 5.657411e+03 9.340041e+05 4.123035e+03 7.922112e+05 1.072775e+05 8.456268e+05 2.000000e+00 2.000000e+00 5.347866e+00 2.488492e+01 2.146162e+01 2.165227e+02 5.768179e+01 5.878467e+02 5.979148e+01 5.988403e+02 3.901042e+01 4.240607e+02 2.000000e+00 2.000000e+00 3.990956e+00 7.777163e+00 5.986233e+00 7.043687e+01 1.475938e+01 1.730498e+02 1.401511e+01 1.899371e+02 9.007020e+00 1.385729e+02 1.533834e+02 1.219157e+03
<GCONST> 4.624308e+02
<STATE> 12
<MEAN> 52
 4.662857e+01 2.058923e+02 1.314374e+02 9.236298e+02 1.040881e+02 9.702260e+02 1.158242e+02 1.054115e+03 1.122619e+02 9.820063e+02 9.666432e+01 9.816133e+02 -5.568960e+01 2.048941e+02 -1.241854e+02 1.018569e+03 -7.069118e+01 1.372534e+03 -7.167084e+01 1.601132e+03 -5.748956e+01 1.450571e+03 -5.060418e+01 1.401263e+03 2.966877e+02 -4.533275e+02 -1.135821e-03 -2.459577e-03 3.304139e-03 -8.179184e-02 2.145477e-03 2.247078e-02 8.964762e-03 1.525604e-01 -2.469501e-03 2.075074e-01 1.169048e-03 1.662272e-01 1.280974e-03 5.909980e-04 1.751993e-03 -1.491320e-02 4.220420e-03 -7.106442e-02 1.637062e-04 -1.199305e-01 2.970365e-04 -1.048352e-01 -1.363987e-03 -8.823930e-02 1.232549e-03 2.925342e-01
<VARIANCE> 52
 2.477370e+02 4.245919e+03 6.497110e+03 1.395839e+05 1.006425e+04 8.230121e+05 1.845994e+04 1.192255e+06 1.823084e+04 1.213674e+06 1.300605e+04 1.111360e+06 2.921291e+02 3.603428e+03 3.650884e+03 9.135636e+04 4.403910e+03 5.682272e+05 7.219383e+03 9.288521e+05 5.657411e+03 9.340041e+05 4.123035e+03 7.922112e+05 1.072775e+05 8.456268e+05 2.000000e+00 2.000000e+00 5.347866e+00 2.488492e+01 2.146162e+01 2.165227e+02 5.768179e+01 5.878467e+02 5.979148e+01 5.988403e+02 3.901042e+01 4.240607e+02 2.000000e+00 2.000000e+00 3.990956e+00 7.777163e+00 5.986233e+00 7.043687e+01 1.475938e+01 1.730498e+02 1.401511e+01 1.899371e+02 9.007020e+00 1.385729e+02 1.533834e+02 1.219157e+03
<GCONST> 4.624308e+02
<STATE> 13
<MEAN> 52
 4.662857e+01 2.058923e+02 1.314374e+02 9.236298e+02 1.040881e+02 9.702260e+02 1.158242e+02 1.054115e+03 1.122619e+02 9.820063e+02 9.666432e+01 9.816133e+02 -5.568960e+01 2.048941e+02 -1.241854e+02 1.018569e+03 -7.069118e+01 1.372534e+03 -7.167084e+01 1.601132e+03 -5.748956e+01 1.450571e+03 -5.060418e+01 1.401263e+03 2.966877e+02 -4.533275e+02 -1.135821e-03 -2.459577e-03 3.304139e-03 -8.179184e-02 2.145477e-03 2.247078e-02 8.964762e-03 1.525604e-01 -2.469501e-03 2.075074e-01 1.169048e-03 1.662272e-01 1.280974e-03 5.909980e-04 1.751993e-03 -1.491320e-02 4.220420e-03 -7.106442e-02 1.637062e-04 -1.199305e-01 2.970365e-04 -1.048352e-01 -1.363987e-03 -8.823930e-02 1.232549e-03 2.925342e-01
<VARIANCE> 52
 2.477370e+02 4.245919e+03 6.497110e+03 1.395839e+05 1.006425e+04 8.230121e+05 1.845994e+04 1.192255e+06 1.823084e+04 1.213674e+06 1.300605e+04 1.111360e+06 2.921291e+02 3.603428e+03 3.650884e+03 9.135636e+04 4.403910e+03 5.682272e+05 7.219383e+03 9.288521e+05 5.657411e+03 9.340041e+05 4.123035e+03 7.922112e+05 1.072775e+05 8.456268e+05 2.000000e+00 2.000000e+00 5.347866e+00 2.488492e+01 2.146162e+01 2.165227e+02 5.768179e+01 5.878467e+02 5.979148e+01 5.988403e+02 3.901042e+01 4.240607e+02 2.000000e+00 2.000000e+00 3.990956e+00 7.777163e+00 5.986233e+00 7.043687e+01 1.475938e+01 1.730498e+02 1.401511e+01 1.899371e+02 9.007020e+00 1.385729e+02 1.533834e+02 1.219157e+03
<GCONST> 4.624308e+02
<STATE> 14
<MEAN> 52
 4.662857e+01 2.058923e+02 1.314374e+02 9.236298e+02 1.040881e+02 9.702260e+02 1.158242e+02 1.054115e+03 1.122619e+02 9.820063e+02 9.666432e+01 9.816133e+02 -5.568960e+01 2.048941e+02 -1.241854e+02 1.018569e+03 -7.069118e+01 1.372534e+03 -7.167084e+01 1.601132e+03 -5.748956e+01 1.450571e+03 -5.060418e+01 1.401263e+03 2.966877e+02 -4.533275e+02 -1.135821e-03 -2.459577e-03 3.304139e-03 -8.179184e-02 2.145477e-03 2.247078e-02 8.964762e-03 1.525604e-01 -2.469501e-03 2.075074e-01 1.169048e-03 1.662272e-01 1.280974e-03 5.909980e-04 1.751993e-03 -1.491320e-02 4.220420e-03 -7.106442e-02 1.637062e-04 -1.199305e-01 2.970365e-04 -1.048352e-01 -1.363987e-03 -8.823930e-02 1.232549e-03 2.925342e-01
<VARIANCE> 52
 2.477370e+02 4.245919e+03 6.497110e+03 1.395839e+05 1.006425e+04 8.230121e+05 1.845994e+04 1.192255e+06 1.823084e+04 1.213674e+06 1.300605e+04 1.111360e+06 2.921291e+02 3.603428e+03 3.650884e+03 9.135636e+04 4.403910e+03 5.682272e+05 7.219383e+03 9.288521e+05 5.657411e+03 9.340041e+05 4.123035e+03 7.922112e+05 1.072775e+05 8.456268e+05 2.000000e+00 2.000000e+00 5.347866e+00 2.488492e+01 2.146162e+01 2.165227e+02 5.768179e+01 5.878467e+02 5.979148e+01 5.988403e+02 3.901042e+01 4.240607e+02 2.000000e+00 2.000000e+00 3.990956e+00 7.777163e+00 5.986233e+00 7.043687e+01 1.475938e+01 1.730498e+02 1.401511e+01 1.899371e+02 9.007020e+00 1.385729e+02 1.533834e+02 1.219157e+03
<GCONST> 4.624308e+02
<STATE> 15
<MEAN> 52
 4.662857e+01 2.058923e+02 1.314374e+02 9.236298e+02 1.040881e+02 9.702260e+02 1.158242e+02 1.054115e+03 1.122619e+02 9.820063e+02 9.666432e+01 9.816133e+02 -5.568960e+01 2.048941e+02 -1.241854e+02 1.018569e+03 -7.069118e+01 1.372534e+03 -7.167084e+01 1.601132e+03 -5.748956e+01 1.450571e+03 -5.060418e+01 1.401263e+03 2.966877e+02 -4.533275e+02 -1.135821e-03 -2.459577e-03 3.304139e-03 -8.179184e-02 2.145477e-03 2.247078e-02 8.964762e-03 1.525604e-01 -2.469501e-03 2.075074e-01 1.169048e-03 1.662272e-01 1.280974e-03 5.909980e-04 1.751993e-03 -1.491320e-02 4.220420e-03 -7.106442e-02 1.637062e-04 -1.199305e-01 2.970365e-04 -1.048352e-01 -1.363987e-03 -8.823930e-02 1.232549e-03 2.925342e-01
<VARIANCE> 52
 2.477370e+02 4.245919e+03 6.497110e+03 1.395839e+05 1.006425e+04 8.230121e+05 1.845994e+04 1.192255e+06 1.823084e+04 1.213674e+06 1.300605e+04 1.111360e+06 2.921291e+02 3.603428e+03 3.650884e+03 9.135636e+04 4.403910e+03 5.682272e+05 7.219383e+03 9.288521e+05 5.657411e+03 9.340041e+05 4.123035e+03 7.922112e+05 1.072775e+05 8.456268e+05 2.000000e+00 2.000000e+00 5.347866e+00 2.488492e+01 2.146162e+01 2.165227e+02 5.768179e+01 5.878467e+02 5.979148e+01 5.988403e+02 3.901042e+01 4.240607e+02 2.000000e+00 2.000000e+00 3.990956e+00 7.777163e+00 5.986233e+00 7.043687e+01 1.475938e+01 1.730498e+02 1.401511e+01 1.899371e+02 9.007020e+00 1.385729e+02 1.533834e+02 1.219157e+03
<GCONST> 4.624308e+02
<STATE> 16
<MEAN> 52
 4.662857e+01 2.058923e+02 1.314374e+02 9.236298e+02 1.040881e+02 9.702260e+02 1.158242e+02 1.054115e+03 1.122619e+02 9.820063e+02 9.666432e+01 9.816133e+02 -5.568960e+01 2.048941e+02 -1.241854e+02 1.018569e+03 -7.069118e+01 1.372534e+03 -7.167084e+01 1.601132e+03 -5.748956e+01 1.450571e+03 -5.060418e+01 1.401263e+03 2.966877e+02 -4.533275e+02 -1.135821e-03 -2.459577e-03 3.304139e-03 -8.179184e-02 2.145477e-03 2.247078e-02 8.964762e-03 1.525604e-01 -2.469501e-03 2.075074e-01 1.169048e-03 1.662272e-01 1.280974e-03 5.909980e-04 1.751993e-03 -1.491320e-02 4.220420e-03 -7.106442e-02 1.637062e-04 -1.199305e-01 2.970365e-04 -1.048352e-01 -1.363987e-03 -8.823930e-02 1.232549e-03 2.925342e-01
<VARIANCE> 52
 2.477370e+02 4.245919e+03 6.497110e+03 1.395839e+05 1.006425e+04 8.230121e+05 1.845994e+04 1.192255e+06 1.823084e+04 1.213674e+06 1.300605e+04 1.111360e+06 2.921291e+02 3.603428e+03 3.650884e+03 9.135636e+04 4.403910e+03 5.682272e+05 7.219383e+03 9.288521e+05 5.657411e+03 9.340041e+05 4.123035e+03 7.922112e+05 1.072775e+05 8.456268e+05 2.000000e+00 2.000000e+00 5.347866e+00 2.488492e+01 2.146162e+01 2.165227e+02 5.768179e+01 5.878467e+02 5.979148e+01 5.988403e+02 3.901042e+01 4.240607e+02 2.000000e+00 2.000000e+00 3.990956e+00 7.777163e+00 5.986233e+00 7.043687e+01 1.475938e+01 1.730498e+02 1.401511e+01 1.899371e+02 9.007020e+00 1.385729e+02 1.533834e+02 1.219157e+03
<GCONST> 4.624308e+02
<STATE> 17
<MEAN> 52
 4.662857e+01 2.058923e+02 1.314374e+02 9.236298e+02 1.040881e+02 9.702260e+02 1.158242e+02 1.054115e+03 1.122619e+02 9.820063e+02 9.666432e+01 9.816133e+02 -5.568960e+01 2.048941e+02 -1.241854e+02 1.018569e+03 -7.069118e+01 1.372534e+03 -7.167084e+01 1.601132e+03 -5.748956e+01 1.450571e+03 -5.060418e+01 1.401263e+03 2.966877e+02 -4.533275e+02 -1.135821e-03 -2.459577e-03 3.304139e-03 -8.179184e-02 2.145477e-03 2.247078e-02 8.964762e-03 1.525604e-01 -2.469501e-03 2.075074e-01 1.169048e-03 1.662272e-01 1.280974e-03 5.909980e-04 1.751993e-03 -1.491320e-02 4.220420e-03 -7.106442e-02 1.637062e-04 -1.199305e-01 2.970365e-04 -1.048352e-01 -1.363987e-03 -8.823930e-02 1.232549e-03 2.925342e-01
<VARIANCE> 52
 2.477370e+02 4.245919e+03 6.497110e+03 1.395839e+05 1.006425e+04 8.230121e+05 1.845994e+04 1.192255e+06 1.823084e+04 1.213674e+06 1.300605e+04 1.111360e+06 2.921291e+02 3.603428e+03 3.650884e+03 9.135636e+04 4.403910e+03 5.682272e+05 7.219383e+03 9.288521e+05 5.657411e+03 9.340041e+05 4.123035e+03 7.922112e+05 1.072775e+05 8.456268e+05 2.000000e+00 2.000000e+00 5.347866e+00 2.488492e+01 2.146162e+01 2.165227e+02 5.768179e+01 5.878467e+02 5.979148e+01 5.988403e+02 3.901042e+01 4.240607e+02 2.000000e+00 2.000000e+00 3.990956e+00 7.777163e+00 5.986233e+00 7.043687e+01 1.475938e+01 1.730498e+02 1.401511e+01 1.899371e+02 9.007020e+00 1.385729e+02 1.533834e+02 1.219157e+03
<GCONST> 4.624308e+02
<STATE> 18
<MEAN> 52
 4.662857e+01 2.058923e+02 1.314374e+02 9.236298e+02 1.040881e+02 9.702260e+02 1.158242e+02 1.054115e+03 1.122619e+02 9.820063e+02 9.666432e+01 9.816133e+02 -5.568960e+01 2.048941e+02 -1.241854e+02 1.018569e+03 -7.069118e+01 1.372534e+03 -7.167084e+01 1.601132e+03 -5.748956e+01 1.450571e+03 -5.060418e+01 1.401263e+03 2.966877e+02 -4.533275e+02 -1.135821e-03 -2.459577e-03 3.304139e-03 -8.179184e-02 2.145477e-03 2.247078e-02 8.964762e-03 1.525604e-01 -2.469501e-03 2.075074e-01 1.169048e-03 1.662272e-01 1.280974e-03 5.909980e-04 1.751993e-03 -1.491320e-02 4.220420e-03 -7.106442e-02 1.637062e-04 -1.199305e-01 2.970365e-04 -1.048352e-01 -1.363987e-03 -8.823930e-02 1.232549e-03 2.925342e-01
<VARIANCE> 52
 2.477370e+02 4.245919e+03 6.497110e+03 1.395839e+05 1.006425e+04 8.230121e+05 1.845994e+04 1.192255e+06 1.823084e+04 1.213674e+06 1.300605e+04 1.111360e+06 2.921291e+02 3.603428e+03 3.650884e+03 9.135636e+04 4.403910e+03 5.682272e+05 7.219383e+03 9.288521e+05 5.657411e+03 9.340041e+05 4.123035e+03 7.922112e+05 1.072775e+05 8.456268e+05 2.000000e+00 2.000000e+00 5.347866e+00 2.488492e+01 2.146162e+01 2.165227e+02 5.768179e+01 5.878467e+02 5.979148e+01 5.988403e+02 3.901042e+01 4.240607e+02 2.000000e+00 2.000000e+00 3.990956e+00 7.777163e+00 5.986233e+00 7.043687e+01 1.475938e+01 1.730498e+02 1.401511e+01 1.899371e+02 9.007020e+00 1.385729e+02 1.533834e+02 1.219157e+03
<GCONST> 4.624308e+02
<STATE> 19
<MEAN> 52
 4.662857e+01 2.058923e+02 1.314374e+02 9.236298e+02 1.040881e+02 9.702260e+02 1.158242e+02 1.054115e+03 1.122619e+02 9.820063e+02 9.666432e+01 9.816133e+02 -5.568960e+01 2.048941e+02 -1.241854e+02 1.018569e+03 -7.069118e+01 1.372534e+03 -7.167084e+01 1.601132e+03 -5.748956e+01 1.450571e+03 -5.060418e+01 1.401263e+03 2.966877e+02 -4.533275e+02 -1.135821e-03 -2.459577e-03 3.304139e-03 -8.179184e-02 2.145477e-03 2.247078e-02 8.964762e-03 1.525604e-01 -2.469501e-03 2.075074e-01 1.169048e-03 1.662272e-01 1.280974e-03 5.909980e-04 1.751993e-03 -1.491320e-02 4.220420e-03 -7.106442e-02 1.637062e-04 -1.199305e-01 2.970365e-04 -1.048352e-01 -1.363987e-03 -8.823930e-02 1.232549e-03 2.925342e-01
<VARIANCE> 52
 2.477370e+02 4.245919e+03 6.497110e+03 1.395839e+05 1.006425e+04 8.230121e+05 1.845994e+04 1.192255e+06 1.823084e+04 1.213674e+06 1.300605e+04 1.111360e+06 2.921291e+02 3.603428e+03 3.650884e+03 9.135636e+04 4.403910e+03 5.682272e+05 7.219383e+03 9.288521e+05 5.657411e+03 9.340041e+05 4.123035e+03 7.922112e+05 1.072775e+05 8.456268e+05 2.000000e+00 2.000000e+00 5.347866e+00 2.488492e+01 2.146162e+01 2.165227e+02 5.768179e+01 5.878467e+02 5.979148e+01 5.988403e+02 3.901042e+01 4.240607e+02 2.000000e+00 2.000000e+00 3.990956e+00 7.777163e+00 5.986233e+00 7.043687e+01 1.475938e+01 1.730498e+02 1.401511e+01 1.899371e+02 9.007020e+00 1.385729e+02 1.533834e+02 1.219157e+03
<GCONST> 4.624308e+02
<TRANSP> 20
 0.000000e+00 1.000000e+00 0.000000e+00 0.000000e+00 0.000000e+00 0.000000e+00 0.000000e+00 0.000000e+00 0.000000e+00 0.000000e+00 0.000000e+00 0.000000e+00 0.000000e+00 0.000000e+00 0.000000e+00 0.000000e+00 0.000000e+00 0.000000e+00 0.000000e+00 0.000000e+00
 0.000000e+00 6.000000e-01 4.000000e-01 0.000000e+00 0.000000e+00 0.000000e+00 0.000000e+00 0.000000e+00 0.000000e+00 0.000000e+00 0.000000e+00 0.000000e+00 0.000000e+00 0.000000e+00 0.000000e+00 0.000000e+00 0.000000e+00 0.000000e+00 0.000000e+00 0.000000e+00
 0.000000e+00 0.000000e+00 6.000000e-01 4.000000e-01 0.000000e+00 0.000000e+00 0.000000e+00 0.000000e+00 0.000000e+00 0.000000e+00 0.000000e+00 0.000000e+00 0.000000e+00 0.000000e+00 0.000000e+00 0.000000e+00 0.000000e+00 0.000000e+00 0.000000e+00 0.000000e+00
 0.000000e+00 0.000000e+00 0.000000e+00 6.000000e-01 4.000000e-01 0.000000e+00 0.000000e+00 0.000000e+00 0.000000e+00 0.000000e+00 0.000000e+00 0.000000e+00 0.000000e+00 0.000000e+00 0.000000e+00 0.000000e+00 0.000000e+00 0.000000e+00 0.000000e+00 0.000000e+00
 0.000000e+00 0.000000e+00 0.000000e+00 0.000000e+00 6.000000e-01 4.000000e-01 0.000000e+00 0.000000e+00 0.000000e+00 0.000000e+00 0.000000e+00 0.000000e+00 0.000000e+00 0.000000e+00 0.000000e+00 0.000000e+00 0.000000e+00 0.000000e+00 0.000000e+00 0.000000e+00
 0.000000e+00 0.000000e+00 0.000000e+00 0.000000e+00 0.000000e+00 6.000000e-01 4.000000e-01 0.000000e+00 0.000000e+00 0.000000e+00 0.000000e+00 0.000000e+00 0.000000e+00 0.000000e+00 0.000000e+00 0.000000e+00 0.000000e+00 0.000000e+00 0.000000e+00 0.000000e+00
 0.000000e+00 0.000000e+00 0.000000e+00 0.000000e+00 0.000000e+00 0.000000e+00 6.000000e-01 4.000000e-01 0.000000e+00 0.000000e+00 0.000000e+00 0.000000e+00 0.000000e+00 0.000000e+00 0.000000e+00 0.000000e+00 0.000000e+00 0.000000e+00 0.000000e+00 0.000000e+00
 0.000000e+00 0.000000e+00 0.000000e+00 0.000000e+00 0.000000e+00 0.000000e+00 0.000000e+00 6.000000e-01 4.000000e-01 0.000000e+00 0.000000e+00 0.000000e+00 0.000000e+00 0.000000e+00 0.000000e+00 0.000000e+00 0.000000e+00 0.000000e+00 0.000000e+00 0.000000e+00
 0.000000e+00 0.000000e+00 0.000000e+00 0.000000e+00 0.000000e+00 0.000000e+00 0.000000e+00 0.000000e+00 6.000000e-01 4.000000e-01 0.000000e+00 0.000000e+00 0.000000e+00 0.000000e+00 0.000000e+00 0.000000e+00 0.000000e+00 0.000000e+00 0.000000e+00 0.000000e+00
 0.000000e+00 0.000000e+00 0.000000e+00 0.000000e+00 0.000000e+00 0.000000e+00 0.000000e+00 0.000000e+00 0.000000e+00 6.000000e-01 4.000000e-01 0.000000e+00 0.000000e+00 0.000000e+00 0.000000e+00 0.000000e+00 0.000000e+00 0.000000e+00 0.000000e+00 0.000000e+00
 0.000000e+00 0.000000e+00 0.000000e+00 0.000000e+00 0.000000e+00 0.000000e+00 0.000000e+00 0.000000e+00 0.000000e+00 0.000000e+00 6.000000e-01 4.000000e-01 0.000000e+00 0.000000e+00 0.000000e+00 0.000000e+00 0.000000e+00 0.000000e+00 0.000000e+00 0.000000e+00
 0.000000e+00 0.000000e+00 0.000000e+00 0.000000e+00 0.000000e+00 0.000000e+00 0.000000e+00 0.000000e+00 0.000000e+00 0.000000e+00 0.000000e+00 6.000000e-01 4.000000e-01 0.000000e+00 0.000000e+00 0.000000e+00 0.000000e+00 0.000000e+00 0.000000e+00 0.000000e+00
 0.000000e+00 0.000000e+00 0.000000e+00 0.000000e+00 0.000000e+00 0.000000e+00 0.000000e+00 0.000000e+00 0.000000e+00 0.000000e+00 0.000000e+00 0.000000e+00 6.000000e-01 4.000000e-01 0.000000e+00 0.000000e+00 0.000000e+00 0.000000e+00 0.000000e+00 0.000000e+00
 0.000000e+00 0.000000e+00 0.000000e+00 0.000000e+00 0.000000e+00 0.000000e+00 0.000000e+00 0.000000e+00 0.000000e+00 0.000000e+00 0.000000e+00 0.000000e+00 0.000000e+00 6.000000e-01 4.000000e-01 0.000000e+00 0.000000e+00 0.000000e+00 0.000000e+00 0.000000e+00
 0.000000e+00 0.000000e+00 0.000000e+00 0.000000e+00 0.000000e+00 0.000000e+00 0.000000e+00 0.000000e+00 0.000000e+00 0.000000e+00 0.000000e+00 0.000000e+00 0.000000e+00 0.000000e+00 6.000000e-01 4.000000e-01 0.000000e+00 0.000000e+00 0.000000e+00 0.000000e+00
 0.000000e+00 0.000000e+00 0.000000e+00 0.000000e+00 0.000000e+00 0.000000e+00 0.000000e+00 0.000000e+00 0.000000e+00 0.000000e+00 0.000000e+00 0.000000e+00 0.000000e+00 0.000000e+00 0.000000e+00 6.000000e-01 4.000000e-01 0.000000e+00 0.000000e+00 0.000000e+00
 0.000000e+00 0.000000e+00 0.000000e+00 0.000000e+00 0.000000e+00 0.000000e+00 0.000000e+00 0.000000e+00 0.000000e+00 0.000000e+00 0.000000e+00 0.000000e+00 0.000000e+00 0.000000e+00 0.000000e+00 0.000000e+00 6.000000e-01 4.000000e-01 0.000000e+00 0.000000e+00
 0.000000e+00 0.000000e+00 0.000000e+00 0.000000e+00 0.000000e+00 0.000000e+00 0.000000e+00 0.000000e+00 0.000000e+00 0.000000e+00 0.000000e+00 0.000000e+00 0.000000e+00 0.000000e+00 0.000000e+00 0.000000e+00 0.000000e+00 6.000000e-01 4.000000e-01 0.000000e+00
 0.000000e+00 0.000000e+00 0.000000e+00 0.000000e+00 0.000000e+00 0.000000e+00 0.000000e+00 0.000000e+00 0.000000e+00 0.000000e+00 0.000000e+00 0.000000e+00 0.000000e+00 0.000000e+00 0.000000e+00 0.000000e+00 0.000000e+00 0.000000e+00 6.000000e-01 4.000000e-01
 0.000000e+00 0.000000e+00 0.000000e+00 0.000000e+00 0.000000e+00 0.000000e+00 0.000000e+00 0.000000e+00 0.000000e+00 0.000000e+00 0.000000e+00 0.000000e+00 0.000000e+00 0.000000e+00 0.000000e+00 0.000000e+00 0.000000e+00 0.000000e+00 0.000000e+00 0.000000e+00
<ENDHMM>