~o
<STREAMINFO> 1 52
<VECSIZE> 52<NULLD><USER><DIAGC>
~h "lion"
<BEGINHMM>
<NUMSTATES> 20
<STATE> 2
<MEAN> 52
 4.968578e+01 2.502634e+02 1.059536e+02 1.216872e+03 2.388362e+02 2.390406e+03 3.137277e+02 2.765279e+03 3.148978e+02 2.748184e+03 2.634410e+02 2.669187e+03 -6.127292e+01 2.377445e+02 -9.600533e+01 1.199315e+03 -7.525452e+01 2.207778e+03 -8.153040e+01 2.631918e+03 -5.889696e+01 2.469763e+03 -4.864392e+01 2.346301e+03 6.290194e+02 2.029570e+01 9.759412e-03 1.204593e-03 8.167345e-03 -7.610180e-03 7.876772e-03 -1.163105e-02 1.065186e-02 -8.357893e-03 9.276727e-03 -1.505959e-02 8.022648e-03 -1.636921e-02 1.029843e-02 9.512496e-03 2.345952e-04 -5.871203e-03 1.221675e-03 -8.698907e-03 1.053795e-03 -1.828943e-03 4.578365e-03 -4.918969e-03 4.053491e-03 -7.495286e-03 1.094055e-03 -1.210400e-02
<VARIANCE> 52
 2.931963e+02 9.484975e+03 8.629821e+02 1.346627e+05 6.332403e+03 2.614090e+05 1.147984e+04 2.947949e+05 1.324319e+04 2.578825e+05 9.888653e+03 2.542814e+05 2.010186e+02 8.337416e+03 5.200180e+02 1.565146e+05 1.140204e+03 5.010624e+05 2.196126e+03 6.786929e+05 1.730344e+03 6.605820e+05 1.186904e+03 5.818141e+05 3.269806e+04 2.319506e+03 1.000000e-01 1.000000e-01 1.000000e-01 1.000000e-01 1.000000e-01 1.000000e-01 1.000000e-01 1.319238e-01 1.000000e-01 1.821477e-01 1.000000e-01 1.445552e-01 1.000000e-01 1.000000e-01 1.000000e-01 1.000000e-01 1.000000e-01 1.000000e-01 1.000000e-01 1.000000e-01 1.000000e-01 1.033133e-01 1.000000e-01 1.000000e-01 1.000000e-01 3.507067e-01
<GCONST> 2.915974e+02
<STATE> 3
<MEAN> 52
 4.922998e+01 2.611313e+02 1.028638e+02 1.236895e+03 2.300897e+02 2.302926e+03 3.026973e+02 2.653000e+03 3.034348e+02 2.614202e+03 2.536979e+02 2.542160e+03 -6.878074e+01 2.593772e+02 -1.238508e+02 1.310138e+03 -1.387536e+02 2.697615e+03 -1.654823e+02 3.215990e+03 -1.340979e+02 3.124737e+03 -1.106885e+02 2.960797e+03 8.020094e+02 -5.781586e+01 1.333200e-02 -2.257435e-02 -1.177330e-03 -2.534419e-01 -1.174056e-01 -1.662575e+00 -2.234750e-01 -2.097106e+00 -2.737415e-01 -2.675218e+00 -2.211393e-01 -2.501098e+00 1.068777e-02 8.419418e-03 -3.887081e-02 -1.702270e-01 -3.293442e-02 -6.823499e-01 -1.805508e-02 -8.374144e-01 -1.547963e-02 -1.065330e+00 -1.791270e-02 -9.762711e-01 -2.757496e-01 -1.559388e+00
<VARIANCE> 52
 2.041121e+02 5.104909e+03 6.949495e+02 7.425966e+04 3.842836e+03 1.817857e+05 7.417784e+03 2.229908e+05 8.891265e+03 2.428418e+05 6.550787e+03 2.283038e+05 2.597903e+02 4.509182e+03 1.519592e+03 9.052872e+04 7.373835e+03 6.732926e+05 1.386818e+04 9.904196e+05 1.169233e+04 1.203590e+06 7.859663e+03 1.035432e+06 8.404872e+04 1.516637e+04 1.000000e-01 1.000000e-01 1.000000e-01 3.591986e-01 3.958965e-01 7.526921e+00 9.129706e-01 1.357342e+01 1.148616e+00 2.108434e+01 8.832096e-01 1.803868e+01 1.000000e-01 1.000000e-01 1.000000e-01 5.997628e-01 1.840796e-01 4.398832e+00 4.379197e-01 7.457934e+00 5.274066e-01 1.110386e+01 3.892030e-01 8.821086e+00 2.037831e+00 2.285831e+01
<GCONST> 3.589592e+02
<STATE> 4
<MEAN> 52
 5.571967e+01 2.573329e+02 1.383413e+02 1.183758e+03 1.330342e+02 1.041095e+03 1.426681e+02 1.098052e+03 1.375438e+02 9.314304e+02 1.195267e+02 9.353151e+02 -6.718809e+01 2.766917e+02 -1.108843e+02 1.361410e+03 -8.875095e+01 2.523969e+03 -9.527788e+01 3.079866e+03 -7.158466e+01 2.915668e+03 -5.905214e+01 2.727094e+03 3.780724e+02 -1.102239e+03 -4.915729e-03 -8.461913e-02 4.664483e-01 -2.394832e+00 -9.245766e-01 -1.224144e+01 -2.096023e+00 -1.728112e+01 -2.359568e+00 -1.916503e+01 -1.833775e+00 -1.689378e+01 -1.811114e-03 -1.826340e-02 -1.876172e-02 -3.478782e-02 1.800454e-02 -1.114284e-01 4.688072e-02 -8.914822e-02 4.653596e-02 -1.252918e-01 3.191166e-02 -1.318094e-01 -2.562936e+00 -1.853578e+01
<VARIANCE> 52
 1.538834e+02 5.495068e+03 4.782346e+03 2.069552e+05 8.019881e+03 5.220255e+05 1.449438e+04 7.538161e+05 1.498432e+04 6.597762e+05 1.074243e+04 5.959425e+05 2.041447e+02 5.111909e+03 5.949431e+02 8.481228e+04 2.532826e+03 3.354152e+05 5.258243e+03 4.968012e+05 4.296274e+03 5.738342e+05 2.805832e+03 4.910204e+05 8.300958e+04 1.387862e+06 1.000000e-01 1.316401e-01 3.420552e+00 7.258406e+01 9.126460e+00 4.799661e+02 3.714286e+01 1.095677e+03 4.068271e+01 1.464489e+03 2.522120e+01 1.108283e+03 1.000000e-01 1.000000e-01 1.000000e-01 1.289133e-01 1.000000e-01 1.604185e-01 1.000000e-01 2.205206e-01 1.000000e-01 3.663969e-01 1.000000e-01 3.169370e-01 4.346611e+01 1.502065e+03
<GCONST> 3.916135e+02
<STATE> 5
<MEAN> 52
 5.267475e+01 2.339999e+02 1.315585e+02 1.051053e+03 1.139867e+02 1.232373e+03 1.200701e+02 1.377106e+03 1.110042e+02 1.223012e+03 9.610055e+01 1.198360e+03 -6.582240e+01 2.514061e+02 -1.285188e+02 1.210263e+03 -8.787352e+01 1.781269e+03 -8.700183e+01 2.094505e+03 -6.879560e+01 1.889308e+03 -6.091402e+01 1.802798e+03 3.233099e+02 -5.139211e+02 -1.350985e-02 -1.209077e-01 6.825460e-02 -2.099491e+00 -2.891731e+00 -8.980986e+00 -5.113955e+00 -1.274142e+01 -5.166596e+00 -1.444020e+01 -4.188259e+00 -1.291887e+01 6.455962e-03 -5.674661e-02 6.193252e-02 -5.249981e-01 7.518402e-01 -5.581558e+00 1.372510e+00 -8.468184e+00 1.144500e+00 -9.855245e+00 8.513303e-01 -8.588227e+00 -8.172097e+00 -2.255136e+00
<VARIANCE> 52
 1.264455e+02 4.618375e+03 3.809901e+03 1.863175e+05 5.083597e+03 5.235961e+05 9.655553e+03 7.560309e+05 9.539570e+03 7.060470e+05 6.625203e+03 6.368651e+05 1.897801e+02 5.006241e+03 2.600839e+03 1.331956e+05 4.551749e+03 5.099558e+05 6.723775e+03 8.573942e+05 4.683229e+03 9.333951e+05 3.438585e+03 7.797938e+05 6.722084e+04 1.321523e+06 1.000000e-01 2.318751e-01 6.163157e-01 5.724369e+01 1.383893e+02 2.401094e+02 4.052850e+02 6.312227e+02 4.065602e+02 9.477154e+02 2.607460e+02 7.020878e+02 1.000000e-01 1.398612e-01 8.489428e-01 5.837542e+00 2.557246e+01 9.565089e+01 5.946809e+01 2.457201e+02 4.693071e+01 3.398764e+02 2.961623e+01 2.503055e+02 1.098129e+03 7.811954e+02
<GCONST> 4.596358e+02
<STATE> 6
<MEAN> 52
 4.635935e+01 1.445124e+02 1.721031e+02 4.692628e+02 4.534418e+01 1.272363e+02 2.949400e+01 8.635476e+01 2.641474e+01 5.954953e+01 2.544323e+01 8.958676e+01 -5.304694e+01 2.077487e+02 -9.484985e+01 1.135417e+03 -7.947027e+01 2.218538e+03 -8.906194e+01 2.722300e+03 -6.627222e+01 2.633122e+03 -5.400676e+01 2.475532e+03 1.521618e+02 -2.847331e+03 -7.069486e-03 -6.247660e-02 -2.346606e-02 -9.256217e-01 -5.091940e-02 -1.415463e+00 -4.394744e-02 -1.589966e+00 -3.206447e-02 -1.375972e+00 -2.821803e-02 -1.325341e+00 9.706171e-03 -1.262643e-02 7.929700e-03 -3.086296e-02 1.413865e-02 -6.674930e-02 1.859080e-02 -8.527616e-02 1.775844e-02 -1.021328e-01 1.598104e-02 -9.100560e-02 -8.463289e-02 -1.170768e+00
<VARIANCE> 52
 1.506441e+02 3.742126e+03 5.743542e+03 2.012884e+05 1.797104e+03 1.379735e+05 1.814806e+03 1.872748e+05 1.539249e+03 1.359593e+05 1.171037e+03 1.204287e+05 3.863659e+02 4.228255e+03 1.063345e+03 9.667976e+04 2.727489e+03 5.660389e+05 5.030727e+03 8.334441e+05 4.082358e+03 9.519345e+05 2.729600e+03 8.406244e+05 2.014429e+04 3.077071e+06 1.000000e-01 1.000000e-01 3.560992e-01 4.242286e+01 9.321018e-01 4.327467e+01 2.121685e+00 7.770457e+01 1.836427e+00 5.757396e+01 1.227076e+00 4.564205e+01 1.000000e-01 1.000000e-01 1.000000e-01 1.637448e-01 1.000000e-01 1.534141e-01 1.000000e-01 2.102354e-01 1.000000e-01 2.909440e-01 1.000000e-01 2.510431e-01 1.879474e+00 6.731937e+01
<GCONST> 3.475909e+02
<STATE> 7
<MEAN> 52
 5.309133e+01 1.923274e+02 1.505805e+02 7.795198e+02 9.906068e+01 9.002543e+02 9.247639e+01 1.049151e+03 7.315033e+01 9.043910e+02 6.713439e+01 8.884888e+02 -5.745267e+01 2.042496e+02 -1.598869e+02 8.590220e+02 -1.099851e+02 1.189725e+03 -1.039882e+02 1.414199e+03 -7.972067e+01 1.242920e+03 -7.377306e+01 1.200900e+03 2.962991e+02 -2.505518e+02 2.055485e-03 5.581101e-03 1.628711e-02 3.066612e-01 3.217634e-02 8.156160e-01 3.583210e-02 1.388836e+00 -1.134343e-02 1.251289e+00 -8.743179e-04 1.031733e+00 1.030967e-03 -3.064232e-04 -3.115045e-02 -2.625977e-02 9.186980e-02 -6.903316e-01 2.262871e-01 -9.755421e-01 1.867266e-01 -1.306535e+00 1.232280e-01 -1.140091e+00 -4.006487e-01 4.074750e+00
<VARIANCE> 52
 9.343252e+01 5.546590e+03 2.440141e+03 1.968769e+05 2.389825e+03 1.922435e+05 3.629830e+03 2.934330e+05 2.491681e+03 2.413720e+05 1.860647e+03 2.067992e+05 1.807864e+02 5.841230e+03 3.479397e+03 1.951694e+05 2.443955e+03 3.345113e+05 3.733895e+03 5.048693e+05 2.255542e+03 4.712698e+05 1.747073e+03 3.966873e+05 2.990153e+04 6.219972e+05 1.000000e-01 1.000000e-01 3.036855e-01 7.675389e+00 1.375062e+00 3.060199e+01 4.662684e+00 9.226570e+01 3.839046e+00 1.038502e+02 2.444799e+00 6.950346e+01 1.000000e-01 1.000000e-01 1.659713e-01 3.186259e+00 6.396337e-01 1.265233e+01 2.302551e+00 3.152771e+01 2.183899e+00 4.362215e+01 1.216873e+00 3.075860e+01 1.500729e+01 2.733344e+02
<GCONST> 3.851057e+02
<STATE> 8
<MEAN> 52
 5.233307e+01 1.695343e+02 1.947470e+02 7.339296e+02 7.779693e+01 4.429765e+02 5.718644e+01 4.321889e+02 4.805035e+01 3.376487e+02 4.606156e+01 3.582988e+02 -5.662364e+01 2.197719e+02 -1.239643e+02 1.160896e+03 -3.905592e+01 1.430564e+03 -2.607765e+01 1.651640e+03 -1.802810e+01 1.414321e+03 -1.789965e+01 1.369277e+03 1.114585e+02 -1.035506e+03 2.292700e-02 1.351099e-01 -1.279947e-01 6.738393e+00 -6.118691e-01 1.060412e+01 -1.071957e+00 1.359743e+01 -9.365129e-01 1.160904e+01 -7.693102e-01 1.020782e+01 -6.131995e-04 2.230211e-02 -6.487124e-02 2.994935e-01 1.364543e+00 -8.446159e+00 2.718546e+00 -1.410111e+01 2.151922e+00 -1.643353e+01 1.533812e+00 -1.372881e+01 -4.823163e+00 4.515188e+01
<VARIANCE> 52
 8.753578e+01 5.127363e+03 6.677140e+03 2.522573e+05 1.812112e+03 2.844621e+05 1.707096e+03 3.923951e+05 1.381018e+03 2.858544e+05 1.079637e+03 2.531123e+05 2.584036e+02 4.249470e+03 2.854619e+03 1.116540e+05 8.810226e+02 4.429175e+05 9.014175e+02 7.413593e+05 5.079712e+02 6.895761e+05 4.002541e+02 5.777281e+05 8.741677e+03 1.612668e+06 1.000000e-01 1.787782e-01 9.190378e-01 1.257306e+02 4.498267e+00 4.159154e+02 1.131632e+01 1.043359e+03 9.584920e+00 9.256422e+02 6.086955e+00 6.372124e+02 1.000000e-01 1.000000e-01 6.748755e-01 6.299748e+00 5.783226e+00 1.782229e+02 1.903819e+01 4.358475e+02 1.397213e+01 5.332186e+02 7.578076e+00 3.798402e+02 6.281236e+01 4.224596e+03
<GCONST> 4.224892e+02
<STATE> 9
<MEAN> 52
 5.325974e+01 2.007277e+02 1.259584e+02 1.091150e+03 2.086315e+01 7.944689e+02 8.288388e+00 7.874239e+02 7.281915e+00 6.295382e+02 7.916841e+00 6.489745e+02 -5.934573e+01 2.264541e+02 -1.247704e+02 1.150016e+03 -1.185478e+01 8.912405e+02 -1.781616e+00 8.956384e+02 -1.243678e+00 7.191287e+02 -2.616591e+00 7.354935e+02 1.265502e+01 -3.487082e+01 -6.158368e-03 -1.529825e-02 -1.642250e-01 4.717619e-01 -1.387255e+00 1.598873e-01 -1.928134e+00 6.168709e-02 -1.658124e+00 2.296265e-01 -1.385794e+00 2.496037e-01 -6.635982e-03 -2.648379e-02 -1.905609e-02 -1.634767e-01 8.070774e-01 -2.298898e+00 1.159626e+00 -4.002337e+00 1.005200e+00 -3.408582e+00 8.194729e-01 -2.718540e+00 -4.501212e+00 5.652830e+00
<VARIANCE> 52
 8.711015e+01 3.822934e+03 2.463906e+03 1.357920e+05 4.937669e+02 2.251229e+05 4.325725e+02 3.218465e+05 3.639031e+02 2.346226e+05 2.658018e+02 2.035628e+05 1.853797e+02 4.379227e+03 5.631206e+03 1.557196e+05 1.904736e+02 2.171121e+05 1.048272e+02 3.071718e+05 7.632555e+01 2.135578e+05 5.920507e+01 1.810023e+05 1.591804e+03 3.220859e+04 1.000000e-01 1.000000e-01 6.733881e-01 7.768723e+00 4.137783e+01 6.146725e+01 1.035691e+02 2.281840e+02 7.634045e+01 2.330999e+02 4.835851e+01 1.449191e+02 1.000000e-01 1.000000e-01 3.283218e-01 3.782605e+00 1.036771e+01 2.488746e+01 2.439234e+01 7.612637e+01 2.153743e+01 5.737302e+01 1.282223e+01 3.604578e+01 2.435826e+02 4.383719e+02
<GCONST> 3.879593e+02
<STATE> 10
<MEAN> 52
 6.054293e+01 2.638411e+02 1.155639e+02 1.436522e+03 3.298717e+01 1.358874e+03 2.173609e+01 1.467689e+03 1.891907e+01 1.190174e+03 1.726565e+01 1.167933e+03 -6.896477e+01 3.021065e+02 -1.035146e+02 1.575522e+03 -1.066070e+01 1.458889e+03 -8.474544e-01 1.571057e+03 -5.491889e-01 1.260276e+03 -1.763578e+00 1.233537e+03 2.655587e+01 -1.273033e+00 -8.068680e-04 1.669966e-02 -1.891342e-02 -7.486065e-02 6.582078e-01 1.300810e-01 1.203061e+00 1.985335e-01 1.075340e+00 1.847646e-01 8.317654e-01 1.526860e-01 -2.523155e-03 6.151402e-03 -9.789930e-03 1.210512e-02 9.747876e-03 -1.814304e-02 1.478373e-02 -1.419063e-03 4.482098e-03 -3.796286e-03 5.894204e-03 -2.680907e-03 1.423545e+00 3.195494e-01
<VARIANCE> 52
 6.638006e+01 2.335860e+03 9.037565e+02 7.741852e+04 1.229119e+03 1.897885e+05 1.479160e+03 3.168772e+05 1.215871e+03 2.630569e+05 8.599467e+02 2.147511e+05 1.152716e+02 2.500841e+03 1.413930e+03 6.508042e+04 1.089628e+02 1.772740e+05 6.137300e+01 2.903155e+05 5.076514e+01 2.194786e+05 3.470335e+01 1.798389e+05 2.973853e+03 1.668394e+04 1.000000e-01 1.000000e-01 4.938678e-01 1.950191e+01 5.643035e+01 6.996474e+00 1.615590e+02 2.550129e+01 1.395667e+02 3.201207e+01 8.701929e+01 1.857294e+01 1.000000e-01 1.000000e-01 1.323878e-01 7.885271e-01 2.749303e+00 1.900367e+00 5.789698e+00 6.428442e+00 5.331709e+00 5.769020e+00 3.312405e+00 3.678538e+00 2.707189e+02 6.050313e+01
<GCONST> 3.591993e+02
<STATE> 11
<MEAN> 52
 4.686231e+01 1.471037e+02 1.219917e+02 7.742349e+02 1.683364e+01 4.479048e+02 4.773011e+00 4.170575e+02 3.611303e+00 3.329442e+02 4.624602e+00 3.635749e+02 -4.892321e+01 1.672332e+02 -1.375887e+02 8.391696e+02 -1.153819e+01 5.553318e+02 -2.250213e+00 5.399031e+02 -1.360590e+00 4.222570e+02 -2.194513e+00 4.504267e+02 8.044810e+00 -1.686980e+01 2.886478e-04 9.381594e-03 -8.182002e-03 3.158497e-02 1.588886e-01 1.032489e-01 2.506865e-01 1.921369e-01 2.073582e-01 1.458150e-01 1.729123e-01 1.181010e-01 -4.851197e-04 1.593301e-03 -3.591509e-02 -3.315650e-02 -1.822820e-02 6.632876e-02 -2.014245e-02 1.410502e-01 -1.298704e-02 1.176826e-01 -1.204166e-02 9.272178e-02 2.447372e-01 -5.612391e-02
<VARIANCE> 52
 5.741927e+01 3.432685e+03 1.982232e+03 7.400387e+04 3.790888e+02 1.017954e+05 3.283241e+02 1.437383e+05 3.136762e+02 1.090383e+05 2.273113e+02 1.009197e+05 2.399598e+02 3.134176e+03 5.797251e+03 1.072805e+05 6.452374e+01 9.243370e+04 2.062600e+01 1.242993e+05 1.440760e+01 8.117084e+04 1.246639e+01 7.302030e+04 5.753670e+02 5.525590e+04 1.000000e-01 1.000000e-01 1.530407e-01 7.918076e-01 3.912242e+00 8.110102e+00 7.869439e+00 2.582601e+01 5.977681e+00 2.165553e+01 4.264934e+00 1.418168e+01 1.000000e-01 1.000000e-01 1.000000e-01 5.862117e-01 1.000000e-01 2.063114e+00 1.297060e-01 6.980761e+00 1.237443e-01 4.608707e+00 1.000000e-01 2.895635e+00 8.790113e+00 3.972142e+01
<GCONST> 3.110616e+02
<STATE> 12
<MEAN> 52
 5.366904e+01 2.219008e+02 1.330529e+02 1.099402e+03 5.701695e+01 6.366617e+02 4.368893e+01 6.085660e+02 4.228607e+01 4.635233e+02 3.796772e+01 4.874240e+02 -5.937355e+01 2.334284e+02 -1.379246e+02 1.175183e+03 -4.831557e+01 1.398833e+03 -3.588204e+01 1.624963e+03 -2.746553e+01 1.400546e+03 -2.563111e+01 1.347073e+03 1.194855e+02 -6.192006e+02 -1.417582e-02 -5.897869e-03 -2.773052e-02 -4.415327e-01 2.533865e-01 -3.982247e+00 4.133736e-01 -6.380721e+00 4.672092e-01 -5.929385e+00 3.710743e-01 -4.927461e+00 -3.204894e-04 -1.232749e-02 4.601615e-02 1.616982e-01 -5.578949e-01 3.561428e+00 -1.005032e+00 6.023065e+00 -8.400008e-01 6.557875e+00 -6.294101e-01 5.405189e+00 1.949118e+00 -2.156037e+01
<VARIANCE> 52
 9.249400e+01 5.812332e+03 1.640721e+03 1.621646e+05 1.545709e+03 2.265798e+05 1.835144e+03 3.192953e+05 1.872051e+03 2.134980e+05 1.357682e+03 1.922707e+05 2.452742e+02 5.453360e+03 2.421139e+03 1.294841e+05 1.093419e+03 5.527548e+05 1.279426e+03 9.427355e+05 9.282455e+02 8.658431e+05 6.927424e+02 7.156424e+05 1.022187e+04 7.340546e+05 1.000000e-01 1.000000e-01 3.656874e-01 1.525709e+01 1.692986e+00 1.019780e+02 4.766178e+00 2.652128e+02 4.727975e+00 2.295871e+02 3.076550e+00 1.505361e+02 1.000000e-01 1.000000e-01 2.801957e-01 3.277040e+00 1.742089e+00 5.170654e+01 5.127253e+00 1.528907e+02 4.516284e+00 1.627704e+02 2.576578e+00 1.096928e+02 2.047438e+01 1.227019e+03
<GCONST> 3.966632e+02
<STATE> 13
<MEAN> 52
 4.827548e+01 2.027104e+02 1.121823e+02 9.560901e+02 5.804355e+01 1.867794e+02 4.993958e+01 9.804082e+01 5.062509e+01 6.058612e+01 4.423840e+01 8.847505e+01 -6.162541e+01 2.154146e+02 -1.230794e+02 1.182928e+03 -6.684606e+01 2.069521e+03 -6.178725e+01 2.559515e+03 -4.184687e+01 2.379644e+03 -3.689034e+01 2.227396e+03 1.610253e+02 -1.922026e+03 -6.723820e-03 -2.333223e-03 -2.968955e-02 -9.181135e-03 -5.508894e-02 5.414954e-02 -7.281857e-02 9.230840e-02 -6.428123e-02 6.054278e-02 -5.728614e-02 5.026506e-02 -7.269490e-03 -8.729054e-03 -6.341458e-03 -2.371729e-03 -1.697746e-02 3.760797e-02 -2.339328e-02 4.743454e-02 -2.263743e-02 6.103456e-02 -1.899756e-02 5.339052e-02 -2.168436e-02 -4.198712e-02
<VARIANCE> 52
 1.749396e+02 4.701586e+03 4.059401e+03 9.181506e+04 4.116625e+03 3.563975e+04 4.390184e+03 3.815691e+04 4.067529e+03 2.303404e+04 3.075957e+03 2.307984e+04 4.632755e+02 4.915231e+03 1.501227e+03 9.131490e+04 1.291902e+03 4.965600e+05 1.785960e+03 7.900385e+05 1.163843e+03 7.953032e+05 8.490924e+02 6.725426e+05 2.129269e+04 7.757286e+05 1.000000e-01 1.000000e-01 2.927421e-01 2.153997e+00 3.177283e-01 2.314259e+00 6.151302e-01 4.906633e+00 4.911413e-01 2.879047e+00 3.586930e-01 2.118264e+00 1.000000e-01 1.000000e-01 1.000000e-01 1.000000e-01 1.000000e-01 1.000000e-01 1.000000e-01 1.416471e-01 1.000000e-01 1.989897e-01 1.000000e-01 1.481794e-01 5.957681e-01 4.157486e+00
<GCONST> 3.126664e+02
<STATE> 14
<MEAN> 52
 4.815494e+01 1.795520e+02 1.391725e+02 8.945572e+02 3.984168e+01 4.401578e+02 2.520416e+01 3.857957e+02 2.290746e+01 2.926773e+02 2.159989e+01 3.271393e+02 -5.581063e+01 1.913150e+02 -1.507633e+02 9.767097e+02 -4.157455e+01 6.858609e+02 -2.568983e+01 6.879038e+02 -2.154872e+01 5.533449e+02 -2.150552e+01 5.726978e+02 7.964008e+01 -1.733147e+02 -4.632895e-03 5.566940e-03 -1.040280e-02 1.591650e-01 5.868474e-03 9.450740e-01 1.039882e-02 1.555926e+00 2.903135e-03 1.342819e+00 5.440888e-04 1.114141e+00 -3.819716e-03 -2.490391e-03 1.158611e-02 -1.435973e-02 7.948358e-02 -1.236667e+00 1.372611e-01 -2.156163e+00 9.354119e-02 -2.221864e+00 7.090286e-02 -1.847727e+00 -1.967605e-01 4.195201e+00
<VARIANCE> 52
 6.771407e+01 2.978706e+03 2.274629e+03 5.981145e+04 9.383856e+02 7.410657e+04 8.437736e+02 1.189408e+05 7.476478e+02 7.921959e+04 5.777925e+02 6.939505e+04 2.393930e+02 2.434609e+03 4.284398e+03 5.283711e+04 9.212748e+02 2.793445e+05 7.971027e+02 4.791936e+05 5.866434e+02 4.123523e+05 4.823033e+02 3.444023e+05 6.160949e+03 2.273406e+05 1.000000e-01 1.000000e-01 1.441925e-01 1.085816e+00 5.816489e-01 3.202446e+01 1.245113e+00 1.053874e+02 1.167201e+00 8.095625e+01 7.832773e-01 5.189922e+01 1.000000e-01 1.000000e-01 1.113929e-01 6.254740e-01 6.078079e-01 5.157947e+01 1.665777e+00 1.629500e+02 1.512792e+00 1.484352e+02 8.746768e-01 1.001224e+02 5.845812e+00 2.214421e+02
<GCONST> 3.577585e+02
<STATE> 15
<MEAN> 52
 5.497092e+01 2.683338e+02 1.068793e+02 1.384173e+03 6.251318e+01 1.067350e+03 5.319445e+01 1.100050e+03 5.235954e+01 8.636301e+02 4.558944e+01 8.656419e+02 -7.032767e+01 2.800687e+02 -1.196437e+02 1.454528e+03 -5.446024e+01 1.822976e+03 -4.394087e+01 2.112423e+03 -3.492427e+01 1.846690e+03 -3.114486e+01 1.754858e+03 1.561517e+02 -5.550251e+02 3.965332e-03 3.312732e-02 9.534647e-03 3.122934e-01 6.126040e-01 4.228161e+00 1.077618e+00 6.998637e+00 9.382603e-01 6.595882e+00 7.668271e-01 5.441094e+00 -6.520297e-03 2.787129e-02 8.753545e-03 1.137272e-01 -4.165737e-02 3.779137e-01 -3.806137e-02 5.935511e-01 -4.362763e-02 3.612808e-01 -3.850901e-02 2.791335e-01 1.200995e+00 6.742646e+00
<VARIANCE> 52
 1.603293e+02 3.811764e+03 1.256016e+03 1.092874e+05 1.669779e+03 3.695959e+05 2.320617e+03 5.606021e+05 2.273403e+03 4.182746e+05 1.621209e+03 3.616232e+05 2.279031e+02 4.697674e+03 1.142171e+03 1.024396e+05 1.118317e+03 4.532890e+05 1.529728e+03 8.482722e+05 1.090902e+03 8.878058e+05 7.648759e+02 7.143310e+05 1.519680e+04 7.199122e+05 1.000000e-01 1.000000e-01 7.360855e-01 1.034843e+01 4.860166e+00 9.780228e+01 1.459438e+01 2.690033e+02 1.394231e+01 2.452420e+02 9.092849e+00 1.683374e+02 1.000000e-01 1.000000e-01 1.255682e-01 1.201997e+00 3.922243e-01 8.350271e+00 1.287674e+00 2.519980e+01 1.090705e+00 3.269323e+01 6.200116e-01 2.224499e+01 2.670645e+01 3.436404e+02
<GCONST> 3.879621e+02
<STATE> 16
<MEAN> 52
 4.904584e+01 2.446042e+02 1.025195e+02 1.221500e+03 1.458806e+02 1.377143e+03 1.756931e+02 1.501145e+03 1.757067e+02 1.345417e+03 1.473727e+02 1.330043e+03 -7.266146e+01 2.474464e+02 -1.358215e+02 1.285375e+03 -8.476192e+01 1.724299e+03 -8.013548e+01 2.002364e+03 -6.711340e+01 1.788512e+03 -5.872676e+01 1.705289e+03 4.273314e+02 -1.857110e+02 1.775794e-02 1.362966e-02 -9.697825e-02 -1.393949e+00 4.848540e+00 1.870969e+01 9.675081e+00 3.106811e+01 1.013852e+01 4.025086e+01 8.187317e+00 3.521154e+01 8.568302e-03 5.865294e-02 3.138202e-02 -9.672008e-02 -1.375369e+00 5.908932e+00 -2.559320e+00 9.767656e+00 -2.288277e+00 1.096964e+01 -1.813812e+00 9.334249e+00 1.732808e+01 2.620175e+01
<VARIANCE> 52
 1.711339e+02 4.605856e+03 7.642462e+02 1.212389e+05 5.673083e+03 3.984256e+05 1.217726e+04 6.151100e+05 1.325399e+04 6.312204e+05 9.188021e+03 5.656829e+05 3.725750e+02 4.372434e+03 1.891324e+03 1.067000e+05 2.990511e+03 6.548151e+05 4.931180e+03 1.123698e+06 4.266465e+03 1.147186e+06 2.999542e+03 9.492493e+05 7.112474e+04 2.650301e+05 1.000000e-01 1.000000e-01 9.609277e-01 2.774505e+01 6.926624e+01 1.199759e+03 2.464516e+02 3.489354e+03 3.288103e+02 5.071956e+03 2.124125e+02 3.752931e+03 1.000000e-01 1.000000e-01 3.954035e-01 6.841946e+00 1.588982e+01 3.416146e+02 5.371825e+01 8.911942e+02 4.315108e+01 1.315310e+03 2.511337e+01 9.674588e+02 6.014377e+02 5.375404e+03
<GCONST> 4.653695e+02
<STATE> 17
<MEAN> 52
 5.336872e+01 2.376289e+02 1.103810e+02 1.186284e+03 2.060506e+02 1.553430e+03 2.598999e+02 1.704612e+03 2.636593e+02 1.582322e+03 2.223178e+02 1.562395e+03 -6.265163e+01 2.482206e+02 -1.106798e+02 1.277423e+03 -1.140959e+02 1.686191e+03 -1.247474e+02 1.915887e+03 -1.169723e+02 1.723560e+03 -9.957015e+01 1.659807e+03 6.986816e+02 -4.098421e+01 -2.708150e-03 2.081409e-02 3.164256e-02 -1.216375e-01 7.441234e-01 3.230751e+00 1.294710e+00 4.597568e+00 1.441265e+00 6.198606e+00 1.216214e+00 5.730222e+00 2.618352e-03 1.179288e-02 4.851971e-02 -2.506090e-01 -1.017830e-01 1.868613e+00 -3.108103e-01 3.081062e+00 -1.556022e-01 3.913379e+00 -8.661998e-02 3.391113e+00 2.323405e+00 1.552396e+00
<VARIANCE> 52
 1.445988e+02 8.062152e+03 7.795818e+02 1.546975e+05 7.517916e+03 5.410236e+05 1.590204e+04 8.069035e+05 1.772346e+04 8.452324e+05 1.248657e+04 7.663060e+05 3.638288e+02 7.063153e+03 1.594743e+03 1.630664e+05 5.366182e+03 6.199329e+05 9.019723e+03 1.032775e+06 1.050602e+04 1.045582e+06 7.582656e+03 8.776179e+05 1.536232e+05 7.450434e+04 1.000000e-01 1.000000e-01 2.085347e-01 3.445615e+00 4.205518e+00 2.646204e+01 1.498664e+01 5.380083e+01 2.039328e+01 1.013791e+02 1.384361e+01 8.471459e+01 1.000000e-01 1.000000e-01 1.024824e-01 3.691318e+00 6.518813e-01 1.476491e+01 2.099513e+00 3.911835e+01 2.424174e+00 5.917437e+01 1.598564e+00 4.394336e+01 4.310523e+01 5.535381e+01
<GCONST> 4.071356e+02
<STATE> 18
<MEAN> 52
 4.761254e+01 2.564362e+02 1.053581e+02 1.225021e+03 2.580392e+02 2.302998e+03 3.443288e+02 2.629226e+03 3.513412e+02 2.610230e+03 2.946050e+02 2.555791e+03 -7.186457e+01 2.552660e+02 -1.347029e+02 1.257172e+03 -1.384847e+02 2.493905e+03 -1.610161e+02 2.980230e+03 -1.276908e+02 2.864554e+03 -1.066278e+02 2.718054e+03 8.530405e+02 -3.330377e+01 -1.308886e-03 1.808266e-02 4.780556e-03 1.490497e-01 3.771429e-02 7.393038e-01 5.931060e-02 8.702009e-01 7.124230e-02 1.041009e+00 5.804769e-02 9.763402e-01 -7.989990e-04 5.597218e-03 -4.046654e-03 6.751322e-02 -3.360469e-02 5.937374e-01 -6.813218e-02 7.669609e-01 -4.418458e-02 9.597302e-01 -3.331810e-02 8.633934e-01 1.224566e-01 1.884024e-02
<VARIANCE> 52
 2.224739e+02 5.806460e+03 6.952208e+02 9.110716e+04 3.662700e+03 1.850967e+05 6.515201e+03 2.259670e+05 7.428202e+03 2.267941e+05 5.600080e+03 2.164148e+05 4.610921e+02 3.962242e+03 3.098710e+03 8.228998e+04 1.051439e+04 4.758088e+05 1.822397e+04 6.913178e+05 1.406335e+04 8.130412e+05 9.797169e+03 7.015838e+05 8.425505e+04 1.558673e+04 1.000000e-01 1.000000e-01 1.000000e-01 2.166160e-01 1.890226e-01 2.160364e+00 3.680164e-01 3.259503e+00 4.270012e-01 4.989827e+00 3.432115e-01 4.365964e+00 1.000000e-01 1.000000e-01 1.000000e-01 1.507568e-01 1.000000e-01 1.502358e+00 1.161659e-01 2.646518e+00 1.380752e-01 3.772633e+00 1.000000e-01 3.039355e+00 8.521068e-01 7.864153e+00
<GCONST> 3.375758e+02
<STATE> 19
<MEAN> 52
 5.113964e+01 2.446897e+02 1.091629e+02 1.191135e+03 2.443204e+02 2.336231e+03 3.198440e+02 2.699915e+03 3.224428e+02 2.678535e+03 2.700633e+02 2.605029e+03 -5.976600e+01 2.405315e+02 -1.004326e+02 1.188504e+03 -6.900240e+01 2.132335e+03 -7.022925e+01 2.549050e+03 -4.917382e+01 2.362752e+03 -4.124745e+01 2.244997e+03 6.116285e+02 2.286161e+01 -2.466796e-03 -1.524525e-04 -9.745075e-03 1.745266e-02 -2.043045e-02 4.718902e-02 -2.647104e-02 5.889117e-02 -2.700159e-02 6.285296e-02 -2.566692e-02 5.598627e-02 -8.329281e-04 -2.632207e-03 -3.072105e-03 2.169321e-03 -3.066415e-03 3.256081e-02 -5.130686e-03 4.439220e-02 -2.891724e-03 5.203420e-02 -2.176623e-03 4.530483e-02 -2.637945e-02 1.398775e-02
<VARIANCE> 52
 1.773729e+02 8.282294e+03 5.066775e+02 1.239176e+05 3.682230e+03 2.433190e+05 7.050334e+03 2.782094e+05 8.418400e+03 2.412990e+05 6.168533e+03 2.372272e+05 3.944304e+02 6.158992e+03 1.420349e+03 1.276785e+05 1.133636e+03 3.963787e+05 1.822317e+03 5.424804e+05 1.299261e+03 5.152716e+05 9.049633e+02 4.512047e+05 2.736013e+04 2.709833e+03 1.000000e-01 1.000000e-01 1.000000e-01 1.000000e-01 1.000000e-01 1.000000e-01 1.000000e-01 1.000000e-01 1.000000e-01 1.000000e-01 1.000000e-01 1.000000e-01 1.000000e-01 1.000000e-01 1.000000e-01 1.000000e-01 1.000000e-01 1.229625e-01 1.000000e-01 2.090274e-01 1.000000e-01 2.436628e-01 1.000000e-01 2.037432e-01 1.000000e-01 3.271600e-01
<GCONST> 2.887610e+02
<TRANSP> 20
 0.000000e+00 1.000000e+00 0.000000e+00 0.000000e+00 0.000000e+00 0.000000e+00 0.000000e+00 0.000000e+00 0.000000e+00 0.000000e+00 0.000000e+00 0.000000e+00 0.000000e+00 0.000000e+00 0.000000e+00 0.000000e+00 0.000000e+00 0.000000e+00 0.000000e+00 0.000000e+00
 0.000000e+00 9.049336e-01 9.506638e-02 0.000000e+00 0.000000e+00 0.000000e+00 0.000000e+00 0.000000e+00 0.000000e+00 0.000000e+00 0.000000e+00 0.000000e+00 0.000000e+00 0.000000e+00 0.000000e+00 0.000000e+00 0.000000e+00 0.000000e+00 0.000000e+00 0.000000e+00
 0.000000e+00 0.000000e+00 7.945070e-01 2.054930e-01 0.000000e+00 0.000000e+00 0.000000e+00 0.000000e+00 0.000000e+00 0.000000e+00 0.000000e+00 0.000000e+00 0.000000e+00 0.000000e+00 0.000000e+00 0.000000e+00 0.000000e+00 0.000000e+00 0.000000e+00 0.000000e+00
 0.000000e+00 0.000000e+00 0.000000e+00 8.552393e-01 1.447607e-01 0.000000e+00 0.000000e+00 0.000000e+00 0.000000e+00 0.000000e+00 0.000000e+00 0.000000e+00 0.000000e+00 0.000000e+00 0.000000e+00 0.000000e+00 0.000000e+00 0.000000e+00 0.000000e+00 0.000000e+00
 0.000000e+00 0.000000e+00 0.000000e+00 0.000000e+00 6.493949e-01 3.506051e-01 0.000000e+00 0.000000e+00 0.000000e+00 0.000000e+00 0.000000e+00 0.000000e+00 0.000000e+00 0.000000e+00 0.000000e+00 0.000000e+00 0.000000e+00 0.000000e+00 0.000000e+00 0.000000e+00
 0.000000e+00 0.000000e+00 0.000000e+00 0.000000e+00 0.000000e+00 9.103416e-01 8.965847e-02 0.000000e+00 0.000000e+00 0.000000e+00 0.000000e+00 0.000000e+00 0.000000e+00 0.000000e+00 0.000000e+00 0.000000e+00 0.000000e+00 0.000000e+00 0.000000e+00 0.000000e+00
 0.000000e+00 0.000000e+00 0.000000e+00 0.000000e+00 0.000000e+00 0.000000e+00 8.754459e-01 1.245541e-01 0.000000e+00 0.000000e+00 0.000000e+00 0.000000e+00 0.000000e+00 0.000000e+00 0.000000e+00 0.000000e+00 0.000000e+00 0.000000e+00 0.000000e+00 0.000000e+00
 0.000000e+00 0.000000e+00 0.000000e+00 0.000000e+00 0.000000e+00 0.000000e+00 0.000000e+00 6.336559e-01 3.663442e-01 0.000000e+00 0.000000e+00 0.000000e+00 0.000000e+00 0.000000e+00 0.000000e+00 0.000000e+00 0.000000e+00 0.000000e+00 0.000000e+00 0.000000e+00
 0.000000e+00 0.000000e+00 0.000000e+00 0.000000e+00 0.000000e+00 0.000000e+00 0.000000e+00 0.000000e+00 7.531630e-01 2.468370e-01 0.000000e+00 0.000000e+00 0.000000e+00 0.000000e+00 0.000000e+00 0.000000e+00 0.000000e+00 0.000000e+00 0.000000e+00 0.000000e+00
 0.000000e+00 0.000000e+00 0.000000e+00 0.000000e+00 0.000000e+00 0.000000e+00 0.000000e+00 0.000000e+00 0.000000e+00 8.766294e-01 1.233707e-01 0.000000e+00 0.000000e+00 0.000000e+00 0.000000e+00 0.000000e+00 0.000000e+00 0.000000e+00 0.000000e+00 0.000000e+00
 0.000000e+00 0.000000e+00 0.000000e+00 0.000000e+00 0.000000e+00 0.000000e+00 0.000000e+00 0.000000e+00 0.000000e+00 0.000000e+00 9.415529e-01 5.844713e-02 0.000000e+00 0.000000e+00 0.000000e+00 0.000000e+00 0.000000e+00 0.000000e+00 0.000000e+00 0.000000e+00
 0.000000e+00 0.000000e+00 0.000000e+00 0.000000e+00 0.000000e+00 0.000000e+00 0.000000e+00 0.000000e+00 0.000000e+00 0.000000e+00 0.000000e+00 8.608217e-01 1.391784e-01 0.000000e+00 0.000000e+00 0.000000e+00 0.000000e+00 0.000000e+00 0.000000e+00 0.000000e+00
 0.000000e+00 0.000000e+00 0.000000e+00 0.000000e+00 0.000000e+00 0.000000e+00 0.000000e+00 0.000000e+00 0.000000e+00 0.000000e+00 0.000000e+00 0.000000e+00 9.182096e-01 8.179037e-02 0.000000e+00 0.000000e+00 0.000000e+00 0.000000e+00 0.000000e+00 0.000000e+00
 0.000000e+00 0.000000e+00 0.000000e+00 0.000000e+00 0.000000e+00 0.000000e+00 0.000000e+00 0.000000e+00 0.000000e+00 0.000000e+00 0.000000e+00 0.000000e+00 0.000000e+00 9.043216e-01 9.567848e-02 0.000000e+00 0.000000e+00 0.000000e+00 0.000000e+00 0.000000e+00
 0.000000e+00 0.000000e+00 0.000000e+00 0.000000e+00 0.000000e+00 0.000000e+00 0.000000e+00 0.000000e+00 0.000000e+00 0.000000e+00 0.000000e+00 0.000000e+00 0.000000e+00 0.000000e+00 8.465719e-01 1.534281e-01 0.000000e+00 0.000000e+00 0.000000e+00 0.000000e+00
 0.000000e+00 0.000000e+00 0.000000e+00 0.000000e+00 0.000000e+00 0.000000e+00 0.000000e+00 0.000000e+00 0.000000e+00 0.000000e+00 0.000000e+00 0.000000e+00 0.000000e+00 0.000000e+00 0.000000e+00 6.533018e-01 3.466982e-01 0.000000e+00 0.000000e+00 0.000000e+00
 0.000000e+00 0.000000e+00 0.000000e+00 0.000000e+00 0.000000e+00 0.000000e+00 0.000000e+00 0.000000e+00 0.000000e+00 0.000000e+00 0.000000e+00 0.000000e+00 0.000000e+00 0.000000e+00 0.000000e+00 0.000000e+00 8.173575e-01 1.826425e-01 0.000000e+00 0.000000e+00
 0.000000e+00 0.000000e+00 0.000000e+00 0.000000e+00 0.000000e+00 0.000000e+00 0.000000e+00 0.000000e+00 0.000000e+00 0.000000e+00 0.000000e+00 0.000000e+00 0.000000e+00 0.000000e+00 0.000000e+00 0.000000e+00 0.000000e+00 7.810698e-01 2.189302e-01 0.000000e+00
 0.000000e+00 0.000000e+00 0.000000e+00 0.000000e+00 0.000000e+00 0.000000e+00 0.000000e+00 0.000000e+00 0.000000e+00 0.000000e+00 0.000000e+00 0.000000e+00 0.000000e+00 0.000000e+00 0.000000e+00 0.000000e+00 0.000000e+00 0.000000e+00 9.256716e-01 7.432836e-02
 0.000000e+00 0.000000e+00 0.000000e+00 0.000000e+00 0.000000e+00 0.000000e+00 0.000000e+00 0.000000e+00 0.000000e+00 0.000000e+00 0.000000e+00 0.000000e+00 0.000000e+00 0.000000e+00 0.000000e+00 0.000000e+00 0.000000e+00 0.000000e+00 0.000000e+00 0.000000e+00
<ENDHMM>
