~o
<STREAMINFO> 1 52
<VECSIZE> 52<NULLD><USER><DIAGC>
~h "chair"
<BEGINHMM>
<NUMSTATES> 20
<STATE> 2
<MEAN> 52
 4.884072e+01 2.199863e+02 1.408074e+02 9.519009e+02 1.076678e+02 9.908716e+02 1.189491e+02 1.074560e+03 1.147915e+02 1.003920e+03 9.929335e+01 1.003742e+03 -5.618859e+01 2.182401e+02 -1.306288e+02 1.044086e+03 -7.756606e+01 1.373996e+03 -7.844043e+01 1.596910e+03 -6.348985e+01 1.443823e+03 -5.630691e+01 1.398744e+03 3.140083e+02 -4.432858e+02 -1.124668e-03 -2.681119e-03 4.884935e-03 -8.168866e-02 -7.889970e-03 -1.707214e-04 -6.479818e-03 1.249579e-01 -1.624991e-02 1.883347e-01 -1.101139e-02 1.470735e-01 1.487246e-03 1.671399e-04 6.733483e-04 -9.312233e-03 1.571819e-03 -3.707623e-02 -3.821266e-03 -6.662601e-02 -2.720284e-03 -4.868095e-02 -3.626220e-03 -4.144134e-02 -1.625793e-02 2.191448e-01
<VARIANCE> 52
 2.888569e+02 5.947052e+03 7.956435e+03 1.565682e+05 1.050411e+04 8.873019e+05 1.899410e+04 1.281509e+06 1.861712e+04 1.305902e+06 1.333612e+04 1.194104e+06 3.110664e+02 5.302804e+03 4.737049e+03 1.034733e+05 5.145216e+03 5.418609e+05 8.029790e+03 8.841339e+05 6.233771e+03 8.728364e+05 4.655542e+03 7.425816e+05 1.138053e+05 7.894409e+05 2.000000e+00 2.000000e+00 5.131021e+00 2.404825e+01 2.084673e+01 2.108983e+02 5.580548e+01 5.734390e+02 5.765607e+01 5.838588e+02 3.765202e+01 4.116827e+02 2.000000e+00 2.000000e+00 3.801019e+00 7.791183e+00 5.735239e+00 6.860129e+01 1.413053e+01 1.693475e+02 1.342065e+01 1.857095e+02 8.637346e+00 1.349782e+02 1.482284e+02 1.164867e+03
<GCONST> 4.640134e+02
<STATE> 3
<MEAN> 52
 4.884072e+01 2.199863e+02 1.408074e+02 9.519009e+02 1.076678e+02 9.908716e+02 1.189491e+02 1.074560e+03 1.147915e+02 1.003920e+03 9.929335e+01 1.003742e+03 -5.618859e+01 2.182401e+02 -1.306288e+02 1.044086e+03 -7.756606e+01 1.373996e+03 -7.844043e+01 1.596910e+03 -6.348985e+01 1.443823e+03 -5.630691e+01 1.398744e+03 3.140083e+02 -4.432858e+02 -1.124668e-03 -2.681119e-03 4.884935e-03 -8.168866e-02 -7.889970e-03 -1.707214e-04 -6.479818e-03 1.249579e-01 -1.624991e-02 1.883347e-01 -1.101139e-02 1.470735e-01 1.487246e-03 1.671399e-04 6.733483e-04 -9.312233e-03 1.571819e-03 -3.707623e-02 -3.821266e-03 -6.662601e-02 -2.720284e-03 -4.868095e-02 -3.626220e-03 -4.144134e-02 -1.625793e-02 2.191448e-01
<VARIANCE> 52
 2.888569e+02 5.947052e+03 7.956435e+03 1.565682e+05 1.050411e+04 8.873019e+05 1.899410e+04 1.281509e+06 1.861712e+04 1.305902e+06 1.333612e+04 1.194104e+06 3.110664e+02 5.302804e+03 4.737049e+03 1.034733e+05 5.145216e+03 5.418609e+05 8.029790e+03 8.841339e+05 6.233771e+03 8.728364e+05 4.655542e+03 7.425816e+05 1.138053e+05 7.894409e+05 2.000000e+00 2.000000e+00 5.131021e+00 2.404825e+01 2.084673e+01 2.108983e+02 5.580548e+01 5.734390e+02 5.765607e+01 5.838588e+02 3.765202e+01 4.116827e+02 2.000000e+00 2.000000e+00 3.801019e+00 7.791183e+00 5.735239e+00 6.860129e+01 1.413053e+01 1.693475e+02 1.342065e+01 1.857095e+02 8.637346e+00 1.349782e+02 1.482284e+02 1.164867e+03
<GCONST> 4.640134e+02
<STATE> 4
<MEAN> 52
 4.884072e+01 2.199863e+02 1.408074e+02 9.519009e+02 1.076678e+02 9.908716e+02 1.189491e+02 1.074560e+03 1.147915e+02 1.003920e+03 9.929335e+01 1.003742e+03 -5.618859e+01 2.182401e+02 -1.306288e+02 1.044086e+03 -7.756606e+01 1.373996e+03 -7.844043e+01 1.596910e+03 -6.348985e+01 1.443823e+03 -5.630691e+01 1.398744e+03 3.140083e+02 -4.432858e+02 -1.124668e-03 -2.681119e-03 4.884935e-03 -8.168866e-02 -7.889970e-03 -1.707214e-04 -6.479818e-03 1.249579e-01 -1.624991e-02 1.883347e-01 -1.101139e-02 1.470735e-01 1.487246e-03 1.671399e-04 6.733483e-04 -9.312233e-03 1.571819e-03 -3.707623e-02 -3.821266e-03 -6.662601e-02 -2.720284e-03 -4.868095e-02 -3.626220e-03 -4.144134e-02 -1.625793e-02 2.191448e-01
<VARIANCE> 52
 2.888569e+02 5.947052e+03 7.956435e+03 1.565682e+05 1.050411e+04 8.873019e+05 1.899410e+04 1.281509e+06 1.861712e+04 1.305902e+06 1.333612e+04 1.194104e+06 3.110664e+02 5.302804e+03 4.737049e+03 1.034733e+05 5.145216e+03 5.418609e+05 8.029790e+03 8.841339e+05 6.233771e+03 8.728364e+05 4.655542e+03 7.425816e+05 1.138053e+05 7.894409e+05 2.000000e+00 2.000000e+00 5.131021e+00 2.404825e+01 2.084673e+01 2.108983e+02 5.580548e+01 5.734390e+02 5.765607e+01 5.838588e+02 3.765202e+01 4.116827e+02 2.000000e+00 2.000000e+00 3.801019e+00 7.791183e+00 5.735239e+00 6.860129e+01 1.413053e+01 1.693475e+02 1.342065e+01 1.857095e+02 8.637346e+00 1.349782e+02 1.482284e+02 1.164867e+03
<GCONST> 4.640134e+02
<STATE> 5
<MEAN> 52
 4.884072e+01 2.199863e+02 1.408074e+02 9.519009e+02 1.076678e+02 9.908716e+02 1.189491e+02 1.074560e+03 1.147915e+02 1.003920e+03 9.929335e+01 1.003742e+03 -5.618859e+01 2.182401e+02 -1.306288e+02 1.044086e+03 -7.756606e+01 1.373996e+03 -7.844043e+01 1.596910e+03 -6.348985e+01 1.443823e+03 -5.630691e+01 1.398744e+03 3.140083e+02 -4.432858e+02 -1.124668e-03 -2.681119e-03 4.884935e-03 -8.168866e-02 -7.889970e-03 -1.707214e-04 -6.479818e-03 1.249579e-01 -1.624991e-02 1.883347e-01 -1.101139e-02 1.470735e-01 1.487246e-03 1.671399e-04 6.733483e-04 -9.312233e-03 1.571819e-03 -3.707623e-02 -3.821266e-03 -6.662601e-02 -2.720284e-03 -4.868095e-02 -3.626220e-03 -4.144134e-02 -1.625793e-02 2.191448e-01
<VARIANCE> 52
 2.888569e+02 5.947052e+03 7.956435e+03 1.565682e+05 1.050411e+04 8.873019e+05 1.899410e+04 1.281509e+06 1.861712e+04 1.305902e+06 1.333612e+04 1.194104e+06 3.110664e+02 5.302804e+03 4.737049e+03 1.034733e+05 5.145216e+03 5.418609e+05 8.029790e+03 8.841339e+05 6.233771e+03 8.728364e+05 4.655542e+03 7.425816e+05 1.138053e+05 7.894409e+05 2.000000e+00 2.000000e+00 5.131021e+00 2.404825e+01 2.084673e+01 2.108983e+02 5.580548e+01 5.734390e+02 5.765607e+01 5.838588e+02 3.765202e+01 4.116827e+02 2.000000e+00 2.000000e+00 3.801019e+00 7.791183e+00 5.735239e+00 6.860129e+01 1.413053e+01 1.693475e+02 1.342065e+01 1.857095e+02 8.637346e+00 1.349782e+02 1.482284e+02 1.164867e+03
<GCONST> 4.640134e+02
<STATE> 6
<MEAN> 52
 4.884072e+01 2.199863e+02 1.408074e+02 9.519009e+02 1.076678e+02 9.908716e+02 1.189491e+02 1.074560e+03 1.147915e+02 1.003920e+03 9.929335e+01 1.003742e+03 -5.618859e+01 2.182401e+02 -1.306288e+02 1.044086e+03 -7.756606e+01 1.373996e+03 -7.844043e+01 1.596910e+03 -6.348985e+01 1.443823e+03 -5.630691e+01 1.398744e+03 3.140083e+02 -4.432858e+02 -1.124668e-03 -2.681119e-03 4.884935e-03 -8.168866e-02 -7.889970e-03 -1.707214e-04 -6.479818e-03 1.249579e-01 -1.624991e-02 1.883347e-01 -1.101139e-02 1.470735e-01 1.487246e-03 1.671399e-04 6.733483e-04 -9.312233e-03 1.571819e-03 -3.707623e-02 -3.821266e-03 -6.662601e-02 -2.720284e-03 -4.868095e-02 -3.626220e-03 -4.144134e-02 -1.625793e-02 2.191448e-01
<VARIANCE> 52
 2.888569e+02 5.947052e+03 7.956435e+03 1.565682e+05 1.050411e+04 8.873019e+05 1.899410e+04 1.281509e+06 1.861712e+04 1.305902e+06 1.333612e+04 1.194104e+06 3.110664e+02 5.302804e+03 4.737049e+03 1.034733e+05 5.145216e+03 5.418609e+05 8.029790e+03 8.841339e+05 6.233771e+03 8.728364e+05 4.655542e+03 7.425816e+05 1.138053e+05 7.894409e+05 2.000000e+00 2.000000e+00 5.131021e+00 2.404825e+01 2.084673e+01 2.108983e+02 5.580548e+01 5.734390e+02 5.765607e+01 5.838588e+02 3.765202e+01 4.116827e+02 2.000000e+00 2.000000e+00 3.801019e+00 7.791183e+00 5.735239e+00 6.860129e+01 1.413053e+01 1.693475e+02 1.342065e+01 1.857095e+02 8.637346e+00 1.349782e+02 1.482284e+02 1.164867e+03
<GCONST> 4.640134e+02
<STATE> 7
<MEAN> 52
 4.884072e+01 2.199863e+02 1.408074e+02 9.519009e+02 1.076678e+02 9.908716e+02 1.189491e+02 1.074560e+03 1.147915e+02 1.003920e+03 9.929335e+01 1.003742e+03 -5.618859e+01 2.182401e+02 -1.306288e+02 1.044086e+03 -7.756606e+01 1.373996e+03 -7.844043e+01 1.596910e+03 -6.348985e+01 1.443823e+03 -5.630691e+01 1.398744e+03 3.140083e+02 -4.432858e+02 -1.124668e-03 -2.681119e-03 4.884935e-03 -8.168866e-02 -7.889970e-03 -1.707214e-04 -6.479818e-03 1.249579e-01 -1.624991e-02 1.883347e-01 -1.101139e-02 1.470735e-01 1.487246e-03 1.671399e-04 6.733483e-04 -9.312233e-03 1.571819e-03 -3.707623e-02 -3.821266e-03 -6.662601e-02 -2.720284e-03 -4.868095e-02 -3.626220e-03 -4.144134e-02 -1.625793e-02 2.191448e-01
<VARIANCE> 52
 2.888569e+02 5.947052e+03 7.956435e+03 1.565682e+05 1.050411e+04 8.873019e+05 1.899410e+04 1.281509e+06 1.861712e+04 1.305902e+06 1.333612e+04 1.194104e+06 3.110664e+02 5.302804e+03 4.737049e+03 1.034733e+05 5.145216e+03 5.418609e+05 8.029790e+03 8.841339e+05 6.233771e+03 8.728364e+05 4.655542e+03 7.425816e+05 1.138053e+05 7.894409e+05 2.000000e+00 2.000000e+00 5.131021e+00 2.404825e+01 2.084673e+01 2.108983e+02 5.580548e+01 5.734390e+02 5.765607e+01 5.838588e+02 3.765202e+01 4.116827e+02 2.000000e+00 2.000000e+00 3.801019e+00 7.791183e+00 5.735239e+00 6.860129e+01 1.413053e+01 1.693475e+02 1.342065e+01 1.857095e+02 8.637346e+00 1.349782e+02 1.482284e+02 1.164867e+03
<GCONST> 4.640134e+02
<STATE> 8
<MEAN> 52
 4.884072e+01 2.199863e+02 1.408074e+02 9.519009e+02 1.076678e+02 9.908716e+02 1.189491e+02 1.074560e+03 1.147915e+02 1.003920e+03 9.929335e+01 1.003742e+03 -5.618859e+01 2.182401e+02 -1.306288e+02 1.044086e+03 -7.756606e+01 1.373996e+03 -7.844043e+01 1.596910e+03 -6.348985e+01 1.443823e+03 -5.630691e+01 1.398744e+03 3.140083e+02 -4.432858e+02 -1.124668e-03 -2.681119e-03 4.884935e-03 -8.168866e-02 -7.889970e-03 -1.707214e-04 -6.479818e-03 1.249579e-01 -1.624991e-02 1.883347e-01 -1.101139e-02 1.470735e-01 1.487246e-03 1.671399e-04 6.733483e-04 -9.312233e-03 1.571819e-03 -3.707623e-02 -3.821266e-03 -6.662601e-02 -2.720284e-03 -4.868095e-02 -3.626220e-03 -4.144134e-02 -1.625793e-02 2.191448e-01
<VARIANCE> 52
 2.888569e+02 5.947052e+03 7.956435e+03 1.565682e+05 1.050411e+04 8.873019e+05 1.899410e+04 1.281509e+06 1.861712e+04 1.305902e+06 1.333612e+04 1.194104e+06 3.110664e+02 5.302804e+03 4.737049e+03 1.034733e+05 5.145216e+03 5.418609e+05 8.029790e+03 8.841339e+05 6.233771e+03 8.728364e+05 4.655542e+03 7.425816e+05 1.138053e+05 7.894409e+05 2.000000e+00 2.000000e+00 5.131021e+00 2.404825e+01 2.084673e+01 2.108983e+02 5.580548e+01 5.734390e+02 5.765607e+01 5.838588e+02 3.765202e+01 4.116827e+02 2.000000e+00 2.000000e+00 3.801019e+00 7.791183e+00 5.735239e+00 6.860129e+01 1.413053e+01 1.693475e+02 1.342065e+01 1.857095e+02 8.637346e+00 1.349782e+02 1.482284e+02 1.164867e+03
<GCONST> 4.640134e+02
<STATE> 9
<MEAN> 52
 4.884072e+01 2.199863e+02 1.408074e+02 9.519009e+02 1.076678e+02 9.908716e+02 1.189491e+02 1.074560e+03 1.147915e+02 1.003920e+03 9.929335e+01 1.003742e+03 -5.618859e+01 2.182401e+02 -1.306288e+02 1.044086e+03 -7.756606e+01 1.373996e+03 -7.844043e+01 1.596910e+03 -6.348985e+01 1.443823e+03 -5.630691e+01 1.398744e+03 3.140083e+02 -4.432858e+02 -1.124668e-03 -2.681119e-03 4.884935e-03 -8.168866e-02 -7.889970e-03 -1.707214e-04 -6.479818e-03 1.249579e-01 -1.624991e-02 1.883347e-01 -1.101139e-02 1.470735e-01 1.487246e-03 1.671399e-04 6.733483e-04 -9.312233e-03 1.571819e-03 -3.707623e-02 -3.821266e-03 -6.662601e-02 -2.720284e-03 -4.868095e-02 -3.626220e-03 -4.144134e-02 -1.625793e-02 2.191448e-01
<VARIANCE> 52
 2.888569e+02 5.947052e+03 7.956435e+03 1.565682e+05 1.050411e+04 8.873019e+05 1.899410e+04 1.281509e+06 1.861712e+04 1.305902e+06 1.333612e+04 1.194104e+06 3.110664e+02 5.302804e+03 4.737049e+03 1.034733e+05 5.145216e+03 5.418609e+05 8.029790e+03 8.841339e+05 6.233771e+03 8.728364e+05 4.655542e+03 7.425816e+05 1.138053e+05 7.894409e+05 2.000000e+00 2.000000e+00 5.131021e+00 2.404825e+01 2.084673e+01 2.108983e+02 5.580548e+01 5.734390e+02 5.765607e+01 5.838588e+02 3.765202e+01 4.116827e+02 2.000000e+00 2.000000e+00 3.801019e+00 7.791183e+00 5.735239e+00 6.860129e+01 1.413053e+01 1.693475e+02 1.342065e+01 1.857095e+02 8.637346e+00 1.349782e+02 1.482284e+02 1.164867e+03
<GCONST> 4.640134e+02
<STATE> 10
<MEAN> 52
 4.884072e+01 2.199863e+02 1.408074e+02 9.519009e+02 1.076678e+02 9.908716e+02 1.189491e+02 1.074560e+03 1.147915e+02 1.003920e+03 9.929335e+01 1.003742e+03 -5.618859e+01 2.182401e+02 -1.306288e+02 1.044086e+03 -7.756606e+01 1.373996e+03 -7.844043e+01 1.596910e+03 -6.348985e+01 1.443823e+03 -5.630691e+01 1.398744e+03 3.140083e+02 -4.432858e+02 -1.124668e-03 -2.681119e-03 4.884935e-03 -8.168866e-02 -7.889970e-03 -1.707214e-04 -6.479818e-03 1.249579e-01 -1.624991e-02 1.883347e-01 -1.101139e-02 1.470735e-01 1.487246e-03 1.671399e-04 6.733483e-04 -9.312233e-03 1.571819e-03 -3.707623e-02 -3.821266e-03 -6.662601e-02 -2.720284e-03 -4.868095e-02 -3.626220e-03 -4.144134e-02 -1.625793e-02 2.191448e-01
<VARIANCE> 52
 2.888569e+02 5.947052e+03 7.956435e+03 1.565682e+05 1.050411e+04 8.873019e+05 1.899410e+04 1.281509e+06 1.861712e+04 1.305902e+06 1.333612e+04 1.194104e+06 3.110664e+02 5.302804e+03 4.737049e+03 1.034733e+05 5.145216e+03 5.418609e+05 8.029790e+03 8.841339e+05 6.233771e+03 8.728364e+05 4.655542e+03 7.425816e+05 1.138053e+05 7.894409e+05 2.000000e+00 2.000000e+00 5.131021e+00 2.404825e+01 2.084673e+01 2.108983e+02 5.580548e+01 5.734390e+02 5.765607e+01 5.838588e+02 3.765202e+01 4.116827e+02 2.000000e+00 2.000000e+00 3.801019e+00 7.791183e+00 5.735239e+00 6.860129e+01 1.413053e+01 1.693475e+02 1.342065e+01 1.857095e+02 8.637346e+00 1.349782e+02 1.482284e+02 1.164867e+03
<GCONST> 4.640134e+02
<STATE> 11
<MEAN> 52
 4.884072e+01 2.199863e+02 1.408074e+02 9.519009e+02 1.076678e+02 9.908716e+02 1.189491e+02 1.074560e+03 1.147915e+02 1.003920e+03 9.929335e+01 1.003742e+03 -5.618859e+01 2.182401e+02 -1.306288e+02 1.044086e+03 -7.756606e+01 1.373996e+03 -7.844043e+01 1.596910e+03 -6.348985e+01 1.443823e+03 -5.630691e+01 1.398744e+03 3.140083e+02 -4.432858e+02 -1.124668e-03 -2.681119e-03 4.884935e-03 -8.168866e-02 -7.889970e-03 -1.707214e-04 -6.479818e-03 1.249579e-01 -1.624991e-02 1.883347e-01 -1.101139e-02 1.470735e-01 1.487246e-03 1.671399e-04 6.733483e-04 -9.312233e-03 1.571819e-03 -3.707623e-02 -3.821266e-03 -6.662601e-02 -2.720284e-03 -4.868095e-02 -3.626220e-03 -4.144134e-02 -1.625793e-02 2.191448e-01
<VARIANCE> 52
 2.888569e+02 5.947052e+03 7.956435e+03 1.565682e+05 1.050411e+04 8.873019e+05 1.899410e+04 1.281509e+06 1.861712e+04 1.305902e+06 1.333612e+04 1.194104e+06 3.110664e+02 5.302804e+03 4.737049e+03 1.034733e+05 5.145216e+03 5.418609e+05 8.029790e+03 8.841339e+05 6.233771e+03 8.728364e+05 4.655542e+03 7.425816e+05 1.138053e+05 7.894409e+05 2.000000e+00 2.000000e+00 5.131021e+00 2.404825e+01 2.084673e+01 2.108983e+02 5.580548e+01 5.734390e+02 5.765607e+01 5.838588e+02 3.765202e+01 4.116827e+02 2.000000e+00 2.000000e+00 3.801019e+00 7.791183e+00 5.735239e+00 6.860129e+01 1.413053e+01 1.693475e+02 1.342065e+01 1.857095e+02 8.637346e+00 1.349782e+02 1.482284e+02 1.164867e+03
<GCONST> 4.640134e+02
<STATE> 12
<MEAN> 52
 4.884072e+01 2.199863e+02 1.408074e+02 9.519009e+02 1.076678e+02 9.908716e+02 1.189491e+02 1.074560e+03 1.147915e+02 1.003920e+03 9.929335e+01 1.003742e+03 -5.618859e+01 2.182401e+02 -1.306288e+02 1.044086e+03 -7.756606e+01 1.373996e+03 -7.844043e+01 1.596910e+03 -6.348985e+01 1.443823e+03 -5.630691e+01 1.398744e+03 3.140083e+02 -4.432858e+02 -1.124668e-03 -2.681119e-03 4.884935e-03 -8.168866e-02 -7.889970e-03 -1.707214e-04 -6.479818e-03 1.249579e-01 -1.624991e-02 1.883347e-01 -1.101139e-02 1.470735e-01 1.487246e-03 1.671399e-04 6.733483e-04 -9.312233e-03 1.571819e-03 -3.707623e-02 -3.821266e-03 -6.662601e-02 -2.720284e-03 -4.868095e-02 -3.626220e-03 -4.144134e-02 -1.625793e-02 2.191448e-01
<VARIANCE> 52
 2.888569e+02 5.947052e+03 7.956435e+03 1.565682e+05 1.050411e+04 8.873019e+05 1.899410e+04 1.281509e+06 1.861712e+04 1.305902e+06 1.333612e+04 1.194104e+06 3.110664e+02 5.302804e+03 4.737049e+03 1.034733e+05 5.145216e+03 5.418609e+05 8.029790e+03 8.841339e+05 6.233771e+03 8.728364e+05 4.655542e+03 7.425816e+05 1.138053e+05 7.894409e+05 2.000000e+00 2.000000e+00 5.131021e+00 2.404825e+01 2.084673e+01 2.108983e+02 5.580548e+01 5.734390e+02 5.765607e+01 5.838588e+02 3.765202e+01 4.116827e+02 2.000000e+00 2.000000e+00 3.801019e+00 7.791183e+00 5.735239e+00 6.860129e+01 1.413053e+01 1.693475e+02 1.342065e+01 1.857095e+02 8.637346e+00 1.349782e+02 1.482284e+02 1.164867e+03
<GCONST> 4.640134e+02
<STATE> 13
<MEAN> 52
 4.884072e+01 2.199863e+02 1.408074e+02 9.519009e+02 1.076678e+02 9.908716e+02 1.189491e+02 1.074560e+03 1.147915e+02 1.003920e+03 9.929335e+01 1.003742e+03 -5.618859e+01 2.182401e+02 -1.306288e+02 1.044086e+03 -7.756606e+01 1.373996e+03 -7.844043e+01 1.596910e+03 -6.348985e+01 1.443823e+03 -5.630691e+01 1.398744e+03 3.140083e+02 -4.432858e+02 -1.124668e-03 -2.681119e-03 4.884935e-03 -8.168866e-02 -7.889970e-03 -1.707214e-04 -6.479818e-03 1.249579e-01 -1.624991e-02 1.883347e-01 -1.101139e-02 1.470735e-01 1.487246e-03 1.671399e-04 6.733483e-04 -9.312233e-03 1.571819e-03 -3.707623e-02 -3.821266e-03 -6.662601e-02 -2.720284e-03 -4.868095e-02 -3.626220e-03 -4.144134e-02 -1.625793e-02 2.191448e-01
<VARIANCE> 52
 2.888569e+02 5.947052e+03 7.956435e+03 1.565682e+05 1.050411e+04 8.873019e+05 1.899410e+04 1.281509e+06 1.861712e+04 1.305902e+06 1.333612e+04 1.194104e+06 3.110664e+02 5.302804e+03 4.737049e+03 1.034733e+05 5.145216e+03 5.418609e+05 8.029790e+03 8.841339e+05 6.233771e+03 8.728364e+05 4.655542e+03 7.425816e+05 1.138053e+05 7.894409e+05 2.000000e+00 2.000000e+00 5.131021e+00 2.404825e+01 2.084673e+01 2.108983e+02 5.580548e+01 5.734390e+02 5.765607e+01 5.838588e+02 3.765202e+01 4.116827e+02 2.000000e+00 2.000000e+00 3.801019e+00 7.791183e+00 5.735239e+00 6.860129e+01 1.413053e+01 1.693475e+02 1.342065e+01 1.857095e+02 8.637346e+00 1.349782e+02 1.482284e+02 1.164867e+03
<GCONST> 4.640134e+02
<STATE> 14
<MEAN> 52
 4.884072e+01 2.199863e+02 1.408074e+02 9.519009e+02 1.076678e+02 9.908716e+02 1.189491e+02 1.074560e+03 1.147915e+02 1.003920e+03 9.929335e+01 1.003742e+03 -5.618859e+01 2.182401e+02 -1.306288e+02 1.044086e+03 -7.756606e+01 1.373996e+03 -7.844043e+01 1.596910e+03 -6.348985e+01 1.443823e+03 -5.630691e+01 1.398744e+03 3.140083e+02 -4.432858e+02 -1.124668e-03 -2.681119e-03 4.884935e-03 -8.168866e-02 -7.889970e-03 -1.707214e-04 -6.479818e-03 1.249579e-01 -1.624991e-02 1.883347e-01 -1.101139e-02 1.470735e-01 1.487246e-03 1.671399e-04 6.733483e-04 -9.312233e-03 1.571819e-03 -3.707623e-02 -3.821266e-03 -6.662601e-02 -2.720284e-03 -4.868095e-02 -3.626220e-03 -4.144134e-02 -1.625793e-02 2.191448e-01
<VARIANCE> 52
 2.888569e+02 5.947052e+03 7.956435e+03 1.565682e+05 1.050411e+04 8.873019e+05 1.899410e+04 1.281509e+06 1.861712e+04 1.305902e+06 1.333612e+04 1.194104e+06 3.110664e+02 5.302804e+03 4.737049e+03 1.034733e+05 5.145216e+03 5.418609e+05 8.029790e+03 8.841339e+05 6.233771e+03 8.728364e+05 4.655542e+03 7.425816e+05 1.138053e+05 7.894409e+05 2.000000e+00 2.000000e+00 5.131021e+00 2.404825e+01 2.084673e+01 2.108983e+02 5.580548e+01 5.734390e+02 5.765607e+01 5.838588e+02 3.765202e+01 4.116827e+02 2.000000e+00 2.000000e+00 3.801019e+00 7.791183e+00 5.735239e+00 6.860129e+01 1.413053e+01 1.693475e+02 1.342065e+01 1.857095e+02 8.637346e+00 1.349782e+02 1.482284e+02 1.164867e+03
<GCONST> 4.640134e+02
<STATE> 15
<MEAN> 52
 4.884072e+01 2.199863e+02 1.408074e+02 9.519009e+02 1.076678e+02 9.908716e+02 1.189491e+02 1.074560e+03 1.147915e+02 1.003920e+03 9.929335e+01 1.003742e+03 -5.618859e+01 2.182401e+02 -1.306288e+02 1.044086e+03 -7.756606e+01 1.373996e+03 -7.844043e+01 1.596910e+03 -6.348985e+01 1.443823e+03 -5.630691e+01 1.398744e+03 3.140083e+02 -4.432858e+02 -1.124668e-03 -2.681119e-03 4.884935e-03 -8.168866e-02 -7.889970e-03 -1.707214e-04 -6.479818e-03 1.249579e-01 -1.624991e-02 1.883347e-01 -1.101139e-02 1.470735e-01 1.487246e-03 1.671399e-04 6.733483e-04 -9.312233e-03 1.571819e-03 -3.707623e-02 -3.821266e-03 -6.662601e-02 -2.720284e-03 -4.868095e-02 -3.626220e-03 -4.144134e-02 -1.625793e-02 2.191448e-01
<VARIANCE> 52
 2.888569e+02 5.947052e+03 7.956435e+03 1.565682e+05 1.050411e+04 8.873019e+05 1.899410e+04 1.281509e+06 1.861712e+04 1.305902e+06 1.333612e+04 1.194104e+06 3.110664e+02 5.302804e+03 4.737049e+03 1.034733e+05 5.145216e+03 5.418609e+05 8.029790e+03 8.841339e+05 6.233771e+03 8.728364e+05 4.655542e+03 7.425816e+05 1.138053e+05 7.894409e+05 2.000000e+00 2.000000e+00 5.131021e+00 2.404825e+01 2.084673e+01 2.108983e+02 5.580548e+01 5.734390e+02 5.765607e+01 5.838588e+02 3.765202e+01 4.116827e+02 2.000000e+00 2.000000e+00 3.801019e+00 7.791183e+00 5.735239e+00 6.860129e+01 1.413053e+01 1.693475e+02 1.342065e+01 1.857095e+02 8.637346e+00 1.349782e+02 1.482284e+02 1.164867e+03
<GCONST> 4.640134e+02
<STATE> 16
<MEAN> 52
 4.884072e+01 2.199863e+02 1.408074e+02 9.519009e+02 1.076678e+02 9.908716e+02 1.189491e+02 1.074560e+03 1.147915e+02 1.003920e+03 9.929335e+01 1.003742e+03 -5.618859e+01 2.182401e+02 -1.306288e+02 1.044086e+03 -7.756606e+01 1.373996e+03 -7.844043e+01 1.596910e+03 -6.348985e+01 1.443823e+03 -5.630691e+01 1.398744e+03 3.140083e+02 -4.432858e+02 -1.124668e-03 -2.681119e-03 4.884935e-03 -8.168866e-02 -7.889970e-03 -1.707214e-04 -6.479818e-03 1.249579e-01 -1.624991e-02 1.883347e-01 -1.101139e-02 1.470735e-01 1.487246e-03 1.671399e-04 6.733483e-04 -9.312233e-03 1.571819e-03 -3.707623e-02 -3.821266e-03 -6.662601e-02 -2.720284e-03 -4.868095e-02 -3.626220e-03 -4.144134e-02 -1.625793e-02 2.191448e-01
<VARIANCE> 52
 2.888569e+02 5.947052e+03 7.956435e+03 1.565682e+05 1.050411e+04 8.873019e+05 1.899410e+04 1.281509e+06 1.861712e+04 1.305902e+06 1.333612e+04 1.194104e+06 3.110664e+02 5.302804e+03 4.737049e+03 1.034733e+05 5.145216e+03 5.418609e+05 8.029790e+03 8.841339e+05 6.233771e+03 8.728364e+05 4.655542e+03 7.425816e+05 1.138053e+05 7.894409e+05 2.000000e+00 2.000000e+00 5.131021e+00 2.404825e+01 2.084673e+01 2.108983e+02 5.580548e+01 5.734390e+02 5.765607e+01 5.838588e+02 3.765202e+01 4.116827e+02 2.000000e+00 2.000000e+00 3.801019e+00 7.791183e+00 5.735239e+00 6.860129e+01 1.413053e+01 1.693475e+02 1.342065e+01 1.857095e+02 8.637346e+00 1.349782e+02 1.482284e+02 1.164867e+03
<GCONST> 4.640134e+02
<STATE> 17
<MEAN> 52
 4.884072e+01 2.199863e+02 1.408074e+02 9.519009e+02 1.076678e+02 9.908716e+02 1.189491e+02 1.074560e+03 1.147915e+02 1.003920e+03 9.929335e+01 1.003742e+03 -5.618859e+01 2.182401e+02 -1.306288e+02 1.044086e+03 -7.756606e+01 1.373996e+03 -7.844043e+01 1.596910e+03 -6.348985e+01 1.443823e+03 -5.630691e+01 1.398744e+03 3.140083e+02 -4.432858e+02 -1.124668e-03 -2.681119e-03 4.884935e-03 -8.168866e-02 -7.889970e-03 -1.707214e-04 -6.479818e-03 1.249579e-01 -1.624991e-02 1.883347e-01 -1.101139e-02 1.470735e-01 1.487246e-03 1.671399e-04 6.733483e-04 -9.312233e-03 1.571819e-03 -3.707623e-02 -3.821266e-03 -6.662601e-02 -2.720284e-03 -4.868095e-02 -3.626220e-03 -4.144134e-02 -1.625793e-02 2.191448e-01
<VARIANCE> 52
 2.888569e+02 5.947052e+03 7.956435e+03 1.565682e+05 1.050411e+04 8.873019e+05 1.899410e+04 1.281509e+06 1.861712e+04 1.305902e+06 1.333612e+04 1.194104e+06 3.110664e+02 5.302804e+03 4.737049e+03 1.034733e+05 5.145216e+03 5.418609e+05 8.029790e+03 8.841339e+05 6.233771e+03 8.728364e+05 4.655542e+03 7.425816e+05 1.138053e+05 7.894409e+05 2.000000e+00 2.000000e+00 5.131021e+00 2.404825e+01 2.084673e+01 2.108983e+02 5.580548e+01 5.734390e+02 5.765607e+01 5.838588e+02 3.765202e+01 4.116827e+02 2.000000e+00 2.000000e+00 3.801019e+00 7.791183e+00 5.735239e+00 6.860129e+01 1.413053e+01 1.693475e+02 1.342065e+01 1.857095e+02 8.637346e+00 1.349782e+02 1.482284e+02 1.164867e+03
<GCONST> 4.640134e+02
<STATE> 18
<MEAN> 52
 4.884072e+01 2.199863e+02 1.408074e+02 9.519009e+02 1.076678e+02 9.908716e+02 1.189491e+02 1.074560e+03 1.147915e+02 1.003920e+03 9.929335e+01 1.003742e+03 -5.618859e+01 2.182401e+02 -1.306288e+02 1.044086e+03 -7.756606e+01 1.373996e+03 -7.844043e+01 1.596910e+03 -6.348985e+01 1.443823e+03 -5.630691e+01 1.398744e+03 3.140083e+02 -4.432858e+02 -1.124668e-03 -2.681119e-03 4.884935e-03 -8.168866e-02 -7.889970e-03 -1.707214e-04 -6.479818e-03 1.249579e-01 -1.624991e-02 1.883347e-01 -1.101139e-02 1.470735e-01 1.487246e-03 1.671399e-04 6.733483e-04 -9.312233e-03 1.571819e-03 -3.707623e-02 -3.821266e-03 -6.662601e-02 -2.720284e-03 -4.868095e-02 -3.626220e-03 -4.144134e-02 -1.625793e-02 2.191448e-01
<VARIANCE> 52
 2.888569e+02 5.947052e+03 7.956435e+03 1.565682e+05 1.050411e+04 8.873019e+05 1.899410e+04 1.281509e+06 1.861712e+04 1.305902e+06 1.333612e+04 1.194104e+06 3.110664e+02 5.302804e+03 4.737049e+03 1.034733e+05 5.145216e+03 5.418609e+05 8.029790e+03 8.841339e+05 6.233771e+03 8.728364e+05 4.655542e+03 7.425816e+05 1.138053e+05 7.894409e+05 2.000000e+00 2.000000e+00 5.131021e+00 2.404825e+01 2.084673e+01 2.108983e+02 5.580548e+01 5.734390e+02 5.765607e+01 5.838588e+02 3.765202e+01 4.116827e+02 2.000000e+00 2.000000e+00 3.801019e+00 7.791183e+00 5.735239e+00 6.860129e+01 1.413053e+01 1.693475e+02 1.342065e+01 1.857095e+02 8.637346e+00 1.349782e+02 1.482284e+02 1.164867e+03
<GCONST> 4.640134e+02
<STATE> 19
<MEAN> 52
 4.884072e+01 2.199863e+02 1.408074e+02 9.519009e+02 1.076678e+02 9.908716e+02 1.189491e+02 1.074560e+03 1.147915e+02 1.003920e+03 9.929335e+01 1.003742e+03 -5.618859e+01 2.182401e+02 -1.306288e+02 1.044086e+03 -7.756606e+01 1.373996e+03 -7.844043e+01 1.596910e+03 -6.348985e+01 1.443823e+03 -5.630691e+01 1.398744e+03 3.140083e+02 -4.432858e+02 -1.124668e-03 -2.681119e-03 4.884935e-03 -8.168866e-02 -7.889970e-03 -1.707214e-04 -6.479818e-03 1.249579e-01 -1.624991e-02 1.883347e-01 -1.101139e-02 1.470735e-01 1.487246e-03 1.671399e-04 6.733483e-04 -9.312233e-03 1.571819e-03 -3.707623e-02 -3.821266e-03 -6.662601e-02 -2.720284e-03 -4.868095e-02 -3.626220e-03 -4.144134e-02 -1.625793e-02 2.191448e-01
<VARIANCE> 52
 2.888569e+02 5.947052e+03 7.956435e+03 1.565682e+05 1.050411e+04 8.873019e+05 1.899410e+04 1.281509e+06 1.861712e+04 1.305902e+06 1.333612e+04 1.194104e+06 3.110664e+02 5.302804e+03 4.737049e+03 1.034733e+05 5.145216e+03 5.418609e+05 8.029790e+03 8.841339e+05 6.233771e+03 8.728364e+05 4.655542e+03 7.425816e+05 1.138053e+05 7.894409e+05 2.000000e+00 2.000000e+00 5.131021e+00 2.404825e+01 2.084673e+01 2.108983e+02 5.580548e+01 5.734390e+02 5.765607e+01 5.838588e+02 3.765202e+01 4.116827e+02 2.000000e+00 2.000000e+00 3.801019e+00 7.791183e+00 5.735239e+00 6.860129e+01 1.413053e+01 1.693475e+02 1.342065e+01 1.857095e+02 8.637346e+00 1.349782e+02 1.482284e+02 1.164867e+03
<GCONST> 4.640134e+02
<TRANSP> 20
 0.000000e+00 1.000000e+00 0.000000e+00 0.000000e+00 0.000000e+00 0.000000e+00 0.000000e+00 0.000000e+00 0.000000e+00 0.000000e+00 0.000000e+00 0.000000e+00 0.000000e+00 0.000000e+00 0.000000e+00 0.000000e+00 0.000000e+00 0.000000e+00 0.000000e+00 0.000000e+00
 0.000000e+00 6.000000e-01 4.000000e-01 0.000000e+00 0.000000e+00 0.000000e+00 0.000000e+00 0.000000e+00 0.000000e+00 0.000000e+00 0.000000e+00 0.000000e+00 0.000000e+00 0.000000e+00 0.000000e+00 0.000000e+00 0.000000e+00 0.000000e+00 0.000000e+00 0.000000e+00
 0.000000e+00 0.000000e+00 6.000000e-01 4.000000e-01 0.000000e+00 0.000000e+00 0.000000e+00 0.000000e+00 0.000000e+00 0.000000e+00 0.000000e+00 0.000000e+00 0.000000e+00 0.000000e+00 0.000000e+00 0.000000e+00 0.000000e+00 0.000000e+00 0.000000e+00 0.000000e+00
 0.000000e+00 0.000000e+00 0.000000e+00 6.000000e-01 4.000000e-01 0.000000e+00 0.000000e+00 0.000000e+00 0.000000e+00 0.000000e+00 0.000000e+00 0.000000e+00 0.000000e+00 0.000000e+00 0.000000e+00 0.000000e+00 0.000000e+00 0.000000e+00 0.000000e+00 0.000000e+00
 0.000000e+00 0.000000e+00 0.000000e+00 0.000000e+00 6.000000e-01 4.000000e-01 0.000000e+00 0.000000e+00 0.000000e+00 0.000000e+00 0.000000e+00 0.000000e+00 0.000000e+00 0.000000e+00 0.000000e+00 0.000000e+00 0.000000e+00 0.000000e+00 0.000000e+00 0.000000e+00
 0.000000e+00 0.000000e+00 0.000000e+00 0.000000e+00 0.000000e+00 6.000000e-01 4.000000e-01 0.000000e+00 0.000000e+00 0.000000e+00 0.000000e+00 0.000000e+00 0.000000e+00 0.000000e+00 0.000000e+00 0.000000e+00 0.000000e+00 0.000000e+00 0.000000e+00 0.000000e+00
 0.000000e+00 0.000000e+00 0.000000e+00 0.000000e+00 0.000000e+00 0.000000e+00 6.000000e-01 4.000000e-01 0.000000e+00 0.000000e+00 0.000000e+00 0.000000e+00 0.000000e+00 0.000000e+00 0.000000e+00 0.000000e+00 0.000000e+00 0.000000e+00 0.000000e+00 0.000000e+00
 0.000000e+00 0.000000e+00 0.000000e+00 0.000000e+00 0.000000e+00 0.000000e+00 0.000000e+00 6.000000e-01 4.000000e-01 0.000000e+00 0.000000e+00 0.000000e+00 0.000000e+00 0.000000e+00 0.000000e+00 0.000000e+00 0.000000e+00 0.000000e+00 0.000000e+00 0.000000e+00
 0.000000e+00 0.000000e+00 0.000000e+00 0.000000e+00 0.000000e+00 0.000000e+00 0.000000e+00 0.000000e+00 6.000000e-01 4.000000e-01 0.000000e+00 0.000000e+00 0.000000e+00 0.000000e+00 0.000000e+00 0.000000e+00 0.000000e+00 0.000000e+00 0.000000e+00 0.000000e+00
 0.000000e+00 0.000000e+00 0.000000e+00 0.000000e+00 0.000000e+00 0.000000e+00 0.000000e+00 0.000000e+00 0.000000e+00 6.000000e-01 4.000000e-01 0.000000e+00 0.000000e+00 0.000000e+00 0.000000e+00 0.000000e+00 0.000000e+00 0.000000e+00 0.000000e+00 0.000000e+00
 0.000000e+00 0.000000e+00 0.000000e+00 0.000000e+00 0.000000e+00 0.000000e+00 0.000000e+00 0.000000e+00 0.000000e+00 0.000000e+00 6.000000e-01 4.000000e-01 0.000000e+00 0.000000e+00 0.000000e+00 0.000000e+00 0.000000e+00 0.000000e+00 0.000000e+00 0.000000e+00
 0.000000e+00 0.000000e+00 0.000000e+00 0.000000e+00 0.000000e+00 0.000000e+00 0.000000e+00 0.000000e+00 0.000000e+00 0.000000e+00 0.000000e+00 6.000000e-01 4.000000e-01 0.000000e+00 0.000000e+00 0.000000e+00 0.000000e+00 0.000000e+00 0.000000e+00 0.000000e+00
 0.000000e+00 0.000000e+00 0.000000e+00 0.000000e+00 0.000000e+00 0.000000e+00 0.000000e+00 0.000000e+00 0.000000e+00 0.000000e+00 0.000000e+00 0.000000e+00 6.000000e-01 4.000000e-01 0.000000e+00 0.000000e+00 0.000000e+00 0.000000e+00 0.000000e+00 0.000000e+00
 0.000000e+00 0.000000e+00 0.000000e+00 0.000000e+00 0.000000e+00 0.000000e+00 0.000000e+00 0.000000e+00 0.000000e+00 0.000000e+00 0.000000e+00 0.000000e+00 0.000000e+00 6.000000e-01 4.000000e-01 0.000000e+00 0.000000e+00 0.000000e+00 0.000000e+00 0.000000e+00
 0.000000e+00 0.000000e+00 0.000000e+00 0.000000e+00 0.000000e+00 0.000000e+00 0.000000e+00 0.000000e+00 0.000000e+00 0.000000e+00 0.000000e+00 0.000000e+00 0.000000e+00 0.000000e+00 6.000000e-01 4.000000e-01 0.000000e+00 0.000000e+00 0.000000e+00 0.000000e+00
 0.000000e+00 0.000000e+00 0.000000e+00 0.000000e+00 0.000000e+00 0.000000e+00 0.000000e+00 0.000000e+00 0.000000e+00 0.000000e+00 0.000000e+00 0.000000e+00 0.000000e+00 0.000000e+00 0.000000e+00 6.000000e-01 4.000000e-01 0.000000e+00 0.000000e+00 0.000000e+00
 0.000000e+00 0.000000e+00 0.000000e+00 0.000000e+00 0.000000e+00 0.000000e+00 0.000000e+00 0.000000e+00 0.000000e+00 0.000000e+00 0.000000e+00 0.000000e+00 0.000000e+00 0.000000e+00 0.000000e+00 0.000000e+00 6.000000e-01 4.000000e-01 0.000000e+00 0.000000e+00
 0.000000e+00 0.000000e+00 0.000000e+00 0.000000e+00 0.000000e+00 0.000000e+00 0.000000e+00 0.000000e+00 0.000000e+00 0.000000e+00 0.000000e+00 0.000000e+00 0.000000e+00 0.000000e+00 0.000000e+00 0.000000e+00 0.000000e+00 6.000000e-01 4.000000e-01 0.000000e+00
 0.000000e+00 0.000000e+00 0.000000e+00 0.000000e+00 0.000000e+00 0.000000e+00 0.000000e+00 0.000000e+00 0.000000e+00 0.000000e+00 0.000000e+00 0.000000e+00 0.000000e+00 0.000000e+00 0.000000e+00 0.000000e+00 0.000000e+00 0.000000e+00 6.000000e-01 4.000000e-01
 0.000000e+00 0.000000e+00 0.000000e+00 0.000000e+00 0.000000e+00 0.000000e+00 0.000000e+00 0.000000e+00 0.000000e+00 0.000000e+00 0.000000e+00 0.000000e+00 0.000000e+00 0.000000e+00 0.000000e+00 0.000000e+00 0.000000e+00 0.000000e+00 0.000000e+00 0.000000e+00
<ENDHMM>