~o
<STREAMINFO> 1 52
<VECSIZE> 52<NULLD><USER><DIAGC>
~h "in"
<BEGINHMM>
<NUMSTATES> 20
<STATE> 2
<MEAN> 52
 4.808061e+01 2.206359e+02 1.404806e+02 9.444030e+02 1.052862e+02 9.691263e+02 1.157820e+02 1.048374e+03 1.118384e+02 9.775447e+02 9.674909e+01 9.786866e+02 -5.670780e+01 2.198990e+02 -1.336841e+02 1.041737e+03 -7.935513e+01 1.364016e+03 -8.048506e+01 1.581838e+03 -6.518026e+01 1.431238e+03 -5.779377e+01 1.388442e+03 3.143937e+02 -4.531949e+02 -1.303858e-03 -2.874476e-03 5.185232e-03 -9.091967e-02 -5.636545e-03 -1.019834e-02 -1.489675e-03 1.171217e-01 -1.152602e-02 1.813409e-01 -7.110433e-03 1.398627e-01 1.413179e-03 2.967122e-05 8.849983e-05 -1.221262e-02 3.040181e-03 -5.146157e-02 -7.732380e-04 -8.772095e-02 -1.088309e-04 -7.403295e-02 -1.912980e-03 -6.288168e-02 -1.192531e-02 2.516046e-01
<VARIANCE> 52
 2.838851e+02 5.875013e+03 7.980584e+03 1.566088e+05 1.019631e+04 8.594671e+05 1.842875e+04 1.240437e+06 1.816640e+04 1.257570e+06 1.300340e+04 1.150004e+06 3.168662e+02 5.202793e+03 4.869417e+03 1.028199e+05 5.254654e+03 5.463541e+05 8.273244e+03 8.874664e+05 6.360378e+03 8.829156e+05 4.720084e+03 7.531434e+05 1.160117e+05 8.321843e+05 2.000000e+00 2.000000e+00 5.188156e+00 2.476556e+01 2.112373e+01 2.150991e+02 5.647004e+01 5.830477e+02 5.832840e+01 5.928531e+02 3.809590e+01 4.183705e+02 2.000000e+00 2.000000e+00 3.832412e+00 7.883578e+00 5.826303e+00 7.131342e+01 1.440863e+01 1.762145e+02 1.362683e+01 1.943386e+02 8.753947e+00 1.412417e+02 1.503477e+02 1.187050e+03
<GCONST> 4.643955e+02
<STATE> 3
<MEAN> 52
 4.808061e+01 2.206359e+02 1.404806e+02 9.444030e+02 1.052862e+02 9.691263e+02 1.157820e+02 1.048374e+03 1.118384e+02 9.775447e+02 9.674909e+01 9.786866e+02 -5.670780e+01 2.198990e+02 -1.336841e+02 1.041737e+03 -7.935513e+01 1.364016e+03 -8.048506e+01 1.581838e+03 -6.518026e+01 1.431238e+03 -5.779377e+01 1.388442e+03 3.143937e+02 -4.531949e+02 -1.303858e-03 -2.874476e-03 5.185232e-03 -9.091967e-02 -5.636545e-03 -1.019834e-02 -1.489675e-03 1.171217e-01 -1.152602e-02 1.813409e-01 -7.110433e-03 1.398627e-01 1.413179e-03 2.967122e-05 8.849983e-05 -1.221262e-02 3.040181e-03 -5.146157e-02 -7.732380e-04 -8.772095e-02 -1.088309e-04 -7.403295e-02 -1.912980e-03 -6.288168e-02 -1.192531e-02 2.516046e-01
<VARIANCE> 52
 2.838851e+02 5.875013e+03 7.980584e+03 1.566088e+05 1.019631e+04 8.594671e+05 1.842875e+04 1.240437e+06 1.816640e+04 1.257570e+06 1.300340e+04 1.150004e+06 3.168662e+02 5.202793e+03 4.869417e+03 1.028199e+05 5.254654e+03 5.463541e+05 8.273244e+03 8.874664e+05 6.360378e+03 8.829156e+05 4.720084e+03 7.531434e+05 1.160117e+05 8.321843e+05 2.000000e+00 2.000000e+00 5.188156e+00 2.476556e+01 2.112373e+01 2.150991e+02 5.647004e+01 5.830477e+02 5.832840e+01 5.928531e+02 3.809590e+01 4.183705e+02 2.000000e+00 2.000000e+00 3.832412e+00 7.883578e+00 5.826303e+00 7.131342e+01 1.440863e+01 1.762145e+02 1.362683e+01 1.943386e+02 8.753947e+00 1.412417e+02 1.503477e+02 1.187050e+03
<GCONST> 4.643955e+02
<STATE> 4
<MEAN> 52
 4.808061e+01 2.206359e+02 1.404806e+02 9.444030e+02 1.052862e+02 9.691263e+02 1.157820e+02 1.048374e+03 1.118384e+02 9.775447e+02 9.674909e+01 9.786866e+02 -5.670780e+01 2.198990e+02 -1.336841e+02 1.041737e+03 -7.935513e+01 1.364016e+03 -8.048506e+01 1.581838e+03 -6.518026e+01 1.431238e+03 -5.779377e+01 1.388442e+03 3.143937e+02 -4.531949e+02 -1.303858e-03 -2.874476e-03 5.185232e-03 -9.091967e-02 -5.636545e-03 -1.019834e-02 -1.489675e-03 1.171217e-01 -1.152602e-02 1.813409e-01 -7.110433e-03 1.398627e-01 1.413179e-03 2.967122e-05 8.849983e-05 -1.221262e-02 3.040181e-03 -5.146157e-02 -7.732380e-04 -8.772095e-02 -1.088309e-04 -7.403295e-02 -1.912980e-03 -6.288168e-02 -1.192531e-02 2.516046e-01
<VARIANCE> 52
 2.838851e+02 5.875013e+03 7.980584e+03 1.566088e+05 1.019631e+04 8.594671e+05 1.842875e+04 1.240437e+06 1.816640e+04 1.257570e+06 1.300340e+04 1.150004e+06 3.168662e+02 5.202793e+03 4.869417e+03 1.028199e+05 5.254654e+03 5.463541e+05 8.273244e+03 8.874664e+05 6.360378e+03 8.829156e+05 4.720084e+03 7.531434e+05 1.160117e+05 8.321843e+05 2.000000e+00 2.000000e+00 5.188156e+00 2.476556e+01 2.112373e+01 2.150991e+02 5.647004e+01 5.830477e+02 5.832840e+01 5.928531e+02 3.809590e+01 4.183705e+02 2.000000e+00 2.000000e+00 3.832412e+00 7.883578e+00 5.826303e+00 7.131342e+01 1.440863e+01 1.762145e+02 1.362683e+01 1.943386e+02 8.753947e+00 1.412417e+02 1.503477e+02 1.187050e+03
<GCONST> 4.643955e+02
<STATE> 5
<MEAN> 52
 4.808061e+01 2.206359e+02 1.404806e+02 9.444030e+02 1.052862e+02 9.691263e+02 1.157820e+02 1.048374e+03 1.118384e+02 9.775447e+02 9.674909e+01 9.786866e+02 -5.670780e+01 2.198990e+02 -1.336841e+02 1.041737e+03 -7.935513e+01 1.364016e+03 -8.048506e+01 1.581838e+03 -6.518026e+01 1.431238e+03 -5.779377e+01 1.388442e+03 3.143937e+02 -4.531949e+02 -1.303858e-03 -2.874476e-03 5.185232e-03 -9.091967e-02 -5.636545e-03 -1.019834e-02 -1.489675e-03 1.171217e-01 -1.152602e-02 1.813409e-01 -7.110433e-03 1.398627e-01 1.413179e-03 2.967122e-05 8.849983e-05 -1.221262e-02 3.040181e-03 -5.146157e-02 -7.732380e-04 -8.772095e-02 -1.088309e-04 -7.403295e-02 -1.912980e-03 -6.288168e-02 -1.192531e-02 2.516046e-01
<VARIANCE> 52
 2.838851e+02 5.875013e+03 7.980584e+03 1.566088e+05 1.019631e+04 8.594671e+05 1.842875e+04 1.240437e+06 1.816640e+04 1.257570e+06 1.300340e+04 1.150004e+06 3.168662e+02 5.202793e+03 4.869417e+03 1.028199e+05 5.254654e+03 5.463541e+05 8.273244e+03 8.874664e+05 6.360378e+03 8.829156e+05 4.720084e+03 7.531434e+05 1.160117e+05 8.321843e+05 2.000000e+00 2.000000e+00 5.188156e+00 2.476556e+01 2.112373e+01 2.150991e+02 5.647004e+01 5.830477e+02 5.832840e+01 5.928531e+02 3.809590e+01 4.183705e+02 2.000000e+00 2.000000e+00 3.832412e+00 7.883578e+00 5.826303e+00 7.131342e+01 1.440863e+01 1.762145e+02 1.362683e+01 1.943386e+02 8.753947e+00 1.412417e+02 1.503477e+02 1.187050e+03
<GCONST> 4.643955e+02
<STATE> 6
<MEAN> 52
 4.808061e+01 2.206359e+02 1.404806e+02 9.444030e+02 1.052862e+02 9.691263e+02 1.157820e+02 1.048374e+03 1.118384e+02 9.775447e+02 9.674909e+01 9.786866e+02 -5.670780e+01 2.198990e+02 -1.336841e+02 1.041737e+03 -7.935513e+01 1.364016e+03 -8.048506e+01 1.581838e+03 -6.518026e+01 1.431238e+03 -5.779377e+01 1.388442e+03 3.143937e+02 -4.531949e+02 -1.303858e-03 -2.874476e-03 5.185232e-03 -9.091967e-02 -5.636545e-03 -1.019834e-02 -1.489675e-03 1.171217e-01 -1.152602e-02 1.813409e-01 -7.110433e-03 1.398627e-01 1.413179e-03 2.967122e-05 8.849983e-05 -1.221262e-02 3.040181e-03 -5.146157e-02 -7.732380e-04 -8.772095e-02 -1.088309e-04 -7.403295e-02 -1.912980e-03 -6.288168e-02 -1.192531e-02 2.516046e-01
<VARIANCE> 52
 2.838851e+02 5.875013e+03 7.980584e+03 1.566088e+05 1.019631e+04 8.594671e+05 1.842875e+04 1.240437e+06 1.816640e+04 1.257570e+06 1.300340e+04 1.150004e+06 3.168662e+02 5.202793e+03 4.869417e+03 1.028199e+05 5.254654e+03 5.463541e+05 8.273244e+03 8.874664e+05 6.360378e+03 8.829156e+05 4.720084e+03 7.531434e+05 1.160117e+05 8.321843e+05 2.000000e+00 2.000000e+00 5.188156e+00 2.476556e+01 2.112373e+01 2.150991e+02 5.647004e+01 5.830477e+02 5.832840e+01 5.928531e+02 3.809590e+01 4.183705e+02 2.000000e+00 2.000000e+00 3.832412e+00 7.883578e+00 5.826303e+00 7.131342e+01 1.440863e+01 1.762145e+02 1.362683e+01 1.943386e+02 8.753947e+00 1.412417e+02 1.503477e+02 1.187050e+03
<GCONST> 4.643955e+02
<STATE> 7
<MEAN> 52
 4.808061e+01 2.206359e+02 1.404806e+02 9.444030e+02 1.052862e+02 9.691263e+02 1.157820e+02 1.048374e+03 1.118384e+02 9.775447e+02 9.674909e+01 9.786866e+02 -5.670780e+01 2.198990e+02 -1.336841e+02 1.041737e+03 -7.935513e+01 1.364016e+03 -8.048506e+01 1.581838e+03 -6.518026e+01 1.431238e+03 -5.779377e+01 1.388442e+03 3.143937e+02 -4.531949e+02 -1.303858e-03 -2.874476e-03 5.185232e-03 -9.091967e-02 -5.636545e-03 -1.019834e-02 -1.489675e-03 1.171217e-01 -1.152602e-02 1.813409e-01 -7.110433e-03 1.398627e-01 1.413179e-03 2.967122e-05 8.849983e-05 -1.221262e-02 3.040181e-03 -5.146157e-02 -7.732380e-04 -8.772095e-02 -1.088309e-04 -7.403295e-02 -1.912980e-03 -6.288168e-02 -1.192531e-02 2.516046e-01
<VARIANCE> 52
 2.838851e+02 5.875013e+03 7.980584e+03 1.566088e+05 1.019631e+04 8.594671e+05 1.842875e+04 1.240437e+06 1.816640e+04 1.257570e+06 1.300340e+04 1.150004e+06 3.168662e+02 5.202793e+03 4.869417e+03 1.028199e+05 5.254654e+03 5.463541e+05 8.273244e+03 8.874664e+05 6.360378e+03 8.829156e+05 4.720084e+03 7.531434e+05 1.160117e+05 8.321843e+05 2.000000e+00 2.000000e+00 5.188156e+00 2.476556e+01 2.112373e+01 2.150991e+02 5.647004e+01 5.830477e+02 5.832840e+01 5.928531e+02 3.809590e+01 4.183705e+02 2.000000e+00 2.000000e+00 3.832412e+00 7.883578e+00 5.826303e+00 7.131342e+01 1.440863e+01 1.762145e+02 1.362683e+01 1.943386e+02 8.753947e+00 1.412417e+02 1.503477e+02 1.187050e+03
<GCONST> 4.643955e+02
<STATE> 8
<MEAN> 52
 4.808061e+01 2.206359e+02 1.404806e+02 9.444030e+02 1.052862e+02 9.691263e+02 1.157820e+02 1.048374e+03 1.118384e+02 9.775447e+02 9.674909e+01 9.786866e+02 -5.670780e+01 2.198990e+02 -1.336841e+02 1.041737e+03 -7.935513e+01 1.364016e+03 -8.048506e+01 1.581838e+03 -6.518026e+01 1.431238e+03 -5.779377e+01 1.388442e+03 3.143937e+02 -4.531949e+02 -1.303858e-03 -2.874476e-03 5.185232e-03 -9.091967e-02 -5.636545e-03 -1.019834e-02 -1.489675e-03 1.171217e-01 -1.152602e-02 1.813409e-01 -7.110433e-03 1.398627e-01 1.413179e-03 2.967122e-05 8.849983e-05 -1.221262e-02 3.040181e-03 -5.146157e-02 -7.732380e-04 -8.772095e-02 -1.088309e-04 -7.403295e-02 -1.912980e-03 -6.288168e-02 -1.192531e-02 2.516046e-01
<VARIANCE> 52
 2.838851e+02 5.875013e+03 7.980584e+03 1.566088e+05 1.019631e+04 8.594671e+05 1.842875e+04 1.240437e+06 1.816640e+04 1.257570e+06 1.300340e+04 1.150004e+06 3.168662e+02 5.202793e+03 4.869417e+03 1.028199e+05 5.254654e+03 5.463541e+05 8.273244e+03 8.874664e+05 6.360378e+03 8.829156e+05 4.720084e+03 7.531434e+05 1.160117e+05 8.321843e+05 2.000000e+00 2.000000e+00 5.188156e+00 2.476556e+01 2.112373e+01 2.150991e+02 5.647004e+01 5.830477e+02 5.832840e+01 5.928531e+02 3.809590e+01 4.183705e+02 2.000000e+00 2.000000e+00 3.832412e+00 7.883578e+00 5.826303e+00 7.131342e+01 1.440863e+01 1.762145e+02 1.362683e+01 1.943386e+02 8.753947e+00 1.412417e+02 1.503477e+02 1.187050e+03
<GCONST> 4.643955e+02
<STATE> 9
<MEAN> 52
 4.808061e+01 2.206359e+02 1.404806e+02 9.444030e+02 1.052862e+02 9.691263e+02 1.157820e+02 1.048374e+03 1.118384e+02 9.775447e+02 9.674909e+01 9.786866e+02 -5.670780e+01 2.198990e+02 -1.336841e+02 1.041737e+03 -7.935513e+01 1.364016e+03 -8.048506e+01 1.581838e+03 -6.518026e+01 1.431238e+03 -5.779377e+01 1.388442e+03 3.143937e+02 -4.531949e+02 -1.303858e-03 -2.874476e-03 5.185232e-03 -9.091967e-02 -5.636545e-03 -1.019834e-02 -1.489675e-03 1.171217e-01 -1.152602e-02 1.813409e-01 -7.110433e-03 1.398627e-01 1.413179e-03 2.967122e-05 8.849983e-05 -1.221262e-02 3.040181e-03 -5.146157e-02 -7.732380e-04 -8.772095e-02 -1.088309e-04 -7.403295e-02 -1.912980e-03 -6.288168e-02 -1.192531e-02 2.516046e-01
<VARIANCE> 52
 2.838851e+02 5.875013e+03 7.980584e+03 1.566088e+05 1.019631e+04 8.594671e+05 1.842875e+04 1.240437e+06 1.816640e+04 1.257570e+06 1.300340e+04 1.150004e+06 3.168662e+02 5.202793e+03 4.869417e+03 1.028199e+05 5.254654e+03 5.463541e+05 8.273244e+03 8.874664e+05 6.360378e+03 8.829156e+05 4.720084e+03 7.531434e+05 1.160117e+05 8.321843e+05 2.000000e+00 2.000000e+00 5.188156e+00 2.476556e+01 2.112373e+01 2.150991e+02 5.647004e+01 5.830477e+02 5.832840e+01 5.928531e+02 3.809590e+01 4.183705e+02 2.000000e+00 2.000000e+00 3.832412e+00 7.883578e+00 5.826303e+00 7.131342e+01 1.440863e+01 1.762145e+02 1.362683e+01 1.943386e+02 8.753947e+00 1.412417e+02 1.503477e+02 1.187050e+03
<GCONST> 4.643955e+02
<STATE> 10
<MEAN> 52
 4.808061e+01 2.206359e+02 1.404806e+02 9.444030e+02 1.052862e+02 9.691263e+02 1.157820e+02 1.048374e+03 1.118384e+02 9.775447e+02 9.674909e+01 9.786866e+02 -5.670780e+01 2.198990e+02 -1.336841e+02 1.041737e+03 -7.935513e+01 1.364016e+03 -8.048506e+01 1.581838e+03 -6.518026e+01 1.431238e+03 -5.779377e+01 1.388442e+03 3.143937e+02 -4.531949e+02 -1.303858e-03 -2.874476e-03 5.185232e-03 -9.091967e-02 -5.636545e-03 -1.019834e-02 -1.489675e-03 1.171217e-01 -1.152602e-02 1.813409e-01 -7.110433e-03 1.398627e-01 1.413179e-03 2.967122e-05 8.849983e-05 -1.221262e-02 3.040181e-03 -5.146157e-02 -7.732380e-04 -8.772095e-02 -1.088309e-04 -7.403295e-02 -1.912980e-03 -6.288168e-02 -1.192531e-02 2.516046e-01
<VARIANCE> 52
 2.838851e+02 5.875013e+03 7.980584e+03 1.566088e+05 1.019631e+04 8.594671e+05 1.842875e+04 1.240437e+06 1.816640e+04 1.257570e+06 1.300340e+04 1.150004e+06 3.168662e+02 5.202793e+03 4.869417e+03 1.028199e+05 5.254654e+03 5.463541e+05 8.273244e+03 8.874664e+05 6.360378e+03 8.829156e+05 4.720084e+03 7.531434e+05 1.160117e+05 8.321843e+05 2.000000e+00 2.000000e+00 5.188156e+00 2.476556e+01 2.112373e+01 2.150991e+02 5.647004e+01 5.830477e+02 5.832840e+01 5.928531e+02 3.809590e+01 4.183705e+02 2.000000e+00 2.000000e+00 3.832412e+00 7.883578e+00 5.826303e+00 7.131342e+01 1.440863e+01 1.762145e+02 1.362683e+01 1.943386e+02 8.753947e+00 1.412417e+02 1.503477e+02 1.187050e+03
<GCONST> 4.643955e+02
<STATE> 11
<MEAN> 52
 4.808061e+01 2.206359e+02 1.404806e+02 9.444030e+02 1.052862e+02 9.691263e+02 1.157820e+02 1.048374e+03 1.118384e+02 9.775447e+02 9.674909e+01 9.786866e+02 -5.670780e+01 2.198990e+02 -1.336841e+02 1.041737e+03 -7.935513e+01 1.364016e+03 -8.048506e+01 1.581838e+03 -6.518026e+01 1.431238e+03 -5.779377e+01 1.388442e+03 3.143937e+02 -4.531949e+02 -1.303858e-03 -2.874476e-03 5.185232e-03 -9.091967e-02 -5.636545e-03 -1.019834e-02 -1.489675e-03 1.171217e-01 -1.152602e-02 1.813409e-01 -7.110433e-03 1.398627e-01 1.413179e-03 2.967122e-05 8.849983e-05 -1.221262e-02 3.040181e-03 -5.146157e-02 -7.732380e-04 -8.772095e-02 -1.088309e-04 -7.403295e-02 -1.912980e-03 -6.288168e-02 -1.192531e-02 2.516046e-01
<VARIANCE> 52
 2.838851e+02 5.875013e+03 7.980584e+03 1.566088e+05 1.019631e+04 8.594671e+05 1.842875e+04 1.240437e+06 1.816640e+04 1.257570e+06 1.300340e+04 1.150004e+06 3.168662e+02 5.202793e+03 4.869417e+03 1.028199e+05 5.254654e+03 5.463541e+05 8.273244e+03 8.874664e+05 6.360378e+03 8.829156e+05 4.720084e+03 7.531434e+05 1.160117e+05 8.321843e+05 2.000000e+00 2.000000e+00 5.188156e+00 2.476556e+01 2.112373e+01 2.150991e+02 5.647004e+01 5.830477e+02 5.832840e+01 5.928531e+02 3.809590e+01 4.183705e+02 2.000000e+00 2.000000e+00 3.832412e+00 7.883578e+00 5.826303e+00 7.131342e+01 1.440863e+01 1.762145e+02 1.362683e+01 1.943386e+02 8.753947e+00 1.412417e+02 1.503477e+02 1.187050e+03
<GCONST> 4.643955e+02
<STATE> 12
<MEAN> 52
 4.808061e+01 2.206359e+02 1.404806e+02 9.444030e+02 1.052862e+02 9.691263e+02 1.157820e+02 1.048374e+03 1.118384e+02 9.775447e+02 9.674909e+01 9.786866e+02 -5.670780e+01 2.198990e+02 -1.336841e+02 1.041737e+03 -7.935513e+01 1.364016e+03 -8.048506e+01 1.581838e+03 -6.518026e+01 1.431238e+03 -5.779377e+01 1.388442e+03 3.143937e+02 -4.531949e+02 -1.303858e-03 -2.874476e-03 5.185232e-03 -9.091967e-02 -5.636545e-03 -1.019834e-02 -1.489675e-03 1.171217e-01 -1.152602e-02 1.813409e-01 -7.110433e-03 1.398627e-01 1.413179e-03 2.967122e-05 8.849983e-05 -1.221262e-02 3.040181e-03 -5.146157e-02 -7.732380e-04 -8.772095e-02 -1.088309e-04 -7.403295e-02 -1.912980e-03 -6.288168e-02 -1.192531e-02 2.516046e-01
<VARIANCE> 52
 2.838851e+02 5.875013e+03 7.980584e+03 1.566088e+05 1.019631e+04 8.594671e+05 1.842875e+04 1.240437e+06 1.816640e+04 1.257570e+06 1.300340e+04 1.150004e+06 3.168662e+02 5.202793e+03 4.869417e+03 1.028199e+05 5.254654e+03 5.463541e+05 8.273244e+03 8.874664e+05 6.360378e+03 8.829156e+05 4.720084e+03 7.531434e+05 1.160117e+05 8.321843e+05 2.000000e+00 2.000000e+00 5.188156e+00 2.476556e+01 2.112373e+01 2.150991e+02 5.647004e+01 5.830477e+02 5.832840e+01 5.928531e+02 3.809590e+01 4.183705e+02 2.000000e+00 2.000000e+00 3.832412e+00 7.883578e+00 5.826303e+00 7.131342e+01 1.440863e+01 1.762145e+02 1.362683e+01 1.943386e+02 8.753947e+00 1.412417e+02 1.503477e+02 1.187050e+03
<GCONST> 4.643955e+02
<STATE> 13
<MEAN> 52
 4.808061e+01 2.206359e+02 1.404806e+02 9.444030e+02 1.052862e+02 9.691263e+02 1.157820e+02 1.048374e+03 1.118384e+02 9.775447e+02 9.674909e+01 9.786866e+02 -5.670780e+01 2.198990e+02 -1.336841e+02 1.041737e+03 -7.935513e+01 1.364016e+03 -8.048506e+01 1.581838e+03 -6.518026e+01 1.431238e+03 -5.779377e+01 1.388442e+03 3.143937e+02 -4.531949e+02 -1.303858e-03 -2.874476e-03 5.185232e-03 -9.091967e-02 -5.636545e-03 -1.019834e-02 -1.489675e-03 1.171217e-01 -1.152602e-02 1.813409e-01 -7.110433e-03 1.398627e-01 1.413179e-03 2.967122e-05 8.849983e-05 -1.221262e-02 3.040181e-03 -5.146157e-02 -7.732380e-04 -8.772095e-02 -1.088309e-04 -7.403295e-02 -1.912980e-03 -6.288168e-02 -1.192531e-02 2.516046e-01
<VARIANCE> 52
 2.838851e+02 5.875013e+03 7.980584e+03 1.566088e+05 1.019631e+04 8.594671e+05 1.842875e+04 1.240437e+06 1.816640e+04 1.257570e+06 1.300340e+04 1.150004e+06 3.168662e+02 5.202793e+03 4.869417e+03 1.028199e+05 5.254654e+03 5.463541e+05 8.273244e+03 8.874664e+05 6.360378e+03 8.829156e+05 4.720084e+03 7.531434e+05 1.160117e+05 8.321843e+05 2.000000e+00 2.000000e+00 5.188156e+00 2.476556e+01 2.112373e+01 2.150991e+02 5.647004e+01 5.830477e+02 5.832840e+01 5.928531e+02 3.809590e+01 4.183705e+02 2.000000e+00 2.000000e+00 3.832412e+00 7.883578e+00 5.826303e+00 7.131342e+01 1.440863e+01 1.762145e+02 1.362683e+01 1.943386e+02 8.753947e+00 1.412417e+02 1.503477e+02 1.187050e+03
<GCONST> 4.643955e+02
<STATE> 14
<MEAN> 52
 4.808061e+01 2.206359e+02 1.404806e+02 9.444030e+02 1.052862e+02 9.691263e+02 1.157820e+02 1.048374e+03 1.118384e+02 9.775447e+02 9.674909e+01 9.786866e+02 -5.670780e+01 2.198990e+02 -1.336841e+02 1.041737e+03 -7.935513e+01 1.364016e+03 -8.048506e+01 1.581838e+03 -6.518026e+01 1.431238e+03 -5.779377e+01 1.388442e+03 3.143937e+02 -4.531949e+02 -1.303858e-03 -2.874476e-03 5.185232e-03 -9.091967e-02 -5.636545e-03 -1.019834e-02 -1.489675e-03 1.171217e-01 -1.152602e-02 1.813409e-01 -7.110433e-03 1.398627e-01 1.413179e-03 2.967122e-05 8.849983e-05 -1.221262e-02 3.040181e-03 -5.146157e-02 -7.732380e-04 -8.772095e-02 -1.088309e-04 -7.403295e-02 -1.912980e-03 -6.288168e-02 -1.192531e-02 2.516046e-01
<VARIANCE> 52
 2.838851e+02 5.875013e+03 7.980584e+03 1.566088e+05 1.019631e+04 8.594671e+05 1.842875e+04 1.240437e+06 1.816640e+04 1.257570e+06 1.300340e+04 1.150004e+06 3.168662e+02 5.202793e+03 4.869417e+03 1.028199e+05 5.254654e+03 5.463541e+05 8.273244e+03 8.874664e+05 6.360378e+03 8.829156e+05 4.720084e+03 7.531434e+05 1.160117e+05 8.321843e+05 2.000000e+00 2.000000e+00 5.188156e+00 2.476556e+01 2.112373e+01 2.150991e+02 5.647004e+01 5.830477e+02 5.832840e+01 5.928531e+02 3.809590e+01 4.183705e+02 2.000000e+00 2.000000e+00 3.832412e+00 7.883578e+00 5.826303e+00 7.131342e+01 1.440863e+01 1.762145e+02 1.362683e+01 1.943386e+02 8.753947e+00 1.412417e+02 1.503477e+02 1.187050e+03
<GCONST> 4.643955e+02
<STATE> 15
<MEAN> 52
 4.808061e+01 2.206359e+02 1.404806e+02 9.444030e+02 1.052862e+02 9.691263e+02 1.157820e+02 1.048374e+03 1.118384e+02 9.775447e+02 9.674909e+01 9.786866e+02 -5.670780e+01 2.198990e+02 -1.336841e+02 1.041737e+03 -7.935513e+01 1.364016e+03 -8.048506e+01 1.581838e+03 -6.518026e+01 1.431238e+03 -5.779377e+01 1.388442e+03 3.143937e+02 -4.531949e+02 -1.303858e-03 -2.874476e-03 5.185232e-03 -9.091967e-02 -5.636545e-03 -1.019834e-02 -1.489675e-03 1.171217e-01 -1.152602e-02 1.813409e-01 -7.110433e-03 1.398627e-01 1.413179e-03 2.967122e-05 8.849983e-05 -1.221262e-02 3.040181e-03 -5.146157e-02 -7.732380e-04 -8.772095e-02 -1.088309e-04 -7.403295e-02 -1.912980e-03 -6.288168e-02 -1.192531e-02 2.516046e-01
<VARIANCE> 52
 2.838851e+02 5.875013e+03 7.980584e+03 1.566088e+05 1.019631e+04 8.594671e+05 1.842875e+04 1.240437e+06 1.816640e+04 1.257570e+06 1.300340e+04 1.150004e+06 3.168662e+02 5.202793e+03 4.869417e+03 1.028199e+05 5.254654e+03 5.463541e+05 8.273244e+03 8.874664e+05 6.360378e+03 8.829156e+05 4.720084e+03 7.531434e+05 1.160117e+05 8.321843e+05 2.000000e+00 2.000000e+00 5.188156e+00 2.476556e+01 2.112373e+01 2.150991e+02 5.647004e+01 5.830477e+02 5.832840e+01 5.928531e+02 3.809590e+01 4.183705e+02 2.000000e+00 2.000000e+00 3.832412e+00 7.883578e+00 5.826303e+00 7.131342e+01 1.440863e+01 1.762145e+02 1.362683e+01 1.943386e+02 8.753947e+00 1.412417e+02 1.503477e+02 1.187050e+03
<GCONST> 4.643955e+02
<STATE> 16
<MEAN> 52
 4.808061e+01 2.206359e+02 1.404806e+02 9.444030e+02 1.052862e+02 9.691263e+02 1.157820e+02 1.048374e+03 1.118384e+02 9.775447e+02 9.674909e+01 9.786866e+02 -5.670780e+01 2.198990e+02 -1.336841e+02 1.041737e+03 -7.935513e+01 1.364016e+03 -8.048506e+01 1.581838e+03 -6.518026e+01 1.431238e+03 -5.779377e+01 1.388442e+03 3.143937e+02 -4.531949e+02 -1.303858e-03 -2.874476e-03 5.185232e-03 -9.091967e-02 -5.636545e-03 -1.019834e-02 -1.489675e-03 1.171217e-01 -1.152602e-02 1.813409e-01 -7.110433e-03 1.398627e-01 1.413179e-03 2.967122e-05 8.849983e-05 -1.221262e-02 3.040181e-03 -5.146157e-02 -7.732380e-04 -8.772095e-02 -1.088309e-04 -7.403295e-02 -1.912980e-03 -6.288168e-02 -1.192531e-02 2.516046e-01
<VARIANCE> 52
 2.838851e+02 5.875013e+03 7.980584e+03 1.566088e+05 1.019631e+04 8.594671e+05 1.842875e+04 1.240437e+06 1.816640e+04 1.257570e+06 1.300340e+04 1.150004e+06 3.168662e+02 5.202793e+03 4.869417e+03 1.028199e+05 5.254654e+03 5.463541e+05 8.273244e+03 8.874664e+05 6.360378e+03 8.829156e+05 4.720084e+03 7.531434e+05 1.160117e+05 8.321843e+05 2.000000e+00 2.000000e+00 5.188156e+00 2.476556e+01 2.112373e+01 2.150991e+02 5.647004e+01 5.830477e+02 5.832840e+01 5.928531e+02 3.809590e+01 4.183705e+02 2.000000e+00 2.000000e+00 3.832412e+00 7.883578e+00 5.826303e+00 7.131342e+01 1.440863e+01 1.762145e+02 1.362683e+01 1.943386e+02 8.753947e+00 1.412417e+02 1.503477e+02 1.187050e+03
<GCONST> 4.643955e+02
<STATE> 17
<MEAN> 52
 4.808061e+01 2.206359e+02 1.404806e+02 9.444030e+02 1.052862e+02 9.691263e+02 1.157820e+02 1.048374e+03 1.118384e+02 9.775447e+02 9.674909e+01 9.786866e+02 -5.670780e+01 2.198990e+02 -1.336841e+02 1.041737e+03 -7.935513e+01 1.364016e+03 -8.048506e+01 1.581838e+03 -6.518026e+01 1.431238e+03 -5.779377e+01 1.388442e+03 3.143937e+02 -4.531949e+02 -1.303858e-03 -2.874476e-03 5.185232e-03 -9.091967e-02 -5.636545e-03 -1.019834e-02 -1.489675e-03 1.171217e-01 -1.152602e-02 1.813409e-01 -7.110433e-03 1.398627e-01 1.413179e-03 2.967122e-05 8.849983e-05 -1.221262e-02 3.040181e-03 -5.146157e-02 -7.732380e-04 -8.772095e-02 -1.088309e-04 -7.403295e-02 -1.912980e-03 -6.288168e-02 -1.192531e-02 2.516046e-01
<VARIANCE> 52
 2.838851e+02 5.875013e+03 7.980584e+03 1.566088e+05 1.019631e+04 8.594671e+05 1.842875e+04 1.240437e+06 1.816640e+04 1.257570e+06 1.300340e+04 1.150004e+06 3.168662e+02 5.202793e+03 4.869417e+03 1.028199e+05 5.254654e+03 5.463541e+05 8.273244e+03 8.874664e+05 6.360378e+03 8.829156e+05 4.720084e+03 7.531434e+05 1.160117e+05 8.321843e+05 2.000000e+00 2.000000e+00 5.188156e+00 2.476556e+01 2.112373e+01 2.150991e+02 5.647004e+01 5.830477e+02 5.832840e+01 5.928531e+02 3.809590e+01 4.183705e+02 2.000000e+00 2.000000e+00 3.832412e+00 7.883578e+00 5.826303e+00 7.131342e+01 1.440863e+01 1.762145e+02 1.362683e+01 1.943386e+02 8.753947e+00 1.412417e+02 1.503477e+02 1.187050e+03
<GCONST> 4.643955e+02
<STATE> 18
<MEAN> 52
 4.808061e+01 2.206359e+02 1.404806e+02 9.444030e+02 1.052862e+02 9.691263e+02 1.157820e+02 1.048374e+03 1.118384e+02 9.775447e+02 9.674909e+01 9.786866e+02 -5.670780e+01 2.198990e+02 -1.336841e+02 1.041737e+03 -7.935513e+01 1.364016e+03 -8.048506e+01 1.581838e+03 -6.518026e+01 1.431238e+03 -5.779377e+01 1.388442e+03 3.143937e+02 -4.531949e+02 -1.303858e-03 -2.874476e-03 5.185232e-03 -9.091967e-02 -5.636545e-03 -1.019834e-02 -1.489675e-03 1.171217e-01 -1.152602e-02 1.813409e-01 -7.110433e-03 1.398627e-01 1.413179e-03 2.967122e-05 8.849983e-05 -1.221262e-02 3.040181e-03 -5.146157e-02 -7.732380e-04 -8.772095e-02 -1.088309e-04 -7.403295e-02 -1.912980e-03 -6.288168e-02 -1.192531e-02 2.516046e-01
<VARIANCE> 52
 2.838851e+02 5.875013e+03 7.980584e+03 1.566088e+05 1.019631e+04 8.594671e+05 1.842875e+04 1.240437e+06 1.816640e+04 1.257570e+06 1.300340e+04 1.150004e+06 3.168662e+02 5.202793e+03 4.869417e+03 1.028199e+05 5.254654e+03 5.463541e+05 8.273244e+03 8.874664e+05 6.360378e+03 8.829156e+05 4.720084e+03 7.531434e+05 1.160117e+05 8.321843e+05 2.000000e+00 2.000000e+00 5.188156e+00 2.476556e+01 2.112373e+01 2.150991e+02 5.647004e+01 5.830477e+02 5.832840e+01 5.928531e+02 3.809590e+01 4.183705e+02 2.000000e+00 2.000000e+00 3.832412e+00 7.883578e+00 5.826303e+00 7.131342e+01 1.440863e+01 1.762145e+02 1.362683e+01 1.943386e+02 8.753947e+00 1.412417e+02 1.503477e+02 1.187050e+03
<GCONST> 4.643955e+02
<STATE> 19
<MEAN> 52
 4.808061e+01 2.206359e+02 1.404806e+02 9.444030e+02 1.052862e+02 9.691263e+02 1.157820e+02 1.048374e+03 1.118384e+02 9.775447e+02 9.674909e+01 9.786866e+02 -5.670780e+01 2.198990e+02 -1.336841e+02 1.041737e+03 -7.935513e+01 1.364016e+03 -8.048506e+01 1.581838e+03 -6.518026e+01 1.431238e+03 -5.779377e+01 1.388442e+03 3.143937e+02 -4.531949e+02 -1.303858e-03 -2.874476e-03 5.185232e-03 -9.091967e-02 -5.636545e-03 -1.019834e-02 -1.489675e-03 1.171217e-01 -1.152602e-02 1.813409e-01 -7.110433e-03 1.398627e-01 1.413179e-03 2.967122e-05 8.849983e-05 -1.221262e-02 3.040181e-03 -5.146157e-02 -7.732380e-04 -8.772095e-02 -1.088309e-04 -7.403295e-02 -1.912980e-03 -6.288168e-02 -1.192531e-02 2.516046e-01
<VARIANCE> 52
 2.838851e+02 5.875013e+03 7.980584e+03 1.566088e+05 1.019631e+04 8.594671e+05 1.842875e+04 1.240437e+06 1.816640e+04 1.257570e+06 1.300340e+04 1.150004e+06 3.168662e+02 5.202793e+03 4.869417e+03 1.028199e+05 5.254654e+03 5.463541e+05 8.273244e+03 8.874664e+05 6.360378e+03 8.829156e+05 4.720084e+03 7.531434e+05 1.160117e+05 8.321843e+05 2.000000e+00 2.000000e+00 5.188156e+00 2.476556e+01 2.112373e+01 2.150991e+02 5.647004e+01 5.830477e+02 5.832840e+01 5.928531e+02 3.809590e+01 4.183705e+02 2.000000e+00 2.000000e+00 3.832412e+00 7.883578e+00 5.826303e+00 7.131342e+01 1.440863e+01 1.762145e+02 1.362683e+01 1.943386e+02 8.753947e+00 1.412417e+02 1.503477e+02 1.187050e+03
<GCONST> 4.643955e+02
<TRANSP> 20
 0.000000e+00 1.000000e+00 0.000000e+00 0.000000e+00 0.000000e+00 0.000000e+00 0.000000e+00 0.000000e+00 0.000000e+00 0.000000e+00 0.000000e+00 0.000000e+00 0.000000e+00 0.000000e+00 0.000000e+00 0.000000e+00 0.000000e+00 0.000000e+00 0.000000e+00 0.000000e+00
 0.000000e+00 6.000000e-01 4.000000e-01 0.000000e+00 0.000000e+00 0.000000e+00 0.000000e+00 0.000000e+00 0.000000e+00 0.000000e+00 0.000000e+00 0.000000e+00 0.000000e+00 0.000000e+00 0.000000e+00 0.000000e+00 0.000000e+00 0.000000e+00 0.000000e+00 0.000000e+00
 0.000000e+00 0.000000e+00 6.000000e-01 4.000000e-01 0.000000e+00 0.000000e+00 0.000000e+00 0.000000e+00 0.000000e+00 0.000000e+00 0.000000e+00 0.000000e+00 0.000000e+00 0.000000e+00 0.000000e+00 0.000000e+00 0.000000e+00 0.000000e+00 0.000000e+00 0.000000e+00
 0.000000e+00 0.000000e+00 0.000000e+00 6.000000e-01 4.000000e-01 0.000000e+00 0.000000e+00 0.000000e+00 0.000000e+00 0.000000e+00 0.000000e+00 0.000000e+00 0.000000e+00 0.000000e+00 0.000000e+00 0.000000e+00 0.000000e+00 0.000000e+00 0.000000e+00 0.000000e+00
 0.000000e+00 0.000000e+00 0.000000e+00 0.000000e+00 6.000000e-01 4.000000e-01 0.000000e+00 0.000000e+00 0.000000e+00 0.000000e+00 0.000000e+00 0.000000e+00 0.000000e+00 0.000000e+00 0.000000e+00 0.000000e+00 0.000000e+00 0.000000e+00 0.000000e+00 0.000000e+00
 0.000000e+00 0.000000e+00 0.000000e+00 0.000000e+00 0.000000e+00 6.000000e-01 4.000000e-01 0.000000e+00 0.000000e+00 0.000000e+00 0.000000e+00 0.000000e+00 0.000000e+00 0.000000e+00 0.000000e+00 0.000000e+00 0.000000e+00 0.000000e+00 0.000000e+00 0.000000e+00
 0.000000e+00 0.000000e+00 0.000000e+00 0.000000e+00 0.000000e+00 0.000000e+00 6.000000e-01 4.000000e-01 0.000000e+00 0.000000e+00 0.000000e+00 0.000000e+00 0.000000e+00 0.000000e+00 0.000000e+00 0.000000e+00 0.000000e+00 0.000000e+00 0.000000e+00 0.000000e+00
 0.000000e+00 0.000000e+00 0.000000e+00 0.000000e+00 0.000000e+00 0.000000e+00 0.000000e+00 6.000000e-01 4.000000e-01 0.000000e+00 0.000000e+00 0.000000e+00 0.000000e+00 0.000000e+00 0.000000e+00 0.000000e+00 0.000000e+00 0.000000e+00 0.000000e+00 0.000000e+00
 0.000000e+00 0.000000e+00 0.000000e+00 0.000000e+00 0.000000e+00 0.000000e+00 0.000000e+00 0.000000e+00 6.000000e-01 4.000000e-01 0.000000e+00 0.000000e+00 0.000000e+00 0.000000e+00 0.000000e+00 0.000000e+00 0.000000e+00 0.000000e+00 0.000000e+00 0.000000e+00
 0.000000e+00 0.000000e+00 0.000000e+00 0.000000e+00 0.000000e+00 0.000000e+00 0.000000e+00 0.000000e+00 0.000000e+00 6.000000e-01 4.000000e-01 0.000000e+00 0.000000e+00 0.000000e+00 0.000000e+00 0.000000e+00 0.000000e+00 0.000000e+00 0.000000e+00 0.000000e+00
 0.000000e+00 0.000000e+00 0.000000e+00 0.000000e+00 0.000000e+00 0.000000e+00 0.000000e+00 0.000000e+00 0.000000e+00 0.000000e+00 6.000000e-01 4.000000e-01 0.000000e+00 0.000000e+00 0.000000e+00 0.000000e+00 0.000000e+00 0.000000e+00 0.000000e+00 0.000000e+00
 0.000000e+00 0.000000e+00 0.000000e+00 0.000000e+00 0.000000e+00 0.000000e+00 0.000000e+00 0.000000e+00 0.000000e+00 0.000000e+00 0.000000e+00 6.000000e-01 4.000000e-01 0.000000e+00 0.000000e+00 0.000000e+00 0.000000e+00 0.000000e+00 0.000000e+00 0.000000e+00
 0.000000e+00 0.000000e+00 0.000000e+00 0.000000e+00 0.000000e+00 0.000000e+00 0.000000e+00 0.000000e+00 0.000000e+00 0.000000e+00 0.000000e+00 0.000000e+00 6.000000e-01 4.000000e-01 0.000000e+00 0.000000e+00 0.000000e+00 0.000000e+00 0.000000e+00 0.000000e+00
 0.000000e+00 0.000000e+00 0.000000e+00 0.000000e+00 0.000000e+00 0.000000e+00 0.000000e+00 0.000000e+00 0.000000e+00 0.000000e+00 0.000000e+00 0.000000e+00 0.000000e+00 6.000000e-01 4.000000e-01 0.000000e+00 0.000000e+00 0.000000e+00 0.000000e+00 0.000000e+00
 0.000000e+00 0.000000e+00 0.000000e+00 0.000000e+00 0.000000e+00 0.000000e+00 0.000000e+00 0.000000e+00 0.000000e+00 0.000000e+00 0.000000e+00 0.000000e+00 0.000000e+00 0.000000e+00 6.000000e-01 4.000000e-01 0.000000e+00 0.000000e+00 0.000000e+00 0.000000e+00
 0.000000e+00 0.000000e+00 0.000000e+00 0.000000e+00 0.000000e+00 0.000000e+00 0.000000e+00 0.000000e+00 0.000000e+00 0.000000e+00 0.000000e+00 0.000000e+00 0.000000e+00 0.000000e+00 0.000000e+00 6.000000e-01 4.000000e-01 0.000000e+00 0.000000e+00 0.000000e+00
 0.000000e+00 0.000000e+00 0.000000e+00 0.000000e+00 0.000000e+00 0.000000e+00 0.000000e+00 0.000000e+00 0.000000e+00 0.000000e+00 0.000000e+00 0.000000e+00 0.000000e+00 0.000000e+00 0.000000e+00 0.000000e+00 6.000000e-01 4.000000e-01 0.000000e+00 0.000000e+00
 0.000000e+00 0.000000e+00 0.000000e+00 0.000000e+00 0.000000e+00 0.000000e+00 0.000000e+00 0.000000e+00 0.000000e+00 0.000000e+00 0.000000e+00 0.000000e+00 0.000000e+00 0.000000e+00 0.000000e+00 0.000000e+00 0.000000e+00 6.000000e-01 4.000000e-01 0.000000e+00
 0.000000e+00 0.000000e+00 0.000000e+00 0.000000e+00 0.000000e+00 0.000000e+00 0.000000e+00 0.000000e+00 0.000000e+00 0.000000e+00 0.000000e+00 0.000000e+00 0.000000e+00 0.000000e+00 0.000000e+00 0.000000e+00 0.000000e+00 0.000000e+00 6.000000e-01 4.000000e-01
 0.000000e+00 0.000000e+00 0.000000e+00 0.000000e+00 0.000000e+00 0.000000e+00 0.000000e+00 0.000000e+00 0.000000e+00 0.000000e+00 0.000000e+00 0.000000e+00 0.000000e+00 0.000000e+00 0.000000e+00 0.000000e+00 0.000000e+00 0.000000e+00 0.000000e+00 0.000000e+00
<ENDHMM>