~o
<STREAMINFO> 1 52
<VECSIZE> 52<NULLD><USER><DIAGC>
~h "in"
<BEGINHMM>
<NUMSTATES> 20
<STATE> 2
<NUMMIXES> 3
<MIXTURE> 1 2.804911e-01
<MEAN> 52
 6.456889e+01 2.830704e+02 1.262311e+02 1.406056e+03 1.326597e+02 1.389477e+03 1.383628e+02 1.482629e+03 1.364333e+02 1.232851e+03 1.165633e+02 1.221207e+03 -6.701616e+01 3.074422e+02 -1.032437e+02 1.466553e+03 -7.527141e+01 1.900246e+03 -7.207053e+01 2.181803e+03 -6.599576e+01 1.884570e+03 -5.660280e+01 1.806169e+03 3.828273e+02 -2.724162e+02 2.104797e-02 3.422317e-02 1.010360e-01 4.069404e-01 2.850400e-01 3.345730e-01 2.890537e-01 1.627653e-01 3.553597e-01 -1.326860e-01 3.145696e-01 -1.004685e-01 2.685085e-03 9.199810e-02 4.488463e-02 6.152375e-01 1.523171e-01 7.766674e-01 2.470936e-01 1.206542e+00 2.019629e-01 1.391188e+00 1.520737e-01 1.359333e+00 9.438396e-04 -4.405710e-01
<VARIANCE> 52
 7.805249e+01 2.490000e+03 2.006572e+03 1.206197e+05 2.949427e+03 3.168051e+05 4.966025e+03 4.908064e+05 5.291099e+03 4.363619e+05 3.737589e+03 3.810506e+05 7.098322e+01 2.015736e+03 6.409209e+02 5.396112e+04 2.035720e+03 1.875982e+05 3.277218e+03 3.488098e+05 3.613620e+03 3.501693e+05 2.542452e+03 2.817621e+05 6.408501e+04 5.037772e+05 3.594597e-03 3.351718e-02 1.128376e-01 1.967779e+00 3.816653e-01 6.784091e+00 6.800584e-01 1.712395e+01 8.648896e-01 1.924002e+01 6.432256e-01 1.295251e+01 6.682328e-03 5.501601e-02 2.847537e-01 2.351589e+00 2.344051e-01 4.217649e+00 4.896634e-01 9.856332e+00 3.988649e-01 1.809019e+01 2.507948e-01 1.665570e+01 4.687612e+00 6.110085e+01
<GCONST> 3.474778e+02
<MIXTURE> 2 5.235985e-01
<MEAN> 52
 4.711878e+01 1.488448e+02 1.493710e+02 7.110267e+02 4.109569e+01 3.104138e+02 2.545061e+01 2.630644e+02 2.259172e+01 1.978993e+02 2.118940e+01 2.273705e+02 -5.105523e+01 1.887057e+02 -1.054212e+02 1.076098e+03 -2.219567e+01 7.761447e+02 -1.204268e+01 7.707126e+02 -1.034845e+01 5.962637e+02 -1.007855e+01 6.180526e+02 5.457183e+01 -2.272459e+02 -1.092997e-02 -5.161457e-02 -1.201298e-02 -5.619498e-02 -8.603849e-02 -1.100122e+00 -1.408103e-01 -1.938494e+00 -1.255312e-01 -1.795707e+00 -9.744180e-02 -1.453145e+00 -4.186947e-03 -2.654959e-02 4.799804e-02 1.261692e-01 1.103310e-01 -8.632301e-01 1.401933e-01 -1.580232e+00 6.248740e-02 -1.598431e+00 6.787982e-02 -1.265384e+00 -3.863838e-01 3.471085e-01
<VARIANCE> 52
 5.360870e+01 3.151037e+03 1.705740e+03 8.616151e+04 7.103345e+02 8.540862e+04 8.678942e+02 1.154935e+05 8.749878e+02 8.050623e+04 6.337388e+02 7.406506e+04 2.025619e+02 2.394846e+03 1.660082e+03 4.808003e+04 6.124791e+02 1.538858e+05 7.110944e+02 2.452870e+05 5.848583e+02 2.136399e+05 4.135544e+02 1.833196e+05 6.486055e+03 3.426347e+05 3.189842e-03 3.015256e-02 5.679965e-02 2.746152e+00 1.287074e-01 9.379582e+00 3.496652e-01 4.029633e+01 3.428701e-01 3.505413e+01 1.823820e-01 2.036051e+01 1.262147e-03 2.275626e-02 6.849007e-02 6.894403e-01 6.562760e-01 5.263050e+00 1.514675e+00 1.333632e+01 1.221154e+00 1.368878e+01 7.958571e-01 8.902401e+00 5.252016e+00 3.213826e+01
<GCONST> 3.215883e+02
<MIXTURE> 3 1.959100e-01
<MEAN> 52
 5.289067e+01 1.905769e+02 1.449786e+02 9.678710e+02 6.981750e+01 6.031806e+02 6.062213e+01 5.755748e+02 5.901750e+01 4.475811e+02 5.208082e+01 4.727214e+02 -5.578601e+01 2.264556e+02 -1.003971e+02 1.210837e+03 -3.563444e+01 1.113507e+03 -2.858951e+01 1.188842e+03 -2.579976e+01 9.688597e+02 -2.286372e+01 9.613082e+02 1.539137e+02 -2.385301e+02 2.999575e-03 1.465926e-03 -1.307968e-04 1.539008e-01 -5.834268e-02 -2.090931e-01 -1.082028e-01 -3.653847e-01 -1.007561e-01 -5.106676e-01 -8.073689e-02 -4.563901e-01 -4.127298e-03 -1.375318e-02 6.189575e-02 1.619027e-01 2.100300e-01 -2.744812e-01 3.084209e-01 -5.505921e-01 2.546411e-01 -6.283899e-01 2.119843e-01 -5.158922e-01 -6.438380e-01 5.539221e-01
<VARIANCE> 52
 1.155749e+02 6.247909e+03 1.834986e+03 2.047850e+05 3.389566e+03 2.555415e+05 5.211809e+03 3.305189e+05 5.443996e+03 2.328464e+05 3.892967e+03 2.146356e+05 2.333881e+02 4.804942e+03 1.087847e+03 8.698952e+04 1.715484e+03 3.357929e+05 2.476323e+03 5.272721e+05 2.415822e+03 4.382300e+05 1.712155e+03 3.722091e+05 5.298601e+04 2.591194e+05 1.661650e-03 1.782463e-02 5.829158e-02 1.249255e+00 8.993057e-02 5.271871e+00 1.983398e-01 1.459490e+01 2.115378e-01 1.382856e+01 1.441054e-01 9.292846e+00 4.638987e-03 3.362164e-02 1.505617e-01 1.705130e+00 2.989515e-01 1.171851e+00 6.269582e-01 3.250740e+00 4.206791e-01 3.449620e+00 2.990221e-01 2.340133e+00 2.110136e+00 2.616533e+01
<GCONST> 3.322071e+02
<STATE> 3
<NUMMIXES> 3
<MIXTURE> 1 2.343116e-01
<MEAN> 52
 6.667679e+01 2.928146e+02 1.243009e+02 1.468714e+03 1.418797e+02 1.447713e+03 1.526783e+02 1.535003e+03 1.518979e+02 1.264087e+03 1.302093e+02 1.254954e+03 -6.813000e+01 3.141918e+02 -1.023021e+02 1.488316e+03 -7.332860e+01 1.950387e+03 -6.842920e+01 2.243602e+03 -6.228173e+01 1.940610e+03 -5.323595e+01 1.855364e+03 4.001602e+02 -1.873727e+02 6.131691e-02 2.593481e-02 1.926307e-01 6.820611e-01 2.254075e-01 -5.393136e-01 3.221871e-01 -9.717972e-01 3.914261e-01 -2.112621e+00 4.455501e-01 -1.725099e+00 1.753541e-02 1.970502e-02 7.605517e-02 2.388285e-01 2.776377e-01 5.378106e-01 4.444134e-01 9.354502e-01 4.126470e-01 1.218842e+00 3.637382e-01 9.030938e-01 -1.803243e-01 -2.892860e+00
<VARIANCE> 52
 7.991196e+01 1.730963e+03 1.171950e+03 6.897565e+04 3.239391e+03 2.044306e+05 5.565287e+03 3.188418e+05 5.948625e+03 2.947706e+05 4.241674e+03 2.571066e+05 6.008734e+01 1.312383e+03 6.815203e+02 4.021994e+04 1.661703e+03 1.375808e+05 2.509564e+03 2.540495e+05 2.682990e+03 2.708464e+05 1.884586e+03 2.170618e+05 5.564955e+04 2.318987e+05 2.210786e-02 1.283095e-02 2.311282e-01 2.916445e+00 6.685269e-01 1.304552e+01 2.569673e+00 3.926774e+01 3.158142e+00 5.002991e+01 3.228381e+00 3.065279e+01 8.757940e-03 1.856453e-02 7.289814e-02 1.557244e+00 3.872585e-01 1.068378e+01 9.378610e-01 2.258156e+01 7.714924e-01 4.058522e+01 6.138619e-01 2.819338e+01 9.545797e+00 2.049631e+02
<GCONST> 3.560765e+02
<MIXTURE> 2 5.391737e-01
<MEAN> 52
 4.665784e+01 1.501124e+02 1.508747e+02 7.236136e+02 4.101880e+01 3.099705e+02 2.583526e+01 2.559496e+02 2.321659e+01 1.884334e+02 2.163367e+01 2.209937e+02 -5.218960e+01 1.910310e+02 -1.035915e+02 1.101188e+03 -2.148728e+01 7.615615e+02 -1.235484e+01 7.442994e+02 -1.124899e+01 5.725282e+02 -1.075294e+01 5.971096e+02 5.882786e+01 -2.103938e+02 -2.142455e-02 -2.382073e-02 8.380119e-03 1.395686e-02 -1.808248e-01 -2.986261e-01 -3.067433e-01 -4.635620e-01 -2.783863e-01 -4.647228e-01 -2.287867e-01 -3.327489e-01 -1.363942e-02 -1.494964e-02 -6.746557e-04 1.675823e-01 1.216212e-01 -1.457555e+00 1.908670e-01 -2.676683e+00 1.504876e-01 -2.594863e+00 1.147986e-01 -2.129389e+00 -6.054698e-01 3.360844e+00
<VARIANCE> 52
 5.688782e+01 3.285133e+03 1.623066e+03 1.005255e+05 1.018844e+03 7.313183e+04 1.349215e+03 9.103187e+04 1.311980e+03 5.715811e+04 9.682224e+02 5.407770e+04 2.120764e+02 2.556468e+03 1.320612e+03 5.176604e+04 7.964937e+02 1.525163e+05 1.095477e+03 2.332511e+05 1.015427e+03 1.925416e+05 7.485725e+02 1.661393e+05 1.554584e+04 3.289610e+05 4.106953e-03 7.641470e-03 5.172287e-02 3.280665e+00 2.643487e-01 1.482149e+01 7.175547e-01 3.648210e+01 7.106596e-01 3.057717e+01 4.789783e-01 2.121122e+01 2.010234e-03 8.470587e-03 8.289728e-02 7.419440e-01 2.461494e-01 1.431096e+01 4.471078e-01 4.405466e+01 3.731744e-01 4.183183e+01 2.320023e-01 2.860188e+01 2.737562e+00 8.609586e+01
<GCONST> 3.270380e+02
<MIXTURE> 3 2.265143e-01
<MEAN> 52
 5.382836e+01 1.977102e+02 1.482059e+02 1.002845e+03 7.658460e+01 6.319243e+02 6.622198e+01 6.024641e+02 6.396079e+01 4.621560e+02 5.679656e+01 4.896501e+02 -5.677647e+01 2.337643e+02 -1.023588e+02 1.233501e+03 -4.123658e+01 1.174715e+03 -3.443395e+01 1.266250e+03 -3.163646e+01 1.035151e+03 -2.803424e+01 1.023747e+03 1.773954e+02 -2.591846e+02 -1.049582e-02 -2.441989e-03 3.138043e-02 2.892977e-01 -2.371360e-01 1.582639e-02 -4.257056e-01 9.711522e-02 -4.368486e-01 -3.827704e-01 -3.637855e-01 -2.693433e-01 -9.477946e-03 5.594696e-03 3.167965e-02 3.533843e-01 1.960838e-01 -1.997018e-01 3.056740e-01 -4.337752e-01 2.742209e-01 -6.519674e-01 2.200673e-01 -5.467784e-01 -1.136613e+00 1.055089e+00
<VARIANCE> 52
 1.068778e+02 6.105944e+03 1.968382e+03 2.012916e+05 3.581768e+03 2.246645e+05 5.205376e+03 2.852455e+05 5.396677e+03 1.910221e+05 3.921497e+03 1.767005e+05 2.174093e+02 4.917667e+03 1.200346e+03 9.042488e+04 2.117111e+03 3.369201e+05 3.107586e+03 5.312574e+05 3.173669e+03 4.333979e+05 2.266708e+03 3.682143e+05 6.219349e+04 2.883781e+05 3.911953e-03 8.277927e-03 1.013562e-01 2.063042e+00 3.712726e-01 9.785705e+00 1.062227e+00 2.620602e+01 1.181029e+00 2.750292e+01 8.504221e-01 1.774784e+01 2.695564e-03 9.922408e-03 9.698094e-02 1.878177e+00 3.075930e-01 2.259361e+00 6.464040e-01 7.272720e+00 5.015718e-01 7.220521e+00 3.272400e-01 4.572623e+00 5.056820e+00 5.991214e+01
<GCONST> 3.459440e+02
<STATE> 4
<NUMMIXES> 3
<MIXTURE> 1 2.491943e-01
<MEAN> 52
 6.761201e+01 3.001053e+02 1.253139e+02 1.551863e+03 1.356294e+02 1.319562e+03 1.423539e+02 1.349245e+03 1.425779e+02 1.059297e+03 1.228170e+02 1.074001e+03 -6.887891e+01 3.243748e+02 -1.006485e+02 1.568784e+03 -5.943444e+01 2.005081e+03 -5.160031e+01 2.304497e+03 -4.575743e+01 1.977012e+03 -3.909307e+01 1.885405e+03 3.403649e+02 -2.144798e+02 2.476902e-02 6.996423e-03 8.258602e-02 8.876317e-01 -8.579350e-02 -1.375119e+00 -1.712201e-01 -2.698357e+00 -1.735847e-01 -5.085766e+00 -1.149754e-01 -3.999307e+00 1.359532e-02 1.967753e-02 7.315315e-02 3.454817e-01 1.962760e-01 9.047857e-02 4.020982e-01 1.043014e-01 3.600962e-01 -1.415214e-01 2.621254e-01 -1.308789e-01 -9.958429e-01 -2.944808e+00
<VARIANCE> 52
 8.149467e+01 1.690392e+03 7.671638e+02 4.718760e+04 3.714161e+03 1.441107e+05 5.989453e+03 2.201648e+05 6.145000e+03 1.796812e+05 4.489772e+03 1.591810e+05 5.288959e+01 9.924937e+02 3.979311e+02 2.391151e+04 1.498248e+03 1.493902e+05 2.026002e+03 2.852010e+05 2.091984e+03 2.876118e+05 1.435708e+03 2.300121e+05 4.940536e+04 1.035266e+05 6.770287e-03 2.330193e-02 7.314703e-02 6.545619e+00 3.124925e-01 5.115362e+01 4.809210e-01 1.485291e+02 7.754683e-01 1.999146e+02 5.939894e-01 1.307939e+02 3.592305e-03 1.014884e-02 4.871946e-02 1.373793e+00 1.466019e-01 1.746136e+00 4.499003e-01 5.122212e+00 3.654884e-01 6.719278e+00 2.106266e-01 4.253950e+00 3.968998e+00 3.070706e+02
<GCONST> 3.370279e+02
<MIXTURE> 2 5.192804e-01
<MEAN> 52
 4.664666e+01 1.521725e+02 1.516183e+02 7.344489e+02 4.257071e+01 3.352729e+02 2.755753e+01 2.821325e+02 2.491387e+01 2.086832e+02 2.322505e+01 2.419805e+02 -5.256670e+01 1.923644e+02 -1.045137e+02 1.098509e+03 -2.291199e+01 7.745402e+02 -1.352166e+01 7.641940e+02 -1.224359e+01 5.934320e+02 -1.162354e+01 6.161195e+02 6.519341e+01 -1.958672e+02 -1.576943e-02 -1.773868e-02 1.623221e-02 7.278433e-02 -2.019078e-01 -5.862430e-01 -3.707241e-01 -1.105703e+00 -3.689175e-01 -1.209778e+00 -2.876881e-01 -1.002316e+00 -5.958917e-03 -1.596460e-03 9.116929e-03 1.004277e-01 1.316844e-01 -9.924740e-01 2.604297e-01 -1.980465e+00 2.063605e-01 -1.930035e+00 1.634853e-01 -1.535361e+00 -8.809490e-01 2.508058e+00
<VARIANCE> 52
 6.017445e+01 3.507869e+03 1.665808e+03 1.044457e+05 1.172669e+03 8.176821e+04 1.487857e+03 9.855082e+04 1.511422e+03 6.122798e+04 1.117795e+03 5.803114e+04 2.236687e+02 2.556396e+03 1.452375e+03 4.931950e+04 8.704949e+02 1.917176e+05 1.034883e+03 3.115259e+05 1.049295e+03 2.533218e+05 7.668085e+02 2.163465e+05 1.722297e+04 2.826077e+05 3.638277e-03 2.338923e-02 3.892783e-02 1.818532e+00 2.096823e-01 1.687198e+01 6.837084e-01 5.357530e+01 7.804974e-01 5.190553e+01 4.958745e-01 3.364322e+01 2.814359e-03 6.278875e-03 7.342323e-02 1.782031e-01 2.145109e-01 4.839265e+00 9.543811e-01 1.677880e+01 8.021105e-01 1.898135e+01 4.702188e-01 1.292308e+01 3.450612e+00 1.349940e+02
<GCONST> 3.283785e+02
<MIXTURE> 3 2.315254e-01
<MEAN> 52
 5.435387e+01 2.127961e+02 1.399728e+02 1.094810e+03 7.477013e+01 6.871122e+02 6.575011e+01 6.441472e+02 6.444901e+01 4.837674e+02 5.675143e+01 5.150360e+02 -5.988249e+01 2.465158e+02 -1.038767e+02 1.297169e+03 -3.677431e+01 1.296009e+03 -2.716732e+01 1.421854e+03 -2.360139e+01 1.169190e+03 -2.132623e+01 1.144598e+03 1.592106e+02 -2.421431e+02 -4.175155e-03 -2.099029e-02 2.051731e-02 2.251764e-01 -2.224732e-01 -7.722932e-01 -4.073738e-01 -1.584576e+00 -4.437026e-01 -2.356448e+00 -3.613221e-01 -1.988985e+00 -2.669409e-03 -4.243448e-03 1.016262e-02 1.627414e-01 1.571105e-01 -2.047004e-01 3.268268e-01 -4.404724e-01 3.151621e-01 -6.831589e-01 2.346413e-01 -5.513453e-01 -1.346423e+00 -7.550121e-01
<VARIANCE> 52
 1.062941e+02 7.392246e+03 1.742776e+03 2.298451e+05 3.094932e+03 2.217810e+05 4.498451e+03 2.621716e+05 4.647708e+03 1.686943e+05 3.345514e+03 1.583716e+05 2.645864e+02 5.554623e+03 1.062392e+03 9.413766e+04 1.332605e+03 4.626489e+05 1.568016e+03 7.456843e+05 1.510507e+03 6.008082e+05 1.082152e+03 5.061829e+05 3.892818e+04 1.555237e+05 6.517360e-03 2.571823e-02 8.535496e-02 2.385663e+00 2.203318e-01 1.769996e+01 6.326901e-01 5.757891e+01 8.950245e-01 7.647808e+01 6.163939e-01 5.260458e+01 6.650663e-03 1.514808e-02 6.962917e-02 3.970065e-01 2.323663e-01 1.902927e+00 8.476804e-01 5.375605e+00 7.128975e-01 8.526684e+00 3.888332e-01 5.768435e+00 6.607845e+00 1.518539e+02
<GCONST> 3.475770e+02
<STATE> 5
<NUMMIXES> 3
<MIXTURE> 1 1.941290e-01
<MEAN> 52
 6.379508e+01 2.817445e+02 1.305368e+02 1.519749e+03 1.058193e+02 1.110214e+03 1.025319e+02 1.086171e+03 1.026272e+02 8.152053e+02 8.927680e+01 8.408030e+02 -6.937345e+01 3.145935e+02 -9.941479e+01 1.584124e+03 -5.349389e+01 1.863799e+03 -4.415375e+01 2.107766e+03 -3.968737e+01 1.776950e+03 -3.440803e+01 1.706826e+03 2.634083e+02 -3.568799e+02 1.698704e-02 5.956478e-02 -8.507758e-03 1.896715e+00 -4.013730e-01 7.026196e-02 -6.864672e-01 -5.338159e-01 -5.996689e-01 -2.132700e+00 -5.196514e-01 -1.939960e+00 4.173120e-03 7.591354e-02 5.224187e-02 1.466885e+00 1.131678e+00 1.062810e-02 2.083245e+00 -3.084878e-01 2.076967e+00 -9.265319e-01 1.650361e+00 -7.500074e-01 -3.912259e+00 7.502890e-01
<VARIANCE> 52
 7.159934e+01 1.985453e+03 1.141293e+03 8.489033e+04 2.984876e+03 1.754334e+05 4.821088e+03 2.652516e+05 4.900004e+03 1.920549e+05 3.551970e+03 1.681244e+05 4.336337e+01 1.315956e+03 3.707477e+02 2.728398e+04 1.552958e+03 9.407803e+04 1.866179e+03 1.846910e+05 1.790641e+03 2.004394e+05 1.216968e+03 1.626572e+05 4.489170e+04 4.844213e+05 8.848333e-03 3.513731e-02 8.548307e-01 1.779605e+01 8.341696e-01 4.497549e+01 2.356638e+00 1.578772e+02 2.017373e+00 2.142269e+02 1.343312e+00 1.153173e+02 9.498791e-03 2.607234e-02 1.752823e-01 9.299142e+00 6.490019e+00 6.440658e+00 2.382092e+01 1.331121e+01 2.212764e+01 1.583204e+01 1.264780e+01 1.049187e+01 3.585114e+01 3.474133e+02
<GCONST> 3.730389e+02
<MIXTURE> 2 5.257033e-01
<MEAN> 52
 4.666410e+01 1.535017e+02 1.520422e+02 7.579055e+02 4.229514e+01 3.592279e+02 2.737831e+01 3.021898e+02 2.506365e+01 2.200540e+02 2.334727e+01 2.556100e+02 -5.281036e+01 1.950255e+02 -1.025337e+02 1.112670e+03 -1.986028e+01 7.712164e+02 -1.021112e+01 7.605032e+02 -9.296804e+00 5.869029e+02 -8.951811e+00 6.091447e+02 5.892245e+01 -1.523571e+02 -2.656993e-02 -6.295508e-04 -6.036908e-02 3.681125e-01 -2.717804e-01 2.610211e-01 -4.230796e-01 -4.086103e-01 -4.138861e-01 -1.005259e+00 -3.201598e-01 -7.225821e-01 -1.610361e-02 4.257979e-03 -3.967231e-02 8.077326e-02 2.972779e-01 -1.411795e+00 5.389347e-01 -2.271091e+00 5.323196e-01 -2.118392e+00 4.118178e-01 -1.753305e+00 -1.490124e+00 3.615180e+00
<VARIANCE> 52
 6.521075e+01 3.764872e+03 1.690650e+03 1.161014e+05 1.127346e+03 7.406019e+04 1.435973e+03 8.050140e+04 1.518899e+03 4.502041e+04 1.114212e+03 4.433407e+04 2.355523e+02 2.956603e+03 1.356798e+03 5.707243e+04 5.120259e+02 1.787508e+05 4.913470e+02 2.840184e+05 4.430865e+02 2.168648e+05 3.333848e+02 1.852310e+05 1.168613e+04 1.030390e+05 8.046457e-03 2.805773e-02 2.070008e-01 4.931015e+00 4.686513e-01 5.221400e+01 1.120237e+00 1.554451e+02 1.288410e+00 1.584422e+02 7.006586e-01 1.179128e+02 3.140459e-03 4.220625e-03 7.062247e-02 3.799748e-01 1.127115e+00 2.129378e+01 3.154682e+00 4.504205e+01 3.747097e+00 4.600793e+01 2.155947e+00 3.374609e+01 1.949743e+01 4.597901e+02
<GCONST> 3.471090e+02
<MIXTURE> 3 2.801675e-01
<MEAN> 52
 5.373119e+01 2.092931e+02 1.429182e+02 1.085417e+03 7.064611e+01 6.352952e+02 5.972496e+01 5.732547e+02 5.890230e+01 4.165854e+02 5.236730e+01 4.544722e+02 -5.981198e+01 2.446900e+02 -1.048239e+02 1.303373e+03 -3.238475e+01 1.218898e+03 -2.241502e+01 1.318957e+03 -1.992602e+01 1.074749e+03 -1.809522e+01 1.059304e+03 1.404503e+02 -2.369801e+02 -1.544077e-02 3.720259e-02 -1.342716e-01 1.051199e+00 -4.452112e-01 1.165958e+00 -7.846046e-01 3.216095e-01 -7.146006e-01 -1.462455e+00 -5.692892e-01 -1.100872e+00 -1.027693e-02 2.424007e-02 -3.662661e-02 4.510792e-01 5.175667e-01 -9.487672e-01 9.288367e-01 -1.420436e+00 9.078398e-01 -1.709496e+00 7.177365e-01 -1.454724e+00 -2.723513e+00 2.654287e+00
<VARIANCE> 52
 1.269212e+02 6.293457e+03 1.725870e+03 2.270257e+05 2.564630e+03 1.694766e+05 3.607590e+03 1.898478e+05 3.910019e+03 1.094967e+05 2.852406e+03 1.037816e+05 2.030966e+02 4.720104e+03 9.285193e+02 8.754562e+04 1.061302e+03 3.890673e+05 1.164830e+03 6.215476e+05 1.063934e+03 4.851360e+05 7.670953e+02 4.084059e+05 3.109667e+04 1.511013e+05 7.012365e-03 3.009987e-02 4.434195e-01 8.658495e+00 6.812474e-01 6.840266e+01 2.013620e+00 1.838239e+02 1.975328e+00 1.856120e+02 1.174713e+00 1.408028e+02 3.606780e-03 9.670909e-03 6.914748e-02 2.114090e+00 1.571729e+00 1.918500e+01 4.537698e+00 3.679877e+01 4.653342e+00 4.744711e+01 2.987628e+00 3.515157e+01 2.486267e+01 6.191979e+02
<GCONST> 3.723646e+02
<STATE> 6
<NUMMIXES> 3
<MIXTURE> 1 1.943564e-01
<MEAN> 52
 6.333489e+01 2.915510e+02 1.224705e+02 1.587131e+03 8.148586e+01 1.138465e+03 7.128319e+01 1.124146e+03 7.245914e+01 8.377512e+02 6.354245e+01 8.593849e+02 -6.919638e+01 3.251700e+02 -9.749646e+01 1.653472e+03 -3.619637e+01 1.811074e+03 -2.516756e+01 2.030134e+03 -2.200286e+01 1.681156e+03 -1.980590e+01 1.616471e+03 1.678782e+02 -2.238710e+02 2.203548e-03 7.487931e-02 2.718090e-02 1.155930e+00 -2.075247e-01 1.138747e+00 -5.086178e-01 1.869695e+00 -5.665885e-01 9.206158e-01 -4.192492e-01 6.897331e-01 9.783354e-03 8.900919e-02 4.828274e-02 4.546840e-01 4.296688e-01 1.086640e-02 7.545705e-01 -6.474388e-02 6.791686e-01 -2.251682e-01 5.115761e-01 -2.034609e-01 -2.249330e+00 2.983780e+00
<VARIANCE> 52
 7.893462e+01 1.485015e+03 7.893491e+02 5.298412e+04 2.150225e+03 1.435748e+05 3.368551e+03 2.334829e+05 3.593939e+03 1.649528e+05 2.596624e+03 1.411184e+05 4.768152e+01 1.201715e+03 3.963077e+02 2.199358e+04 9.262251e+02 1.288673e+05 9.533439e+02 2.362809e+05 7.974081e+02 2.248668e+05 5.846011e+02 1.830761e+05 2.689785e+04 5.700738e+04 7.497679e-03 3.644409e-02 1.649652e-01 1.695772e+01 2.453667e-01 2.959678e+01 6.916656e-01 1.044768e+02 9.818622e-01 1.111736e+02 5.477355e-01 7.155550e+01 3.490594e-03 3.920251e-02 2.603377e-02 6.820682e-01 4.775634e-01 1.691114e+00 1.124882e+00 5.136353e+00 9.716617e-01 4.347095e+00 6.365183e-01 2.878099e+00 9.053390e+00 1.538125e+02
<GCONST> 3.334978e+02
<MIXTURE> 2 5.194631e-01
<MEAN> 52
 4.669365e+01 1.621936e+02 1.487976e+02 8.141869e+02 4.171387e+01 3.909138e+02 2.692940e+01 3.255945e+02 2.530712e+01 2.341762e+02 2.348540e+01 2.719284e+02 -5.413179e+01 2.012778e+02 -1.025812e+02 1.135068e+03 -2.017349e+01 7.987222e+02 -1.039713e+01 7.918206e+02 -9.508018e+00 6.146428e+02 -9.093813e+00 6.337070e+02 6.040364e+01 -1.325764e+02 -3.500664e-02 6.436892e-03 -1.041293e-01 4.523238e-01 -4.275675e-01 -6.465124e-01 -6.441725e-01 -1.855279e+00 -6.176702e-01 -1.988012e+00 -5.235299e-01 -1.540643e+00 -1.770891e-02 2.836851e-03 -8.708820e-03 1.026428e-01 2.161529e-01 -5.584576e-01 3.409088e-01 -1.015996e+00 2.894201e-01 -9.876677e-01 2.277683e-01 -8.247554e-01 -1.455125e+00 5.504520e-01
<VARIANCE> 52
 6.971294e+01 4.785076e+03 1.690076e+03 1.527518e+05 9.047570e+02 7.453052e+04 1.157420e+03 7.147996e+04 1.297225e+03 3.735142e+04 9.400614e+02 3.764721e+04 2.519009e+02 3.538753e+03 1.302618e+03 6.544577e+04 4.610968e+02 2.092414e+05 4.147902e+02 3.239693e+05 3.627287e+02 2.469121e+05 2.699613e+02 2.089739e+05 1.022846e+04 4.705240e+04 1.144227e-02 1.537958e-02 2.327936e-01 4.038842e+00 1.037345e+00 2.974625e+01 2.267110e+00 9.639886e+01 2.472169e+00 8.991780e+01 1.769050e+00 6.226371e+01 4.358246e-03 1.251104e-02 2.370728e-02 3.377851e-01 4.201030e-01 3.534617e+00 9.605758e-01 1.186192e+01 6.517627e-01 1.146359e+01 4.244963e-01 7.760548e+00 1.268619e+01 1.424693e+02
<GCONST> 3.333081e+02
<MIXTURE> 3 2.861810e-01
<MEAN> 52
 5.003469e+01 1.884767e+02 1.473327e+02 9.863906e+02 5.446722e+01 5.355469e+02 4.086697e+01 4.677955e+02 4.003057e+01 3.366750e+02 3.630751e+01 3.772961e+02 -5.747263e+01 2.259518e+02 -1.021588e+02 1.236513e+03 -2.358862e+01 1.013333e+03 -1.387866e+01 1.056455e+03 -1.246929e+01 8.446241e+02 -1.151152e+01 8.466160e+02 9.208670e+01 -1.530051e+02 -3.172504e-02 2.768187e-02 -7.124757e-02 9.036642e-01 -2.732005e-01 5.721706e-01 -5.663810e-01 -2.441508e-01 -5.034479e-01 -1.182286e+00 -3.859577e-01 -7.190555e-01 -1.069570e-02 1.916443e-02 1.817200e-02 1.846575e-01 2.485409e-01 -2.942818e-02 3.750497e-01 -1.569845e-01 3.437844e-01 -1.768844e-01 2.753226e-01 -1.861200e-01 -1.496149e+00 9.185536e-02
<VARIANCE> 52
 9.951778e+01 6.062044e+03 1.615657e+03 2.134312e+05 1.771881e+03 1.082027e+05 2.343087e+03 1.084538e+05 2.626183e+03 5.796054e+04 1.920125e+03 5.600985e+04 2.452213e+02 4.511411e+03 8.745773e+02 8.443534e+04 6.658865e+02 3.419348e+05 6.454144e+02 5.331491e+05 6.003638e+02 4.112340e+05 4.152595e+02 3.470825e+05 1.966867e+04 4.926940e+04 9.046689e-03 2.851275e-02 8.941674e-02 5.699497e+00 3.501861e-01 3.177114e+01 1.359793e+00 9.714874e+01 1.302545e+00 1.105835e+02 8.061118e-01 7.361330e+01 2.106691e-03 8.908661e-03 2.469372e-02 3.392926e-01 3.783491e-01 1.336915e+00 7.214486e-01 6.268876e+00 5.251913e-01 4.443563e+00 3.732005e-01 2.990870e+00 8.113755e+00 1.479952e+02
<GCONST> 3.346535e+02
<STATE> 7
<NUMMIXES> 3
<MIXTURE> 1 2.115899e-01
<MEAN> 52
 6.319722e+01 2.908799e+02 1.237899e+02 1.609075e+03 7.589443e+01 1.125039e+03 6.213424e+01 1.098680e+03 6.412623e+01 8.097794e+02 5.706786e+01 8.322402e+02 -6.779317e+01 3.246510e+02 -9.761758e+01 1.661097e+03 -3.186768e+01 1.793008e+03 -2.037184e+01 2.010632e+03 -1.758894e+01 1.658642e+03 -1.610142e+01 1.594134e+03 1.425066e+02 -2.227355e+02 2.038654e-02 7.483903e-02 1.074142e-01 1.609857e+00 -3.415037e-01 1.306572e+00 -8.301396e-01 1.825875e+00 -6.781445e-01 1.487679e+00 -5.166717e-01 1.154095e+00 3.641634e-02 4.535718e-02 6.082819e-02 8.703593e-01 7.923205e-01 3.117033e-01 1.304095e+00 6.466572e-01 1.282133e+00 7.541345e-01 1.024424e+00 5.544956e-01 -3.598957e+00 2.840889e+00
<VARIANCE> 52
 6.449213e+01 1.421577e+03 6.414762e+02 5.358005e+04 1.605398e+03 1.286843e+05 2.472685e+03 2.191805e+05 2.719087e+03 1.549040e+05 1.973097e+03 1.303033e+05 5.220503e+01 1.256863e+03 3.887324e+02 2.292247e+04 7.013329e+02 1.201481e+05 6.713673e+02 2.235506e+05 5.652407e+02 2.044145e+05 4.128358e+02 1.644220e+05 1.975782e+04 4.694877e+04 7.475999e-03 5.837116e-02 2.190237e-01 1.993709e+01 4.986100e-01 2.485633e+01 1.996215e+00 8.548130e+01 1.611948e+00 1.093314e+02 9.656497e-01 7.271337e+01 1.009667e-02 1.678982e-02 7.683869e-02 6.551692e+00 1.369098e+00 6.243729e+00 3.277914e+00 2.124104e+01 3.075713e+00 3.880582e+01 2.198761e+00 2.571210e+01 2.545963e+01 2.406457e+02
<GCONST> 3.496205e+02
<MIXTURE> 2 5.172342e-01
<MEAN> 52
 4.627101e+01 1.601744e+02 1.514029e+02 8.112145e+02 3.696982e+01 3.808729e+02 2.134351e+01 3.149615e+02 1.979817e+01 2.263689e+02 1.871526e+01 2.656833e+02 -5.423019e+01 1.984844e+02 -1.031178e+02 1.125532e+03 -1.744042e+01 7.622384e+02 -7.673122e+00 7.474371e+02 -6.748802e+00 5.757206e+02 -6.748339e+00 5.978308e+02 4.475690e+01 -1.142884e+02 -1.014141e-02 1.719217e-02 -2.031533e-02 3.763803e-01 -2.631623e-01 -3.166249e-01 -4.411792e-01 -7.478178e-01 -3.998838e-01 -9.252067e-01 -3.292252e-01 -7.270014e-01 -1.145211e-02 -7.788118e-03 -1.957819e-02 9.628829e-03 1.001775e-01 -5.899462e-01 1.447518e-01 -9.752030e-01 1.723778e-01 -9.448489e-01 1.402929e-01 -7.409357e-01 -9.484384e-01 7.556412e-01
<VARIANCE> 52
 5.914732e+01 4.420235e+03 1.656975e+03 1.498297e+05 4.888329e+02 5.477809e+04 5.850665e+02 4.999305e+04 7.114986e+02 2.518262e+04 4.985474e+02 2.610318e+04 2.721666e+02 3.165322e+03 1.271334e+03 6.435528e+04 2.956059e+02 1.825812e+05 2.082252e+02 2.824493e+05 1.616049e+02 2.139756e+05 1.287214e+02 1.807319e+05 5.099639e+03 3.407378e+04 4.979051e-03 2.747031e-02 8.855689e-02 4.830123e+00 5.258846e-01 1.720674e+01 1.332520e+00 5.242298e+01 1.276492e+00 5.367651e+01 8.388977e-01 3.429648e+01 2.349901e-03 1.096610e-02 8.983693e-02 1.852475e-01 2.397148e-01 6.722249e+00 4.657575e-01 2.003052e+01 4.936294e-01 1.492145e+01 3.412420e-01 8.651950e+00 6.097333e+00 7.664458e+01
<GCONST> 3.171892e+02
<MIXTURE> 3 2.711759e-01
<MEAN> 52
 4.983781e+01 1.930696e+02 1.456603e+02 1.018300e+03 4.759206e+01 5.336602e+02 3.251668e+01 4.609985e+02 3.228197e+01 3.286998e+02 2.939485e+01 3.700719e+02 -5.811242e+01 2.290418e+02 -1.001501e+02 1.263611e+03 -1.876791e+01 1.012145e+03 -8.756391e+00 1.048801e+03 -7.604351e+00 8.297195e+02 -7.452252e+00 8.328267e+02 6.640284e+01 -1.554922e+02 -9.334980e-03 4.385443e-02 2.757628e-03 5.896893e-01 -3.314077e-01 7.174152e-01 -5.886596e-01 1.051797e+00 -5.369143e-01 7.778879e-01 -4.381886e-01 6.397140e-01 -5.611212e-03 1.362370e-02 1.677207e-02 1.344149e-01 2.532776e-01 -1.257381e-01 3.961840e-01 -1.802044e-01 3.963532e-01 -2.807280e-01 3.132089e-01 -2.682968e-01 -1.665689e+00 2.208435e+00
<VARIANCE> 52
 9.574517e+01 6.298034e+03 1.785092e+03 2.379351e+05 9.381244e+02 9.601693e+04 1.181946e+03 9.324277e+04 1.448746e+03 4.891616e+04 1.015713e+03 4.745050e+04 2.440463e+02 4.578988e+03 7.950404e+02 9.150033e+04 3.182214e+02 3.157407e+05 2.289176e+02 4.850758e+05 1.881019e+02 3.649822e+05 1.436719e+02 3.072763e+05 8.473090e+03 4.769532e+04 5.957506e-03 4.963716e-02 9.429125e-02 3.416383e+00 6.118672e-01 1.286860e+01 1.707443e+00 4.089000e+01 1.636353e+00 3.628788e+01 1.009597e+00 2.427440e+01 3.161561e-03 1.502159e-02 9.174723e-02 3.431706e-01 3.834671e-01 2.392590e+00 7.022206e-01 8.073798e+00 7.519921e-01 6.438450e+00 5.169873e-01 4.445356e+00 9.956269e+00 9.170063e+01
<GCONST> 3.275875e+02
<STATE> 8
<NUMMIXES> 3
<MIXTURE> 1 2.197839e-01
<MEAN> 52
 6.329427e+01 2.854159e+02 1.285752e+02 1.592058e+03 6.445062e+01 1.129439e+03 4.877671e+01 1.117122e+03 4.942847e+01 8.242607e+02 4.434410e+01 8.449857e+02 -6.785014e+01 3.259835e+02 -9.409284e+01 1.680847e+03 -2.442398e+01 1.766371e+03 -1.270791e+01 1.970507e+03 -1.082503e+01 1.614359e+03 -1.025482e+01 1.551823e+03 1.015431e+02 -2.005069e+02 4.057794e-02 -6.498417e-02 2.353230e-01 -2.357802e-01 -4.637210e-01 1.713095e+00 -1.056063e+00 3.348563e+00 -1.146868e+00 3.168932e+00 -8.708628e-01 2.486404e+00 4.965714e-02 9.870334e-02 2.149701e-01 3.280501e-01 7.662447e-01 2.926818e-01 1.067202e+00 6.346381e-01 8.949633e-01 5.900420e-01 7.495873e-01 4.015430e-01 -3.703087e+00 4.306035e+00
<VARIANCE> 52
 6.531784e+01 1.325378e+03 6.876931e+02 5.045095e+04 8.641611e+02 1.206310e+05 1.383961e+03 2.043318e+05 1.493974e+03 1.454694e+05 1.066752e+03 1.228000e+05 5.545947e+01 1.254478e+03 4.302685e+02 2.147470e+04 3.589160e+02 1.035882e+05 2.824290e+02 1.922530e+05 2.244550e+02 1.718812e+05 1.685628e+02 1.387142e+05 9.604906e+03 3.890880e+04 1.644883e-02 4.113866e-02 3.707538e-01 1.109195e+01 6.409190e-01 2.173702e+01 2.648837e+00 6.449794e+01 3.025521e+00 6.395826e+01 1.759265e+00 4.101803e+01 2.546775e-02 8.174117e-02 3.171308e-01 8.607866e-01 1.792328e+00 1.201648e+01 3.008646e+00 4.648878e+01 2.247843e+00 5.163410e+01 1.503373e+00 3.306282e+01 2.847585e+01 2.028400e+02
<GCONST> 3.460099e+02
<MIXTURE> 2 4.912234e-01
<MEAN> 52
 4.631855e+01 1.602647e+02 1.508642e+02 8.151101e+02 3.370198e+01 3.919769e+02 1.732436e+01 3.313794e+02 1.593928e+01 2.404770e+02 1.546082e+01 2.789521e+02 -5.388374e+01 1.993745e+02 -1.017308e+02 1.127623e+03 -1.707054e+01 7.665129e+02 -7.317088e+00 7.530287e+02 -6.372718e+00 5.800425e+02 -6.447849e+00 6.006919e+02 3.748301e+01 -1.061377e+02 -1.507557e-02 -1.200788e-02 -2.671105e-02 1.708467e-01 -4.134518e-01 -8.508825e-02 -6.428557e-01 -4.472065e-02 -6.935371e-01 2.905893e-02 -5.482036e-01 1.780200e-02 -6.319417e-03 -2.898812e-03 1.395086e-02 8.305505e-03 6.306553e-02 -2.466456e-01 9.350751e-02 -4.893658e-01 8.480610e-02 -5.130930e-01 6.667820e-02 -4.404950e-01 -1.285748e+00 9.252815e-01
<VARIANCE> 52
 5.616192e+01 4.680556e+03 1.592057e+03 1.471723e+05 2.891423e+02 6.215724e+04 2.918900e+02 6.275399e+04 3.702307e+02 3.320902e+04 2.579684e+02 3.308802e+04 2.704694e+02 3.486719e+03 1.192741e+03 6.574488e+04 3.002150e+02 1.973881e+05 2.073620e+02 3.056565e+05 1.544022e+02 2.325230e+05 1.283335e+02 1.951233e+05 2.979328e+03 3.489291e+04 5.812722e-03 3.537142e-02 1.318946e-01 2.330163e+00 1.361979e+00 1.382820e+01 3.517626e+00 3.641781e+01 4.999455e+00 2.641300e+01 2.435813e+00 1.922169e+01 1.663709e-03 1.500150e-02 2.439371e-02 2.908857e-01 3.453842e-01 1.549577e+00 7.481971e-01 5.401646e+00 6.884533e-01 4.362357e+00 4.296034e-01 2.901862e+00 1.716602e+01 4.787562e+01
<GCONST> 3.138269e+02
<MIXTURE> 3 2.889929e-01
<MEAN> 52
 4.920805e+01 1.870333e+02 1.492378e+02 9.785970e+02 4.016622e+01 5.207437e+02 2.318578e+01 4.557646e+02 2.204680e+01 3.283958e+02 2.085127e+01 3.692106e+02 -5.744701e+01 2.265109e+02 -1.006307e+02 1.247107e+03 -1.576066e+01 9.401501e+02 -5.866506e+00 9.556898e+02 -5.104012e+00 7.465746e+02 -5.355026e+00 7.569506e+02 4.425022e+01 -1.157757e+02 -6.714106e-03 3.958635e-03 8.136085e-02 2.008893e-01 -4.430879e-01 9.903544e-01 -7.866687e-01 1.774260e+00 -8.258425e-01 1.617723e+00 -6.784325e-01 1.373024e+00 -3.949441e-03 3.001051e-02 1.801304e-02 1.143475e-01 1.520875e-01 -3.459362e-02 2.503622e-01 -1.258231e-01 2.428033e-01 -1.993408e-01 1.860329e-01 -1.904760e-01 -1.843541e+00 2.595129e+00
<VARIANCE> 52
 7.194009e+01 5.221336e+03 1.623383e+03 1.856878e+05 4.392135e+02 8.058489e+04 4.802505e+02 8.263842e+04 5.778174e+02 4.338601e+04 4.099656e+02 4.147954e+04 2.395322e+02 4.184637e+03 8.507440e+02 8.638850e+04 1.866138e+02 2.455603e+05 1.128625e+02 3.713832e+05 9.011395e+01 2.745017e+05 7.318707e+01 2.302788e+05 3.493763e+03 2.901014e+04 6.209433e-03 3.409057e-02 1.657859e-01 6.250448e+00 1.503033e+00 1.067493e+01 3.640966e+00 2.629467e+01 4.006826e+00 2.371048e+01 2.522392e+00 1.655309e+01 3.100376e-03 8.560615e-03 2.169024e-02 2.695804e-01 2.995677e-01 8.623021e-01 7.294736e-01 2.685698e+00 8.067209e-01 2.182728e+00 5.030267e-01 1.513041e+00 1.981033e+01 5.055498e+01
<GCONST> 3.137551e+02
<STATE> 9
<NUMMIXES> 3
<MIXTURE> 1 2.430342e-01
<MEAN> 52
 6.253270e+01 2.842173e+02 1.337156e+02 1.543991e+03 5.026606e+01 1.124196e+03 3.159533e+01 1.131948e+03 3.188407e+01 8.431351e+02 2.961277e+01 8.598497e+02 -6.885357e+01 3.310719e+02 -9.496712e+01 1.698023e+03 -1.972256e+01 1.734547e+03 -7.946489e+00 1.925630e+03 -6.688539e+00 1.569056e+03 -6.894103e+00 1.510225e+03 6.284007e+01 -1.750028e+02 4.376408e-02 2.674592e-02 1.232933e-01 3.006198e-01 -7.747380e-01 3.063247e+00 -1.492758e+00 5.936870e+00 -1.561652e+00 5.828243e+00 -1.212226e+00 4.684148e+00 1.815452e-02 1.187802e-01 1.221485e-01 3.959433e-01 8.810545e-01 8.428848e-02 1.396093e+00 1.153083e-01 1.226447e+00 -6.840730e-02 9.638636e-01 -1.008621e-01 -5.172656e+00 8.831080e+00
<VARIANCE> 52
 7.686393e+01 1.427106e+03 8.577373e+02 6.524291e+04 4.391073e+02 1.399768e+05 5.534477e+02 2.232369e+05 6.639349e+02 1.557435e+05 4.771712e+02 1.314750e+05 5.902411e+01 1.411681e+03 4.512798e+02 2.491352e+04 2.055403e+02 9.292028e+04 1.358875e+02 1.655352e+05 1.020719e+02 1.398049e+05 8.315771e+01 1.129567e+05 3.463952e+03 3.192584e+04 1.394944e-02 5.461629e-02 4.942099e-01 2.038224e+01 1.504597e+00 4.321622e+01 4.942095e+00 1.172085e+02 5.926505e+00 1.111003e+02 3.798093e+00 7.331537e+01 1.483562e-02 7.435117e-02 8.770857e-02 1.594005e+00 2.238140e+00 3.191547e+00 5.332105e+00 9.814713e+00 4.756774e+00 1.153516e+01 2.971597e+00 7.301057e+00 6.038689e+01 3.574239e+02
<GCONST> 3.422942e+02
<MIXTURE> 2 4.947300e-01
<MEAN> 52
 4.627061e+01 1.552132e+02 1.524675e+02 7.897217e+02 3.032128e+01 3.866030e+02 1.380819e+01 3.310892e+02 1.200834e+01 2.418988e+02 1.210494e+01 2.801606e+02 -5.308205e+01 1.957560e+02 -1.007313e+02 1.112339e+03 -1.461458e+01 7.212618e+02 -4.987060e+00 6.965211e+02 -4.311770e+00 5.278435e+02 -4.633546e+00 5.521486e+02 2.659633e+01 -8.209731e+01 -5.818210e-03 -1.430944e-02 2.533381e-02 -1.636877e-01 -3.434301e-01 1.941572e-01 -5.879499e-01 5.099366e-01 -6.742496e-01 4.872398e-01 -5.670231e-01 3.639867e-01 -9.007081e-03 -2.091080e-04 -3.499500e-02 -4.995048e-03 -2.584003e-02 -1.226254e-01 -7.028490e-03 -1.763043e-01 -6.295905e-03 -2.078596e-01 -2.085914e-02 -1.836160e-01 -1.069717e+00 9.304204e-01
<VARIANCE> 52
 5.358276e+01 3.971529e+03 1.419269e+03 1.159463e+05 1.258225e+02 4.785546e+04 1.068214e+02 4.909064e+04 1.164216e+02 2.635188e+04 7.989337e+01 2.640442e+04 2.515318e+02 3.043156e+03 1.221831e+03 5.831874e+04 1.532031e+02 1.378885e+05 9.042815e+01 2.148415e+05 6.028314e+01 1.619591e+05 5.384617e+01 1.356412e+05 9.416986e+02 3.326716e+04 1.394929e-03 1.635674e-02 4.294769e-02 1.928856e+00 1.517005e+00 3.660868e+00 4.485084e+00 9.458328e+00 6.032596e+00 8.779605e+00 4.139340e+00 5.462325e+00 2.868076e-03 1.796142e-02 6.950289e-02 3.505555e-01 3.990867e-01 2.003308e+00 6.388061e-01 5.138402e+00 5.457105e-01 3.734748e+00 4.256401e-01 2.346867e+00 1.795268e+01 3.447459e+01
<GCONST> 2.956613e+02
<MIXTURE> 3 2.622359e-01
<MEAN> 52
 5.101813e+01 2.008386e+02 1.451984e+02 1.064522e+03 3.763128e+01 6.220153e+02 2.044380e+01 5.708577e+02 1.973139e+01 4.179886e+02 1.870286e+01 4.548958e+02 -5.948586e+01 2.417791e+02 -1.008438e+02 1.309504e+03 -1.652608e+01 1.062860e+03 -6.273965e+00 1.106132e+03 -5.376780e+00 8.743657e+02 -5.658336e+00 8.734916e+02 4.155248e+01 -1.093326e+02 -3.867069e-03 -3.499113e-03 6.947864e-03 -1.116604e-01 -8.942800e-01 8.335221e-01 -1.514743e+00 1.960644e+00 -1.605557e+00 2.044746e+00 -1.310105e+00 1.581766e+00 -9.898975e-03 3.477800e-02 -1.659704e-02 2.121552e-01 1.970755e-01 5.110736e-02 3.222496e-01 1.677600e-02 2.943109e-01 -1.101815e-01 2.163999e-01 -1.119742e-01 -3.120472e+00 3.266324e+00
<VARIANCE> 52
 7.483229e+01 5.698125e+03 1.509207e+03 1.997262e+05 2.821785e+02 1.204634e+05 3.423040e+02 1.362978e+05 4.264088e+02 7.710173e+04 2.863021e+02 7.148288e+04 2.385286e+02 4.938627e+03 7.685280e+02 9.976945e+04 2.221658e+02 3.188271e+05 1.372328e+02 4.895075e+05 1.026990e+02 3.694297e+05 8.599770e+01 3.080576e+05 2.930222e+03 2.106398e+04 3.098052e-03 1.293652e-02 2.292618e-01 3.088190e+00 3.453242e+00 8.292383e+00 9.532607e+00 2.124205e+01 1.031757e+01 2.505939e+01 6.689273e+00 1.497249e+01 9.245275e-03 2.106714e-02 3.164775e-02 1.098471e+00 3.186966e-01 1.969689e+00 7.723749e-01 4.814766e+00 6.514001e-01 3.677631e+00 3.723294e-01 2.389526e+00 3.881441e+01 8.763959e+01
<GCONST> 3.241053e+02
<STATE> 10
<NUMMIXES> 3
<MIXTURE> 1 2.335925e-01
<MEAN> 52
 6.298887e+01 2.887137e+02 1.330841e+02 1.574687e+03 4.209617e+01 1.234772e+03 2.247120e+01 1.279837e+03 2.208100e+01 9.700821e+02 2.100479e+01 9.766084e+02 -6.982713e+01 3.382215e+02 -9.382652e+01 1.736187e+03 -1.594378e+01 1.768489e+03 -5.193073e+00 1.958651e+03 -4.019561e+00 1.586046e+03 -4.410867e+00 1.529333e+03 4.058746e+01 -1.161743e+02 3.772930e-02 1.496743e-02 4.409094e-01 -1.031280e-01 -2.683624e-01 3.803542e+00 -5.285227e-01 7.105471e+00 -7.493379e-01 7.426090e+00 -5.988169e-01 5.991166e+00 2.683370e-02 6.474794e-02 1.126884e-01 2.527110e-01 5.225435e-01 -3.180361e-01 7.917606e-01 -7.817750e-01 7.447937e-01 -1.008511e+00 6.026405e-01 -7.445762e-01 -2.727605e+00 1.292194e+01
<VARIANCE> 52
 5.625877e+01 1.046574e+03 5.326808e+02 3.734489e+04 2.276201e+02 8.060328e+04 2.157796e+02 1.395359e+05 2.831097e+02 1.016747e+05 2.143107e+02 8.381254e+04 5.889093e+01 7.955024e+02 3.498711e+02 1.406067e+04 1.331927e+02 7.949014e+04 7.347112e+01 1.475562e+05 4.406715e+01 1.320871e+05 3.519199e+01 1.074167e+05 1.476447e+03 2.143732e+04 7.657604e-03 1.288128e-02 1.140210e+00 7.236125e+00 4.974685e-01 3.189401e+01 2.256775e+00 9.653474e+01 3.603554e+00 9.674165e+01 2.073880e+00 6.426995e+01 6.949190e-03 2.038947e-02 6.802517e-02 3.138508e-01 8.441039e-01 1.221661e+00 2.426285e+00 5.964908e+00 1.947651e+00 7.345737e+00 1.198580e+00 4.670936e+00 3.115742e+01 2.748101e+02
<GCONST> 3.129267e+02
<MIXTURE> 2 5.394338e-01
<MEAN> 52
 4.670338e+01 1.557755e+02 1.557141e+02 7.842946e+02 3.015532e+01 4.016280e+02 1.342736e+01 3.493405e+02 1.137362e+01 2.578604e+02 1.172333e+01 2.959608e+02 -5.303360e+01 1.967295e+02 -1.019551e+02 1.110775e+03 -1.494579e+01 7.116887e+02 -5.235799e+00 6.825076e+02 -4.517042e+00 5.159525e+02 -4.852268e+00 5.428233e+02 2.597288e+01 -7.244055e+01 2.511116e-04 6.763607e-03 2.690215e-02 -9.724092e-02 -1.519928e-01 9.714448e-02 -2.306374e-01 2.173716e-01 -2.772705e-01 2.111791e-01 -2.143697e-01 1.899445e-01 -3.496956e-03 4.481636e-03 -4.059812e-02 -3.128417e-02 -1.006860e-01 -3.265984e-01 -1.254920e-01 -5.015898e-01 -1.281092e-01 -5.009424e-01 -1.072105e-01 -3.840235e-01 -3.156483e-01 9.926138e-01
<VARIANCE> 52
 5.755517e+01 4.012071e+03 1.375911e+03 1.126456e+05 1.261129e+02 6.077430e+04 1.049027e+02 6.545027e+04 1.033802e+02 3.690419e+04 7.560696e+01 3.611469e+04 2.461429e+02 3.103069e+03 1.269487e+03 5.474709e+04 1.872096e+02 1.205201e+05 1.101335e+02 1.851483e+05 6.958435e+01 1.423390e+05 6.458447e+01 1.208939e+05 8.426655e+02 4.411874e+04 2.170869e-03 6.421559e-03 2.973711e-02 2.239899e+00 8.499103e-01 8.322495e+00 1.215870e+00 1.524865e+01 1.896179e+00 9.067097e+00 1.313421e+00 5.948258e+00 7.109158e-04 4.850230e-03 4.873369e-02 9.460770e-02 1.045399e+00 4.902397e+00 2.089278e+00 1.102814e+01 1.890404e+00 8.368347e+00 1.274700e+00 5.663347e+00 9.594286e+00 4.811338e+01
<GCONST> 2.966965e+02
<MIXTURE> 3 2.269737e-01
<MEAN> 52
 5.156385e+01 2.010865e+02 1.479983e+02 1.054181e+03 3.619617e+01 6.352814e+02 1.844761e+01 5.884360e+02 1.694547e+01 4.346438e+02 1.661235e+01 4.702183e+02 -5.911303e+01 2.438098e+02 -9.955267e+01 1.312683e+03 -1.446815e+01 1.022332e+03 -4.420647e+00 1.050117e+03 -3.921870e+00 8.171626e+02 -4.351139e+00 8.237851e+02 3.334641e+01 -8.664368e+01 9.138059e-03 2.410155e-02 4.041439e-02 2.271792e-01 -3.128106e-01 7.684667e-01 -6.290002e-01 9.617370e-01 -7.416757e-01 8.200626e-01 -5.532795e-01 7.078531e-01 -5.584054e-03 1.488337e-02 -1.136609e-02 1.069718e-02 1.226789e-01 8.404604e-02 1.832738e-01 1.318441e-01 1.852402e-01 -2.348715e-02 1.413727e-01 -8.141190e-03 -1.583873e+00 1.328480e+00
<VARIANCE> 52
 8.724197e+01 5.120935e+03 1.214269e+03 1.614556e+05 2.284509e+02 1.299243e+05 2.296964e+02 1.640042e+05 2.472171e+02 9.922988e+04 1.825655e+02 8.926741e+04 2.183878e+02 4.809987e+03 8.594623e+02 9.518380e+04 1.101748e+02 2.257874e+05 5.878331e+01 3.337313e+05 4.698085e+01 2.392659e+05 4.081612e+01 2.025868e+05 1.247757e+03 1.504079e+04 3.575151e-03 1.220727e-02 1.345585e-01 1.360125e+00 1.128805e+00 7.502442e+00 3.340284e+00 1.877799e+01 4.620658e+00 1.917073e+01 2.892999e+00 1.270294e+01 1.382845e-03 1.320333e-02 3.417801e-02 1.478178e-01 9.568514e-01 1.360623e+00 2.079977e+00 5.300405e+00 1.556883e+00 5.051628e+00 1.004969e+00 2.677609e+00 3.451994e+01 7.858106e+01
<GCONST> 3.108109e+02
<STATE> 11
<NUMMIXES> 3
<MIXTURE> 1 1.556736e-01
<MEAN> 52
 6.269720e+01 2.818611e+02 1.356987e+02 1.524423e+03 4.124434e+01 1.259863e+03 2.177604e+01 1.332943e+03 2.036669e+01 1.021164e+03 1.958222e+01 1.020893e+03 -6.834927e+01 3.320375e+02 -9.245019e+01 1.701211e+03 -1.389278e+01 1.682279e+03 -3.769266e+00 1.849448e+03 -2.974851e+00 1.486766e+03 -3.411099e+00 1.438624e+03 3.443703e+01 -7.541416e+01 1.366851e-02 3.100478e-02 2.046524e-02 4.060620e-02 -1.323871e-01 2.776404e+00 -2.032958e-01 6.035682e+00 -3.353974e-01 6.390403e+00 -2.696023e-01 5.059567e+00 -2.806274e-03 5.926839e-02 -1.956580e-02 7.313377e-02 1.465230e-01 1.621888e-01 2.857317e-01 2.736033e-01 2.528112e-01 2.366018e-01 1.749705e-01 1.580003e-01 -1.047970e+00 8.300869e+00
<VARIANCE> 52
 5.216336e+01 1.330679e+03 4.830946e+02 4.151962e+04 2.137877e+02 8.691289e+04 2.151229e+02 1.433570e+05 2.351231e+02 1.027019e+05 1.735410e+02 8.534800e+04 7.115002e+01 1.259512e+03 3.880481e+02 2.593127e+04 8.361961e+01 7.978559e+04 5.052475e+01 1.382137e+05 2.889764e+01 1.160057e+05 2.235993e+01 9.444755e+04 9.180016e+02 1.865991e+04 6.060001e-03 1.566107e-02 1.469411e-01 1.550828e+00 5.710835e-01 1.865465e+01 1.997579e+00 9.457404e+01 2.440454e+00 1.035442e+02 1.565322e+00 6.231148e+01 3.797078e-03 3.160162e-02 6.435563e-02 5.414965e-01 2.738708e-01 1.052891e+00 6.210087e-01 4.913381e+00 4.649602e-01 6.236601e+00 2.983989e-01 4.010051e+00 1.275479e+01 2.316814e+02
<GCONST> 2.999693e+02
<MIXTURE> 2 5.718948e-01
<MEAN> 52
 4.743238e+01 1.346265e+02 1.595929e+02 6.906279e+02 2.720723e+01 3.781360e+02 1.032999e+01 3.458941e+02 8.227795e+00 2.551507e+02 9.133265e+00 2.897467e+02 -4.672595e+01 1.784541e+02 -9.364904e+01 1.020340e+03 -1.438398e+01 6.649374e+02 -4.821675e+00 6.460259e+02 -4.003972e+00 4.775149e+02 -4.173136e+00 5.005212e+02 2.020865e+01 -5.056502e+01 2.528554e-03 1.050073e-03 1.283211e-02 -6.121367e-02 -2.188279e-02 -1.779199e-04 -5.210561e-02 1.055802e-01 -5.785340e-02 8.190560e-02 -3.526753e-02 6.447804e-02 -1.141962e-03 4.430130e-03 -3.085244e-02 -6.301694e-03 -4.151359e-02 6.387970e-02 -5.441003e-02 1.022190e-01 -4.677898e-02 6.142718e-02 -3.873087e-02 4.937592e-02 -1.761103e-02 1.131954e-01
<VARIANCE> 52
 4.785438e+01 2.700368e+03 1.068323e+03 5.753363e+04 8.847556e+01 2.689011e+04 6.166628e+01 3.256757e+04 4.877054e+01 1.853512e+04 3.671003e+01 1.755313e+04 2.296102e+02 1.862496e+03 1.367563e+03 3.023579e+04 1.184315e+02 5.188721e+04 6.467912e+01 8.487205e+04 4.197418e+01 6.365772e+04 3.884390e+01 5.328873e+04 3.714598e+02 2.377322e+04 7.270903e-04 1.385593e-03 1.013949e-02 1.134091e+00 7.757680e-02 4.950733e+00 2.217035e-01 1.044320e+01 2.496611e-01 8.934417e+00 1.321743e-01 5.734562e+00 5.000000e-04 1.189212e-03 4.159619e-02 6.408185e-02 3.700336e-02 6.515625e-01 9.767885e-02 2.086426e+00 7.143098e-02 2.397010e+00 4.239298e-02 1.430777e+00 6.722093e-01 2.204973e+01
<GCONST> 2.432313e+02
<MIXTURE> 3 2.724311e-01
<MEAN> 52
 4.997927e+01 1.486952e+02 1.591936e+02 7.842291e+02 3.018749e+01 4.608358e+02 1.235988e+01 4.310631e+02 1.026238e+01 3.183333e+02 1.108781e+01 3.526683e+02 -4.791766e+01 1.946590e+02 -9.110526e+01 1.091879e+03 -1.218772e+01 7.628372e+02 -3.220081e+00 7.591467e+02 -2.666378e+00 5.674394e+02 -2.938085e+00 5.856038e+02 1.991531e+01 -4.715311e+01 4.731565e-03 8.848780e-03 4.432749e-03 1.868138e-01 -2.696078e-02 3.426267e-01 -6.703851e-02 5.790985e-01 -7.800031e-02 4.909068e-01 -6.240053e-02 4.027753e-01 -3.147652e-03 1.222112e-02 -2.069345e-02 3.476592e-02 -4.947760e-03 2.944120e-01 1.334458e-02 4.709329e-01 1.617247e-02 3.566163e-01 6.380339e-03 2.886605e-01 -1.598314e-01 2.881472e-01
<VARIANCE> 52
 5.379156e+01 3.859062e+03 1.150048e+03 9.694002e+04 1.085523e+02 5.552030e+04 8.217444e+01 6.565244e+04 7.223750e+01 3.915009e+04 5.365707e+01 3.638504e+04 2.615438e+02 3.130820e+03 1.042570e+03 5.975454e+04 5.862025e+01 8.679095e+04 2.472938e+01 1.236863e+05 1.725156e+01 8.588903e+04 1.600871e+01 7.398656e+04 3.014896e+02 3.911172e+03 1.563529e-03 2.393846e-03 2.605627e-02 8.639742e-01 1.890940e-01 3.690233e+00 6.273965e-01 1.043559e+01 7.228336e-01 9.161930e+00 4.425660e-01 5.827258e+00 6.750167e-04 2.822555e-03 2.641554e-02 7.456420e-02 2.804448e-02 9.148791e-01 8.368874e-02 2.851593e+00 8.035348e-02 2.953021e+00 4.292424e-02 1.838243e+00 2.444650e+00 3.010522e+01
<GCONST> 2.547993e+02
<STATE> 12
<NUMMIXES> 3
<MIXTURE> 1 2.473594e-01
<MEAN> 52
 6.312798e+01 2.879751e+02 1.357831e+02 1.532300e+03 3.873566e+01 1.348921e+03 1.944719e+01 1.460079e+03 1.736734e+01 1.133497e+03 1.703036e+01 1.121983e+03 -6.946664e+01 3.401809e+02 -9.315310e+01 1.729464e+03 -1.414848e+01 1.709378e+03 -3.762767e+00 1.874574e+03 -3.171726e+00 1.500699e+03 -3.593357e+00 1.454654e+03 3.086246e+01 -5.563503e+01 3.259471e-02 2.648833e-02 2.718458e-02 -1.807990e-01 -2.514684e-02 3.517014e+00 -9.135413e-02 7.201894e+00 -2.535628e-01 7.738140e+00 -1.210828e-01 6.116092e+00 1.869319e-02 5.451674e-02 6.116310e-02 6.477149e-02 2.418437e-01 3.387229e-01 4.055308e-01 4.001832e-01 4.134330e-01 3.217454e-01 3.150353e-01 2.922692e-01 -1.328299e+00 1.026872e+01
<VARIANCE> 52
 4.562753e+01 1.072449e+03 5.269688e+02 2.978197e+04 2.490963e+02 8.012628e+04 2.207733e+02 1.315921e+05 2.104915e+02 9.519944e+04 1.644167e+02 7.975669e+04 6.758261e+01 8.857964e+02 5.549770e+02 1.772884e+04 1.068424e+02 6.006391e+04 5.043687e+01 1.121483e+05 3.606844e+01 9.685240e+04 3.241694e+01 7.922514e+04 8.659609e+02 2.458521e+04 2.236884e-02 3.218932e-02 5.535021e-02 1.134849e+00 5.739294e-01 2.735529e+01 1.576205e+00 1.052869e+02 2.791280e+00 1.190051e+02 1.192701e+00 7.377444e+01 1.131845e-02 3.959556e-02 1.254759e-01 3.649715e-01 5.661697e-01 5.937867e+00 1.705341e+00 1.963282e+01 1.702614e+00 2.329979e+01 8.594332e-01 1.668922e+01 2.346946e+01 3.661888e+02
<GCONST> 3.126327e+02
<MIXTURE> 2 4.917826e-01
<MEAN> 52
 4.735476e+01 1.568525e+02 1.594621e+02 7.781985e+02 3.194379e+01 4.184584e+02 1.484828e+01 3.737695e+02 1.243250e+01 2.795960e+02 1.277714e+01 3.166279e+02 -5.293370e+01 1.982229e+02 -1.082251e+02 1.098771e+03 -1.858194e+01 7.455138e+02 -7.785858e+00 7.345972e+02 -6.458463e+00 5.627148e+02 -6.712158e+00 5.844637e+02 3.084047e+01 -9.054999e+01 -4.922239e-03 6.818451e-03 7.336512e-03 -3.592020e-02 -1.178670e-01 -3.278279e-01 -1.586942e-01 -5.403589e-01 -1.888900e-01 -4.840635e-01 -1.536283e-01 -4.150681e-01 -5.436568e-03 2.351109e-03 -7.318714e-02 -7.341248e-02 -1.979348e-01 3.142774e-01 -2.850645e-01 6.396163e-01 -2.518266e-01 7.218164e-01 -1.946269e-01 5.944467e-01 2.094706e-01 -2.080760e+00
<VARIANCE> 52
 5.481990e+01 4.151907e+03 1.155623e+03 1.035105e+05 1.631250e+02 7.247380e+04 1.296411e+02 9.206116e+04 1.184785e+02 5.997992e+04 8.773710e+01 5.432242e+04 2.451626e+02 3.137537e+03 1.771927e+03 4.877529e+04 3.196315e+02 1.444588e+05 1.959613e+02 2.427461e+05 1.286245e+02 1.984782e+05 1.177169e+02 1.657504e+05 9.538344e+02 7.132128e+04 4.588384e-03 1.173967e-02 3.144953e-02 1.475643e+00 3.409413e+00 1.847545e+01 6.163005e+00 5.567265e+01 7.550403e+00 5.286522e+01 4.996641e+00 3.431820e+01 2.937637e-03 1.172878e-02 6.705834e-02 2.023170e-01 3.322470e-01 2.858191e+00 9.165081e-01 1.157282e+01 1.003147e+00 1.171233e+01 3.866269e-01 7.998215e+00 8.424766e+00 1.663963e+02
<GCONST> 3.160573e+02
<MIXTURE> 3 2.608582e-01
<MEAN> 52
 5.183326e+01 1.982704e+02 1.494590e+02 1.031856e+03 3.770928e+01 6.677931e+02 2.008867e+01 6.457962e+02 1.803976e+01 4.860395e+02 1.756588e+01 5.158257e+02 -5.866887e+01 2.410798e+02 -1.043614e+02 1.294080e+03 -1.532370e+01 1.056877e+03 -4.969179e+00 1.104003e+03 -3.995893e+00 8.671719e+02 -4.381510e+00 8.679317e+02 3.440118e+01 -1.067805e+02 -1.279097e-02 2.998341e-02 -5.827956e-02 7.339935e-02 5.522666e-02 5.158139e-01 1.042296e-01 1.093112e+00 1.216564e-01 1.059396e+00 8.971030e-02 8.107888e-01 -1.713570e-02 1.854539e-02 -5.187829e-02 9.333231e-03 -1.693270e-01 1.164732e+00 -3.301632e-01 2.223961e+00 -3.125652e-01 2.269171e+00 -1.889505e-01 1.876350e+00 5.744838e-01 -2.113928e+00
<VARIANCE> 52
 8.362431e+01 5.892541e+03 1.222469e+03 1.685472e+05 2.383221e+02 1.872620e+05 2.454781e+02 2.485284e+05 2.586049e+02 1.553404e+05 1.853353e+02 1.386235e+05 2.620145e+02 5.654873e+03 9.025841e+02 1.048939e+05 1.172907e+02 2.509269e+05 6.893648e+01 3.872845e+05 4.447034e+01 2.936818e+05 3.686565e+01 2.455262e+05 1.228475e+03 5.160624e+04 8.451868e-03 2.162786e-02 8.400855e-02 1.883808e+00 2.380643e-01 2.207903e+01 6.979809e-01 7.371972e+01 9.733320e-01 6.767360e+01 4.766679e-01 4.306684e+01 8.061110e-03 1.167349e-02 1.209145e-01 3.386880e-01 3.508357e-01 1.118314e+01 1.815678e+00 4.891183e+01 2.540921e+00 4.988840e+01 6.207581e-01 3.327554e+01 8.945111e+00 3.843951e+02
<GCONST> 3.269315e+02
<STATE> 13
<NUMMIXES> 3
<MIXTURE> 1 3.367986e-01
<MEAN> 52
 6.522623e+01 2.857468e+02 1.401321e+02 1.515620e+03 4.180942e+01 1.399650e+03 2.193107e+01 1.525581e+03 1.908891e+01 1.188462e+03 1.868508e+01 1.172748e+03 -6.765720e+01 3.367159e+02 -9.079391e+01 1.709879e+03 -1.289005e+01 1.691339e+03 -3.291666e+00 1.860864e+03 -2.643105e+00 1.491480e+03 -2.882176e+00 1.443471e+03 3.091083e+01 -3.995132e+01 2.835270e-02 1.892387e-02 3.409120e-02 1.065935e-01 1.818565e-01 5.216069e-01 2.884766e-01 8.398876e-01 2.664720e-01 8.731359e-01 2.155670e-01 6.995122e-01 8.800944e-03 8.517647e-03 -1.069807e-03 -2.038620e-02 -2.152333e-02 2.910339e-01 -2.719232e-02 5.513604e-01 3.186703e-03 5.747162e-01 -2.617836e-04 4.608747e-01 4.236932e-01 -3.930140e-02
<VARIANCE> 52
 3.888760e+01 1.184508e+03 3.467119e+02 3.095592e+04 2.360462e+02 8.072716e+04 2.321169e+02 1.297748e+05 2.137831e+02 9.269750e+04 1.604398e+02 7.864595e+04 5.283841e+01 9.430652e+02 3.595406e+02 2.043248e+04 8.398357e+01 5.397667e+04 5.560073e+01 9.958442e+04 3.602664e+01 8.500169e+04 2.681541e+01 6.944398e+04 8.906689e+02 2.330467e+04 5.791580e-03 1.083137e-02 1.847116e-02 7.199944e-01 4.322540e-01 3.175475e+00 1.025456e+00 1.350805e+01 1.101266e+00 1.503712e+01 6.904512e-01 8.172007e+00 2.690976e-03 6.889902e-03 6.540222e-02 1.951621e-01 9.831311e-02 1.118039e+00 3.495589e-01 3.689937e+00 2.448074e-01 4.710752e+00 1.197392e-01 3.481150e+00 4.334105e+00 6.883412e+01
<GCONST> 2.745740e+02
<MIXTURE> 2 4.198152e-01
<MEAN> 52
 4.777890e+01 1.603472e+02 1.597717e+02 7.954119e+02 3.391258e+01 4.202039e+02 1.642725e+01 3.720666e+02 1.386538e+01 2.760374e+02 1.410870e+01 3.141336e+02 -5.336518e+01 2.004255e+02 -1.119826e+02 1.104596e+03 -2.042416e+01 7.585631e+02 -8.916307e+00 7.496592e+02 -7.330952e+00 5.761759e+02 -7.692941e+00 5.976440e+02 3.586468e+01 -1.023970e+02 2.293162e-03 5.551390e-04 3.497460e-02 -8.843079e-02 5.271523e-02 -5.976983e-01 6.672280e-02 -9.682621e-01 7.400060e-02 -8.472981e-01 5.628078e-02 -7.187198e-01 -3.232524e-03 -1.037178e-02 -9.116582e-02 -8.081952e-02 -1.380230e-01 -1.073948e-01 -1.935302e-01 -1.690064e-01 -1.612035e-01 -6.090725e-02 -1.430984e-01 -3.145923e-02 3.650757e-01 -1.286208e+00
<VARIANCE> 52
 6.116353e+01 4.266997e+03 1.195880e+03 1.087918e+05 1.962587e+02 5.761179e+04 1.480712e+02 6.961695e+04 1.314901e+02 4.219325e+04 1.035198e+02 3.899956e+04 2.470351e+02 3.375861e+03 2.073449e+03 5.594120e+04 3.508646e+02 1.569033e+05 2.199119e+02 2.627232e+05 1.432398e+02 2.168507e+05 1.299094e+02 1.802786e+05 1.212078e+03 1.014447e+05 3.387566e-03 4.791201e-03 5.291815e-02 7.616658e-01 8.855832e-02 9.809155e+00 1.776114e-01 2.570794e+01 2.692826e-01 2.113281e+01 1.511693e-01 1.431029e+01 1.348310e-03 5.812099e-03 7.010612e-02 1.032345e-01 1.170905e-01 9.431912e-01 2.835467e-01 2.675863e+00 2.308782e-01 2.118688e+00 1.473781e-01 1.319539e+00 1.721917e+00 4.956705e+01
<GCONST> 2.831799e+02
<MIXTURE> 3 2.433867e-01
<MEAN> 52
 5.372103e+01 2.053995e+02 1.489809e+02 1.079493e+03 3.813311e+01 7.496803e+02 1.975375e+01 7.432570e+02 1.738057e+01 5.635748e+02 1.721328e+01 5.883651e+02 -5.904639e+01 2.510826e+02 -1.020049e+02 1.340568e+03 -1.512611e+01 1.072325e+03 -4.833539e+00 1.112845e+03 -4.183661e+00 8.652574e+02 -4.517186e+00 8.672329e+02 3.376636e+01 -6.823111e+01 5.959638e-03 1.132298e-02 -4.588269e-03 1.536733e-01 9.693725e-02 2.671412e-01 1.254096e-01 2.414161e-01 1.015430e-01 2.175852e-01 8.762551e-02 1.958848e-01 -4.062529e-04 3.166607e-03 -3.003293e-02 -1.932971e-02 -6.218976e-02 2.606957e-01 -8.334768e-02 4.986227e-01 -5.122979e-02 4.420026e-01 -5.464980e-02 3.666341e-01 2.835981e-01 -3.563303e-01
<VARIANCE> 52
 8.872174e+01 6.067679e+03 1.055181e+03 1.666440e+05 2.794536e+02 2.266796e+05 2.266008e+02 3.131176e+05 2.063897e+02 1.992683e+05 1.703984e+02 1.755004e+05 2.625345e+02 6.270096e+03 9.895804e+02 1.201680e+05 1.312296e+02 2.367051e+05 7.412051e+01 3.510909e+05 5.607278e+01 2.531047e+05 4.735700e+01 2.131819e+05 1.179900e+03 2.871303e+04 2.927600e-03 4.008604e-03 4.371818e-02 6.175171e-01 2.099038e-01 2.258628e+00 3.970228e-01 6.746748e+00 5.502287e-01 6.114928e+00 3.661730e-01 3.832777e+00 1.430959e-03 2.489068e-03 4.083881e-02 1.943074e-01 9.034685e-02 1.439354e+00 2.233577e-01 5.354816e+00 1.945806e-01 4.428558e+00 1.105408e-01 2.956962e+00 2.054302e+00 4.165630e+01
<GCONST> 2.864723e+02
<STATE> 14
<NUMMIXES> 3
<MIXTURE> 1 2.950671e-01
<MEAN> 52
 6.360517e+01 2.846881e+02 1.388423e+02 1.489013e+03 4.652348e+01 1.343188e+03 2.780592e+01 1.456168e+03 2.463458e+01 1.139074e+03 2.324825e+01 1.124456e+03 -6.893300e+01 3.316786e+02 -9.853625e+01 1.677558e+03 -1.773769e+01 1.710940e+03 -6.907278e+00 1.900238e+03 -5.613834e+00 1.538780e+03 -5.654434e+00 1.484869e+03 4.762990e+01 -8.253665e+01 1.771815e-02 3.634708e-02 1.298259e-02 1.485612e-01 1.444242e-01 6.413841e-01 2.583146e-01 9.940095e-01 2.530372e-01 1.114588e+00 1.977409e-01 9.010887e-01 1.091311e-02 1.382595e-02 2.761022e-02 -8.004725e-03 -5.754519e-02 9.741495e-01 -1.383717e-01 1.955010e+00 -8.958843e-02 2.212110e+00 -4.486117e-02 1.778316e+00 6.685712e-01 -1.443643e+00
<VARIANCE> 52
 5.747754e+01 1.961869e+03 5.149224e+02 6.081134e+04 4.542881e+02 1.816393e+05 4.837709e+02 2.891698e+05 4.603832e+02 2.044174e+05 3.487733e+02 1.722713e+05 6.922964e+01 1.800131e+03 5.278242e+02 3.720788e+04 2.017955e+02 1.240371e+05 1.537342e+02 2.271737e+05 1.272498e+02 1.888819e+05 9.259255e+01 1.518179e+05 2.913263e+03 7.729806e+04 3.294102e-03 1.315169e-02 9.214096e-03 5.090521e-01 8.334722e-02 7.762145e+00 2.501019e-01 1.746372e+01 3.070340e-01 2.026415e+01 1.903437e-01 1.434487e+01 2.997163e-03 5.655217e-03 3.603996e-02 1.803730e-01 2.374974e-01 6.902630e+00 5.539787e-01 2.514213e+01 5.376058e-01 3.183555e+01 3.192827e-01 1.992262e+01 2.688535e+00 1.344901e+02
<GCONST> 2.994847e+02
<MIXTURE> 2 4.517828e-01
<MEAN> 52
 4.820333e+01 1.570342e+02 1.637344e+02 7.658942e+02 3.466687e+01 3.876985e+02 1.689762e+01 3.370422e+02 1.412192e+01 2.492677e+02 1.440644e+01 2.884147e+02 -5.238950e+01 1.972266e+02 -1.149444e+02 1.082646e+03 -2.325442e+01 7.543438e+02 -1.107547e+01 7.502450e+02 -9.007669e+00 5.816774e+02 -9.324636e+00 6.026351e+02 4.008205e+01 -1.330642e+02 2.950098e-03 9.013301e-03 1.827606e-02 -1.186590e-01 -4.571334e-03 -1.105835e+00 -3.257281e-02 -2.062380e+00 -3.231612e-02 -1.578037e+00 -1.961541e-02 -1.197591e+00 -4.476192e-03 -3.200679e-03 -8.686697e-02 -4.126129e-02 -2.134377e-01 8.700233e-02 -2.913284e-01 8.615868e-02 -2.838855e-01 2.606280e-01 -2.335420e-01 2.945172e-01 3.692094e-01 -2.809562e+00
<VARIANCE> 52
 5.589951e+01 4.040152e+03 1.202284e+03 1.012214e+05 2.341833e+02 4.063101e+04 1.668645e+02 4.811084e+04 1.346597e+02 2.772210e+04 1.078139e+02 2.635931e+04 2.436949e+02 3.025184e+03 2.634604e+03 4.987698e+04 4.173766e+02 1.666104e+05 2.664250e+02 2.874715e+05 1.622879e+02 2.446198e+05 1.487154e+02 2.027463e+05 1.290773e+03 1.397991e+05 1.388582e-03 1.342931e-02 6.334309e-03 4.933157e-01 1.701459e-01 1.166875e+01 5.163985e-01 4.122381e+01 4.354322e-01 2.125548e+01 2.720525e-01 1.300780e+01 5.528372e-04 1.422528e-02 3.220949e-02 7.152972e-02 2.019876e-01 4.298353e+00 4.131966e-01 1.449001e+01 4.603435e-01 1.240416e+01 2.827732e-01 7.924568e+00 1.676151e+00 1.135873e+02
<GCONST> 2.928142e+02
<MIXTURE> 3 2.531503e-01
<MEAN> 52
 5.282744e+01 1.912844e+02 1.542077e+02 9.961352e+02 3.953310e+01 6.309051e+02 2.132067e+01 6.024365e+02 1.878881e+01 4.518684e+02 1.834906e+01 4.842287e+02 -5.638085e+01 2.342114e+02 -1.044769e+02 1.263575e+03 -1.707864e+01 9.719614e+02 -6.319243e+00 9.941011e+02 -5.498632e+00 7.705258e+02 -5.776561e+00 7.811860e+02 3.938503e+01 -8.931999e+01 5.778040e-03 4.000745e-02 1.731274e-02 1.556876e-01 5.679973e-02 -1.178227e-03 9.104913e-02 -1.568398e-01 7.978973e-02 -1.609299e-01 6.589715e-02 -7.944423e-02 -4.189187e-03 2.163743e-02 -4.195962e-02 3.763066e-02 -1.320484e-01 8.292009e-01 -1.922344e-01 1.439845e+00 -1.722103e-01 1.472414e+00 -1.399828e-01 1.245277e+00 4.176212e-01 -2.558720e+00
<VARIANCE> 52
 8.042734e+01 5.793198e+03 1.161487e+03 1.628144e+05 3.082321e+02 1.765723e+05 2.629864e+02 2.330021e+05 2.427443e+02 1.444770e+05 1.873329e+02 1.293757e+05 2.446860e+02 5.566509e+03 1.238879e+03 1.076929e+05 1.852244e+02 1.954698e+05 1.021272e+02 2.896654e+05 8.813382e+01 2.153306e+05 7.498723e+01 1.822334e+05 1.699848e+03 5.588128e+04 8.932344e-04 1.184167e-02 1.083238e-02 8.426899e-01 1.417630e-01 3.126099e+00 4.057382e-01 1.105861e+01 4.113870e-01 8.639808e+00 2.549166e-01 5.576372e+00 9.921261e-04 6.407908e-03 1.409712e-02 1.042848e-01 1.589931e-01 5.496236e+00 3.784800e-01 1.849458e+01 4.568230e-01 1.687051e+01 2.443566e-01 1.096409e+01 1.736403e+00 9.014271e+01
<GCONST> 2.943558e+02
<STATE> 15
<NUMMIXES> 3
<MIXTURE> 1 2.735624e-01
<MEAN> 52
 6.360036e+01 2.801080e+02 1.390776e+02 1.462393e+03 5.133198e+01 1.334836e+03 3.383547e+01 1.448572e+03 3.025827e+01 1.143794e+03 2.784979e+01 1.126988e+03 -6.729510e+01 3.254572e+02 -9.862364e+01 1.641812e+03 -2.055121e+01 1.721600e+03 -9.964757e+00 1.920560e+03 -8.625370e+00 1.566034e+03 -8.164242e+00 1.509988e+03 6.342940e+01 -1.001636e+02 1.372784e-02 4.781485e-02 -3.741927e-02 4.439901e-01 3.376513e-01 8.720573e-01 6.011052e-01 1.175273e+00 6.446485e-01 1.353562e+00 5.111023e-01 1.175420e+00 1.355656e-02 1.864528e-02 -1.874985e-02 -1.715972e-02 -2.207751e-01 2.051775e+00 -3.705285e-01 3.765375e+00 -2.869332e-01 3.902930e+00 -2.232405e-01 3.171840e+00 1.377670e+00 -5.401618e+00
<VARIANCE> 52
 6.681386e+01 3.111361e+03 7.898419e+02 8.680856e+04 5.565800e+02 2.575448e+05 7.430093e+02 3.987228e+05 7.110296e+02 2.910788e+05 5.020197e+02 2.487896e+05 1.073995e+02 2.925276e+03 5.791610e+02 5.868510e+04 2.744724e+02 1.561977e+05 2.749759e+02 2.650738e+05 2.872155e+02 2.285585e+05 1.951060e+02 1.859264e+05 5.816711e+03 6.964740e+04 3.782609e-03 2.037238e-02 4.861039e-02 4.149902e+00 4.795668e-01 2.253994e+01 1.645041e+00 9.503411e+01 2.021114e+00 1.068961e+02 1.202411e+00 6.528876e+01 3.208288e-03 4.775840e-03 1.230130e-01 1.725498e-01 2.103665e-01 1.562414e+01 5.736924e-01 5.701411e+01 4.613110e-01 5.915251e+01 2.698964e-01 3.818940e+01 4.786865e+00 4.018299e+02
<GCONST> 3.318791e+02
<MIXTURE> 2 4.747486e-01
<MEAN> 52
 4.964729e+01 1.649798e+02 1.652270e+02 7.992470e+02 3.818503e+01 4.084206e+02 1.993553e+01 3.589980e+02 1.683620e+01 2.650840e+02 1.686775e+01 3.028103e+02 -5.330598e+01 2.042531e+02 -1.222141e+02 1.099550e+03 -2.813593e+01 7.949310e+02 -1.437334e+01 7.997764e+02 -1.187462e+01 6.258533e+02 -1.217431e+01 6.444458e+02 5.161912e+01 -1.623613e+02 2.871343e-03 -6.363221e-03 3.277631e-02 -2.317649e-01 3.576383e-03 -1.600836e+00 -1.399985e-02 -2.490510e+00 -2.496898e-02 -2.177538e+00 -1.363924e-02 -1.835425e+00 -2.671396e-03 -1.411400e-02 -1.650920e-01 -1.532073e-01 -3.498321e-01 -7.390319e-02 -5.256903e-01 -2.047609e-01 -4.774291e-01 1.373451e-01 -3.884405e-01 2.370304e-01 5.021603e-01 -4.620964e+00
<VARIANCE> 52
 6.167026e+01 4.731697e+03 1.209445e+03 1.216267e+05 3.440667e+02 6.775205e+04 2.563640e+02 8.184167e+04 2.007383e+02 4.689395e+04 1.616956e+02 4.380318e+04 2.478259e+02 3.712541e+03 3.479231e+03 6.378708e+04 4.619473e+02 2.136268e+05 2.661307e+02 3.618963e+05 1.724168e+02 2.972827e+05 1.649588e+02 2.455074e+05 1.850626e+03 1.713677e+05 4.092946e-03 1.332261e-02 3.704894e-02 1.150752e+00 1.370555e-01 1.559506e+01 3.702357e-01 4.526772e+01 3.500356e-01 3.806533e+01 2.370397e-01 2.508758e+01 6.622368e-04 1.415045e-02 1.324673e-01 2.259323e-01 4.289460e-01 1.037258e+01 1.104596e+00 3.944297e+01 1.066142e+00 2.927854e+01 6.462814e-01 1.865618e+01 1.472612e+00 2.366051e+02
<GCONST> 3.141424e+02
<MIXTURE> 3 2.516887e-01
<MEAN> 52
 5.413358e+01 2.037405e+02 1.509928e+02 1.053211e+03 4.101138e+01 6.533818e+02 2.330668e+01 6.218051e+02 2.108582e+01 4.642105e+02 2.012317e+01 4.949053e+02 -5.784322e+01 2.453029e+02 -1.063869e+02 1.301762e+03 -1.980557e+01 1.117489e+03 -8.810943e+00 1.189333e+03 -7.205054e+00 9.473947e+02 -7.290685e+00 9.412016e+02 4.690285e+01 -1.775246e+02 1.611193e-02 2.909544e-02 -3.317179e-03 1.850846e-01 1.229379e-01 -9.024338e-01 2.104626e-01 -1.944303e+00 2.181378e-01 -2.192664e+00 1.735231e-01 -1.711280e+00 5.302079e-03 1.661644e-02 -5.744496e-02 -5.870089e-02 -2.689838e-01 1.881953e+00 -4.357023e-01 3.583651e+00 -3.637102e-01 3.613830e+00 -2.785087e-01 2.968020e+00 8.835294e-01 -1.051514e+01
<VARIANCE> 52
 7.704362e+01 6.001457e+03 1.183896e+03 1.725486e+05 4.411600e+02 2.033056e+05 4.356025e+02 2.684621e+05 4.054759e+02 1.674030e+05 3.018592e+02 1.500837e+05 2.241941e+02 5.444199e+03 1.496796e+03 9.860548e+04 2.488656e+02 2.601829e+05 1.685416e+02 4.170163e+05 1.421561e+02 3.269299e+05 1.114555e+02 2.710859e+05 2.649439e+03 1.079704e+05 7.367566e-03 1.294828e-02 3.922451e-02 1.699964e+00 1.556802e-01 1.313303e+01 4.018472e-01 4.499552e+01 4.655049e-01 4.682448e+01 3.085241e-01 2.757308e+01 1.260769e-03 9.026661e-03 5.425888e-02 2.184929e-01 2.471669e-01 1.600274e+01 6.507741e-01 5.857362e+01 6.325908e-01 5.240786e+01 3.216361e-01 3.418800e+01 2.778390e+00 4.287171e+02
<GCONST> 3.225747e+02
<STATE> 16
<NUMMIXES> 3
<MIXTURE> 1 2.262571e-01
<MEAN> 52
 6.536086e+01 2.948766e+02 1.312297e+02 1.503549e+03 5.900533e+01 1.439513e+03 4.662922e+01 1.579154e+03 4.401226e+01 1.272265e+03 3.900571e+01 1.248385e+03 -6.736761e+01 3.307378e+02 -9.944329e+01 1.639435e+03 -2.679522e+01 1.904976e+03 -1.775899e+01 2.179449e+03 -1.341959e+01 1.833089e+03 -1.175925e+01 1.752022e+03 9.501733e+01 -2.212870e+02 4.873222e-02 9.037754e-02 6.274046e-02 1.779405e-01 4.832155e+00 5.626783e-01 8.655849e+00 9.177542e-01 1.069404e+01 1.311840e+00 8.624469e+00 1.219039e+00 1.850475e-02 2.168988e-02 -1.632550e-02 -1.151580e-01 -1.873330e-01 3.220469e+00 -3.556015e-01 5.726766e+00 -2.801085e-01 6.474554e+00 -1.807070e-01 5.436093e+00 1.176820e+01 -8.406431e+00
<VARIANCE> 52
 6.244704e+01 1.913940e+03 5.795068e+02 5.197321e+04 1.436983e+03 3.077549e+05 2.543069e+03 4.788375e+05 2.728106e+03 3.746365e+05 1.870643e+03 3.305357e+05 8.266544e+01 1.728980e+03 4.088511e+02 3.806336e+04 5.401880e+02 1.258456e+05 6.985454e+02 2.617099e+05 4.380843e+02 2.965735e+05 2.847531e+02 2.416667e+05 1.448757e+04 3.401472e+05 3.431859e-02 3.749429e-02 3.331654e-01 3.049760e+00 4.684120e+02 9.155321e+00 1.710273e+03 6.426241e+01 2.801865e+03 1.066035e+02 1.781095e+03 6.967678e+01 8.767523e-03 1.483749e-02 7.440476e-02 8.453231e-01 2.046240e-01 9.837970e+01 5.374854e-01 2.486207e+02 5.299161e-01 3.417700e+02 2.913807e-01 2.478892e+02 3.013428e+03 6.065806e+02
<GCONST> 3.885822e+02
<MIXTURE> 2 5.303728e-01
<MEAN> 52
 5.071459e+01 1.714055e+02 1.622496e+02 8.365138e+02 4.011176e+01 4.374353e+02 2.186017e+01 3.967149e+02 1.894941e+01 2.956047e+02 1.847754e+01 3.289700e+02 -5.360107e+01 2.100408e+02 -1.211187e+02 1.119272e+03 -3.207805e+01 8.666255e+02 -1.887194e+01 9.023372e+02 -1.593966e+01 7.200873e+02 -1.534565e+01 7.278499e+02 6.224518e+01 -2.089796e+02 -3.391682e-03 5.078788e-03 -1.278167e-01 -8.625527e-02 -6.965399e-01 -2.673995e+00 -8.013213e-01 -4.366485e+00 -7.882643e-01 -3.831285e+00 -7.142236e-01 -3.277226e+00 -4.539402e-03 -1.643716e-02 -1.053966e-01 -1.805246e-01 -6.439228e-01 -3.013456e-01 -1.075184e+00 -2.515072e-01 -1.039016e+00 4.653937e-01 -7.978057e-01 2.636109e-01 4.965394e-01 -9.062359e+00
<VARIANCE> 52
 6.053020e+01 5.624255e+03 1.297837e+03 1.460848e+05 4.469311e+02 1.230886e+05 3.880128e+02 1.747481e+05 3.655966e+02 1.185259e+05 2.747168e+02 1.041705e+05 2.541045e+02 4.320177e+03 3.364604e+03 7.091268e+04 5.608980e+02 2.814064e+05 4.238882e+02 4.867720e+05 3.497793e+02 3.950686e+05 2.738743e+02 3.275689e+05 2.659375e+03 1.648056e+05 9.462222e-03 7.621339e-03 1.154238e+00 1.325294e+00 5.240416e+01 4.099499e+01 8.802039e+01 1.255368e+02 9.316277e+01 1.062386e+02 6.609348e+01 7.142911e+01 5.036499e-03 1.707208e-02 1.118004e-01 3.891749e-01 1.419886e+00 3.614676e+01 4.425442e+00 1.088748e+02 4.849609e+00 9.618433e+01 2.870035e+00 7.131493e+01 8.422815e+01 5.736901e+02
<GCONST> 3.715550e+02
<MIXTURE> 3 2.433700e-01
<MEAN> 52
 5.452627e+01 2.189279e+02 1.460750e+02 1.115855e+03 4.710923e+01 7.327863e+02 3.026493e+01 7.220656e+02 2.770164e+01 5.489941e+02 2.557523e+01 5.693761e+02 -6.095023e+01 2.594584e+02 -1.120041e+02 1.353573e+03 -2.411642e+01 1.261035e+03 -1.206431e+01 1.375359e+03 -1.002920e+01 1.113977e+03 -9.892151e+00 1.094251e+03 6.330823e+01 -2.733358e+02 4.291707e-03 4.620368e-02 -1.207019e-01 2.210420e-01 8.885753e-02 -1.155496e+00 3.487804e-01 -2.428304e+00 3.809167e-01 -2.364594e+00 2.262115e-01 -1.967196e+00 -3.026801e-03 1.488656e-02 -4.655410e-02 -2.243245e-02 -4.157408e-01 2.521117e+00 -7.215052e-01 4.679905e+00 -6.313574e-01 5.118145e+00 -4.668799e-01 4.192657e+00 1.638951e+00 -1.350001e+01
<VARIANCE> 52
 8.513010e+01 5.569242e+03 1.224981e+03 1.682401e+05 6.462752e+02 2.760800e+05 6.751631e+02 3.904792e+05 6.399969e+02 2.543113e+05 4.725889e+02 2.234517e+05 2.190179e+02 5.453732e+03 1.611335e+03 1.063926e+05 3.416982e+02 3.130319e+05 2.539241e+02 5.247816e+05 2.140629e+02 4.238005e+05 1.638822e+02 3.504637e+05 3.787352e+03 2.492355e+05 1.049579e-02 1.597478e-02 6.936229e-01 2.410734e+00 1.788687e+01 1.653277e+01 3.143948e+01 6.926183e+01 3.362086e+01 6.344065e+01 2.349696e+01 4.073657e+01 3.179137e-03 7.075602e-03 3.675252e-02 2.537406e-01 5.077403e-01 4.973808e+01 1.656093e+00 1.714870e+02 1.361581e+00 1.843531e+02 7.207099e-01 1.253352e+02 3.974546e+01 8.876185e+02
<GCONST> 3.642849e+02
<STATE> 17
<NUMMIXES> 3
<MIXTURE> 1 2.405110e-01
<MEAN> 52
 6.371621e+01 2.799071e+02 1.337133e+02 1.421638e+03 6.881729e+01 1.327433e+03 5.823343e+01 1.457588e+03 5.498445e+01 1.189319e+03 4.821617e+01 1.162960e+03 -6.687392e+01 3.183383e+02 -1.009892e+02 1.582179e+03 -3.049070e+01 1.879055e+03 -2.018196e+01 2.157244e+03 -1.673503e+01 1.820332e+03 -1.490284e+01 1.738578e+03 1.201825e+02 -3.380038e+02 2.592708e-02 4.334503e-02 -5.617785e-02 1.329432e-01 6.024825e-01 9.627939e-01 1.260269e+00 1.567277e+00 1.649962e+00 1.987781e+00 1.359286e+00 1.719954e+00 1.042542e-02 3.340210e-02 -5.607590e-03 6.905004e-03 -1.705125e-01 2.466078e+00 -2.591220e-01 4.353083e+00 -1.499252e-01 5.133149e+00 -1.179255e-01 4.183456e+00 2.260203e+00 -6.412172e+00
<VARIANCE> 52
 5.554301e+01 3.488790e+03 1.060214e+03 9.849691e+04 1.506226e+03 4.756830e+05 2.890523e+03 7.006059e+05 3.044530e+03 5.641857e+05 2.046650e+03 4.997816e+05 1.433527e+02 3.457459e+03 5.104523e+02 7.212140e+04 6.139749e+02 1.683622e+05 6.940198e+02 2.902566e+05 6.373942e+02 3.093348e+05 4.327589e+02 2.564179e+05 1.715389e+04 4.897323e+05 3.620577e-03 1.906159e-02 1.537380e-01 2.729452e+00 3.667899e+00 4.189165e+01 2.191970e+01 8.849870e+01 4.826804e+01 1.346201e+02 3.001740e+01 1.051186e+02 3.764124e-03 7.369747e-02 7.580406e-02 1.304198e+00 2.428167e-01 2.108973e+01 1.062147e+00 5.458004e+01 6.573256e-01 8.081511e+01 3.326330e-01 5.667399e+01 7.242788e+01 2.490415e+02
<GCONST> 3.695130e+02
<MIXTURE> 2 5.048313e-01
<MEAN> 52
 5.127407e+01 1.764205e+02 1.594331e+02 8.647723e+02 4.284796e+01 4.246654e+02 2.532625e+01 3.792672e+02 2.302696e+01 2.781827e+02 2.186451e+01 3.107324e+02 -5.427102e+01 2.124899e+02 -1.222304e+02 1.124967e+03 -3.948615e+01 9.124978e+02 -2.684021e+01 9.715514e+02 -2.327296e+01 7.932578e+02 -2.149692e+01 7.924738e+02 8.275171e+01 -3.074354e+02 -3.112445e-03 -7.474027e-02 -1.132297e-01 -4.489250e-01 -4.511550e-03 -2.514476e+00 3.752524e-02 -4.007174e+00 4.369473e-02 -3.465710e+00 4.013574e-02 -3.042855e+00 -2.788426e-04 -1.064167e-01 -3.941716e-02 -3.916293e-01 -5.460215e-01 -3.252495e-01 -9.869562e-01 -1.789359e-01 -9.637734e-01 6.325917e-01 -7.508965e-01 4.992993e-01 1.303301e+00 -7.503541e+00
<VARIANCE> 52
 5.851704e+01 6.007083e+03 1.428800e+03 1.536595e+05 5.116882e+02 1.061117e+05 4.759421e+02 1.417498e+05 4.789138e+02 8.425921e+04 3.432467e+02 7.669453e+04 2.672867e+02 4.540075e+03 3.636945e+03 7.145018e+04 7.535374e+02 3.603971e+05 6.896884e+02 6.429259e+05 6.253822e+02 5.458232e+05 4.580277e+02 4.511498e+05 4.424094e+03 3.239254e+05 6.174893e-03 9.631299e-02 2.286299e-01 5.952462e+00 2.782035e-01 3.163804e+01 9.068230e-01 9.170622e+01 9.660184e-01 7.665131e+01 6.521015e-01 5.347675e+01 3.488046e-03 1.470482e-01 6.947076e-02 1.171021e+00 7.073642e-01 2.033279e+01 2.140926e+00 6.128962e+01 2.558239e+00 4.861948e+01 1.619367e+00 3.319069e+01 6.837992e+00 3.695330e+02
<GCONST> 3.520091e+02
<MIXTURE> 3 2.546578e-01
<MEAN> 52
 5.503163e+01 2.208267e+02 1.460283e+02 1.113282e+03 5.352941e+01 6.930475e+02 3.701633e+01 6.824442e+02 3.464595e+01 5.217333e+02 3.163231e+01 5.413034e+02 -6.008358e+01 2.550550e+02 -1.152677e+02 1.318002e+03 -2.756892e+01 1.337399e+03 -1.536183e+01 1.501919e+03 -1.160221e+01 1.243368e+03 -1.121919e+01 1.210131e+03 7.573274e+01 -4.088024e+02 5.912022e-03 7.789377e-03 -4.909844e-02 7.811481e-02 2.381084e-01 -1.534888e+00 4.171908e-01 -2.364520e+00 4.590064e-01 -2.075746e+00 3.985360e-01 -1.810871e+00 5.839184e-03 -3.483414e-02 -2.650740e-02 -2.774308e-01 -3.188216e-01 1.832473e+00 -5.744645e-01 3.481745e+00 -4.034709e-01 4.110518e+00 -3.108866e-01 3.407039e+00 1.395485e+00 -1.121970e+01
<VARIANCE> 52
 8.173532e+01 5.770087e+03 1.162413e+03 1.599116e+05 8.413492e+02 3.031028e+05 9.041373e+02 4.437274e+05 8.968464e+02 3.022891e+05 6.519596e+02 2.674841e+05 2.093080e+02 5.422011e+03 1.684662e+03 1.024371e+05 4.249592e+02 3.662010e+05 3.603223e+02 6.328110e+05 2.516926e+02 5.331715e+05 1.885396e+02 4.419302e+05 4.235949e+03 3.746274e+05 3.825808e-03 1.503147e-02 1.002975e-01 1.871179e+00 4.145215e-01 2.055023e+01 1.567195e+00 4.882882e+01 1.726001e+00 4.235000e+01 1.321187e+00 3.064916e+01 3.710629e-03 2.056764e-02 9.497219e-02 8.198040e-01 4.650185e-01 1.629834e+01 1.313168e+00 5.401471e+01 1.201778e+00 6.477604e+01 6.914741e-01 4.318261e+01 7.325327e+00 4.846067e+02
<GCONST> 3.476057e+02
<STATE> 18
<NUMMIXES> 3
<MIXTURE> 1 2.434469e-01
<MEAN> 52
 6.421863e+01 2.830197e+02 1.333628e+02 1.440283e+03 7.254227e+01 1.295366e+03 6.062569e+01 1.407147e+03 5.774092e+01 1.126532e+03 5.109221e+01 1.104813e+03 -6.628732e+01 3.200824e+02 -1.028185e+02 1.585808e+03 -3.091188e+01 1.882592e+03 -1.977408e+01 2.158403e+03 -1.616075e+01 1.810672e+03 -1.453857e+01 1.729563e+03 1.225307e+02 -3.699514e+02 2.201575e-02 -3.569596e-03 -1.457568e-02 1.310045e-01 4.997135e-01 6.623101e-02 7.461996e-01 -8.574176e-02 8.409705e-01 -6.585312e-02 6.928563e-01 -5.898786e-02 2.281565e-02 -7.085100e-03 5.583594e-02 -1.193252e-01 -1.651800e-01 2.476844e+00 -3.597221e-01 3.364773e+00 -3.404090e-01 3.855134e+00 -2.370995e-01 3.274086e+00 1.894684e+00 -4.666291e+00
<VARIANCE> 52
 6.009460e+01 3.256178e+03 9.174831e+02 8.986702e+04 1.896166e+03 4.152589e+05 3.135120e+03 6.098509e+05 3.473186e+03 4.539968e+05 2.459510e+03 4.037944e+05 1.280522e+02 3.535146e+03 5.459662e+02 6.795605e+04 4.444250e+02 1.843114e+05 5.024744e+02 3.449538e+05 4.982812e+02 3.347741e+05 3.356226e+02 2.718125e+05 1.350070e+04 5.848401e+05 7.527505e-03 1.042236e-02 4.474032e-02 7.914466e-01 9.609030e-01 1.373457e+00 1.512373e+00 2.851749e+00 2.044158e+00 2.034397e+00 1.361043e+00 1.414517e+00 6.048648e-03 5.589601e-03 5.852093e-02 3.008243e-01 9.815031e-02 6.911579e+01 3.632752e-01 1.240194e+02 3.868329e-01 1.786968e+02 2.087589e-01 1.309436e+02 9.119131e+00 2.348878e+02
<GCONST> 3.350542e+02
<MIXTURE> 2 5.178285e-01
<MEAN> 52
 5.137297e+01 1.675118e+02 1.624689e+02 8.121846e+02 4.223217e+01 3.968220e+02 2.453298e+01 3.616199e+02 2.163205e+01 2.682204e+02 2.080400e+01 2.966296e+02 -5.309042e+01 2.036272e+02 -1.252431e+02 1.080371e+03 -4.269259e+01 8.893971e+02 -3.037660e+01 9.542634e+02 -2.619101e+01 7.878184e+02 -2.407112e+01 7.840306e+02 8.427205e+01 -3.466779e+02 -7.568317e-03 -5.511197e-02 -3.887338e-02 -3.106038e-02 1.462776e-02 -1.312003e+00 5.576404e-02 -2.355153e+00 7.122948e-02 -2.100194e+00 3.727532e-02 -1.818571e+00 -1.103679e-03 -9.382051e-02 -7.507804e-02 -3.896874e-01 -4.451390e-01 -5.284697e-02 -7.750167e-01 7.577813e-02 -7.156048e-01 5.291299e-01 -5.500838e-01 3.608890e-01 9.591342e-01 -4.392525e+00
<VARIANCE> 52
 5.855347e+01 5.550310e+03 1.342108e+03 1.157476e+05 5.712691e+02 1.080265e+05 5.578811e+02 1.515890e+05 5.191667e+02 9.156983e+04 3.783755e+02 8.295712e+04 2.781397e+02 4.376225e+03 4.509469e+03 6.816566e+04 8.713832e+02 3.850804e+05 8.163065e+02 6.843702e+05 7.681682e+02 6.025349e+05 5.629098e+02 4.985639e+05 4.319139e+03 4.286826e+05 1.682638e-02 7.121836e-02 4.335725e-02 1.108694e+00 1.737079e-01 1.066941e+01 4.661600e-01 3.485952e+01 5.407071e-01 2.847346e+01 3.385567e-01 2.037923e+01 9.630473e-03 8.860824e-02 1.069517e-01 1.174863e+00 5.964116e-01 1.461611e+01 1.748607e+00 4.162211e+01 1.685786e+00 3.678492e+01 9.975024e-01 2.500863e+01 3.487057e+00 1.833765e+02
<GCONST> 3.417509e+02
<MIXTURE> 3 2.387244e-01
<MEAN> 52
 5.482750e+01 2.177469e+02 1.441298e+02 1.108064e+03 5.460437e+01 7.023257e+02 3.844721e+01 6.896525e+02 3.640089e+01 5.226546e+02 3.312848e+01 5.432102e+02 -5.980768e+01 2.512050e+02 -1.124751e+02 1.310030e+03 -3.289570e+01 1.317893e+03 -2.128720e+01 1.467567e+03 -1.698464e+01 1.224077e+03 -1.575686e+01 1.189557e+03 9.341452e+01 -4.034941e+02 3.079943e-03 1.597810e-02 1.036976e-03 1.774497e-02 2.502983e-01 -9.716303e-01 4.045142e-01 -1.655417e+00 4.009483e-01 -1.575589e+00 3.262672e-01 -1.367834e+00 1.033220e-02 -2.155059e-02 -1.968448e-02 -1.886357e-01 -2.332846e-01 1.023251e+00 -4.352467e-01 1.648134e+00 -3.774575e-01 1.855525e+00 -2.767411e-01 1.498560e+00 1.221281e+00 -5.717496e+00
<VARIANCE> 52
 8.021628e+01 5.748665e+03 1.192216e+03 1.574205e+05 9.635688e+02 2.681558e+05 1.157037e+03 3.819703e+05 1.230827e+03 2.491187e+05 8.776245e+02 2.213916e+05 2.256147e+02 5.256436e+03 1.827562e+03 9.779748e+04 6.087827e+02 4.429936e+05 5.873081e+02 7.770552e+05 4.594263e+02 6.917702e+05 3.374881e+02 5.673549e+05 7.314574e+03 4.889562e+05 6.449883e-03 1.177252e-02 3.657856e-02 1.247813e+00 3.361859e-01 9.926778e+00 9.325246e-01 2.788327e+01 9.654472e-01 2.407957e+01 6.549056e-01 1.787815e+01 8.172838e-03 1.694915e-02 6.841631e-02 5.378701e-01 2.802554e-01 1.238590e+01 1.052545e+00 3.507727e+01 8.914028e-01 4.926426e+01 4.299627e-01 3.408130e+01 6.558208e+00 2.129722e+02
<GCONST> 3.424206e+02
<STATE> 19
<NUMMIXES> 3
<MIXTURE> 1 2.502725e-01
<MEAN> 52
 6.266745e+01 2.802413e+02 1.327194e+02 1.415050e+03 7.569039e+01 1.206809e+03 6.430696e+01 1.297843e+03 6.153662e+01 1.034732e+03 5.437989e+01 1.018748e+03 -6.613942e+01 3.127134e+02 -1.048203e+02 1.558689e+03 -3.368273e+01 1.916857e+03 -2.321444e+01 2.227327e+03 -1.784805e+01 1.900109e+03 -1.598715e+01 1.805867e+03 1.333015e+02 -4.904927e+02 3.850367e-02 6.165407e-02 2.504118e-02 2.420626e-01 3.001191e-01 1.822897e-01 4.501516e-01 2.056073e-01 4.600640e-01 1.386530e-01 3.984302e-01 1.144835e-01 2.736281e-02 2.148136e-03 3.702614e-02 -4.465114e-02 -1.834086e-01 8.952376e-01 -3.502322e-01 1.530158e+00 -2.375959e-01 1.959131e+00 -2.037773e-01 1.628722e+00 1.151787e+00 -2.019642e+00
<VARIANCE> 52
 6.659646e+01 3.504452e+03 7.842751e+02 9.991007e+04 2.322365e+03 4.582257e+05 3.729544e+03 6.836123e+05 4.020869e+03 5.050811e+05 2.874585e+03 4.485410e+05 1.374711e+02 3.778875e+03 6.860667e+02 6.923031e+04 4.869473e+02 2.267863e+05 5.951305e+02 4.340575e+05 5.788318e+02 4.324959e+05 3.764073e+02 3.511440e+05 1.583758e+04 7.448091e+05 2.674744e-02 3.826366e-02 5.953273e-02 1.407178e+00 2.175206e-01 5.547665e-01 5.394253e-01 1.172542e+00 6.101820e-01 8.034567e-01 4.393784e-01 5.273459e-01 1.190714e-02 2.319157e-02 1.366360e-01 4.751397e-01 1.485166e-01 2.695155e+00 5.381515e-01 7.363977e+00 2.841505e-01 1.180613e+01 1.908796e-01 8.239225e+00 3.771148e+00 2.086243e+01
<GCONST> 3.223648e+02
<MIXTURE> 2 4.933286e-01
<MEAN> 52
 5.192383e+01 1.700740e+02 1.619444e+02 8.313060e+02 4.555589e+01 4.261300e+02 2.748970e+01 3.956877e+02 2.434809e+01 2.944081e+02 2.331016e+01 3.220930e+02 -5.319991e+01 2.051581e+02 -1.282016e+02 1.077703e+03 -4.640804e+01 8.938868e+02 -3.390121e+01 9.569390e+02 -2.920885e+01 7.892578e+02 -2.672872e+01 7.853112e+02 9.678210e+01 -3.325442e+02 -1.600481e-02 -2.400388e-02 -5.536298e-02 8.519696e-02 1.555727e-02 -3.983525e-01 1.125399e-02 -5.725411e-01 1.027422e-02 -5.630985e-01 1.722224e-02 -4.684445e-01 -6.255808e-03 -5.330112e-02 -8.522559e-02 -2.559130e-01 -3.779084e-01 3.896055e-02 -6.310625e-01 1.389708e-01 -5.518650e-01 3.028074e-01 -4.367077e-01 2.317682e-01 8.204827e-01 -1.402461e+00
<VARIANCE> 52
 6.274075e+01 5.990422e+03 1.561484e+03 1.228527e+05 6.227380e+02 1.368477e+05 5.690621e+02 1.877539e+05 5.187864e+02 1.114029e+05 3.926619e+02 1.021582e+05 2.631910e+02 5.055022e+03 5.312594e+03 7.724477e+04 8.170364e+02 4.069979e+05 7.551169e+02 7.060459e+05 7.112764e+02 6.180140e+05 5.258474e+02 5.117239e+05 5.030354e+03 4.268341e+05 4.816380e-03 1.049487e-02 3.350803e-01 1.912567e+00 9.454658e-02 1.072439e+00 5.086627e-01 2.129563e+00 5.273272e-01 2.096806e+00 2.412000e-01 1.591612e+00 2.726051e-03 2.006599e-02 1.659992e-01 8.614734e-01 5.621961e-01 1.727668e+00 1.588331e+00 5.052332e+00 1.605188e+00 5.868556e+00 9.469945e-01 3.465875e+00 3.746610e+00 2.188491e+01
<GCONST> 3.187850e+02
<MIXTURE> 3 2.563992e-01
<MEAN> 52
 5.436081e+01 2.158092e+02 1.439623e+02 1.092408e+03 5.283018e+01 6.762073e+02 3.698928e+01 6.641572e+02 3.512910e+01 4.998849e+02 3.205943e+01 5.213374e+02 -5.936937e+01 2.483824e+02 -1.132650e+02 1.294323e+03 -3.959442e+01 1.359986e+03 -2.813913e+01 1.533283e+03 -2.339711e+01 1.291964e+03 -2.125538e+01 1.249347e+03 1.045105e+02 -4.734688e+02 -1.709923e-02 1.302672e-02 -3.810572e-02 1.185553e-01 6.047995e-02 -1.209064e-01 1.245953e-01 -1.848998e-01 8.435884e-02 -1.899728e-01 6.776980e-02 -1.505444e-01 -8.023118e-04 -1.815971e-02 -3.621786e-02 -1.345134e-01 -2.643077e-01 8.273506e-01 -4.476939e-01 1.440182e+00 -3.807968e-01 1.605913e+00 -2.890589e-01 1.318709e+00 7.928528e-01 -2.612416e+00
<VARIANCE> 52
 6.911891e+01 6.252067e+03 1.057032e+03 1.637079e+05 1.004989e+03 2.601864e+05 1.248198e+03 3.661486e+05 1.319962e+03 2.355223e+05 9.476452e+02 2.111391e+05 2.288685e+02 5.653851e+03 1.885777e+03 9.817697e+04 7.106829e+02 4.887099e+05 7.271921e+02 8.505489e+05 6.526791e+02 7.759887e+05 4.834180e+02 6.388495e+05 9.059506e+03 5.862179e+05 3.471881e-03 1.157494e-02 1.364303e-01 8.820301e-01 8.312672e-02 5.719591e-01 3.790911e-01 1.237809e+00 3.416136e-01 1.220624e+00 1.748197e-01 9.015833e-01 1.456565e-03 1.317794e-02 1.253047e-01 4.690761e-01 2.877717e-01 3.282194e+00 1.080640e+00 1.011018e+01 9.262148e-01 1.361820e+01 5.164618e-01 8.768574e+00 3.255664e+00 4.286889e+01
<GCONST> 3.193676e+02
<TRANSP> 20
 0.000000e+00 1.000000e+00 0.000000e+00 0.000000e+00 0.000000e+00 0.000000e+00 0.000000e+00 0.000000e+00 0.000000e+00 0.000000e+00 0.000000e+00 0.000000e+00 0.000000e+00 0.000000e+00 0.000000e+00 0.000000e+00 0.000000e+00 0.000000e+00 0.000000e+00 0.000000e+00
 0.000000e+00 3.382678e-02 9.661732e-01 0.000000e+00 0.000000e+00 0.000000e+00 0.000000e+00 0.000000e+00 0.000000e+00 0.000000e+00 0.000000e+00 0.000000e+00 0.000000e+00 0.000000e+00 0.000000e+00 0.000000e+00 0.000000e+00 0.000000e+00 0.000000e+00 0.000000e+00
 0.000000e+00 0.000000e+00 2.767129e-02 9.723287e-01 0.000000e+00 0.000000e+00 0.000000e+00 0.000000e+00 0.000000e+00 0.000000e+00 0.000000e+00 0.000000e+00 0.000000e+00 0.000000e+00 0.000000e+00 0.000000e+00 0.000000e+00 0.000000e+00 0.000000e+00 0.000000e+00
 0.000000e+00 0.000000e+00 0.000000e+00 8.552756e-02 9.144725e-01 0.000000e+00 0.000000e+00 0.000000e+00 0.000000e+00 0.000000e+00 0.000000e+00 0.000000e+00 0.000000e+00 0.000000e+00 0.000000e+00 0.000000e+00 0.000000e+00 0.000000e+00 0.000000e+00 0.000000e+00
 0.000000e+00 0.000000e+00 0.000000e+00 0.000000e+00 6.172558e-02 9.382744e-01 0.000000e+00 0.000000e+00 0.000000e+00 0.000000e+00 0.000000e+00 0.000000e+00 0.000000e+00 0.000000e+00 0.000000e+00 0.000000e+00 0.000000e+00 0.000000e+00 0.000000e+00 0.000000e+00
 0.000000e+00 0.000000e+00 0.000000e+00 0.000000e+00 0.000000e+00 4.252447e-03 9.957476e-01 0.000000e+00 0.000000e+00 0.000000e+00 0.000000e+00 0.000000e+00 0.000000e+00 0.000000e+00 0.000000e+00 0.000000e+00 0.000000e+00 0.000000e+00 0.000000e+00 0.000000e+00
 0.000000e+00 0.000000e+00 0.000000e+00 0.000000e+00 0.000000e+00 0.000000e+00 4.618551e-03 9.953815e-01 0.000000e+00 0.000000e+00 0.000000e+00 0.000000e+00 0.000000e+00 0.000000e+00 0.000000e+00 0.000000e+00 0.000000e+00 0.000000e+00 0.000000e+00 0.000000e+00
 0.000000e+00 0.000000e+00 0.000000e+00 0.000000e+00 0.000000e+00 0.000000e+00 0.000000e+00 4.201335e-04 9.995798e-01 0.000000e+00 0.000000e+00 0.000000e+00 0.000000e+00 0.000000e+00 0.000000e+00 0.000000e+00 0.000000e+00 0.000000e+00 0.000000e+00 0.000000e+00
 0.000000e+00 0.000000e+00 0.000000e+00 0.000000e+00 0.000000e+00 0.000000e+00 0.000000e+00 0.000000e+00 3.169433e-02 9.683057e-01 0.000000e+00 0.000000e+00 0.000000e+00 0.000000e+00 0.000000e+00 0.000000e+00 0.000000e+00 0.000000e+00 0.000000e+00 0.000000e+00
 0.000000e+00 0.000000e+00 0.000000e+00 0.000000e+00 0.000000e+00 0.000000e+00 0.000000e+00 0.000000e+00 0.000000e+00 1.433466e-02 9.856653e-01 0.000000e+00 0.000000e+00 0.000000e+00 0.000000e+00 0.000000e+00 0.000000e+00 0.000000e+00 0.000000e+00 0.000000e+00
 0.000000e+00 0.000000e+00 0.000000e+00 0.000000e+00 0.000000e+00 0.000000e+00 0.000000e+00 0.000000e+00 0.000000e+00 0.000000e+00 5.549578e-01 4.450422e-01 0.000000e+00 0.000000e+00 0.000000e+00 0.000000e+00 0.000000e+00 0.000000e+00 0.000000e+00 0.000000e+00
 0.000000e+00 0.000000e+00 0.000000e+00 0.000000e+00 0.000000e+00 0.000000e+00 0.000000e+00 0.000000e+00 0.000000e+00 0.000000e+00 0.000000e+00 2.970473e-02 9.702953e-01 0.000000e+00 0.000000e+00 0.000000e+00 0.000000e+00 0.000000e+00 0.000000e+00 0.000000e+00
 0.000000e+00 0.000000e+00 0.000000e+00 0.000000e+00 0.000000e+00 0.000000e+00 0.000000e+00 0.000000e+00 0.000000e+00 0.000000e+00 0.000000e+00 0.000000e+00 2.377760e-01 7.622240e-01 0.000000e+00 0.000000e+00 0.000000e+00 0.000000e+00 0.000000e+00 0.000000e+00
 0.000000e+00 0.000000e+00 0.000000e+00 0.000000e+00 0.000000e+00 0.000000e+00 0.000000e+00 0.000000e+00 0.000000e+00 0.000000e+00 0.000000e+00 0.000000e+00 0.000000e+00 2.415531e-02 9.758447e-01 0.000000e+00 0.000000e+00 0.000000e+00 0.000000e+00 0.000000e+00
 0.000000e+00 0.000000e+00 0.000000e+00 0.000000e+00 0.000000e+00 0.000000e+00 0.000000e+00 0.000000e+00 0.000000e+00 0.000000e+00 0.000000e+00 0.000000e+00 0.000000e+00 0.000000e+00 4.575891e-02 9.542411e-01 0.000000e+00 0.000000e+00 0.000000e+00 0.000000e+00
 0.000000e+00 0.000000e+00 0.000000e+00 0.000000e+00 0.000000e+00 0.000000e+00 0.000000e+00 0.000000e+00 0.000000e+00 0.000000e+00 0.000000e+00 0.000000e+00 0.000000e+00 0.000000e+00 0.000000e+00 4.762598e-02 9.523740e-01 0.000000e+00 0.000000e+00 0.000000e+00
 0.000000e+00 0.000000e+00 0.000000e+00 0.000000e+00 0.000000e+00 0.000000e+00 0.000000e+00 0.000000e+00 0.000000e+00 0.000000e+00 0.000000e+00 0.000000e+00 0.000000e+00 0.000000e+00 0.000000e+00 0.000000e+00 8.112148e-02 9.188786e-01 0.000000e+00 0.000000e+00
 0.000000e+00 0.000000e+00 0.000000e+00 0.000000e+00 0.000000e+00 0.000000e+00 0.000000e+00 0.000000e+00 0.000000e+00 0.000000e+00 0.000000e+00 0.000000e+00 0.000000e+00 0.000000e+00 0.000000e+00 0.000000e+00 0.000000e+00 4.428778e-06 9.999955e-01 0.000000e+00
 0.000000e+00 0.000000e+00 0.000000e+00 0.000000e+00 0.000000e+00 0.000000e+00 0.000000e+00 0.000000e+00 0.000000e+00 0.000000e+00 0.000000e+00 0.000000e+00 0.000000e+00 0.000000e+00 0.000000e+00 0.000000e+00 0.000000e+00 0.000000e+00 2.578815e-02 9.742118e-01
 0.000000e+00 0.000000e+00 0.000000e+00 0.000000e+00 0.000000e+00 0.000000e+00 0.000000e+00 0.000000e+00 0.000000e+00 0.000000e+00 0.000000e+00 0.000000e+00 0.000000e+00 0.000000e+00 0.000000e+00 0.000000e+00 0.000000e+00 0.000000e+00 0.000000e+00 0.000000e+00
<ENDHMM>
~h "orange"
<BEGINHMM>
<NUMSTATES> 20
<STATE> 2
<NUMMIXES> 3
<MIXTURE> 1 1.768876e-01
<MEAN> 52
 5.744957e+01 2.419912e+02 1.292970e+02 1.128815e+03 4.333267e+01 7.498161e+02 3.034477e+01 7.557228e+02 2.759610e+01 6.001052e+02 2.479124e+01 6.116738e+02 -6.553661e+01 2.667777e+02 -1.422881e+02 1.292114e+03 -2.622522e+01 1.592169e+03 -1.801408e+01 1.843980e+03 -1.063248e+01 1.633992e+03 -9.745019e+00 1.566475e+03 5.323680e+01 -7.885881e+02 5.143541e-02 9.000651e-02 6.760741e-02 6.810011e-01 3.171104e-01 1.080651e+00 5.232397e-01 1.651324e+00 4.388383e-01 8.556600e-01 3.690112e-01 7.137140e-01 3.556107e-02 6.570396e-02 1.537231e-01 2.400315e-01 4.037306e-02 1.174315e+00 -1.883887e-02 1.695316e+00 5.327542e-02 1.628165e+00 6.283557e-02 1.427162e+00 4.410907e-01 -1.864851e+00
<VARIANCE> 52
 7.241529e+01 2.672345e+03 1.117624e+03 1.183325e+05 7.676640e+02 4.128392e+05 7.284092e+02 5.825879e+05 5.478328e+02 3.889072e+05 4.109382e+02 3.522324e+05 6.590802e+01 4.012873e+03 2.823849e+03 1.358755e+05 6.016088e+02 8.481901e+05 7.298964e+02 1.444915e+06 3.211123e+02 1.406140e+06 2.077156e+02 1.151773e+06 2.184913e+03 1.523016e+06 3.901387e-02 6.443022e-02 2.720974e-01 7.134254e+00 6.316397e-01 9.392442e+00 2.098575e+00 3.457789e+01 1.287483e+00 2.402349e+01 8.703663e-01 1.296024e+01 1.007374e-02 2.189211e-02 1.286221e-01 6.357287e-01 1.547123e-01 7.410782e+00 5.537416e-01 1.353661e+01 4.004173e-01 1.226348e+01 2.111363e-01 9.357452e+00 1.766212e+00 7.385225e+01
<GCONST> 3.430433e+02
<MIXTURE> 2 5.265240e-01
<MEAN> 52
 4.935067e+01 1.625330e+02 1.085066e+02 7.388101e+02 1.142000e+01 2.237946e+02 2.252610e+00 1.776823e+02 2.802062e+00 1.387971e+02 3.123047e+00 1.626419e+02 -5.271666e+01 1.915964e+02 -1.182828e+02 1.021907e+03 -5.245983e+01 1.628626e+03 -5.160535e+01 1.995609e+03 -3.626226e+01 1.862242e+03 -3.052547e+01 1.751307e+03 5.439792e+01 -1.431346e+03 -2.589677e-02 -7.396781e-02 -9.685591e-02 -5.157374e-01 -2.147256e-01 -6.631321e-01 -3.174855e-01 -9.981495e-01 -2.515584e-01 -8.341314e-01 -2.074994e-01 -6.961021e-01 -1.699600e-02 -3.712880e-02 -1.645257e-02 1.143791e-01 -9.380548e-02 3.472104e-01 -1.686608e-01 5.244247e-01 -1.545091e-01 5.349799e-01 -1.143992e-01 4.274806e-01 -5.797252e-02 -2.182056e+00
<VARIANCE> 52
 6.579468e+01 4.153308e+03 8.710503e+02 4.866633e+04 9.950164e+01 6.953204e+04 5.242893e+01 1.006687e+05 4.370934e+01 7.996252e+04 3.390208e+01 7.667877e+04 3.527155e+02 4.607778e+03 2.733393e+03 1.199600e+05 2.108336e+03 8.165096e+05 3.734795e+03 1.344824e+06 2.838329e+03 1.374284e+06 1.868328e+03 1.151997e+06 4.638601e+03 1.406264e+06 2.406676e-02 4.146378e-02 1.207760e-01 2.538383e+00 3.316493e-01 2.636718e+00 8.052441e-01 5.694931e+00 5.804088e-01 4.355140e+00 3.744578e-01 2.768568e+00 1.755379e-02 1.944737e-02 2.386783e-02 2.565708e+00 1.692449e-01 1.872475e+00 9.280151e-01 2.848828e+00 5.223494e-01 2.238954e+00 2.304972e-01 1.703393e+00 1.101069e+00 3.059854e+01
<GCONST> 3.164491e+02
<MIXTURE> 3 2.965880e-01
<MEAN> 52
 5.232552e+01 1.878916e+02 1.082088e+02 8.422434e+02 1.680356e+01 2.954220e+02 6.861039e+00 2.453999e+02 7.366834e+00 1.923172e+02 7.131918e+00 2.175898e+02 -5.677789e+01 2.154352e+02 -1.247316e+02 1.116692e+03 -4.262622e+01 1.754268e+03 -3.862206e+01 2.134514e+03 -2.461733e+01 1.994094e+03 -2.078426e+01 1.875329e+03 4.640949e+01 -1.503386e+03 4.041777e-02 -2.221587e-02 -3.209518e-02 -4.544185e-02 9.052120e-04 -1.304023e-01 -3.053240e-02 -2.786613e-01 1.930283e-02 -2.265353e-01 2.252083e-02 -1.674275e-01 2.493868e-02 1.063050e-02 4.903674e-02 1.701374e-01 1.207839e-02 5.095562e-01 3.314380e-03 7.246027e-01 2.100238e-03 7.213895e-01 7.199168e-03 5.902180e-01 2.636183e-02 -1.526302e+00
<VARIANCE> 52
 6.741368e+01 3.676485e+03 8.232953e+02 5.736164e+04 2.674407e+02 1.193378e+05 1.646851e+02 1.616421e+05 1.403316e+02 1.178963e+05 1.139414e+02 1.127266e+05 2.561406e+02 4.205603e+03 2.621677e+03 1.130176e+05 9.259251e+02 9.266984e+05 1.463869e+03 1.556146e+06 8.363779e+02 1.573173e+06 5.420253e+02 1.296431e+06 1.700201e+03 1.631762e+06 2.588650e-02 1.785806e-02 7.294492e-02 8.579388e-01 2.823672e-01 7.518513e-01 7.757083e-01 2.832954e+00 6.286009e-01 2.423520e+00 3.816365e-01 1.421412e+00 1.391251e-02 1.486183e-02 4.541449e-02 6.208279e-01 6.164961e-02 1.297591e+00 1.064738e-01 2.595323e+00 1.455590e-01 2.433259e+00 1.049547e-01 1.692095e+00 9.358024e-01 1.547817e+01
<GCONST> 3.042904e+02
<STATE> 3
<NUMMIXES> 3
<MIXTURE> 1 1.746131e-01
<MEAN> 52
 5.676209e+01 2.487122e+02 1.291257e+02 1.199404e+03 4.577772e+01 7.943076e+02 3.190601e+01 7.778367e+02 2.956765e+01 6.070034e+02 2.669979e+01 6.303788e+02 -6.669871e+01 2.697703e+02 -1.446830e+02 1.292885e+03 -2.554836e+01 1.539722e+03 -1.611172e+01 1.780750e+03 -9.630930e+00 1.553887e+03 -9.165383e+00 1.493056e+03 5.653919e+01 -5.575051e+02 8.684473e-03 7.821950e-02 -6.160976e-02 1.194375e+00 5.336947e-01 2.415558e+00 4.834610e-01 2.967589e+00 4.711438e-01 1.602022e+00 4.766061e-01 1.553716e+00 5.394483e-03 7.623609e-02 9.072179e-02 2.447952e-01 7.651677e-02 2.385813e+00 8.978039e-03 4.216800e+00 7.692961e-02 4.285589e+00 9.216335e-02 3.498034e+00 2.384366e-01 -5.799260e+00
<VARIANCE> 52
 1.017082e+02 2.887317e+03 7.666952e+02 1.191907e+05 7.752167e+02 3.304438e+05 7.159960e+02 4.486791e+05 5.835508e+02 2.903265e+05 4.310801e+02 2.650048e+05 5.192877e+01 3.922938e+03 2.422562e+03 1.273106e+05 5.297958e+02 6.884822e+05 5.847684e+02 1.174054e+06 2.534519e+02 1.077836e+06 1.615679e+02 8.729919e+05 2.674542e+03 9.023463e+05 2.301398e-03 1.697397e-01 5.312314e-01 3.058605e+00 3.104282e+00 5.403869e+01 4.042501e+00 1.293106e+02 2.581011e+00 9.549813e+01 2.367488e+00 6.844326e+01 2.724026e-03 1.693256e-01 1.746467e-01 3.838702e-01 1.617758e-01 1.958434e+01 2.864922e-01 5.949351e+01 2.428069e-01 5.307435e+01 1.727256e-01 3.607389e+01 2.648403e+00 2.849033e+02
<GCONST> 3.538003e+02
<MIXTURE> 2 5.194991e-01
<MEAN> 52
 4.915916e+01 1.587594e+02 1.025610e+02 7.302368e+02 1.024540e+01 2.092645e+02 1.686096e+00 1.543385e+02 2.492157e+00 1.175826e+02 2.723723e+00 1.424212e+02 -5.283337e+01 1.893551e+02 -1.154617e+02 1.026159e+03 -5.357723e+01 1.682140e+03 -5.341108e+01 2.063555e+03 -3.756999e+01 1.937051e+03 -3.143665e+01 1.819359e+03 5.445988e+01 -1.520424e+03 -4.668548e-02 -6.543167e-02 -1.840186e-01 -9.845403e-02 -3.111168e-01 -1.436231e+00 -4.406497e-01 -3.403844e+00 -3.204248e-01 -3.213032e+00 -3.054083e-01 -2.526027e+00 -5.069177e-02 -3.542156e-02 -9.691052e-03 9.731226e-02 -9.702466e-02 4.869816e-01 -1.254036e-01 6.376894e-01 -1.313314e-01 6.598837e-01 -1.177564e-01 5.898424e-01 -1.148066e-01 -5.658750e+00
<VARIANCE> 52
 7.105083e+01 3.710062e+03 8.476453e+02 4.588483e+04 8.972704e+01 6.384074e+04 5.403547e+01 7.578347e+04 5.367811e+01 5.714789e+04 3.931479e+01 5.720022e+04 3.639631e+02 4.329290e+03 2.494880e+03 1.150377e+05 2.119524e+03 8.423930e+05 3.735603e+03 1.376766e+06 2.808997e+03 1.434958e+06 1.845900e+03 1.206409e+06 4.587462e+03 1.426176e+06 4.847642e-02 3.526796e-02 1.749731e-01 8.700395e-01 7.211837e-01 1.579905e+01 1.788830e+00 8.212485e+01 1.126934e+00 7.319155e+01 8.246412e-01 4.401543e+01 2.813373e-02 2.305974e-02 1.271348e-01 4.265346e-01 1.220586e-01 2.104010e+00 1.636106e-01 5.209145e+00 2.310469e-01 7.080182e+00 2.129707e-01 4.707880e+00 1.120089e+00 1.930591e+02
<GCONST> 3.307988e+02
<MIXTURE> 3 3.058878e-01
<MEAN> 52
 5.247033e+01 1.873686e+02 1.078313e+02 8.424408e+02 1.541968e+01 2.514170e+02 5.668950e+00 1.880437e+02 6.486936e+00 1.439996e+02 6.239031e+00 1.711721e+02 -5.820927e+01 2.182663e+02 -1.251853e+02 1.131236e+03 -4.469820e+01 1.789558e+03 -4.069285e+01 2.180485e+03 -2.600196e+01 2.031151e+03 -2.196879e+01 1.909727e+03 4.686310e+01 -1.561921e+03 1.364791e-02 -2.988879e-02 -8.896016e-02 1.341965e-01 -4.072696e-02 -3.714997e-01 -2.001331e-02 -1.001556e+00 -2.827827e-03 -1.089134e+00 -2.077801e-02 -8.656422e-01 1.935330e-03 5.505469e-03 3.524725e-02 1.092400e-01 -1.647545e-03 1.035558e+00 -3.130341e-02 1.647517e+00 -1.837636e-02 1.689328e+00 -6.657689e-03 1.439819e+00 2.963711e-02 -4.793533e+00
<VARIANCE> 52
 7.474548e+01 3.736658e+03 9.000931e+02 5.782990e+04 2.119638e+02 8.355552e+04 1.195932e+02 1.053943e+05 1.053153e+02 7.721560e+04 8.416013e+01 7.537548e+04 2.877654e+02 4.286164e+03 2.597471e+03 1.116648e+05 9.264479e+02 8.411962e+05 1.434180e+03 1.404683e+06 8.186731e+02 1.399632e+06 5.302473e+02 1.155883e+06 1.672437e+03 1.360292e+06 8.659547e-03 7.321781e-02 1.355975e-01 1.108089e+00 9.555731e-02 1.414953e+01 2.668942e-01 4.418560e+01 1.867379e-01 3.242222e+01 1.146730e-01 2.092722e+01 3.825938e-03 4.321404e-02 5.657702e-02 2.479087e-01 3.005577e-02 6.313987e+00 7.904429e-02 1.864507e+01 8.053078e-02 1.948707e+01 4.197683e-02 1.459588e+01 4.046652e-01 1.692150e+02
<GCONST> 3.146630e+02
<STATE> 4
<NUMMIXES> 3
<MIXTURE> 1 1.801764e-01
<MEAN> 52
 5.664946e+01 2.458776e+02 1.293606e+02 1.158495e+03 4.027676e+01 6.537079e+02 2.606804e+01 5.972962e+02 2.460060e+01 4.539198e+02 2.279102e+01 4.878259e+02 -6.613021e+01 2.687323e+02 -1.460247e+02 1.270945e+03 -2.828535e+01 1.650608e+03 -2.001754e+01 1.945607e+03 -1.235740e+01 1.736494e+03 -1.106632e+01 1.656371e+03 5.319765e+01 -7.951903e+02 3.791745e-02 1.910450e-02 -4.610419e-02 -8.778532e-01 3.222568e-01 -1.048136e-01 7.653191e-01 -7.120600e-01 4.172805e-01 -1.027674e+00 3.547069e-01 -6.866045e-01 4.322032e-02 2.527281e-02 2.042949e-01 3.466956e-01 2.823988e-02 2.952616e+00 -4.944276e-02 5.036437e+00 2.010924e-02 4.893858e+00 4.885856e-02 4.056925e+00 3.095524e-01 -1.141405e+01
<VARIANCE> 52
 7.178887e+01 2.508891e+03 1.193008e+03 1.244332e+05 6.151223e+02 2.367725e+05 4.946357e+02 2.912810e+05 4.146597e+02 1.776873e+05 3.225533e+02 1.686063e+05 3.709496e+01 3.198473e+03 2.631144e+03 1.266768e+05 6.258998e+02 8.086456e+05 7.785656e+02 1.374581e+06 3.739337e+02 1.302413e+06 2.303604e+02 1.051917e+06 2.357845e+03 1.104726e+06 1.917552e-02 1.844881e-02 2.774259e-01 4.247349e+01 1.316590e+00 6.720303e+01 6.802237e+00 1.615000e+02 2.054181e+00 1.889474e+02 1.522008e+00 1.242464e+02 9.962506e-03 3.439144e-03 1.454082e-01 5.601982e-01 8.130541e-02 1.812217e+01 2.249508e-01 5.341101e+01 1.133967e-01 4.926325e+01 6.453653e-02 3.413473e+01 1.582794e+00 6.715038e+02
<GCONST> 3.498995e+02
<MIXTURE> 2 4.994850e-01
<MEAN> 52
 5.008313e+01 1.526902e+02 9.663194e+01 7.310803e+02 1.027855e+01 1.808932e+02 2.163776e+00 1.241635e+02 3.333140e+00 9.044797e+01 3.294688e+00 1.144969e+02 -5.003579e+01 1.847687e+02 -1.066740e+02 1.028274e+03 -5.356718e+01 1.756849e+03 -5.391307e+01 2.162944e+03 -3.729441e+01 2.033288e+03 -3.103977e+01 1.903951e+03 5.788781e+01 -1.610912e+03 -2.533811e-02 -4.951745e-02 -8.536023e-02 -9.244633e-02 -9.408630e-02 -2.730271e+00 -1.077164e-01 -3.931327e+00 -3.265823e-02 -3.559589e+00 -5.059841e-02 -2.941070e+00 -2.125001e-02 -3.325273e-02 -1.394876e-02 1.467315e-01 -4.878860e-02 5.264530e-01 -8.431460e-02 8.212839e-01 -5.125504e-02 7.368581e-01 -4.608077e-02 5.996691e-01 4.329180e-02 -5.956866e+00
<VARIANCE> 52
 6.787061e+01 4.125692e+03 6.914635e+02 6.120348e+04 1.049556e+02 5.056554e+04 6.857923e+01 6.198382e+04 7.582010e+01 4.321614e+04 5.468845e+01 4.343733e+04 3.935393e+02 4.702260e+03 2.390126e+03 1.177037e+05 1.721398e+03 7.110569e+05 3.103646e+03 1.136377e+06 2.337294e+03 1.196545e+06 1.524779e+03 1.008728e+06 4.129586e+03 1.169318e+06 1.591390e-02 3.859939e-02 9.479731e-02 1.532110e+00 2.454302e-01 1.035409e+02 4.381485e-01 1.028188e+02 3.691376e-01 7.902171e+01 2.461246e-01 5.330933e+01 8.404509e-03 2.563889e-02 8.817583e-02 5.839781e-01 3.390874e-02 2.940990e+00 1.035966e-01 6.499701e+00 4.956026e-02 5.141150e+00 4.105024e-02 3.422150e+00 6.497363e-01 1.959028e+02
<GCONST> 3.191740e+02
<MIXTURE> 3 3.203388e-01
<MEAN> 52
 5.154911e+01 1.832999e+02 1.004210e+02 8.445569e+02 1.479037e+01 2.416467e+02 5.592978e+00 1.726819e+02 6.629367e+00 1.261819e+02 6.214761e+00 1.545968e+02 -5.704053e+01 2.138512e+02 -1.172208e+02 1.141974e+03 -4.761171e+01 1.851043e+03 -4.469895e+01 2.259479e+03 -2.904021e+01 2.109098e+03 -2.450145e+01 1.980130e+03 5.225405e+01 -1.621063e+03 6.486084e-04 6.837475e-04 -3.825797e-02 1.835516e-01 1.338331e-02 -1.269921e+00 1.987725e-02 -2.313154e+00 6.950750e-02 -2.167219e+00 4.642677e-02 -1.764850e+00 7.609736e-03 1.094389e-02 9.896418e-03 2.344522e-01 1.801647e-03 9.181640e-01 -3.634244e-03 1.467469e+00 2.103388e-03 1.372306e+00 2.703374e-03 1.110980e+00 4.253423e-02 -5.985247e+00
<VARIANCE> 52
 6.298901e+01 4.024182e+03 6.818048e+02 7.464740e+04 2.291008e+02 7.611612e+04 1.382135e+02 8.227522e+04 1.336570e+02 5.258664e+04 1.029660e+02 5.467785e+04 3.299676e+02 4.053180e+03 2.030719e+03 9.784817e+04 9.784135e+02 7.609925e+05 1.577285e+03 1.269329e+06 9.331255e+02 1.298016e+06 6.044404e+02 1.072771e+06 2.145075e+03 1.242698e+06 1.420709e-02 8.578472e-03 8.934284e-02 1.741011e+00 1.154470e-01 2.612010e+01 2.899805e-01 5.362271e+01 3.106463e-01 4.372047e+01 1.862731e-01 2.915190e+01 6.748485e-03 7.652765e-03 3.639242e-02 4.790341e-01 1.987727e-02 4.359213e+00 4.178109e-02 1.173813e+01 3.546290e-02 1.071714e+01 2.927330e-02 6.838787e+00 4.993764e-01 2.286867e+02
<GCONST> 3.103141e+02
<STATE> 5
<NUMMIXES> 3
<MIXTURE> 1 1.164187e-01
<MEAN> 52
 5.740135e+01 2.498512e+02 1.238549e+02 1.202003e+03 3.856458e+01 6.333215e+02 2.436401e+01 5.643409e+02 2.449604e+01 4.242982e+02 2.278952e+01 4.631174e+02 -6.418185e+01 2.660328e+02 -1.470805e+02 1.270019e+03 -2.622111e+01 1.640291e+03 -1.641543e+01 1.932943e+03 -9.737232e+00 1.702943e+03 -9.273777e+00 1.627177e+03 4.939852e+01 -7.811151e+02 9.912525e-02 1.360391e-01 -5.767442e-02 8.010329e-01 6.943669e-01 1.878960e-01 1.065904e+00 -1.769390e-01 9.314301e-01 -1.247773e+00 7.944064e-01 -8.083210e-01 7.407299e-02 5.576643e-02 2.436938e-01 6.553960e-01 -6.278895e-02 7.436095e+00 -1.475698e-01 1.269979e+01 -6.911005e-02 1.139152e+01 -3.012213e-02 9.043247e+00 1.126627e+00 -2.168051e+01
<VARIANCE> 52
 7.303465e+01 3.008723e+03 1.380950e+03 1.544685e+05 5.789117e+02 1.912388e+05 4.876035e+02 2.244758e+05 4.330121e+02 1.331056e+05 3.474880e+02 1.299911e+05 1.122922e+02 3.361710e+03 2.309826e+03 1.309096e+05 5.065489e+02 6.429361e+05 5.598325e+02 1.101375e+06 2.458413e+02 9.813532e+05 1.648985e+02 7.963864e+05 1.815388e+03 8.882920e+05 9.387519e-02 1.303406e-01 7.384762e-02 3.585241e+00 4.034355e+00 5.602122e+01 9.946034e+00 1.832486e+02 5.653717e+00 1.844529e+02 4.310075e+00 1.215823e+02 5.635854e-02 2.728371e-02 6.718479e-01 2.045672e+00 5.411711e-01 2.285964e+02 1.233188e+00 6.447905e+02 1.123074e+00 5.447435e+02 6.261041e-01 3.596624e+02 8.137689e+00 2.632412e+03
<GCONST> 3.785324e+02
<MIXTURE> 2 5.424820e-01
<MEAN> 52
 4.939510e+01 1.698696e+02 1.040343e+02 8.155141e+02 1.308061e+01 2.158138e+02 4.161592e+00 1.459276e+02 5.194439e+00 1.021430e+02 4.918642e+00 1.318499e+02 -5.558607e+01 1.952537e+02 -1.219525e+02 1.057807e+03 -5.117000e+01 1.687292e+03 -4.889309e+01 2.062794e+03 -3.406544e+01 1.911590e+03 -2.887870e+01 1.797481e+03 5.478625e+01 -1.427109e+03 -4.894826e-02 -1.046901e-01 -1.416810e-01 -1.792896e-01 -3.132316e-01 -3.789866e+00 -4.995093e-01 -5.843373e+00 -3.721289e-01 -5.505245e+00 -3.401748e-01 -4.736723e+00 -4.307578e-02 -9.932201e-02 9.587780e-04 9.357134e-02 -1.762174e-01 3.915410e+00 -3.492230e-01 6.906436e+00 -2.348984e-01 7.068104e+00 -1.794942e-01 5.661003e+00 -4.218572e-02 -2.226448e+01
<VARIANCE> 52
 5.773748e+01 4.689281e+03 9.272477e+02 8.686146e+04 1.809192e+02 4.084764e+04 9.405776e+01 4.255747e+04 1.076864e+02 2.675617e+04 8.132719e+01 2.907420e+04 3.535721e+02 4.568074e+03 2.397771e+03 1.112882e+05 1.871980e+03 6.901173e+05 3.333922e+03 1.125173e+06 2.375106e+03 1.181514e+06 1.543627e+03 9.827631e+05 4.254834e+03 1.087070e+06 2.592904e-02 1.477515e-01 2.985958e-01 2.265961e+00 7.090942e-01 5.150458e+01 1.946444e+00 1.092237e+02 1.721868e+00 9.252397e+01 1.240478e+00 6.793449e+01 1.792699e-02 1.610874e-01 9.852498e-02 1.183707e+01 2.854646e-01 9.175977e+01 1.335793e+00 3.194312e+02 6.401039e-01 3.029481e+02 3.639536e-01 1.884077e+02 2.711262e+00 1.534114e+03
<GCONST> 3.626859e+02
<MIXTURE> 3 3.410993e-01
<MEAN> 52
