~o
<STREAMINFO> 1 52
<VECSIZE> 52<NULLD><USER><DIAGC>
~h "snake"
<BEGINHMM>
<NUMSTATES> 20
<STATE> 2
<MEAN> 52
 4.842945e+01 2.076754e+02 1.441682e+02 8.912534e+02 1.049731e+02 9.097172e+02 1.150875e+02 9.822312e+02 1.105191e+02 9.255963e+02 9.595657e+01 9.290664e+02 -5.393071e+01 2.058770e+02 -1.337631e+02 9.845237e+02 -7.886221e+01 1.302684e+03 -8.062390e+01 1.515608e+03 -6.503922e+01 1.380236e+03 -5.767976e+01 1.339368e+03 3.105069e+02 -4.544886e+02 -1.187052e-03 -2.829713e-03 4.908616e-03 -9.009641e-02 -1.851874e-02 -1.689259e-02 -2.577241e-02 1.019019e-01 -3.608805e-02 1.689291e-01 -2.663767e-02 1.305180e-01 1.521325e-03 -6.971157e-05 -4.903315e-05 -1.385723e-02 2.261273e-03 -4.700832e-02 -1.731330e-03 -8.069959e-02 -5.246604e-04 -6.369808e-02 -2.327822e-03 -5.437245e-02 -4.085635e-02 2.128577e-01
<VARIANCE> 52
 2.765422e+02 4.864766e+03 8.235410e+03 1.278255e+05 1.020156e+04 8.101206e+05 1.830305e+04 1.173567e+06 1.780092e+04 1.214780e+06 1.278741e+04 1.112948e+06 2.349425e+02 4.268198e+03 5.103192e+03 7.849802e+04 5.508403e+03 5.380285e+05 8.727111e+03 8.877888e+05 6.699064e+03 8.971289e+05 4.967869e+03 7.650918e+05 1.165789e+05 8.222566e+05 2.000000e+00 2.000000e+00 5.485442e+00 2.477254e+01 2.067319e+01 2.228593e+02 5.501622e+01 6.062814e+02 5.649488e+01 6.178355e+02 3.699123e+01 4.359526e+02 2.000000e+00 2.000000e+00 4.072955e+00 8.310647e+00 5.998631e+00 7.614554e+01 1.482016e+01 1.881678e+02 1.406278e+01 2.068317e+02 9.051033e+00 1.502633e+02 1.479222e+02 1.242201e+03
<GCONST> 4.639010e+02
<STATE> 3
<MEAN> 52
 4.842945e+01 2.076754e+02 1.441682e+02 8.912534e+02 1.049731e+02 9.097172e+02 1.150875e+02 9.822312e+02 1.105191e+02 9.255963e+02 9.595657e+01 9.290664e+02 -5.393071e+01 2.058770e+02 -1.337631e+02 9.845237e+02 -7.886221e+01 1.302684e+03 -8.062390e+01 1.515608e+03 -6.503922e+01 1.380236e+03 -5.767976e+01 1.339368e+03 3.105069e+02 -4.544886e+02 -1.187052e-03 -2.829713e-03 4.908616e-03 -9.009641e-02 -1.851874e-02 -1.689259e-02 -2.577241e-02 1.019019e-01 -3.608805e-02 1.689291e-01 -2.663767e-02 1.305180e-01 1.521325e-03 -6.971157e-05 -4.903315e-05 -1.385723e-02 2.261273e-03 -4.700832e-02 -1.731330e-03 -8.069959e-02 -5.246604e-04 -6.369808e-02 -2.327822e-03 -5.437245e-02 -4.085635e-02 2.128577e-01
<VARIANCE> 52
 2.765422e+02 4.864766e+03 8.235410e+03 1.278255e+05 1.020156e+04 8.101206e+05 1.830305e+04 1.173567e+06 1.780092e+04 1.214780e+06 1.278741e+04 1.112948e+06 2.349425e+02 4.268198e+03 5.103192e+03 7.849802e+04 5.508403e+03 5.380285e+05 8.727111e+03 8.877888e+05 6.699064e+03 8.971289e+05 4.967869e+03 7.650918e+05 1.165789e+05 8.222566e+05 2.000000e+00 2.000000e+00 5.485442e+00 2.477254e+01 2.067319e+01 2.228593e+02 5.501622e+01 6.062814e+02 5.649488e+01 6.178355e+02 3.699123e+01 4.359526e+02 2.000000e+00 2.000000e+00 4.072955e+00 8.310647e+00 5.998631e+00 7.614554e+01 1.482016e+01 1.881678e+02 1.406278e+01 2.068317e+02 9.051033e+00 1.502633e+02 1.479222e+02 1.242201e+03
<GCONST> 4.639010e+02
<STATE> 4
<MEAN> 52
 4.842945e+01 2.076754e+02 1.441682e+02 8.912534e+02 1.049731e+02 9.097172e+02 1.150875e+02 9.822312e+02 1.105191e+02 9.255963e+02 9.595657e+01 9.290664e+02 -5.393071e+01 2.058770e+02 -1.337631e+02 9.845237e+02 -7.886221e+01 1.302684e+03 -8.062390e+01 1.515608e+03 -6.503922e+01 1.380236e+03 -5.767976e+01 1.339368e+03 3.105069e+02 -4.544886e+02 -1.187052e-03 -2.829713e-03 4.908616e-03 -9.009641e-02 -1.851874e-02 -1.689259e-02 -2.577241e-02 1.019019e-01 -3.608805e-02 1.689291e-01 -2.663767e-02 1.305180e-01 1.521325e-03 -6.971157e-05 -4.903315e-05 -1.385723e-02 2.261273e-03 -4.700832e-02 -1.731330e-03 -8.069959e-02 -5.246604e-04 -6.369808e-02 -2.327822e-03 -5.437245e-02 -4.085635e-02 2.128577e-01
<VARIANCE> 52
 2.765422e+02 4.864766e+03 8.235410e+03 1.278255e+05 1.020156e+04 8.101206e+05 1.830305e+04 1.173567e+06 1.780092e+04 1.214780e+06 1.278741e+04 1.112948e+06 2.349425e+02 4.268198e+03 5.103192e+03 7.849802e+04 5.508403e+03 5.380285e+05 8.727111e+03 8.877888e+05 6.699064e+03 8.971289e+05 4.967869e+03 7.650918e+05 1.165789e+05 8.222566e+05 2.000000e+00 2.000000e+00 5.485442e+00 2.477254e+01 2.067319e+01 2.228593e+02 5.501622e+01 6.062814e+02 5.649488e+01 6.178355e+02 3.699123e+01 4.359526e+02 2.000000e+00 2.000000e+00 4.072955e+00 8.310647e+00 5.998631e+00 7.614554e+01 1.482016e+01 1.881678e+02 1.406278e+01 2.068317e+02 9.051033e+00 1.502633e+02 1.479222e+02 1.242201e+03
<GCONST> 4.639010e+02
<STATE> 5
<MEAN> 52
 4.842945e+01 2.076754e+02 1.441682e+02 8.912534e+02 1.049731e+02 9.097172e+02 1.150875e+02 9.822312e+02 1.105191e+02 9.255963e+02 9.595657e+01 9.290664e+02 -5.393071e+01 2.058770e+02 -1.337631e+02 9.845237e+02 -7.886221e+01 1.302684e+03 -8.062390e+01 1.515608e+03 -6.503922e+01 1.380236e+03 -5.767976e+01 1.339368e+03 3.105069e+02 -4.544886e+02 -1.187052e-03 -2.829713e-03 4.908616e-03 -9.009641e-02 -1.851874e-02 -1.689259e-02 -2.577241e-02 1.019019e-01 -3.608805e-02 1.689291e-01 -2.663767e-02 1.305180e-01 1.521325e-03 -6.971157e-05 -4.903315e-05 -1.385723e-02 2.261273e-03 -4.700832e-02 -1.731330e-03 -8.069959e-02 -5.246604e-04 -6.369808e-02 -2.327822e-03 -5.437245e-02 -4.085635e-02 2.128577e-01
<VARIANCE> 52
 2.765422e+02 4.864766e+03 8.235410e+03 1.278255e+05 1.020156e+04 8.101206e+05 1.830305e+04 1.173567e+06 1.780092e+04 1.214780e+06 1.278741e+04 1.112948e+06 2.349425e+02 4.268198e+03 5.103192e+03 7.849802e+04 5.508403e+03 5.380285e+05 8.727111e+03 8.877888e+05 6.699064e+03 8.971289e+05 4.967869e+03 7.650918e+05 1.165789e+05 8.222566e+05 2.000000e+00 2.000000e+00 5.485442e+00 2.477254e+01 2.067319e+01 2.228593e+02 5.501622e+01 6.062814e+02 5.649488e+01 6.178355e+02 3.699123e+01 4.359526e+02 2.000000e+00 2.000000e+00 4.072955e+00 8.310647e+00 5.998631e+00 7.614554e+01 1.482016e+01 1.881678e+02 1.406278e+01 2.068317e+02 9.051033e+00 1.502633e+02 1.479222e+02 1.242201e+03
<GCONST> 4.639010e+02
<STATE> 6
<MEAN> 52
 4.842945e+01 2.076754e+02 1.441682e+02 8.912534e+02 1.049731e+02 9.097172e+02 1.150875e+02 9.822312e+02 1.105191e+02 9.255963e+02 9.595657e+01 9.290664e+02 -5.393071e+01 2.058770e+02 -1.337631e+02 9.845237e+02 -7.886221e+01 1.302684e+03 -8.062390e+01 1.515608e+03 -6.503922e+01 1.380236e+03 -5.767976e+01 1.339368e+03 3.105069e+02 -4.544886e+02 -1.187052e-03 -2.829713e-03 4.908616e-03 -9.009641e-02 -1.851874e-02 -1.689259e-02 -2.577241e-02 1.019019e-01 -3.608805e-02 1.689291e-01 -2.663767e-02 1.305180e-01 1.521325e-03 -6.971157e-05 -4.903315e-05 -1.385723e-02 2.261273e-03 -4.700832e-02 -1.731330e-03 -8.069959e-02 -5.246604e-04 -6.369808e-02 -2.327822e-03 -5.437245e-02 -4.085635e-02 2.128577e-01
<VARIANCE> 52
 2.765422e+02 4.864766e+03 8.235410e+03 1.278255e+05 1.020156e+04 8.101206e+05 1.830305e+04 1.173567e+06 1.780092e+04 1.214780e+06 1.278741e+04 1.112948e+06 2.349425e+02 4.268198e+03 5.103192e+03 7.849802e+04 5.508403e+03 5.380285e+05 8.727111e+03 8.877888e+05 6.699064e+03 8.971289e+05 4.967869e+03 7.650918e+05 1.165789e+05 8.222566e+05 2.000000e+00 2.000000e+00 5.485442e+00 2.477254e+01 2.067319e+01 2.228593e+02 5.501622e+01 6.062814e+02 5.649488e+01 6.178355e+02 3.699123e+01 4.359526e+02 2.000000e+00 2.000000e+00 4.072955e+00 8.310647e+00 5.998631e+00 7.614554e+01 1.482016e+01 1.881678e+02 1.406278e+01 2.068317e+02 9.051033e+00 1.502633e+02 1.479222e+02 1.242201e+03
<GCONST> 4.639010e+02
<STATE> 7
<MEAN> 52
 4.842945e+01 2.076754e+02 1.441682e+02 8.912534e+02 1.049731e+02 9.097172e+02 1.150875e+02 9.822312e+02 1.105191e+02 9.255963e+02 9.595657e+01 9.290664e+02 -5.393071e+01 2.058770e+02 -1.337631e+02 9.845237e+02 -7.886221e+01 1.302684e+03 -8.062390e+01 1.515608e+03 -6.503922e+01 1.380236e+03 -5.767976e+01 1.339368e+03 3.105069e+02 -4.544886e+02 -1.187052e-03 -2.829713e-03 4.908616e-03 -9.009641e-02 -1.851874e-02 -1.689259e-02 -2.577241e-02 1.019019e-01 -3.608805e-02 1.689291e-01 -2.663767e-02 1.305180e-01 1.521325e-03 -6.971157e-05 -4.903315e-05 -1.385723e-02 2.261273e-03 -4.700832e-02 -1.731330e-03 -8.069959e-02 -5.246604e-04 -6.369808e-02 -2.327822e-03 -5.437245e-02 -4.085635e-02 2.128577e-01
<VARIANCE> 52
 2.765422e+02 4.864766e+03 8.235410e+03 1.278255e+05 1.020156e+04 8.101206e+05 1.830305e+04 1.173567e+06 1.780092e+04 1.214780e+06 1.278741e+04 1.112948e+06 2.349425e+02 4.268198e+03 5.103192e+03 7.849802e+04 5.508403e+03 5.380285e+05 8.727111e+03 8.877888e+05 6.699064e+03 8.971289e+05 4.967869e+03 7.650918e+05 1.165789e+05 8.222566e+05 2.000000e+00 2.000000e+00 5.485442e+00 2.477254e+01 2.067319e+01 2.228593e+02 5.501622e+01 6.062814e+02 5.649488e+01 6.178355e+02 3.699123e+01 4.359526e+02 2.000000e+00 2.000000e+00 4.072955e+00 8.310647e+00 5.998631e+00 7.614554e+01 1.482016e+01 1.881678e+02 1.406278e+01 2.068317e+02 9.051033e+00 1.502633e+02 1.479222e+02 1.242201e+03
<GCONST> 4.639010e+02
<STATE> 8
<MEAN> 52
 4.842945e+01 2.076754e+02 1.441682e+02 8.912534e+02 1.049731e+02 9.097172e+02 1.150875e+02 9.822312e+02 1.105191e+02 9.255963e+02 9.595657e+01 9.290664e+02 -5.393071e+01 2.058770e+02 -1.337631e+02 9.845237e+02 -7.886221e+01 1.302684e+03 -8.062390e+01 1.515608e+03 -6.503922e+01 1.380236e+03 -5.767976e+01 1.339368e+03 3.105069e+02 -4.544886e+02 -1.187052e-03 -2.829713e-03 4.908616e-03 -9.009641e-02 -1.851874e-02 -1.689259e-02 -2.577241e-02 1.019019e-01 -3.608805e-02 1.689291e-01 -2.663767e-02 1.305180e-01 1.521325e-03 -6.971157e-05 -4.903315e-05 -1.385723e-02 2.261273e-03 -4.700832e-02 -1.731330e-03 -8.069959e-02 -5.246604e-04 -6.369808e-02 -2.327822e-03 -5.437245e-02 -4.085635e-02 2.128577e-01
<VARIANCE> 52
 2.765422e+02 4.864766e+03 8.235410e+03 1.278255e+05 1.020156e+04 8.101206e+05 1.830305e+04 1.173567e+06 1.780092e+04 1.214780e+06 1.278741e+04 1.112948e+06 2.349425e+02 4.268198e+03 5.103192e+03 7.849802e+04 5.508403e+03 5.380285e+05 8.727111e+03 8.877888e+05 6.699064e+03 8.971289e+05 4.967869e+03 7.650918e+05 1.165789e+05 8.222566e+05 2.000000e+00 2.000000e+00 5.485442e+00 2.477254e+01 2.067319e+01 2.228593e+02 5.501622e+01 6.062814e+02 5.649488e+01 6.178355e+02 3.699123e+01 4.359526e+02 2.000000e+00 2.000000e+00 4.072955e+00 8.310647e+00 5.998631e+00 7.614554e+01 1.482016e+01 1.881678e+02 1.406278e+01 2.068317e+02 9.051033e+00 1.502633e+02 1.479222e+02 1.242201e+03
<GCONST> 4.639010e+02
<STATE> 9
<MEAN> 52
 4.842945e+01 2.076754e+02 1.441682e+02 8.912534e+02 1.049731e+02 9.097172e+02 1.150875e+02 9.822312e+02 1.105191e+02 9.255963e+02 9.595657e+01 9.290664e+02 -5.393071e+01 2.058770e+02 -1.337631e+02 9.845237e+02 -7.886221e+01 1.302684e+03 -8.062390e+01 1.515608e+03 -6.503922e+01 1.380236e+03 -5.767976e+01 1.339368e+03 3.105069e+02 -4.544886e+02 -1.187052e-03 -2.829713e-03 4.908616e-03 -9.009641e-02 -1.851874e-02 -1.689259e-02 -2.577241e-02 1.019019e-01 -3.608805e-02 1.689291e-01 -2.663767e-02 1.305180e-01 1.521325e-03 -6.971157e-05 -4.903315e-05 -1.385723e-02 2.261273e-03 -4.700832e-02 -1.731330e-03 -8.069959e-02 -5.246604e-04 -6.369808e-02 -2.327822e-03 -5.437245e-02 -4.085635e-02 2.128577e-01
<VARIANCE> 52
 2.765422e+02 4.864766e+03 8.235410e+03 1.278255e+05 1.020156e+04 8.101206e+05 1.830305e+04 1.173567e+06 1.780092e+04 1.214780e+06 1.278741e+04 1.112948e+06 2.349425e+02 4.268198e+03 5.103192e+03 7.849802e+04 5.508403e+03 5.380285e+05 8.727111e+03 8.877888e+05 6.699064e+03 8.971289e+05 4.967869e+03 7.650918e+05 1.165789e+05 8.222566e+05 2.000000e+00 2.000000e+00 5.485442e+00 2.477254e+01 2.067319e+01 2.228593e+02 5.501622e+01 6.062814e+02 5.649488e+01 6.178355e+02 3.699123e+01 4.359526e+02 2.000000e+00 2.000000e+00 4.072955e+00 8.310647e+00 5.998631e+00 7.614554e+01 1.482016e+01 1.881678e+02 1.406278e+01 2.068317e+02 9.051033e+00 1.502633e+02 1.479222e+02 1.242201e+03
<GCONST> 4.639010e+02
<STATE> 10
<MEAN> 52
 4.842945e+01 2.076754e+02 1.441682e+02 8.912534e+02 1.049731e+02 9.097172e+02 1.150875e+02 9.822312e+02 1.105191e+02 9.255963e+02 9.595657e+01 9.290664e+02 -5.393071e+01 2.058770e+02 -1.337631e+02 9.845237e+02 -7.886221e+01 1.302684e+03 -8.062390e+01 1.515608e+03 -6.503922e+01 1.380236e+03 -5.767976e+01 1.339368e+03 3.105069e+02 -4.544886e+02 -1.187052e-03 -2.829713e-03 4.908616e-03 -9.009641e-02 -1.851874e-02 -1.689259e-02 -2.577241e-02 1.019019e-01 -3.608805e-02 1.689291e-01 -2.663767e-02 1.305180e-01 1.521325e-03 -6.971157e-05 -4.903315e-05 -1.385723e-02 2.261273e-03 -4.700832e-02 -1.731330e-03 -8.069959e-02 -5.246604e-04 -6.369808e-02 -2.327822e-03 -5.437245e-02 -4.085635e-02 2.128577e-01
<VARIANCE> 52
 2.765422e+02 4.864766e+03 8.235410e+03 1.278255e+05 1.020156e+04 8.101206e+05 1.830305e+04 1.173567e+06 1.780092e+04 1.214780e+06 1.278741e+04 1.112948e+06 2.349425e+02 4.268198e+03 5.103192e+03 7.849802e+04 5.508403e+03 5.380285e+05 8.727111e+03 8.877888e+05 6.699064e+03 8.971289e+05 4.967869e+03 7.650918e+05 1.165789e+05 8.222566e+05 2.000000e+00 2.000000e+00 5.485442e+00 2.477254e+01 2.067319e+01 2.228593e+02 5.501622e+01 6.062814e+02 5.649488e+01 6.178355e+02 3.699123e+01 4.359526e+02 2.000000e+00 2.000000e+00 4.072955e+00 8.310647e+00 5.998631e+00 7.614554e+01 1.482016e+01 1.881678e+02 1.406278e+01 2.068317e+02 9.051033e+00 1.502633e+02 1.479222e+02 1.242201e+03
<GCONST> 4.639010e+02
<STATE> 11
<MEAN> 52
 4.842945e+01 2.076754e+02 1.441682e+02 8.912534e+02 1.049731e+02 9.097172e+02 1.150875e+02 9.822312e+02 1.105191e+02 9.255963e+02 9.595657e+01 9.290664e+02 -5.393071e+01 2.058770e+02 -1.337631e+02 9.845237e+02 -7.886221e+01 1.302684e+03 -8.062390e+01 1.515608e+03 -6.503922e+01 1.380236e+03 -5.767976e+01 1.339368e+03 3.105069e+02 -4.544886e+02 -1.187052e-03 -2.829713e-03 4.908616e-03 -9.009641e-02 -1.851874e-02 -1.689259e-02 -2.577241e-02 1.019019e-01 -3.608805e-02 1.689291e-01 -2.663767e-02 1.305180e-01 1.521325e-03 -6.971157e-05 -4.903315e-05 -1.385723e-02 2.261273e-03 -4.700832e-02 -1.731330e-03 -8.069959e-02 -5.246604e-04 -6.369808e-02 -2.327822e-03 -5.437245e-02 -4.085635e-02 2.128577e-01
<VARIANCE> 52
 2.765422e+02 4.864766e+03 8.235410e+03 1.278255e+05 1.020156e+04 8.101206e+05 1.830305e+04 1.173567e+06 1.780092e+04 1.214780e+06 1.278741e+04 1.112948e+06 2.349425e+02 4.268198e+03 5.103192e+03 7.849802e+04 5.508403e+03 5.380285e+05 8.727111e+03 8.877888e+05 6.699064e+03 8.971289e+05 4.967869e+03 7.650918e+05 1.165789e+05 8.222566e+05 2.000000e+00 2.000000e+00 5.485442e+00 2.477254e+01 2.067319e+01 2.228593e+02 5.501622e+01 6.062814e+02 5.649488e+01 6.178355e+02 3.699123e+01 4.359526e+02 2.000000e+00 2.000000e+00 4.072955e+00 8.310647e+00 5.998631e+00 7.614554e+01 1.482016e+01 1.881678e+02 1.406278e+01 2.068317e+02 9.051033e+00 1.502633e+02 1.479222e+02 1.242201e+03
<GCONST> 4.639010e+02
<STATE> 12
<MEAN> 52
 4.842945e+01 2.076754e+02 1.441682e+02 8.912534e+02 1.049731e+02 9.097172e+02 1.150875e+02 9.822312e+02 1.105191e+02 9.255963e+02 9.595657e+01 9.290664e+02 -5.393071e+01 2.058770e+02 -1.337631e+02 9.845237e+02 -7.886221e+01 1.302684e+03 -8.062390e+01 1.515608e+03 -6.503922e+01 1.380236e+03 -5.767976e+01 1.339368e+03 3.105069e+02 -4.544886e+02 -1.187052e-03 -2.829713e-03 4.908616e-03 -9.009641e-02 -1.851874e-02 -1.689259e-02 -2.577241e-02 1.019019e-01 -3.608805e-02 1.689291e-01 -2.663767e-02 1.305180e-01 1.521325e-03 -6.971157e-05 -4.903315e-05 -1.385723e-02 2.261273e-03 -4.700832e-02 -1.731330e-03 -8.069959e-02 -5.246604e-04 -6.369808e-02 -2.327822e-03 -5.437245e-02 -4.085635e-02 2.128577e-01
<VARIANCE> 52
 2.765422e+02 4.864766e+03 8.235410e+03 1.278255e+05 1.020156e+04 8.101206e+05 1.830305e+04 1.173567e+06 1.780092e+04 1.214780e+06 1.278741e+04 1.112948e+06 2.349425e+02 4.268198e+03 5.103192e+03 7.849802e+04 5.508403e+03 5.380285e+05 8.727111e+03 8.877888e+05 6.699064e+03 8.971289e+05 4.967869e+03 7.650918e+05 1.165789e+05 8.222566e+05 2.000000e+00 2.000000e+00 5.485442e+00 2.477254e+01 2.067319e+01 2.228593e+02 5.501622e+01 6.062814e+02 5.649488e+01 6.178355e+02 3.699123e+01 4.359526e+02 2.000000e+00 2.000000e+00 4.072955e+00 8.310647e+00 5.998631e+00 7.614554e+01 1.482016e+01 1.881678e+02 1.406278e+01 2.068317e+02 9.051033e+00 1.502633e+02 1.479222e+02 1.242201e+03
<GCONST> 4.639010e+02
<STATE> 13
<MEAN> 52
 4.842945e+01 2.076754e+02 1.441682e+02 8.912534e+02 1.049731e+02 9.097172e+02 1.150875e+02 9.822312e+02 1.105191e+02 9.255963e+02 9.595657e+01 9.290664e+02 -5.393071e+01 2.058770e+02 -1.337631e+02 9.845237e+02 -7.886221e+01 1.302684e+03 -8.062390e+01 1.515608e+03 -6.503922e+01 1.380236e+03 -5.767976e+01 1.339368e+03 3.105069e+02 -4.544886e+02 -1.187052e-03 -2.829713e-03 4.908616e-03 -9.009641e-02 -1.851874e-02 -1.689259e-02 -2.577241e-02 1.019019e-01 -3.608805e-02 1.689291e-01 -2.663767e-02 1.305180e-01 1.521325e-03 -6.971157e-05 -4.903315e-05 -1.385723e-02 2.261273e-03 -4.700832e-02 -1.731330e-03 -8.069959e-02 -5.246604e-04 -6.369808e-02 -2.327822e-03 -5.437245e-02 -4.085635e-02 2.128577e-01
<VARIANCE> 52
 2.765422e+02 4.864766e+03 8.235410e+03 1.278255e+05 1.020156e+04 8.101206e+05 1.830305e+04 1.173567e+06 1.780092e+04 1.214780e+06 1.278741e+04 1.112948e+06 2.349425e+02 4.268198e+03 5.103192e+03 7.849802e+04 5.508403e+03 5.380285e+05 8.727111e+03 8.877888e+05 6.699064e+03 8.971289e+05 4.967869e+03 7.650918e+05 1.165789e+05 8.222566e+05 2.000000e+00 2.000000e+00 5.485442e+00 2.477254e+01 2.067319e+01 2.228593e+02 5.501622e+01 6.062814e+02 5.649488e+01 6.178355e+02 3.699123e+01 4.359526e+02 2.000000e+00 2.000000e+00 4.072955e+00 8.310647e+00 5.998631e+00 7.614554e+01 1.482016e+01 1.881678e+02 1.406278e+01 2.068317e+02 9.051033e+00 1.502633e+02 1.479222e+02 1.242201e+03
<GCONST> 4.639010e+02
<STATE> 14
<MEAN> 52
 4.842945e+01 2.076754e+02 1.441682e+02 8.912534e+02 1.049731e+02 9.097172e+02 1.150875e+02 9.822312e+02 1.105191e+02 9.255963e+02 9.595657e+01 9.290664e+02 -5.393071e+01 2.058770e+02 -1.337631e+02 9.845237e+02 -7.886221e+01 1.302684e+03 -8.062390e+01 1.515608e+03 -6.503922e+01 1.380236e+03 -5.767976e+01 1.339368e+03 3.105069e+02 -4.544886e+02 -1.187052e-03 -2.829713e-03 4.908616e-03 -9.009641e-02 -1.851874e-02 -1.689259e-02 -2.577241e-02 1.019019e-01 -3.608805e-02 1.689291e-01 -2.663767e-02 1.305180e-01 1.521325e-03 -6.971157e-05 -4.903315e-05 -1.385723e-02 2.261273e-03 -4.700832e-02 -1.731330e-03 -8.069959e-02 -5.246604e-04 -6.369808e-02 -2.327822e-03 -5.437245e-02 -4.085635e-02 2.128577e-01
<VARIANCE> 52
 2.765422e+02 4.864766e+03 8.235410e+03 1.278255e+05 1.020156e+04 8.101206e+05 1.830305e+04 1.173567e+06 1.780092e+04 1.214780e+06 1.278741e+04 1.112948e+06 2.349425e+02 4.268198e+03 5.103192e+03 7.849802e+04 5.508403e+03 5.380285e+05 8.727111e+03 8.877888e+05 6.699064e+03 8.971289e+05 4.967869e+03 7.650918e+05 1.165789e+05 8.222566e+05 2.000000e+00 2.000000e+00 5.485442e+00 2.477254e+01 2.067319e+01 2.228593e+02 5.501622e+01 6.062814e+02 5.649488e+01 6.178355e+02 3.699123e+01 4.359526e+02 2.000000e+00 2.000000e+00 4.072955e+00 8.310647e+00 5.998631e+00 7.614554e+01 1.482016e+01 1.881678e+02 1.406278e+01 2.068317e+02 9.051033e+00 1.502633e+02 1.479222e+02 1.242201e+03
<GCONST> 4.639010e+02
<STATE> 15
<MEAN> 52
 4.842945e+01 2.076754e+02 1.441682e+02 8.912534e+02 1.049731e+02 9.097172e+02 1.150875e+02 9.822312e+02 1.105191e+02 9.255963e+02 9.595657e+01 9.290664e+02 -5.393071e+01 2.058770e+02 -1.337631e+02 9.845237e+02 -7.886221e+01 1.302684e+03 -8.062390e+01 1.515608e+03 -6.503922e+01 1.380236e+03 -5.767976e+01 1.339368e+03 3.105069e+02 -4.544886e+02 -1.187052e-03 -2.829713e-03 4.908616e-03 -9.009641e-02 -1.851874e-02 -1.689259e-02 -2.577241e-02 1.019019e-01 -3.608805e-02 1.689291e-01 -2.663767e-02 1.305180e-01 1.521325e-03 -6.971157e-05 -4.903315e-05 -1.385723e-02 2.261273e-03 -4.700832e-02 -1.731330e-03 -8.069959e-02 -5.246604e-04 -6.369808e-02 -2.327822e-03 -5.437245e-02 -4.085635e-02 2.128577e-01
<VARIANCE> 52
 2.765422e+02 4.864766e+03 8.235410e+03 1.278255e+05 1.020156e+04 8.101206e+05 1.830305e+04 1.173567e+06 1.780092e+04 1.214780e+06 1.278741e+04 1.112948e+06 2.349425e+02 4.268198e+03 5.103192e+03 7.849802e+04 5.508403e+03 5.380285e+05 8.727111e+03 8.877888e+05 6.699064e+03 8.971289e+05 4.967869e+03 7.650918e+05 1.165789e+05 8.222566e+05 2.000000e+00 2.000000e+00 5.485442e+00 2.477254e+01 2.067319e+01 2.228593e+02 5.501622e+01 6.062814e+02 5.649488e+01 6.178355e+02 3.699123e+01 4.359526e+02 2.000000e+00 2.000000e+00 4.072955e+00 8.310647e+00 5.998631e+00 7.614554e+01 1.482016e+01 1.881678e+02 1.406278e+01 2.068317e+02 9.051033e+00 1.502633e+02 1.479222e+02 1.242201e+03
<GCONST> 4.639010e+02
<STATE> 16
<MEAN> 52
 4.842945e+01 2.076754e+02 1.441682e+02 8.912534e+02 1.049731e+02 9.097172e+02 1.150875e+02 9.822312e+02 1.105191e+02 9.255963e+02 9.595657e+01 9.290664e+02 -5.393071e+01 2.058770e+02 -1.337631e+02 9.845237e+02 -7.886221e+01 1.302684e+03 -8.062390e+01 1.515608e+03 -6.503922e+01 1.380236e+03 -5.767976e+01 1.339368e+03 3.105069e+02 -4.544886e+02 -1.187052e-03 -2.829713e-03 4.908616e-03 -9.009641e-02 -1.851874e-02 -1.689259e-02 -2.577241e-02 1.019019e-01 -3.608805e-02 1.689291e-01 -2.663767e-02 1.305180e-01 1.521325e-03 -6.971157e-05 -4.903315e-05 -1.385723e-02 2.261273e-03 -4.700832e-02 -1.731330e-03 -8.069959e-02 -5.246604e-04 -6.369808e-02 -2.327822e-03 -5.437245e-02 -4.085635e-02 2.128577e-01
<VARIANCE> 52
 2.765422e+02 4.864766e+03 8.235410e+03 1.278255e+05 1.020156e+04 8.101206e+05 1.830305e+04 1.173567e+06 1.780092e+04 1.214780e+06 1.278741e+04 1.112948e+06 2.349425e+02 4.268198e+03 5.103192e+03 7.849802e+04 5.508403e+03 5.380285e+05 8.727111e+03 8.877888e+05 6.699064e+03 8.971289e+05 4.967869e+03 7.650918e+05 1.165789e+05 8.222566e+05 2.000000e+00 2.000000e+00 5.485442e+00 2.477254e+01 2.067319e+01 2.228593e+02 5.501622e+01 6.062814e+02 5.649488e+01 6.178355e+02 3.699123e+01 4.359526e+02 2.000000e+00 2.000000e+00 4.072955e+00 8.310647e+00 5.998631e+00 7.614554e+01 1.482016e+01 1.881678e+02 1.406278e+01 2.068317e+02 9.051033e+00 1.502633e+02 1.479222e+02 1.242201e+03
<GCONST> 4.639010e+02
<STATE> 17
<MEAN> 52
 4.842945e+01 2.076754e+02 1.441682e+02 8.912534e+02 1.049731e+02 9.097172e+02 1.150875e+02 9.822312e+02 1.105191e+02 9.255963e+02 9.595657e+01 9.290664e+02 -5.393071e+01 2.058770e+02 -1.337631e+02 9.845237e+02 -7.886221e+01 1.302684e+03 -8.062390e+01 1.515608e+03 -6.503922e+01 1.380236e+03 -5.767976e+01 1.339368e+03 3.105069e+02 -4.544886e+02 -1.187052e-03 -2.829713e-03 4.908616e-03 -9.009641e-02 -1.851874e-02 -1.689259e-02 -2.577241e-02 1.019019e-01 -3.608805e-02 1.689291e-01 -2.663767e-02 1.305180e-01 1.521325e-03 -6.971157e-05 -4.903315e-05 -1.385723e-02 2.261273e-03 -4.700832e-02 -1.731330e-03 -8.069959e-02 -5.246604e-04 -6.369808e-02 -2.327822e-03 -5.437245e-02 -4.085635e-02 2.128577e-01
<VARIANCE> 52
 2.765422e+02 4.864766e+03 8.235410e+03 1.278255e+05 1.020156e+04 8.101206e+05 1.830305e+04 1.173567e+06 1.780092e+04 1.214780e+06 1.278741e+04 1.112948e+06 2.349425e+02 4.268198e+03 5.103192e+03 7.849802e+04 5.508403e+03 5.380285e+05 8.727111e+03 8.877888e+05 6.699064e+03 8.971289e+05 4.967869e+03 7.650918e+05 1.165789e+05 8.222566e+05 2.000000e+00 2.000000e+00 5.485442e+00 2.477254e+01 2.067319e+01 2.228593e+02 5.501622e+01 6.062814e+02 5.649488e+01 6.178355e+02 3.699123e+01 4.359526e+02 2.000000e+00 2.000000e+00 4.072955e+00 8.310647e+00 5.998631e+00 7.614554e+01 1.482016e+01 1.881678e+02 1.406278e+01 2.068317e+02 9.051033e+00 1.502633e+02 1.479222e+02 1.242201e+03
<GCONST> 4.639010e+02
<STATE> 18
<MEAN> 52
 4.842945e+01 2.076754e+02 1.441682e+02 8.912534e+02 1.049731e+02 9.097172e+02 1.150875e+02 9.822312e+02 1.105191e+02 9.255963e+02 9.595657e+01 9.290664e+02 -5.393071e+01 2.058770e+02 -1.337631e+02 9.845237e+02 -7.886221e+01 1.302684e+03 -8.062390e+01 1.515608e+03 -6.503922e+01 1.380236e+03 -5.767976e+01 1.339368e+03 3.105069e+02 -4.544886e+02 -1.187052e-03 -2.829713e-03 4.908616e-03 -9.009641e-02 -1.851874e-02 -1.689259e-02 -2.577241e-02 1.019019e-01 -3.608805e-02 1.689291e-01 -2.663767e-02 1.305180e-01 1.521325e-03 -6.971157e-05 -4.903315e-05 -1.385723e-02 2.261273e-03 -4.700832e-02 -1.731330e-03 -8.069959e-02 -5.246604e-04 -6.369808e-02 -2.327822e-03 -5.437245e-02 -4.085635e-02 2.128577e-01
<VARIANCE> 52
 2.765422e+02 4.864766e+03 8.235410e+03 1.278255e+05 1.020156e+04 8.101206e+05 1.830305e+04 1.173567e+06 1.780092e+04 1.214780e+06 1.278741e+04 1.112948e+06 2.349425e+02 4.268198e+03 5.103192e+03 7.849802e+04 5.508403e+03 5.380285e+05 8.727111e+03 8.877888e+05 6.699064e+03 8.971289e+05 4.967869e+03 7.650918e+05 1.165789e+05 8.222566e+05 2.000000e+00 2.000000e+00 5.485442e+00 2.477254e+01 2.067319e+01 2.228593e+02 5.501622e+01 6.062814e+02 5.649488e+01 6.178355e+02 3.699123e+01 4.359526e+02 2.000000e+00 2.000000e+00 4.072955e+00 8.310647e+00 5.998631e+00 7.614554e+01 1.482016e+01 1.881678e+02 1.406278e+01 2.068317e+02 9.051033e+00 1.502633e+02 1.479222e+02 1.242201e+03
<GCONST> 4.639010e+02
<STATE> 19
<MEAN> 52
 4.842945e+01 2.076754e+02 1.441682e+02 8.912534e+02 1.049731e+02 9.097172e+02 1.150875e+02 9.822312e+02 1.105191e+02 9.255963e+02 9.595657e+01 9.290664e+02 -5.393071e+01 2.058770e+02 -1.337631e+02 9.845237e+02 -7.886221e+01 1.302684e+03 -8.062390e+01 1.515608e+03 -6.503922e+01 1.380236e+03 -5.767976e+01 1.339368e+03 3.105069e+02 -4.544886e+02 -1.187052e-03 -2.829713e-03 4.908616e-03 -9.009641e-02 -1.851874e-02 -1.689259e-02 -2.577241e-02 1.019019e-01 -3.608805e-02 1.689291e-01 -2.663767e-02 1.305180e-01 1.521325e-03 -6.971157e-05 -4.903315e-05 -1.385723e-02 2.261273e-03 -4.700832e-02 -1.731330e-03 -8.069959e-02 -5.246604e-04 -6.369808e-02 -2.327822e-03 -5.437245e-02 -4.085635e-02 2.128577e-01
<VARIANCE> 52
 2.765422e+02 4.864766e+03 8.235410e+03 1.278255e+05 1.020156e+04 8.101206e+05 1.830305e+04 1.173567e+06 1.780092e+04 1.214780e+06 1.278741e+04 1.112948e+06 2.349425e+02 4.268198e+03 5.103192e+03 7.849802e+04 5.508403e+03 5.380285e+05 8.727111e+03 8.877888e+05 6.699064e+03 8.971289e+05 4.967869e+03 7.650918e+05 1.165789e+05 8.222566e+05 2.000000e+00 2.000000e+00 5.485442e+00 2.477254e+01 2.067319e+01 2.228593e+02 5.501622e+01 6.062814e+02 5.649488e+01 6.178355e+02 3.699123e+01 4.359526e+02 2.000000e+00 2.000000e+00 4.072955e+00 8.310647e+00 5.998631e+00 7.614554e+01 1.482016e+01 1.881678e+02 1.406278e+01 2.068317e+02 9.051033e+00 1.502633e+02 1.479222e+02 1.242201e+03
<GCONST> 4.639010e+02
<TRANSP> 20
 0.000000e+00 1.000000e+00 0.000000e+00 0.000000e+00 0.000000e+00 0.000000e+00 0.000000e+00 0.000000e+00 0.000000e+00 0.000000e+00 0.000000e+00 0.000000e+00 0.000000e+00 0.000000e+00 0.000000e+00 0.000000e+00 0.000000e+00 0.000000e+00 0.000000e+00 0.000000e+00
 0.000000e+00 6.000000e-01 4.000000e-01 0.000000e+00 0.000000e+00 0.000000e+00 0.000000e+00 0.000000e+00 0.000000e+00 0.000000e+00 0.000000e+00 0.000000e+00 0.000000e+00 0.000000e+00 0.000000e+00 0.000000e+00 0.000000e+00 0.000000e+00 0.000000e+00 0.000000e+00
 0.000000e+00 0.000000e+00 6.000000e-01 4.000000e-01 0.000000e+00 0.000000e+00 0.000000e+00 0.000000e+00 0.000000e+00 0.000000e+00 0.000000e+00 0.000000e+00 0.000000e+00 0.000000e+00 0.000000e+00 0.000000e+00 0.000000e+00 0.000000e+00 0.000000e+00 0.000000e+00
 0.000000e+00 0.000000e+00 0.000000e+00 6.000000e-01 4.000000e-01 0.000000e+00 0.000000e+00 0.000000e+00 0.000000e+00 0.000000e+00 0.000000e+00 0.000000e+00 0.000000e+00 0.000000e+00 0.000000e+00 0.000000e+00 0.000000e+00 0.000000e+00 0.000000e+00 0.000000e+00
 0.000000e+00 0.000000e+00 0.000000e+00 0.000000e+00 6.000000e-01 4.000000e-01 0.000000e+00 0.000000e+00 0.000000e+00 0.000000e+00 0.000000e+00 0.000000e+00 0.000000e+00 0.000000e+00 0.000000e+00 0.000000e+00 0.000000e+00 0.000000e+00 0.000000e+00 0.000000e+00
 0.000000e+00 0.000000e+00 0.000000e+00 0.000000e+00 0.000000e+00 6.000000e-01 4.000000e-01 0.000000e+00 0.000000e+00 0.000000e+00 0.000000e+00 0.000000e+00 0.000000e+00 0.000000e+00 0.000000e+00 0.000000e+00 0.000000e+00 0.000000e+00 0.000000e+00 0.000000e+00
 0.000000e+00 0.000000e+00 0.000000e+00 0.000000e+00 0.000000e+00 0.000000e+00 6.000000e-01 4.000000e-01 0.000000e+00 0.000000e+00 0.000000e+00 0.000000e+00 0.000000e+00 0.000000e+00 0.000000e+00 0.000000e+00 0.000000e+00 0.000000e+00 0.000000e+00 0.000000e+00
 0.000000e+00 0.000000e+00 0.000000e+00 0.000000e+00 0.000000e+00 0.000000e+00 0.000000e+00 6.000000e-01 4.000000e-01 0.000000e+00 0.000000e+00 0.000000e+00 0.000000e+00 0.000000e+00 0.000000e+00 0.000000e+00 0.000000e+00 0.000000e+00 0.000000e+00 0.000000e+00
 0.000000e+00 0.000000e+00 0.000000e+00 0.000000e+00 0.000000e+00 0.000000e+00 0.000000e+00 0.000000e+00 6.000000e-01 4.000000e-01 0.000000e+00 0.000000e+00 0.000000e+00 0.000000e+00 0.000000e+00 0.000000e+00 0.000000e+00 0.000000e+00 0.000000e+00 0.000000e+00
 0.000000e+00 0.000000e+00 0.000000e+00 0.000000e+00 0.000000e+00 0.000000e+00 0.000000e+00 0.000000e+00 0.000000e+00 6.000000e-01 4.000000e-01 0.000000e+00 0.000000e+00 0.000000e+00 0.000000e+00 0.000000e+00 0.000000e+00 0.000000e+00 0.000000e+00 0.000000e+00
 0.000000e+00 0.000000e+00 0.000000e+00 0.000000e+00 0.000000e+00 0.000000e+00 0.000000e+00 0.000000e+00 0.000000e+00 0.000000e+00 6.000000e-01 4.000000e-01 0.000000e+00 0.000000e+00 0.000000e+00 0.000000e+00 0.000000e+00 0.000000e+00 0.000000e+00 0.000000e+00
 0.000000e+00 0.000000e+00 0.000000e+00 0.000000e+00 0.000000e+00 0.000000e+00 0.000000e+00 0.000000e+00 0.000000e+00 0.000000e+00 0.000000e+00 6.000000e-01 4.000000e-01 0.000000e+00 0.000000e+00 0.000000e+00 0.000000e+00 0.000000e+00 0.000000e+00 0.000000e+00
 0.000000e+00 0.000000e+00 0.000000e+00 0.000000e+00 0.000000e+00 0.000000e+00 0.000000e+00 0.000000e+00 0.000000e+00 0.000000e+00 0.000000e+00 0.000000e+00 6.000000e-01 4.000000e-01 0.000000e+00 0.000000e+00 0.000000e+00 0.000000e+00 0.000000e+00 0.000000e+00
 0.000000e+00 0.000000e+00 0.000000e+00 0.000000e+00 0.000000e+00 0.000000e+00 0.000000e+00 0.000000e+00 0.000000e+00 0.000000e+00 0.000000e+00 0.000000e+00 0.000000e+00 6.000000e-01 4.000000e-01 0.000000e+00 0.000000e+00 0.000000e+00 0.000000e+00 0.000000e+00
 0.000000e+00 0.000000e+00 0.000000e+00 0.000000e+00 0.000000e+00 0.000000e+00 0.000000e+00 0.000000e+00 0.000000e+00 0.000000e+00 0.000000e+00 0.000000e+00 0.000000e+00 0.000000e+00 6.000000e-01 4.000000e-01 0.000000e+00 0.000000e+00 0.000000e+00 0.000000e+00
 0.000000e+00 0.000000e+00 0.000000e+00 0.000000e+00 0.000000e+00 0.000000e+00 0.000000e+00 0.000000e+00 0.000000e+00 0.000000e+00 0.000000e+00 0.000000e+00 0.000000e+00 0.000000e+00 0.000000e+00 6.000000e-01 4.000000e-01 0.000000e+00 0.000000e+00 0.000000e+00
 0.000000e+00 0.000000e+00 0.000000e+00 0.000000e+00 0.000000e+00 0.000000e+00 0.000000e+00 0.000000e+00 0.000000e+00 0.000000e+00 0.000000e+00 0.000000e+00 0.000000e+00 0.000000e+00 0.000000e+00 0.000000e+00 6.000000e-01 4.000000e-01 0.000000e+00 0.000000e+00
 0.000000e+00 0.000000e+00 0.000000e+00 0.000000e+00 0.000000e+00 0.000000e+00 0.000000e+00 0.000000e+00 0.000000e+00 0.000000e+00 0.000000e+00 0.000000e+00 0.000000e+00 0.000000e+00 0.000000e+00 0.000000e+00 0.000000e+00 6.000000e-01 4.000000e-01 0.000000e+00
 0.000000e+00 0.000000e+00 0.000000e+00 0.000000e+00 0.000000e+00 0.000000e+00 0.000000e+00 0.000000e+00 0.000000e+00 0.000000e+00 0.000000e+00 0.000000e+00 0.000000e+00 0.000000e+00 0.000000e+00 0.000000e+00 0.000000e+00 0.000000e+00 6.000000e-01 4.000000e-01
 0.000000e+00 0.000000e+00 0.000000e+00 0.000000e+00 0.000000e+00 0.000000e+00 0.000000e+00 0.000000e+00 0.000000e+00 0.000000e+00 0.000000e+00 0.000000e+00 0.000000e+00 0.000000e+00 0.000000e+00 0.000000e+00 0.000000e+00 0.000000e+00 0.000000e+00 0.000000e+00
<ENDHMM>