~o
<STREAMINFO> 1 52
<VECSIZE> 52<NULLD><USER><DIAGC>
~h "box"
<BEGINHMM>
<NUMSTATES> 20
<STATE> 2
<MEAN> 52
 4.881110e+01 2.226889e+02 1.350749e+02 9.662303e+02 1.075159e+02 1.012495e+03 1.199173e+02 1.099393e+03 1.157547e+02 1.028865e+03 9.968736e+01 1.026139e+03 -5.569957e+01 2.197821e+02 -1.283680e+02 1.058995e+03 -7.457156e+01 1.431086e+03 -7.465134e+01 1.669155e+03 -5.971353e+01 1.516784e+03 -5.291323e+01 1.464392e+03 3.069274e+02 -4.745756e+02 -5.397332e-04 -2.793805e-03 9.511174e-03 -9.053034e-02 1.730080e-04 -3.960278e-02 6.566020e-03 6.701797e-02 -2.846360e-03 1.347721e-01 5.918550e-04 1.004297e-01 8.073380e-04 3.456064e-04 -2.623133e-03 -7.529396e-03 1.247213e-03 -3.633055e-02 -1.790012e-03 -6.786320e-02 -8.082377e-04 -5.861120e-02 -2.802611e-03 -4.912774e-02 1.769205e-03 1.610642e-01
<VARIANCE> 52
 3.091333e+02 6.325813e+03 7.372217e+03 1.588947e+05 1.065563e+04 9.188286e+05 1.940224e+04 1.337141e+06 1.886616e+04 1.363724e+06 1.346029e+04 1.244770e+06 3.286339e+02 5.710759e+03 4.489622e+03 1.086849e+05 5.324020e+03 6.188287e+05 8.320116e+03 1.010711e+06 6.401882e+03 1.011302e+06 4.771930e+03 8.601014e+05 1.139169e+05 9.123842e+05 2.000000e+00 2.000000e+00 2.000000e+00 2.125975e+01 1.949562e+01 1.673715e+02 5.393263e+01 4.823176e+02 5.431783e+01 5.057314e+02 3.509014e+01 3.555723e+02 2.000000e+00 2.000000e+00 2.000000e+00 2.939462e+00 5.146348e+00 4.870392e+01 1.364441e+01 1.423288e+02 1.317418e+01 1.765863e+02 8.411011e+00 1.254575e+02 1.352310e+02 7.342692e+02
<GCONST> 4.602644e+02
<STATE> 3
<MEAN> 52
 4.881110e+01 2.226889e+02 1.350749e+02 9.662303e+02 1.075159e+02 1.012495e+03 1.199173e+02 1.099393e+03 1.157547e+02 1.028865e+03 9.968736e+01 1.026139e+03 -5.569957e+01 2.197821e+02 -1.283680e+02 1.058995e+03 -7.457156e+01 1.431086e+03 -7.465134e+01 1.669155e+03 -5.971353e+01 1.516784e+03 -5.291323e+01 1.464392e+03 3.069274e+02 -4.745756e+02 -5.397332e-04 -2.793805e-03 9.511174e-03 -9.053034e-02 1.730080e-04 -3.960278e-02 6.566020e-03 6.701797e-02 -2.846360e-03 1.347721e-01 5.918550e-04 1.004297e-01 8.073380e-04 3.456064e-04 -2.623133e-03 -7.529396e-03 1.247213e-03 -3.633055e-02 -1.790012e-03 -6.786320e-02 -8.082377e-04 -5.861120e-02 -2.802611e-03 -4.912774e-02 1.769205e-03 1.610642e-01
<VARIANCE> 52
 3.091333e+02 6.325813e+03 7.372217e+03 1.588947e+05 1.065563e+04 9.188286e+05 1.940224e+04 1.337141e+06 1.886616e+04 1.363724e+06 1.346029e+04 1.244770e+06 3.286339e+02 5.710759e+03 4.489622e+03 1.086849e+05 5.324020e+03 6.188287e+05 8.320116e+03 1.010711e+06 6.401882e+03 1.011302e+06 4.771930e+03 8.601014e+05 1.139169e+05 9.123842e+05 2.000000e+00 2.000000e+00 2.000000e+00 2.125975e+01 1.949562e+01 1.673715e+02 5.393263e+01 4.823176e+02 5.431783e+01 5.057314e+02 3.509014e+01 3.555723e+02 2.000000e+00 2.000000e+00 2.000000e+00 2.939462e+00 5.146348e+00 4.870392e+01 1.364441e+01 1.423288e+02 1.317418e+01 1.765863e+02 8.411011e+00 1.254575e+02 1.352310e+02 7.342692e+02
<GCONST> 4.602644e+02
<STATE> 4
<MEAN> 52
 4.881110e+01 2.226889e+02 1.350749e+02 9.662303e+02 1.075159e+02 1.012495e+03 1.199173e+02 1.099393e+03 1.157547e+02 1.028865e+03 9.968736e+01 1.026139e+03 -5.569957e+01 2.197821e+02 -1.283680e+02 1.058995e+03 -7.457156e+01 1.431086e+03 -7.465134e+01 1.669155e+03 -5.971353e+01 1.516784e+03 -5.291323e+01 1.464392e+03 3.069274e+02 -4.745756e+02 -5.397332e-04 -2.793805e-03 9.511174e-03 -9.053034e-02 1.730080e-04 -3.960278e-02 6.566020e-03 6.701797e-02 -2.846360e-03 1.347721e-01 5.918550e-04 1.004297e-01 8.073380e-04 3.456064e-04 -2.623133e-03 -7.529396e-03 1.247213e-03 -3.633055e-02 -1.790012e-03 -6.786320e-02 -8.082377e-04 -5.861120e-02 -2.802611e-03 -4.912774e-02 1.769205e-03 1.610642e-01
<VARIANCE> 52
 3.091333e+02 6.325813e+03 7.372217e+03 1.588947e+05 1.065563e+04 9.188286e+05 1.940224e+04 1.337141e+06 1.886616e+04 1.363724e+06 1.346029e+04 1.244770e+06 3.286339e+02 5.710759e+03 4.489622e+03 1.086849e+05 5.324020e+03 6.188287e+05 8.320116e+03 1.010711e+06 6.401882e+03 1.011302e+06 4.771930e+03 8.601014e+05 1.139169e+05 9.123842e+05 2.000000e+00 2.000000e+00 2.000000e+00 2.125975e+01 1.949562e+01 1.673715e+02 5.393263e+01 4.823176e+02 5.431783e+01 5.057314e+02 3.509014e+01 3.555723e+02 2.000000e+00 2.000000e+00 2.000000e+00 2.939462e+00 5.146348e+00 4.870392e+01 1.364441e+01 1.423288e+02 1.317418e+01 1.765863e+02 8.411011e+00 1.254575e+02 1.352310e+02 7.342692e+02
<GCONST> 4.602644e+02
<STATE> 5
<MEAN> 52
 4.881110e+01 2.226889e+02 1.350749e+02 9.662303e+02 1.075159e+02 1.012495e+03 1.199173e+02 1.099393e+03 1.157547e+02 1.028865e+03 9.968736e+01 1.026139e+03 -5.569957e+01 2.197821e+02 -1.283680e+02 1.058995e+03 -7.457156e+01 1.431086e+03 -7.465134e+01 1.669155e+03 -5.971353e+01 1.516784e+03 -5.291323e+01 1.464392e+03 3.069274e+02 -4.745756e+02 -5.397332e-04 -2.793805e-03 9.511174e-03 -9.053034e-02 1.730080e-04 -3.960278e-02 6.566020e-03 6.701797e-02 -2.846360e-03 1.347721e-01 5.918550e-04 1.004297e-01 8.073380e-04 3.456064e-04 -2.623133e-03 -7.529396e-03 1.247213e-03 -3.633055e-02 -1.790012e-03 -6.786320e-02 -8.082377e-04 -5.861120e-02 -2.802611e-03 -4.912774e-02 1.769205e-03 1.610642e-01
<VARIANCE> 52
 3.091333e+02 6.325813e+03 7.372217e+03 1.588947e+05 1.065563e+04 9.188286e+05 1.940224e+04 1.337141e+06 1.886616e+04 1.363724e+06 1.346029e+04 1.244770e+06 3.286339e+02 5.710759e+03 4.489622e+03 1.086849e+05 5.324020e+03 6.188287e+05 8.320116e+03 1.010711e+06 6.401882e+03 1.011302e+06 4.771930e+03 8.601014e+05 1.139169e+05 9.123842e+05 2.000000e+00 2.000000e+00 2.000000e+00 2.125975e+01 1.949562e+01 1.673715e+02 5.393263e+01 4.823176e+02 5.431783e+01 5.057314e+02 3.509014e+01 3.555723e+02 2.000000e+00 2.000000e+00 2.000000e+00 2.939462e+00 5.146348e+00 4.870392e+01 1.364441e+01 1.423288e+02 1.317418e+01 1.765863e+02 8.411011e+00 1.254575e+02 1.352310e+02 7.342692e+02
<GCONST> 4.602644e+02
<STATE> 6
<MEAN> 52
 4.881110e+01 2.226889e+02 1.350749e+02 9.662303e+02 1.075159e+02 1.012495e+03 1.199173e+02 1.099393e+03 1.157547e+02 1.028865e+03 9.968736e+01 1.026139e+03 -5.569957e+01 2.197821e+02 -1.283680e+02 1.058995e+03 -7.457156e+01 1.431086e+03 -7.465134e+01 1.669155e+03 -5.971353e+01 1.516784e+03 -5.291323e+01 1.464392e+03 3.069274e+02 -4.745756e+02 -5.397332e-04 -2.793805e-03 9.511174e-03 -9.053034e-02 1.730080e-04 -3.960278e-02 6.566020e-03 6.701797e-02 -2.846360e-03 1.347721e-01 5.918550e-04 1.004297e-01 8.073380e-04 3.456064e-04 -2.623133e-03 -7.529396e-03 1.247213e-03 -3.633055e-02 -1.790012e-03 -6.786320e-02 -8.082377e-04 -5.861120e-02 -2.802611e-03 -4.912774e-02 1.769205e-03 1.610642e-01
<VARIANCE> 52
 3.091333e+02 6.325813e+03 7.372217e+03 1.588947e+05 1.065563e+04 9.188286e+05 1.940224e+04 1.337141e+06 1.886616e+04 1.363724e+06 1.346029e+04 1.244770e+06 3.286339e+02 5.710759e+03 4.489622e+03 1.086849e+05 5.324020e+03 6.188287e+05 8.320116e+03 1.010711e+06 6.401882e+03 1.011302e+06 4.771930e+03 8.601014e+05 1.139169e+05 9.123842e+05 2.000000e+00 2.000000e+00 2.000000e+00 2.125975e+01 1.949562e+01 1.673715e+02 5.393263e+01 4.823176e+02 5.431783e+01 5.057314e+02 3.509014e+01 3.555723e+02 2.000000e+00 2.000000e+00 2.000000e+00 2.939462e+00 5.146348e+00 4.870392e+01 1.364441e+01 1.423288e+02 1.317418e+01 1.765863e+02 8.411011e+00 1.254575e+02 1.352310e+02 7.342692e+02
<GCONST> 4.602644e+02
<STATE> 7
<MEAN> 52
 4.881110e+01 2.226889e+02 1.350749e+02 9.662303e+02 1.075159e+02 1.012495e+03 1.199173e+02 1.099393e+03 1.157547e+02 1.028865e+03 9.968736e+01 1.026139e+03 -5.569957e+01 2.197821e+02 -1.283680e+02 1.058995e+03 -7.457156e+01 1.431086e+03 -7.465134e+01 1.669155e+03 -5.971353e+01 1.516784e+03 -5.291323e+01 1.464392e+03 3.069274e+02 -4.745756e+02 -5.397332e-04 -2.793805e-03 9.511174e-03 -9.053034e-02 1.730080e-04 -3.960278e-02 6.566020e-03 6.701797e-02 -2.846360e-03 1.347721e-01 5.918550e-04 1.004297e-01 8.073380e-04 3.456064e-04 -2.623133e-03 -7.529396e-03 1.247213e-03 -3.633055e-02 -1.790012e-03 -6.786320e-02 -8.082377e-04 -5.861120e-02 -2.802611e-03 -4.912774e-02 1.769205e-03 1.610642e-01
<VARIANCE> 52
 3.091333e+02 6.325813e+03 7.372217e+03 1.588947e+05 1.065563e+04 9.188286e+05 1.940224e+04 1.337141e+06 1.886616e+04 1.363724e+06 1.346029e+04 1.244770e+06 3.286339e+02 5.710759e+03 4.489622e+03 1.086849e+05 5.324020e+03 6.188287e+05 8.320116e+03 1.010711e+06 6.401882e+03 1.011302e+06 4.771930e+03 8.601014e+05 1.139169e+05 9.123842e+05 2.000000e+00 2.000000e+00 2.000000e+00 2.125975e+01 1.949562e+01 1.673715e+02 5.393263e+01 4.823176e+02 5.431783e+01 5.057314e+02 3.509014e+01 3.555723e+02 2.000000e+00 2.000000e+00 2.000000e+00 2.939462e+00 5.146348e+00 4.870392e+01 1.364441e+01 1.423288e+02 1.317418e+01 1.765863e+02 8.411011e+00 1.254575e+02 1.352310e+02 7.342692e+02
<GCONST> 4.602644e+02
<STATE> 8
<MEAN> 52
 4.881110e+01 2.226889e+02 1.350749e+02 9.662303e+02 1.075159e+02 1.012495e+03 1.199173e+02 1.099393e+03 1.157547e+02 1.028865e+03 9.968736e+01 1.026139e+03 -5.569957e+01 2.197821e+02 -1.283680e+02 1.058995e+03 -7.457156e+01 1.431086e+03 -7.465134e+01 1.669155e+03 -5.971353e+01 1.516784e+03 -5.291323e+01 1.464392e+03 3.069274e+02 -4.745756e+02 -5.397332e-04 -2.793805e-03 9.511174e-03 -9.053034e-02 1.730080e-04 -3.960278e-02 6.566020e-03 6.701797e-02 -2.846360e-03 1.347721e-01 5.918550e-04 1.004297e-01 8.073380e-04 3.456064e-04 -2.623133e-03 -7.529396e-03 1.247213e-03 -3.633055e-02 -1.790012e-03 -6.786320e-02 -8.082377e-04 -5.861120e-02 -2.802611e-03 -4.912774e-02 1.769205e-03 1.610642e-01
<VARIANCE> 52
 3.091333e+02 6.325813e+03 7.372217e+03 1.588947e+05 1.065563e+04 9.188286e+05 1.940224e+04 1.337141e+06 1.886616e+04 1.363724e+06 1.346029e+04 1.244770e+06 3.286339e+02 5.710759e+03 4.489622e+03 1.086849e+05 5.324020e+03 6.188287e+05 8.320116e+03 1.010711e+06 6.401882e+03 1.011302e+06 4.771930e+03 8.601014e+05 1.139169e+05 9.123842e+05 2.000000e+00 2.000000e+00 2.000000e+00 2.125975e+01 1.949562e+01 1.673715e+02 5.393263e+01 4.823176e+02 5.431783e+01 5.057314e+02 3.509014e+01 3.555723e+02 2.000000e+00 2.000000e+00 2.000000e+00 2.939462e+00 5.146348e+00 4.870392e+01 1.364441e+01 1.423288e+02 1.317418e+01 1.765863e+02 8.411011e+00 1.254575e+02 1.352310e+02 7.342692e+02
<GCONST> 4.602644e+02
<STATE> 9
<MEAN> 52
 4.881110e+01 2.226889e+02 1.350749e+02 9.662303e+02 1.075159e+02 1.012495e+03 1.199173e+02 1.099393e+03 1.157547e+02 1.028865e+03 9.968736e+01 1.026139e+03 -5.569957e+01 2.197821e+02 -1.283680e+02 1.058995e+03 -7.457156e+01 1.431086e+03 -7.465134e+01 1.669155e+03 -5.971353e+01 1.516784e+03 -5.291323e+01 1.464392e+03 3.069274e+02 -4.745756e+02 -5.397332e-04 -2.793805e-03 9.511174e-03 -9.053034e-02 1.730080e-04 -3.960278e-02 6.566020e-03 6.701797e-02 -2.846360e-03 1.347721e-01 5.918550e-04 1.004297e-01 8.073380e-04 3.456064e-04 -2.623133e-03 -7.529396e-03 1.247213e-03 -3.633055e-02 -1.790012e-03 -6.786320e-02 -8.082377e-04 -5.861120e-02 -2.802611e-03 -4.912774e-02 1.769205e-03 1.610642e-01
<VARIANCE> 52
 3.091333e+02 6.325813e+03 7.372217e+03 1.588947e+05 1.065563e+04 9.188286e+05 1.940224e+04 1.337141e+06 1.886616e+04 1.363724e+06 1.346029e+04 1.244770e+06 3.286339e+02 5.710759e+03 4.489622e+03 1.086849e+05 5.324020e+03 6.188287e+05 8.320116e+03 1.010711e+06 6.401882e+03 1.011302e+06 4.771930e+03 8.601014e+05 1.139169e+05 9.123842e+05 2.000000e+00 2.000000e+00 2.000000e+00 2.125975e+01 1.949562e+01 1.673715e+02 5.393263e+01 4.823176e+02 5.431783e+01 5.057314e+02 3.509014e+01 3.555723e+02 2.000000e+00 2.000000e+00 2.000000e+00 2.939462e+00 5.146348e+00 4.870392e+01 1.364441e+01 1.423288e+02 1.317418e+01 1.765863e+02 8.411011e+00 1.254575e+02 1.352310e+02 7.342692e+02
<GCONST> 4.602644e+02
<STATE> 10
<MEAN> 52
 4.881110e+01 2.226889e+02 1.350749e+02 9.662303e+02 1.075159e+02 1.012495e+03 1.199173e+02 1.099393e+03 1.157547e+02 1.028865e+03 9.968736e+01 1.026139e+03 -5.569957e+01 2.197821e+02 -1.283680e+02 1.058995e+03 -7.457156e+01 1.431086e+03 -7.465134e+01 1.669155e+03 -5.971353e+01 1.516784e+03 -5.291323e+01 1.464392e+03 3.069274e+02 -4.745756e+02 -5.397332e-04 -2.793805e-03 9.511174e-03 -9.053034e-02 1.730080e-04 -3.960278e-02 6.566020e-03 6.701797e-02 -2.846360e-03 1.347721e-01 5.918550e-04 1.004297e-01 8.073380e-04 3.456064e-04 -2.623133e-03 -7.529396e-03 1.247213e-03 -3.633055e-02 -1.790012e-03 -6.786320e-02 -8.082377e-04 -5.861120e-02 -2.802611e-03 -4.912774e-02 1.769205e-03 1.610642e-01
<VARIANCE> 52
 3.091333e+02 6.325813e+03 7.372217e+03 1.588947e+05 1.065563e+04 9.188286e+05 1.940224e+04 1.337141e+06 1.886616e+04 1.363724e+06 1.346029e+04 1.244770e+06 3.286339e+02 5.710759e+03 4.489622e+03 1.086849e+05 5.324020e+03 6.188287e+05 8.320116e+03 1.010711e+06 6.401882e+03 1.011302e+06 4.771930e+03 8.601014e+05 1.139169e+05 9.123842e+05 2.000000e+00 2.000000e+00 2.000000e+00 2.125975e+01 1.949562e+01 1.673715e+02 5.393263e+01 4.823176e+02 5.431783e+01 5.057314e+02 3.509014e+01 3.555723e+02 2.000000e+00 2.000000e+00 2.000000e+00 2.939462e+00 5.146348e+00 4.870392e+01 1.364441e+01 1.423288e+02 1.317418e+01 1.765863e+02 8.411011e+00 1.254575e+02 1.352310e+02 7.342692e+02
<GCONST> 4.602644e+02
<STATE> 11
<MEAN> 52
 4.881110e+01 2.226889e+02 1.350749e+02 9.662303e+02 1.075159e+02 1.012495e+03 1.199173e+02 1.099393e+03 1.157547e+02 1.028865e+03 9.968736e+01 1.026139e+03 -5.569957e+01 2.197821e+02 -1.283680e+02 1.058995e+03 -7.457156e+01 1.431086e+03 -7.465134e+01 1.669155e+03 -5.971353e+01 1.516784e+03 -5.291323e+01 1.464392e+03 3.069274e+02 -4.745756e+02 -5.397332e-04 -2.793805e-03 9.511174e-03 -9.053034e-02 1.730080e-04 -3.960278e-02 6.566020e-03 6.701797e-02 -2.846360e-03 1.347721e-01 5.918550e-04 1.004297e-01 8.073380e-04 3.456064e-04 -2.623133e-03 -7.529396e-03 1.247213e-03 -3.633055e-02 -1.790012e-03 -6.786320e-02 -8.082377e-04 -5.861120e-02 -2.802611e-03 -4.912774e-02 1.769205e-03 1.610642e-01
<VARIANCE> 52
 3.091333e+02 6.325813e+03 7.372217e+03 1.588947e+05 1.065563e+04 9.188286e+05 1.940224e+04 1.337141e+06 1.886616e+04 1.363724e+06 1.346029e+04 1.244770e+06 3.286339e+02 5.710759e+03 4.489622e+03 1.086849e+05 5.324020e+03 6.188287e+05 8.320116e+03 1.010711e+06 6.401882e+03 1.011302e+06 4.771930e+03 8.601014e+05 1.139169e+05 9.123842e+05 2.000000e+00 2.000000e+00 2.000000e+00 2.125975e+01 1.949562e+01 1.673715e+02 5.393263e+01 4.823176e+02 5.431783e+01 5.057314e+02 3.509014e+01 3.555723e+02 2.000000e+00 2.000000e+00 2.000000e+00 2.939462e+00 5.146348e+00 4.870392e+01 1.364441e+01 1.423288e+02 1.317418e+01 1.765863e+02 8.411011e+00 1.254575e+02 1.352310e+02 7.342692e+02
<GCONST> 4.602644e+02
<STATE> 12
<MEAN> 52
 4.881110e+01 2.226889e+02 1.350749e+02 9.662303e+02 1.075159e+02 1.012495e+03 1.199173e+02 1.099393e+03 1.157547e+02 1.028865e+03 9.968736e+01 1.026139e+03 -5.569957e+01 2.197821e+02 -1.283680e+02 1.058995e+03 -7.457156e+01 1.431086e+03 -7.465134e+01 1.669155e+03 -5.971353e+01 1.516784e+03 -5.291323e+01 1.464392e+03 3.069274e+02 -4.745756e+02 -5.397332e-04 -2.793805e-03 9.511174e-03 -9.053034e-02 1.730080e-04 -3.960278e-02 6.566020e-03 6.701797e-02 -2.846360e-03 1.347721e-01 5.918550e-04 1.004297e-01 8.073380e-04 3.456064e-04 -2.623133e-03 -7.529396e-03 1.247213e-03 -3.633055e-02 -1.790012e-03 -6.786320e-02 -8.082377e-04 -5.861120e-02 -2.802611e-03 -4.912774e-02 1.769205e-03 1.610642e-01
<VARIANCE> 52
 3.091333e+02 6.325813e+03 7.372217e+03 1.588947e+05 1.065563e+04 9.188286e+05 1.940224e+04 1.337141e+06 1.886616e+04 1.363724e+06 1.346029e+04 1.244770e+06 3.286339e+02 5.710759e+03 4.489622e+03 1.086849e+05 5.324020e+03 6.188287e+05 8.320116e+03 1.010711e+06 6.401882e+03 1.011302e+06 4.771930e+03 8.601014e+05 1.139169e+05 9.123842e+05 2.000000e+00 2.000000e+00 2.000000e+00 2.125975e+01 1.949562e+01 1.673715e+02 5.393263e+01 4.823176e+02 5.431783e+01 5.057314e+02 3.509014e+01 3.555723e+02 2.000000e+00 2.000000e+00 2.000000e+00 2.939462e+00 5.146348e+00 4.870392e+01 1.364441e+01 1.423288e+02 1.317418e+01 1.765863e+02 8.411011e+00 1.254575e+02 1.352310e+02 7.342692e+02
<GCONST> 4.602644e+02
<STATE> 13
<MEAN> 52
 4.881110e+01 2.226889e+02 1.350749e+02 9.662303e+02 1.075159e+02 1.012495e+03 1.199173e+02 1.099393e+03 1.157547e+02 1.028865e+03 9.968736e+01 1.026139e+03 -5.569957e+01 2.197821e+02 -1.283680e+02 1.058995e+03 -7.457156e+01 1.431086e+03 -7.465134e+01 1.669155e+03 -5.971353e+01 1.516784e+03 -5.291323e+01 1.464392e+03 3.069274e+02 -4.745756e+02 -5.397332e-04 -2.793805e-03 9.511174e-03 -9.053034e-02 1.730080e-04 -3.960278e-02 6.566020e-03 6.701797e-02 -2.846360e-03 1.347721e-01 5.918550e-04 1.004297e-01 8.073380e-04 3.456064e-04 -2.623133e-03 -7.529396e-03 1.247213e-03 -3.633055e-02 -1.790012e-03 -6.786320e-02 -8.082377e-04 -5.861120e-02 -2.802611e-03 -4.912774e-02 1.769205e-03 1.610642e-01
<VARIANCE> 52
 3.091333e+02 6.325813e+03 7.372217e+03 1.588947e+05 1.065563e+04 9.188286e+05 1.940224e+04 1.337141e+06 1.886616e+04 1.363724e+06 1.346029e+04 1.244770e+06 3.286339e+02 5.710759e+03 4.489622e+03 1.086849e+05 5.324020e+03 6.188287e+05 8.320116e+03 1.010711e+06 6.401882e+03 1.011302e+06 4.771930e+03 8.601014e+05 1.139169e+05 9.123842e+05 2.000000e+00 2.000000e+00 2.000000e+00 2.125975e+01 1.949562e+01 1.673715e+02 5.393263e+01 4.823176e+02 5.431783e+01 5.057314e+02 3.509014e+01 3.555723e+02 2.000000e+00 2.000000e+00 2.000000e+00 2.939462e+00 5.146348e+00 4.870392e+01 1.364441e+01 1.423288e+02 1.317418e+01 1.765863e+02 8.411011e+00 1.254575e+02 1.352310e+02 7.342692e+02
<GCONST> 4.602644e+02
<STATE> 14
<MEAN> 52
 4.881110e+01 2.226889e+02 1.350749e+02 9.662303e+02 1.075159e+02 1.012495e+03 1.199173e+02 1.099393e+03 1.157547e+02 1.028865e+03 9.968736e+01 1.026139e+03 -5.569957e+01 2.197821e+02 -1.283680e+02 1.058995e+03 -7.457156e+01 1.431086e+03 -7.465134e+01 1.669155e+03 -5.971353e+01 1.516784e+03 -5.291323e+01 1.464392e+03 3.069274e+02 -4.745756e+02 -5.397332e-04 -2.793805e-03 9.511174e-03 -9.053034e-02 1.730080e-04 -3.960278e-02 6.566020e-03 6.701797e-02 -2.846360e-03 1.347721e-01 5.918550e-04 1.004297e-01 8.073380e-04 3.456064e-04 -2.623133e-03 -7.529396e-03 1.247213e-03 -3.633055e-02 -1.790012e-03 -6.786320e-02 -8.082377e-04 -5.861120e-02 -2.802611e-03 -4.912774e-02 1.769205e-03 1.610642e-01
<VARIANCE> 52
 3.091333e+02 6.325813e+03 7.372217e+03 1.588947e+05 1.065563e+04 9.188286e+05 1.940224e+04 1.337141e+06 1.886616e+04 1.363724e+06 1.346029e+04 1.244770e+06 3.286339e+02 5.710759e+03 4.489622e+03 1.086849e+05 5.324020e+03 6.188287e+05 8.320116e+03 1.010711e+06 6.401882e+03 1.011302e+06 4.771930e+03 8.601014e+05 1.139169e+05 9.123842e+05 2.000000e+00 2.000000e+00 2.000000e+00 2.125975e+01 1.949562e+01 1.673715e+02 5.393263e+01 4.823176e+02 5.431783e+01 5.057314e+02 3.509014e+01 3.555723e+02 2.000000e+00 2.000000e+00 2.000000e+00 2.939462e+00 5.146348e+00 4.870392e+01 1.364441e+01 1.423288e+02 1.317418e+01 1.765863e+02 8.411011e+00 1.254575e+02 1.352310e+02 7.342692e+02
<GCONST> 4.602644e+02
<STATE> 15
<MEAN> 52
 4.881110e+01 2.226889e+02 1.350749e+02 9.662303e+02 1.075159e+02 1.012495e+03 1.199173e+02 1.099393e+03 1.157547e+02 1.028865e+03 9.968736e+01 1.026139e+03 -5.569957e+01 2.197821e+02 -1.283680e+02 1.058995e+03 -7.457156e+01 1.431086e+03 -7.465134e+01 1.669155e+03 -5.971353e+01 1.516784e+03 -5.291323e+01 1.464392e+03 3.069274e+02 -4.745756e+02 -5.397332e-04 -2.793805e-03 9.511174e-03 -9.053034e-02 1.730080e-04 -3.960278e-02 6.566020e-03 6.701797e-02 -2.846360e-03 1.347721e-01 5.918550e-04 1.004297e-01 8.073380e-04 3.456064e-04 -2.623133e-03 -7.529396e-03 1.247213e-03 -3.633055e-02 -1.790012e-03 -6.786320e-02 -8.082377e-04 -5.861120e-02 -2.802611e-03 -4.912774e-02 1.769205e-03 1.610642e-01
<VARIANCE> 52
 3.091333e+02 6.325813e+03 7.372217e+03 1.588947e+05 1.065563e+04 9.188286e+05 1.940224e+04 1.337141e+06 1.886616e+04 1.363724e+06 1.346029e+04 1.244770e+06 3.286339e+02 5.710759e+03 4.489622e+03 1.086849e+05 5.324020e+03 6.188287e+05 8.320116e+03 1.010711e+06 6.401882e+03 1.011302e+06 4.771930e+03 8.601014e+05 1.139169e+05 9.123842e+05 2.000000e+00 2.000000e+00 2.000000e+00 2.125975e+01 1.949562e+01 1.673715e+02 5.393263e+01 4.823176e+02 5.431783e+01 5.057314e+02 3.509014e+01 3.555723e+02 2.000000e+00 2.000000e+00 2.000000e+00 2.939462e+00 5.146348e+00 4.870392e+01 1.364441e+01 1.423288e+02 1.317418e+01 1.765863e+02 8.411011e+00 1.254575e+02 1.352310e+02 7.342692e+02
<GCONST> 4.602644e+02
<STATE> 16
<MEAN> 52
 4.881110e+01 2.226889e+02 1.350749e+02 9.662303e+02 1.075159e+02 1.012495e+03 1.199173e+02 1.099393e+03 1.157547e+02 1.028865e+03 9.968736e+01 1.026139e+03 -5.569957e+01 2.197821e+02 -1.283680e+02 1.058995e+03 -7.457156e+01 1.431086e+03 -7.465134e+01 1.669155e+03 -5.971353e+01 1.516784e+03 -5.291323e+01 1.464392e+03 3.069274e+02 -4.745756e+02 -5.397332e-04 -2.793805e-03 9.511174e-03 -9.053034e-02 1.730080e-04 -3.960278e-02 6.566020e-03 6.701797e-02 -2.846360e-03 1.347721e-01 5.918550e-04 1.004297e-01 8.073380e-04 3.456064e-04 -2.623133e-03 -7.529396e-03 1.247213e-03 -3.633055e-02 -1.790012e-03 -6.786320e-02 -8.082377e-04 -5.861120e-02 -2.802611e-03 -4.912774e-02 1.769205e-03 1.610642e-01
<VARIANCE> 52
 3.091333e+02 6.325813e+03 7.372217e+03 1.588947e+05 1.065563e+04 9.188286e+05 1.940224e+04 1.337141e+06 1.886616e+04 1.363724e+06 1.346029e+04 1.244770e+06 3.286339e+02 5.710759e+03 4.489622e+03 1.086849e+05 5.324020e+03 6.188287e+05 8.320116e+03 1.010711e+06 6.401882e+03 1.011302e+06 4.771930e+03 8.601014e+05 1.139169e+05 9.123842e+05 2.000000e+00 2.000000e+00 2.000000e+00 2.125975e+01 1.949562e+01 1.673715e+02 5.393263e+01 4.823176e+02 5.431783e+01 5.057314e+02 3.509014e+01 3.555723e+02 2.000000e+00 2.000000e+00 2.000000e+00 2.939462e+00 5.146348e+00 4.870392e+01 1.364441e+01 1.423288e+02 1.317418e+01 1.765863e+02 8.411011e+00 1.254575e+02 1.352310e+02 7.342692e+02
<GCONST> 4.602644e+02
<STATE> 17
<MEAN> 52
 4.881110e+01 2.226889e+02 1.350749e+02 9.662303e+02 1.075159e+02 1.012495e+03 1.199173e+02 1.099393e+03 1.157547e+02 1.028865e+03 9.968736e+01 1.026139e+03 -5.569957e+01 2.197821e+02 -1.283680e+02 1.058995e+03 -7.457156e+01 1.431086e+03 -7.465134e+01 1.669155e+03 -5.971353e+01 1.516784e+03 -5.291323e+01 1.464392e+03 3.069274e+02 -4.745756e+02 -5.397332e-04 -2.793805e-03 9.511174e-03 -9.053034e-02 1.730080e-04 -3.960278e-02 6.566020e-03 6.701797e-02 -2.846360e-03 1.347721e-01 5.918550e-04 1.004297e-01 8.073380e-04 3.456064e-04 -2.623133e-03 -7.529396e-03 1.247213e-03 -3.633055e-02 -1.790012e-03 -6.786320e-02 -8.082377e-04 -5.861120e-02 -2.802611e-03 -4.912774e-02 1.769205e-03 1.610642e-01
<VARIANCE> 52
 3.091333e+02 6.325813e+03 7.372217e+03 1.588947e+05 1.065563e+04 9.188286e+05 1.940224e+04 1.337141e+06 1.886616e+04 1.363724e+06 1.346029e+04 1.244770e+06 3.286339e+02 5.710759e+03 4.489622e+03 1.086849e+05 5.324020e+03 6.188287e+05 8.320116e+03 1.010711e+06 6.401882e+03 1.011302e+06 4.771930e+03 8.601014e+05 1.139169e+05 9.123842e+05 2.000000e+00 2.000000e+00 2.000000e+00 2.125975e+01 1.949562e+01 1.673715e+02 5.393263e+01 4.823176e+02 5.431783e+01 5.057314e+02 3.509014e+01 3.555723e+02 2.000000e+00 2.000000e+00 2.000000e+00 2.939462e+00 5.146348e+00 4.870392e+01 1.364441e+01 1.423288e+02 1.317418e+01 1.765863e+02 8.411011e+00 1.254575e+02 1.352310e+02 7.342692e+02
<GCONST> 4.602644e+02
<STATE> 18
<MEAN> 52
 4.881110e+01 2.226889e+02 1.350749e+02 9.662303e+02 1.075159e+02 1.012495e+03 1.199173e+02 1.099393e+03 1.157547e+02 1.028865e+03 9.968736e+01 1.026139e+03 -5.569957e+01 2.197821e+02 -1.283680e+02 1.058995e+03 -7.457156e+01 1.431086e+03 -7.465134e+01 1.669155e+03 -5.971353e+01 1.516784e+03 -5.291323e+01 1.464392e+03 3.069274e+02 -4.745756e+02 -5.397332e-04 -2.793805e-03 9.511174e-03 -9.053034e-02 1.730080e-04 -3.960278e-02 6.566020e-03 6.701797e-02 -2.846360e-03 1.347721e-01 5.918550e-04 1.004297e-01 8.073380e-04 3.456064e-04 -2.623133e-03 -7.529396e-03 1.247213e-03 -3.633055e-02 -1.790012e-03 -6.786320e-02 -8.082377e-04 -5.861120e-02 -2.802611e-03 -4.912774e-02 1.769205e-03 1.610642e-01
<VARIANCE> 52
 3.091333e+02 6.325813e+03 7.372217e+03 1.588947e+05 1.065563e+04 9.188286e+05 1.940224e+04 1.337141e+06 1.886616e+04 1.363724e+06 1.346029e+04 1.244770e+06 3.286339e+02 5.710759e+03 4.489622e+03 1.086849e+05 5.324020e+03 6.188287e+05 8.320116e+03 1.010711e+06 6.401882e+03 1.011302e+06 4.771930e+03 8.601014e+05 1.139169e+05 9.123842e+05 2.000000e+00 2.000000e+00 2.000000e+00 2.125975e+01 1.949562e+01 1.673715e+02 5.393263e+01 4.823176e+02 5.431783e+01 5.057314e+02 3.509014e+01 3.555723e+02 2.000000e+00 2.000000e+00 2.000000e+00 2.939462e+00 5.146348e+00 4.870392e+01 1.364441e+01 1.423288e+02 1.317418e+01 1.765863e+02 8.411011e+00 1.254575e+02 1.352310e+02 7.342692e+02
<GCONST> 4.602644e+02
<STATE> 19
<MEAN> 52
 4.881110e+01 2.226889e+02 1.350749e+02 9.662303e+02 1.075159e+02 1.012495e+03 1.199173e+02 1.099393e+03 1.157547e+02 1.028865e+03 9.968736e+01 1.026139e+03 -5.569957e+01 2.197821e+02 -1.283680e+02 1.058995e+03 -7.457156e+01 1.431086e+03 -7.465134e+01 1.669155e+03 -5.971353e+01 1.516784e+03 -5.291323e+01 1.464392e+03 3.069274e+02 -4.745756e+02 -5.397332e-04 -2.793805e-03 9.511174e-03 -9.053034e-02 1.730080e-04 -3.960278e-02 6.566020e-03 6.701797e-02 -2.846360e-03 1.347721e-01 5.918550e-04 1.004297e-01 8.073380e-04 3.456064e-04 -2.623133e-03 -7.529396e-03 1.247213e-03 -3.633055e-02 -1.790012e-03 -6.786320e-02 -8.082377e-04 -5.861120e-02 -2.802611e-03 -4.912774e-02 1.769205e-03 1.610642e-01
<VARIANCE> 52
 3.091333e+02 6.325813e+03 7.372217e+03 1.588947e+05 1.065563e+04 9.188286e+05 1.940224e+04 1.337141e+06 1.886616e+04 1.363724e+06 1.346029e+04 1.244770e+06 3.286339e+02 5.710759e+03 4.489622e+03 1.086849e+05 5.324020e+03 6.188287e+05 8.320116e+03 1.010711e+06 6.401882e+03 1.011302e+06 4.771930e+03 8.601014e+05 1.139169e+05 9.123842e+05 2.000000e+00 2.000000e+00 2.000000e+00 2.125975e+01 1.949562e+01 1.673715e+02 5.393263e+01 4.823176e+02 5.431783e+01 5.057314e+02 3.509014e+01 3.555723e+02 2.000000e+00 2.000000e+00 2.000000e+00 2.939462e+00 5.146348e+00 4.870392e+01 1.364441e+01 1.423288e+02 1.317418e+01 1.765863e+02 8.411011e+00 1.254575e+02 1.352310e+02 7.342692e+02
<GCONST> 4.602644e+02
<TRANSP> 20
 0.000000e+00 1.000000e+00 0.000000e+00 0.000000e+00 0.000000e+00 0.000000e+00 0.000000e+00 0.000000e+00 0.000000e+00 0.000000e+00 0.000000e+00 0.000000e+00 0.000000e+00 0.000000e+00 0.000000e+00 0.000000e+00 0.000000e+00 0.000000e+00 0.000000e+00 0.000000e+00
 0.000000e+00 6.000000e-01 4.000000e-01 0.000000e+00 0.000000e+00 0.000000e+00 0.000000e+00 0.000000e+00 0.000000e+00 0.000000e+00 0.000000e+00 0.000000e+00 0.000000e+00 0.000000e+00 0.000000e+00 0.000000e+00 0.000000e+00 0.000000e+00 0.000000e+00 0.000000e+00
 0.000000e+00 0.000000e+00 6.000000e-01 4.000000e-01 0.000000e+00 0.000000e+00 0.000000e+00 0.000000e+00 0.000000e+00 0.000000e+00 0.000000e+00 0.000000e+00 0.000000e+00 0.000000e+00 0.000000e+00 0.000000e+00 0.000000e+00 0.000000e+00 0.000000e+00 0.000000e+00
 0.000000e+00 0.000000e+00 0.000000e+00 6.000000e-01 4.000000e-01 0.000000e+00 0.000000e+00 0.000000e+00 0.000000e+00 0.000000e+00 0.000000e+00 0.000000e+00 0.000000e+00 0.000000e+00 0.000000e+00 0.000000e+00 0.000000e+00 0.000000e+00 0.000000e+00 0.000000e+00
 0.000000e+00 0.000000e+00 0.000000e+00 0.000000e+00 6.000000e-01 4.000000e-01 0.000000e+00 0.000000e+00 0.000000e+00 0.000000e+00 0.000000e+00 0.000000e+00 0.000000e+00 0.000000e+00 0.000000e+00 0.000000e+00 0.000000e+00 0.000000e+00 0.000000e+00 0.000000e+00
 0.000000e+00 0.000000e+00 0.000000e+00 0.000000e+00 0.000000e+00 6.000000e-01 4.000000e-01 0.000000e+00 0.000000e+00 0.000000e+00 0.000000e+00 0.000000e+00 0.000000e+00 0.000000e+00 0.000000e+00 0.000000e+00 0.000000e+00 0.000000e+00 0.000000e+00 0.000000e+00
 0.000000e+00 0.000000e+00 0.000000e+00 0.000000e+00 0.000000e+00 0.000000e+00 6.000000e-01 4.000000e-01 0.000000e+00 0.000000e+00 0.000000e+00 0.000000e+00 0.000000e+00 0.000000e+00 0.000000e+00 0.000000e+00 0.000000e+00 0.000000e+00 0.000000e+00 0.000000e+00
 0.000000e+00 0.000000e+00 0.000000e+00 0.000000e+00 0.000000e+00 0.000000e+00 0.000000e+00 6.000000e-01 4.000000e-01 0.000000e+00 0.000000e+00 0.000000e+00 0.000000e+00 0.000000e+00 0.000000e+00 0.000000e+00 0.000000e+00 0.000000e+00 0.000000e+00 0.000000e+00
 0.000000e+00 0.000000e+00 0.000000e+00 0.000000e+00 0.000000e+00 0.000000e+00 0.000000e+00 0.000000e+00 6.000000e-01 4.000000e-01 0.000000e+00 0.000000e+00 0.000000e+00 0.000000e+00 0.000000e+00 0.000000e+00 0.000000e+00 0.000000e+00 0.000000e+00 0.000000e+00
 0.000000e+00 0.000000e+00 0.000000e+00 0.000000e+00 0.000000e+00 0.000000e+00 0.000000e+00 0.000000e+00 0.000000e+00 6.000000e-01 4.000000e-01 0.000000e+00 0.000000e+00 0.000000e+00 0.000000e+00 0.000000e+00 0.000000e+00 0.000000e+00 0.000000e+00 0.000000e+00
 0.000000e+00 0.000000e+00 0.000000e+00 0.000000e+00 0.000000e+00 0.000000e+00 0.000000e+00 0.000000e+00 0.000000e+00 0.000000e+00 6.000000e-01 4.000000e-01 0.000000e+00 0.000000e+00 0.000000e+00 0.000000e+00 0.000000e+00 0.000000e+00 0.000000e+00 0.000000e+00
 0.000000e+00 0.000000e+00 0.000000e+00 0.000000e+00 0.000000e+00 0.000000e+00 0.000000e+00 0.000000e+00 0.000000e+00 0.000000e+00 0.000000e+00 6.000000e-01 4.000000e-01 0.000000e+00 0.000000e+00 0.000000e+00 0.000000e+00 0.000000e+00 0.000000e+00 0.000000e+00
 0.000000e+00 0.000000e+00 0.000000e+00 0.000000e+00 0.000000e+00 0.000000e+00 0.000000e+00 0.000000e+00 0.000000e+00 0.000000e+00 0.000000e+00 0.000000e+00 6.000000e-01 4.000000e-01 0.000000e+00 0.000000e+00 0.000000e+00 0.000000e+00 0.000000e+00 0.000000e+00
 0.000000e+00 0.000000e+00 0.000000e+00 0.000000e+00 0.000000e+00 0.000000e+00 0.000000e+00 0.000000e+00 0.000000e+00 0.000000e+00 0.000000e+00 0.000000e+00 0.000000e+00 6.000000e-01 4.000000e-01 0.000000e+00 0.000000e+00 0.000000e+00 0.000000e+00 0.000000e+00
 0.000000e+00 0.000000e+00 0.000000e+00 0.000000e+00 0.000000e+00 0.000000e+00 0.000000e+00 0.000000e+00 0.000000e+00 0.000000e+00 0.000000e+00 0.000000e+00 0.000000e+00 0.000000e+00 6.000000e-01 4.000000e-01 0.000000e+00 0.000000e+00 0.000000e+00 0.000000e+00
 0.000000e+00 0.000000e+00 0.000000e+00 0.000000e+00 0.000000e+00 0.000000e+00 0.000000e+00 0.000000e+00 0.000000e+00 0.000000e+00 0.000000e+00 0.000000e+00 0.000000e+00 0.000000e+00 0.000000e+00 6.000000e-01 4.000000e-01 0.000000e+00 0.000000e+00 0.000000e+00
 0.000000e+00 0.000000e+00 0.000000e+00 0.000000e+00 0.000000e+00 0.000000e+00 0.000000e+00 0.000000e+00 0.000000e+00 0.000000e+00 0.000000e+00 0.000000e+00 0.000000e+00 0.000000e+00 0.000000e+00 0.000000e+00 6.000000e-01 4.000000e-01 0.000000e+00 0.000000e+00
 0.000000e+00 0.000000e+00 0.000000e+00 0.000000e+00 0.000000e+00 0.000000e+00 0.000000e+00 0.000000e+00 0.000000e+00 0.000000e+00 0.000000e+00 0.000000e+00 0.000000e+00 0.000000e+00 0.000000e+00 0.000000e+00 0.000000e+00 6.000000e-01 4.000000e-01 0.000000e+00
 0.000000e+00 0.000000e+00 0.000000e+00 0.000000e+00 0.000000e+00 0.000000e+00 0.000000e+00 0.000000e+00 0.000000e+00 0.000000e+00 0.000000e+00 0.000000e+00 0.000000e+00 0.000000e+00 0.000000e+00 0.000000e+00 0.000000e+00 0.000000e+00 6.000000e-01 4.000000e-01
 0.000000e+00 0.000000e+00 0.000000e+00 0.000000e+00 0.000000e+00 0.000000e+00 0.000000e+00 0.000000e+00 0.000000e+00 0.000000e+00 0.000000e+00 0.000000e+00 0.000000e+00 0.000000e+00 0.000000e+00 0.000000e+00 0.000000e+00 0.000000e+00 0.000000e+00 0.000000e+00
<ENDHMM>